{"learner":{"attributes":{"scikit_learn":"{\"_estimator_type\": \"regressor\"}"},"feature_names":[],"feature_types":[],"gradient_booster":{"model":{"gbtree_model_param":{"num_parallel_tree":"1","num_trees":"150"},"iteration_indptr":[0,1,2,3,4,5,6,7,8,9,10,11,12,13,14,15,16,17,18,19,20,21,22,23,24,25,26,27,28,29,30,31,32,33,34,35,36,37,38,39,40,41,42,43,44,45,46,47,48,49,50,51,52,53,54,55,56,57,58,59,60,61,62,63,64,65,66,67,68,69,70,71,72,73,74,75,76,77,78,79,80,81,82,83,84,85,86,87,88,89,90,91,92,93,94,95,96,97,98,99,100,101,102,103,104,105,106,107,108,109,110,111,112,113,114,115,116,117,118,119,120,121,122,123,124,125,126,127,128,129,130,131,132,133,134,135,136,137,138,139,140,141,142,143,144,145,146,147,148,149,150],"tree_info":[0,0,0,0,0,0,0,0,0,0,0,0,0,0,0,0,0,0,0,0,0,0,0,0,0,0,0,0,0,0,0,0,0,0,0,0,0,0,0,0,0,0,0,0,0,0,0,0,0,0,0,0,0,0,0,0,0,0,0,0,0,0,0,0,0,0,0,0,0,0,0,0,0,0,0,0,0,0,0,0,0,0,0,0,0,0,0,0,0,0,0,0,0,0,0,0,0,0,0,0,0,0,0,0,0,0,0,0,0,0,0,0,0,0,0,0,0,0,0,0,0,0,0,0,0,0,0,0,0,0,0,0,0,0,0,0,0,0,0,0,0,0,0,0,0,0,0,0,0,0],"trees":[{"base_weights":[1.5033775E-8,-1.4533994E-1,1.38755E-1,1.0429469E-1,-3.3710733E-1,3.10861E-1,-9.807175E-2,2.856361E-1,-2.6458827E-1,-3.1402573E-1,-3.4332092E0,-1.7341122E-1,5.035164E-1,-4.2471987E-1,1.06857166E-1,8.878784E-1,1.3709834E-1,-1.8149846E0,-1.5574282E-1,-1.2715924E-1,-6.978733E-1,-4.3921437E0,-8.8433886E-1,-2.8340456E0,-1.1797585E-1,6.080973E-1,-1.1444554E0,-4.582691E-1,3.2256014E0,1.4667541E-1,-1.448109E0,1.6271518E0,5.5047643E-1,1.2079012E0,6.0986985E-2,-3.7084436E0,-3.742175E-1,5.2819467E-1,-3.7156996E-1,-1.9755226E-1,1.3731904E0,-2.268804E0,-5.104526E-1,-3.4962464E-2,-4.643955E0,-2.321479E0,1.8517414E0,8.057669E-1,-3.5020897E0,4.1611934E0,-1.4438094E-1,1.9466937E-1,7.5037926E-1,-3.325875E0,-8.545283E-1,-2.2012815E0,-4.2076346E-1,1.450486E-1,1.3853564E0,-7.4492055E-1,2.0613177E-1,3.3311841E0,-1.8087022E0,5.264489E-2,-6.360123E-2,-4.8530746E-2,1.9576335E-2,3.999187E-2,-1.2228065E-1,-5.9670196E-3,7.911025E-3,-1.7621895E-2,-1.2447196E-1,-4.5939997E-2,3.7610322E-2,-3.1137478E-2,2.349171E-2,1.7300112E-2,-1.4504201E-2,-9.115133E-2,-5.273368E-3,2.7309558E-3,4.9438316E-2,1.9626876E-2,-7.5144894E-2,-4.552705E-3,-3.053912E-2,-1.4219072E-1,-4.0938646E-2,-1.761249E-2,-8.6934626E-2,1.5016328E-2,6.4058766E-2,-8.370707E-3,4.865905E-2,-2.4732463E-2,-1.158756E-1,3.8597073E-2,1.4714919E-1,-9.993839E-4,-3.6866065E-2,-1.0485651E-3,2.290222E-2,4.2009253E-2,1.9966302E-2,-3.8177432E-3,-1.3341938E-1,2.3985416E-2,-3.847522E-2,2.9733745E-2,-8.915639E-2,-6.5080024E-2,-1.1557698E-2,9.121353E-3,4.544702E-2,3.6887627E-2,-2.7725736E-2,1.8965375E-2,1.6368643E-3,2.3292016E-2,1.1771935E-1,2.438991E-2,-6.580283E-2],"categories":[],"categories_nodes":[],"categories_segments":[],"categories_sizes":[],"default_left":[0,0,0,0,0,0,0,0,0,0,0,0,0,0,0,0,0,0,0,0,0,0,0,0,0,0,0,0,0,0,0,0,0,0,0,0,0,0,0,0,0,0,0,0,0,0,0,0,0,0,0,0,0,0,0,0,0,0,0,0,0,0,0,0,0,0,0,0,0,0,0,0,0,0,0,0,0,0,0,0,0,0,0,0,0,0,0,0,0,0,0,0,0,0,0,0,0,0,0,0,0,0,0,0,0,0,0,0,0,0,0,0,0,0,0,0,0,0,0,0,0,0,0],"id":0,"left_children":[1,3,5,7,9,11,13,15,17,19,21,23,25,27,29,31,33,35,37,39,41,43,45,47,49,51,53,55,57,59,61,63,65,67,69,71,73,75,77,79,81,83,85,-1,87,89,91,93,95,97,99,101,103,105,107,109,111,-1,113,115,117,119,121,-1,-1,-1,-1,-1,-1,-1,-1,-1,-1,-1,-1,-1,-1,-1,-1,-1,-1,-1,-1,-1,-1,-1,-1,-1,-1,-1,-1,-1,-1,-1,-1,-1,-1,-1,-1,-1,-1,-1,-1,-1,-1,-1,-1,-1,-1,-1,-1,-1,-1,-1,-1,-1,-1,-1,-1,-1,-1,-1,-1],"loss_changes":[3.1669696E2,3.672117E2,3.2749072E2,2.2303249E2,3.0892804E2,4.342014E2,2.2643526E2,1.9981183E2,1.8517749E2,3.0884488E2,7.433026E1,1.9509421E2,5.7443713E2,1.6117311E2,1.289358E2,1.0935339E2,1.461378E2,1.9503064E2,1.5194168E2,3.063411E2,4.1398102E2,1.3276001E1,4.362009E1,6.847389E1,1.473772E2,1.8402979E2,1.2301605E2,8.360077E1,2.8841087E1,1.0765999E2,9.564089E1,6.974408E1,6.855233E1,8.413335E1,8.834885E1,4.019409E1,8.103363E1,9.940098E1,8.325786E1,1.7074026E2,4.564604E1,1.0512543E2,2.2940372E2,0E0,1.2506104E-1,5.2959747E0,4.637251E-1,4.879605E0,1.9013336E1,1.0794113E1,1.5558315E2,1.0489406E2,1.27482666E2,8.193622E1,1.2632283E2,6.936719E1,7.782753E1,0E0,5.199461E-1,4.609073E1,1.2278875E2,3.0112686E0,5.120633E1,0E0,0E0,0E0,0E0,0E0,0E0,0E0,0E0,0E0,0E0,0E0,0E0,0E0,0E0,0E0,0E0,0E0,0E0,0E0,0E0,0E0,0E0,0E0,0E0,0E0,0E0,0E0,0E0,0E0,0E0,0E0,0E0,0E0,0E0,0E0,0E0,0E0,0E0,0E0,0E0,0E0,0E0,0E0,0E0,0E0,0E0,0E0,0E0,0E0,0E0,0E0,0E0,0E0,0E0,0E0,0E0,0E0,0E0,0E0,0E0],"parents":[2147483647,0,0,1,1,2,2,3,3,4,4,5,5,6,6,7,7,8,8,9,9,10,10,11,11,12,12,13,13,14,14,15,15,16,16,17,17,18,18,19,19,20,20,21,21,22,22,23,23,24,24,25,25,26,26,27,27,28,28,29,29,30,30,31,31,32,32,33,33,34,34,35,35,36,36,37,37,38,38,39,39,40,40,41,41,42,42,44,44,45,45,46,46,47,47,48,48,49,49,50,50,51,51,52,52,53,53,54,54,55,55,56,56,58,58,59,59,60,60,61,61,62,62],"right_children":[2,4,6,8,10,12,14,16,18,20,22,24,26,28,30,32,34,36,38,40,42,44,46,48,50,52,54,56,58,60,62,64,66,68,70,72,74,76,78,80,82,84,86,-1,88,90,92,94,96,98,100,102,104,106,108,110,112,-1,114,116,118,120,122,-1,-1,-1,-1,-1,-1,-1,-1,-1,-1,-1,-1,-1,-1,-1,-1,-1,-1,-1,-1,-1,-1,-1,-1,-1,-1,-1,-1,-1,-1,-1,-1,-1,-1,-1,-1,-1,-1,-1,-1,-1,-1,-1,-1,-1,-1,-1,-1,-1,-1,-1,-1,-1,-1,-1,-1,-1,-1,-1,-1],"split_conditions":[-2.855267E-2,-1.04804665E-1,8.3922826E-2,1.1202561E-1,1.0163715E0,-1.4831112E-1,-7.7601485E-2,-6.6588193E-1,-1.0269943E0,-3.1267563E-1,-2.641424E-1,-1.5661254E0,8.555983E-1,1.9170209E0,1.8665534E0,-8.03979E-1,-1.3840531E0,-4.2875153E-1,-5.481303E-1,2.0213631E-1,-6.459301E-1,-1.7370131E0,-2.6429355E-1,-8.557492E-1,-1.9904644E0,-4.339567E-1,-9.123281E-2,-3.9607477E0,1.0222695E0,-6.027177E-1,-6.6342646E-1,9.819673E-1,-9.542961E-1,7.891853E-3,-1.5038918E-1,-1.1517816E0,-4.2697847E-1,-4.694365E-1,-1.0167654E0,-1.0071588E0,-1.1904722E0,-2.4469185E0,0E0,-3.4962464E-2,-2.854566E-1,-1.283579E0,-1.2339305E0,-3.2737964E-1,-8.7721556E-1,-1.2339305E0,4.1579568E-1,8.1282675E-2,3.109154E-4,6.283081E-1,2.614514E-2,1.0472026E-1,-1.2716563E0,1.450486E-1,2.5690389E0,-1.4637538E0,1.7704214E-1,-1.5990103E0,6.1148605E-3,5.264489E-2,-6.360123E-2,-4.8530746E-2,1.9576335E-2,3.999187E-2,-1.2228065E-1,-5.9670196E-3,7.911025E-3,-1.7621895E-2,-1.2447196E-1,-4.5939997E-2,3.7610322E-2,-3.1137478E-2,2.349171E-2,1.7300112E-2,-1.4504201E-2,-9.115133E-2,-5.273368E-3,2.7309558E-3,4.9438316E-2,1.9626876E-2,-7.5144894E-2,-4.552705E-3,-3.053912E-2,-1.4219072E-1,-4.0938646E-2,-1.761249E-2,-8.6934626E-2,1.5016328E-2,6.4058766E-2,-8.370707E-3,4.865905E-2,-2.4732463E-2,-1.158756E-1,3.8597073E-2,1.4714919E-1,-9.993839E-4,-3.6866065E-2,-1.0485651E-3,2.290222E-2,4.2009253E-2,1.9966302E-2,-3.8177432E-3,-1.3341938E-1,2.3985416E-2,-3.847522E-2,2.9733745E-2,-8.915639E-2,-6.5080024E-2,-1.1557698E-2,9.121353E-3,4.544702E-2,3.6887627E-2,-2.7725736E-2,1.8965375E-2,1.6368643E-3,2.3292016E-2,1.1771935E-1,2.438991E-2,-6.580283E-2],"split_indices":[17,7,5,22,28,12,23,5,6,17,18,7,28,24,7,4,16,23,5,24,10,0,23,30,4,23,18,18,0,11,12,14,25,30,5,31,10,21,3,13,12,22,24,0,2,1,0,2,25,0,1,7,26,12,18,22,12,0,1,8,24,0,23,0,0,0,0,0,0,0,0,0,0,0,0,0,0,0,0,0,0,0,0,0,0,0,0,0,0,0,0,0,0,0,0,0,0,0,0,0,0,0,0,0,0,0,0,0,0,0,0,0,0,0,0,0,0,0,0,0,0,0,0],"split_type":[0,0,0,0,0,0,0,0,0,0,0,0,0,0,0,0,0,0,0,0,0,0,0,0,0,0,0,0,0,0,0,0,0,0,0,0,0,0,0,0,0,0,0,0,0,0,0,0,0,0,0,0,0,0,0,0,0,0,0,0,0,0,0,0,0,0,0,0,0,0,0,0,0,0,0,0,0,0,0,0,0,0,0,0,0,0,0,0,0,0,0,0,0,0,0,0,0,0,0,0,0,0,0,0,0,0,0,0,0,0,0,0,0,0,0,0,0,0,0,0,0,0,0],"sum_hessian":[1.5702E4,7.669E3,8.033E3,3.332E3,4.337E3,4.652E3,3.381E3,2.234E3,1.098E3,4.306E3,3.1E1,1.324E3,3.328E3,1.303E3,2.078E3,4.41E2,1.793E3,7.1E1,1.027E3,2.897E3,1.409E3,2.2E1,9E0,2.6E1,1.298E3,3.13E3,1.98E2,1.292E3,1.1E1,2.027E3,5.1E1,1.37E2,3.04E2,1.18E2,1.675E3,3E1,4.1E1,2.46E2,7.81E2,2.768E3,1.29E2,1.49E2,1.26E3,2E0,2E1,6E0,3E0,4E0,2.2E1,7E0,1.291E3,8.02E2,2.328E3,2.2E1,1.76E2,2.6E1,1.266E3,5E0,6E0,1.26E2,1.901E3,3E0,4.8E1,1.33E2,4E0,1.3E1,2.91E2,1.16E2,2E0,7.34E2,9.41E2,4E0,2.6E1,2.4E1,1.7E1,3.4E1,2.12E2,8.2E1,6.99E2,2E1,2.748E3,2.3E1,1.06E2,1.1E1,1.38E2,7.39E2,5.21E2,1.9E1,1E0,2E0,4E0,1E0,2E0,2E0,2E0,3E0,1.9E1,2E0,5E0,1.172E3,1.19E2,5.72E2,2.3E2,2.67E2,2.061E3,6E0,1.6E1,3.6E1,1.4E2,5E0,2.1E1,2.4E1,1.242E3,1E0,5E0,1E1,1.16E2,4.98E2,1.403E3,1E0,2E0,6E0,4.2E1],"tree_param":{"num_deleted":"0","num_feature":"34","num_nodes":"123","size_leaf_vector":"1"}},{"base_weights":[-3.065118E-5,-1.557424E-1,1.22892216E-1,-6.635422E-2,-6.8495065E-1,2.7924335E-1,-1.1546954E-1,-4.6907533E-2,-2.3986027E0,-1.600942E-1,-1.5207709E0,-1.3958018E-1,4.6055615E-1,-4.3058687E-1,8.352831E-2,2.7227867E-1,-1.6845557E-1,1.7007301E0,-3.1223185E0,-1.3932593E0,1.1371686E-1,-1.9980072E0,4.263639E-3,-2.4208832E0,-9.745987E-2,5.511908E-1,-1.0710735E0,-4.6240866E-1,3.145468E0,1.19036354E-1,-1.259549E0,4.5407605E-1,-2.1712722E-1,-1.258086E-1,-1.0711612E0,2.5113423E0,-4.8740444E-1,-1.48298E0,-3.728621E0,-2.1231422E0,-4.786318E-1,4.9041143E-1,-5.349712E-1,-2.2517476E0,-5.4393697E-1,-8.074759E-1,2.0184226E0,1.1248772E0,-3.394772E0,4.0595756E0,-1.18620574E-1,1.1041415E-1,7.02083E-1,-2.7100909E0,-8.1016487E-1,-2.3093393E0,-4.1818085E-1,1.4142239E-1,1.3515912E0,-6.348238E-1,1.7970647E-1,3.791305E0,-1.7300338E0,3.2372933E-2,9.635581E-3,-7.572538E-2,-1.6263189E-3,-6.140074E-3,9.6472725E-3,-1.7358538E-2,-5.65209E-2,2.1452792E-2,8.182721E-2,9.908229E-3,-3.1841427E-2,-7.1798705E-2,-6.620904E-4,-1.6291833E-2,-1.259346E-1,-7.005893E-2,8.483034E-2,8.5324936E-2,-2.016901E-2,-1.6713805E-2,2.4910497E-2,-1.9574495E-2,9.2974074E-2,1.3557425E-2,-7.028977E-2,-2.5542388E-2,8.4616356E-2,-9.491653E-2,-1.0156927E-2,1.07839294E-1,-7.5422106E-3,5.33217E-2,-1.0128094E-2,-2.3308448E-2,-1.17150016E-1,3.782513E-2,1.4347045E-1,-8.51541E-4,-3.2501817E-2,-3.9275046E-3,2.0926125E-2,4.5791496E-2,1.9423492E-2,-2.5207284E-3,-1.0744336E-1,2.2776192E-2,-3.6646053E-2,9.288403E-4,-8.61675E-2,-5.5343024E-2,-1.1218155E-2,4.732826E-2,1.573095E-2,3.6215074E-2,-2.3517441E-2,-1.3193492E-3,1.0850683E-2,2.2942638E-2,1.3070263E-1,-1.4515752E-1,-4.087583E-2],"categories":[],"categories_nodes":[],"categories_segments":[],"categories_sizes":[],"default_left":[0,0,0,0,0,0,0,0,0,0,0,0,0,0,0,0,0,0,0,0,0,0,0,0,0,0,0,0,0,0,0,0,0,0,0,0,0,0,0,0,0,0,0,0,0,0,0,0,0,0,0,0,0,0,0,0,0,0,0,0,0,0,0,0,0,0,0,0,0,0,0,0,0,0,0,0,0,0,0,0,0,0,0,0,0,0,0,0,0,0,0,0,0,0,0,0,0,0,0,0,0,0,0,0,0,0,0,0,0,0,0,0,0,0,0,0,0,0,0,0,0,0,0,0,0],"id":1,"left_children":[1,3,5,7,9,11,13,15,17,19,21,23,25,27,29,31,33,35,37,39,41,43,45,47,49,51,53,55,57,59,61,63,65,67,69,71,73,75,77,79,81,83,85,87,89,91,93,95,97,99,101,103,105,107,109,111,113,-1,115,117,119,121,123,-1,-1,-1,-1,-1,-1,-1,-1,-1,-1,-1,-1,-1,-1,-1,-1,-1,-1,-1,-1,-1,-1,-1,-1,-1,-1,-1,-1,-1,-1,-1,-1,-1,-1,-1,-1,-1,-1,-1,-1,-1,-1,-1,-1,-1,-1,-1,-1,-1,-1,-1,-1,-1,-1,-1,-1,-1,-1,-1,-1,-1,-1],"loss_changes":[3.00583E2,3.2768335E2,3.2709732E2,2.6874902E2,4.3888083E2,4.0253604E2,2.1807053E2,2.2816904E2,1.5068103E2,2.0815347E2,2.8093994E2,1.5369896E2,5.1408075E2,1.5462445E2,1.0182514E2,1.4441234E2,1.6382683E2,1.541387E1,3.621585E1,7.375174E1,1.2366277E2,1.0724866E2,1.5368227E2,1.03960815E2,1.3893973E2,2.3224109E2,8.632457E1,1.08084656E2,2.7395248E1,9.5155106E1,1.372583E2,9.791237E1,1.6524026E2,1.4358882E2,7.5781494E1,3.7996292E-1,1.758532E0,1.7235643E1,4.256018E1,7.172473E1,3.4731705E1,1.14414154E2,8.145364E1,6.273242E1,4.8953835E1,7.296031E1,9.750304E1,7.2800627E0,2.768686E1,1.0153046E1,1.3638782E2,1.26479744E2,1.16190796E2,6.3769638E1,1.1713407E2,4.092772E1,8.1675964E1,0E0,4.815302E-1,4.3513107E1,7.833582E1,5.2249527E0,5.1670258E1,0E0,0E0,0E0,0E0,0E0,0E0,0E0,0E0,0E0,0E0,0E0,0E0,0E0,0E0,0E0,0E0,0E0,0E0,0E0,0E0,0E0,0E0,0E0,0E0,0E0,0E0,0E0,0E0,0E0,0E0,0E0,0E0,0E0,0E0,0E0,0E0,0E0,0E0,0E0,0E0,0E0,0E0,0E0,0E0,0E0,0E0,0E0,0E0,0E0,0E0,0E0,0E0,0E0,0E0,0E0,0E0,0E0,0E0,0E0,0E0,0E0,0E0],"parents":[2147483647,0,0,1,1,2,2,3,3,4,4,5,5,6,6,7,7,8,8,9,9,10,10,11,11,12,12,13,13,14,14,15,15,16,16,17,17,18,18,19,19,20,20,21,21,22,22,23,23,24,24,25,25,26,26,27,27,28,28,29,29,30,30,31,31,32,32,33,33,34,34,35,35,36,36,37,37,38,38,39,39,40,40,41,41,42,42,43,43,44,44,45,45,46,46,47,47,48,48,49,49,50,50,51,51,52,52,53,53,54,54,55,55,56,56,58,58,59,59,60,60,61,61,62,62],"right_children":[2,4,6,8,10,12,14,16,18,20,22,24,26,28,30,32,34,36,38,40,42,44,46,48,50,52,54,56,58,60,62,64,66,68,70,72,74,76,78,80,82,84,86,88,90,92,94,96,98,100,102,104,106,108,110,112,114,-1,116,118,120,122,124,-1,-1,-1,-1,-1,-1,-1,-1,-1,-1,-1,-1,-1,-1,-1,-1,-1,-1,-1,-1,-1,-1,-1,-1,-1,-1,-1,-1,-1,-1,-1,-1,-1,-1,-1,-1,-1,-1,-1,-1,-1,-1,-1,-1,-1,-1,-1,-1,-1,-1,-1,-1,-1,-1,-1,-1,-1,-1,-1,-1,-1,-1],"split_conditions":[-1.3683783E-1,0E0,1.2625739E-1,1.0163715E0,-1.5023377E-2,-1.4013821E-1,-7.7601485E-2,-3.628596E-1,-1.0386305E0,-2.4609949E-1,4.756084E-1,-1.5661254E0,8.555983E-1,1.9170209E0,1.8665534E0,2.2911842E-1,3.7090227E-1,-5.811531E-1,-3.3873224E-1,3.0992684E-1,-1.970361E-1,-2.5373754E-1,1.1337235E0,7.533796E-1,-1.9904644E0,-4.339567E-1,-9.123281E-2,-3.3997896E0,1.0222695E0,-5.7145566E-1,-6.6342646E-1,-8.357878E-1,-1.0062304E0,3.9937368E-1,4.864613E-1,-8.88153E-1,-8.216279E-1,-9.51821E-1,-1.6271044E0,8.2076347E-1,3.5532704E-1,-2.701384E-1,5.0192493E-1,-2.4469185E0,5.0689864E-1,7.384541E-1,1.0122734E0,2.0635162E-1,-8.7721556E-1,-1.2339305E0,4.1579568E-1,8.1282675E-2,-3.4235966E-1,6.283081E-1,2.614514E-2,1.0472026E-1,-1.1133754E0,1.4142239E-1,7.7327144E-1,-2.0445883E-1,-5.806332E-1,-1.5990103E0,-1.9418032E0,3.2372933E-2,9.635581E-3,-7.572538E-2,-1.6263189E-3,-6.140074E-3,9.6472725E-3,-1.7358538E-2,-5.65209E-2,2.1452792E-2,8.182721E-2,9.908229E-3,-3.1841427E-2,-7.1798705E-2,-6.620904E-4,-1.6291833E-2,-1.259346E-1,-7.005893E-2,8.483034E-2,8.5324936E-2,-2.016901E-2,-1.6713805E-2,2.4910497E-2,-1.9574495E-2,9.2974074E-2,1.3557425E-2,-7.028977E-2,-2.5542388E-2,8.4616356E-2,-9.491653E-2,-1.0156927E-2,1.07839294E-1,-7.5422106E-3,5.33217E-2,-1.0128094E-2,-2.3308448E-2,-1.17150016E-1,3.782513E-2,1.4347045E-1,-8.51541E-4,-3.2501817E-2,-3.9275046E-3,2.0926125E-2,4.5791496E-2,1.9423492E-2,-2.5207284E-3,-1.0744336E-1,2.2776192E-2,-3.6646053E-2,9.288403E-4,-8.61675E-2,-5.5343024E-2,-1.1218155E-2,4.732826E-2,1.573095E-2,3.6215074E-2,-2.3517441E-2,-1.3193492E-3,1.0850683E-2,2.2942638E-2,1.3070263E-1,-1.4515752E-1,-4.087583E-2],"split_indices":[17,24,5,28,27,12,23,7,26,18,3,7,28,24,7,22,8,1,21,23,10,17,29,4,4,23,18,18,0,11,12,6,6,18,30,0,0,11,24,30,23,4,7,22,28,3,13,14,25,0,1,7,11,12,18,22,12,0,4,24,27,0,22,0,0,0,0,0,0,0,0,0,0,0,0,0,0,0,0,0,0,0,0,0,0,0,0,0,0,0,0,0,0,0,0,0,0,0,0,0,0,0,0,0,0,0,0,0,0,0,0,0,0,0,0,0,0,0,0,0,0,0,0,0,0],"split_type":[0,0,0,0,0,0,0,0,0,0,0,0,0,0,0,0,0,0,0,0,0,0,0,0,0,0,0,0,0,0,0,0,0,0,0,0,0,0,0,0,0,0,0,0,0,0,0,0,0,0,0,0,0,0,0,0,0,0,0,0,0,0,0,0,0,0,0,0,0,0,0,0,0,0,0,0,0,0,0,0,0,0,0,0,0,0,0,0,0,0,0,0,0,0,0,0,0,0,0,0,0,0,0,0,0,0,0,0,0,0,0,0,0,0,0,0,0,0,0,0,0,0,0,0,0],"sum_hessian":[1.5702E4,6.927E3,8.775E3,5.927E3,1E3,5.299E3,3.476E3,5.879E3,4.8E1,6.15E2,3.85E2,1.601E3,3.698E3,1.345E3,2.131E3,1.621E3,4.258E3,7E0,4.1E1,1.11E2,5.04E2,2.93E2,9.2E1,2.8E1,1.573E3,3.492E3,2.06E2,1.334E3,1.1E1,2.077E3,5.4E1,1.182E3,4.39E2,4.067E3,1.91E2,5E0,2E0,1.2E1,2.9E1,6.1E1,5E1,3.19E2,1.85E2,2.49E2,4.4E1,6.6E1,2.6E1,6E0,2.2E1,7E0,1.566E3,8.91E2,2.601E3,2.7E1,1.79E2,3E1,1.304E3,5E0,6E0,1.54E2,1.923E3,4E0,5E1,2.06E2,9.76E2,2.8E1,4.11E2,3.458E3,6.09E2,1.2E2,7.1E1,1E0,4E0,1E0,1E0,7E0,5E0,4E0,2.5E1,5.9E1,2E0,2E0,4.8E1,7.8E1,2.41E2,1.8E2,5E0,8E0,2.41E2,4.1E1,3E0,1E1,5.6E1,1.5E1,1.1E1,4E0,2E0,4E0,1.8E1,2E0,5E0,1.433E3,1.33E2,6.32E2,2.59E2,1.6E2,2.441E3,7E0,2E1,3.7E1,1.42E2,6E0,2.4E1,3.8E1,1.266E3,4E0,2E0,1.1E1,1.43E2,8.63E2,1.06E3,1E0,3E0,4E0,4.6E1],"tree_param":{"num_deleted":"0","num_feature":"34","num_nodes":"125","size_leaf_vector":"1"}},{"base_weights":[-3.154362E-5,-1.5108168E-1,1.1921132E-1,-6.440392E-2,-6.642432E-1,2.7086774E-1,-1.1199323E-1,-4.5518283E-2,-2.329366E0,-1.5502916E-1,-1.4751542E0,-1.3536116E-1,4.467282E-1,-4.1763014E-1,8.101768E-2,2.640885E-1,-1.6341843E-1,1.6598766E0,-3.0337605E0,-1.350748E0,1.1046693E-1,-1.938059E0,4.084354E-3,-2.3516107E0,-9.44421E-2,5.346786E-1,-1.0395396E0,-4.4865012E-1,3.068144E0,1.1547595E-1,-1.2223514E0,4.404893E-1,-2.107892E-1,-1.2203347E-1,-1.0394111E0,2.4532156E0,-4.8009342E-1,-1.4440645E0,-3.6215034E0,-2.0592098E0,-4.6299526E-1,4.757247E-1,-5.1852745E-1,-2.1844223E0,-5.263061E-1,-7.8481996E-1,1.9615844E0,1.0973015E0,-3.2990355E0,3.9604502E0,-1.1508326E-1,1.0712077E-1,6.810456E-1,-2.6327155E0,-7.85937E-1,-2.2428088E0,-4.0568647E-1,1.3788682E-1,1.3200519E0,-6.1569715E-1,1.743202E-1,3.708295E0,-1.6817805E0,2.9214267E-2,8.6983275E-3,-7.353194E-2,-1.5776479E-3,7.076949E-3,-6.5503344E-3,8.7394025E-3,-3.9828397E-2,2.1131E-2,7.9863355E-2,9.759606E-3,-3.136381E-2,-6.991399E-2,-6.455382E-4,-1.5900828E-2,-1.2230188E-1,-1.0505589E-1,-3.7046354E-2,8.361845E-2,-1.9576287E-2,-1.6218739E-2,2.416627E-2,-1.8990504E-2,9.0649724E-2,1.3195892E-2,-6.818979E-2,-2.479436E-2,8.271249E-2,-9.23279E-2,-9.857563E-3,1.04806304E-1,-7.3347986E-3,5.204198E-2,-9.925532E-3,-2.2749044E-2,-1.13820486E-1,3.7068628E-2,1.398837E-1,-8.260133E-4,-3.153404E-2,-3.8098663E-3,2.0300757E-2,2.3415502E-2,7.019432E-3,-3.7647568E-2,-1.3095602E-1,2.2110889E-2,-3.555436E-2,9.049566E-4,-8.3685875E-2,-3.956305E-3,-1.8736567E-2,8.748569E-3,4.3285627E-2,3.521916E-2,-2.2816816E-2,1.2818452E-3,1.4109903E-2,2.2598498E-2,1.2776181E-1,-1.4167373E-1,-3.9675646E-2],"categories":[],"categories_nodes":[],"categories_segments":[],"categories_sizes":[],"default_left":[0,0,0,0,0,0,0,0,0,0,0,0,0,0,0,0,0,0,0,0,0,0,0,0,0,0,0,0,0,0,0,0,0,0,0,0,0,0,0,0,0,0,0,0,0,0,0,0,0,0,0,0,0,0,0,0,0,0,0,0,0,0,0,0,0,0,0,0,0,0,0,0,0,0,0,0,0,0,0,0,0,0,0,0,0,0,0,0,0,0,0,0,0,0,0,0,0,0,0,0,0,0,0,0,0,0,0,0,0,0,0,0,0,0,0,0,0,0,0,0,0,0,0,0,0],"id":2,"left_children":[1,3,5,7,9,11,13,15,17,19,21,23,25,27,29,31,33,35,37,39,41,43,45,47,49,51,53,55,57,59,61,63,65,67,69,71,73,75,77,79,81,83,85,87,89,91,93,95,97,99,101,103,105,107,109,111,113,-1,115,117,119,121,123,-1,-1,-1,-1,-1,-1,-1,-1,-1,-1,-1,-1,-1,-1,-1,-1,-1,-1,-1,-1,-1,-1,-1,-1,-1,-1,-1,-1,-1,-1,-1,-1,-1,-1,-1,-1,-1,-1,-1,-1,-1,-1,-1,-1,-1,-1,-1,-1,-1,-1,-1,-1,-1,-1,-1,-1,-1,-1,-1,-1,-1,-1],"loss_changes":[2.8285495E2,3.0811255E2,3.0774902E2,2.5346562E2,4.131115E2,3.7869037E2,2.0514645E2,2.1467896E2,1.4272574E2,1.9570375E2,2.643202E2,1.4505823E2,4.8408105E2,1.4691763E2,9.58932E1,1.3596585E2,1.5427435E2,1.4759542E1,3.4012268E1,6.948775E1,1.1626794E2,1.0110474E2,1.4515755E2,9.8380005E1,1.3219592E2,2.1852014E2,8.156581E1,1.01996735E2,2.5987503E1,8.9513985E1,1.3082706E2,9.469905E1,1.5581311E2,1.4028674E2,7.402214E1,3.16864E-1,1.706172E0,1.6342176E1,4.0058807E1,6.940753E1,3.323902E1,1.0770268E2,7.73011E1,5.9108643E1,4.6629925E1,6.9073685E1,9.2103935E1,6.9463816E0,2.6048141E1,9.548607E0,1.2838797E2,1.19030495E2,1.1552844E2,6.1358383E1,1.1031007E2,3.8607254E1,7.812309E1,0E0,4.6329403E-1,4.107781E1,7.492461E1,4.924637E0,4.9466354E1,0E0,0E0,0E0,0E0,0E0,0E0,0E0,0E0,0E0,0E0,0E0,0E0,0E0,0E0,0E0,0E0,0E0,0E0,0E0,0E0,0E0,0E0,0E0,0E0,0E0,0E0,0E0,0E0,0E0,0E0,0E0,0E0,0E0,0E0,0E0,0E0,0E0,0E0,0E0,0E0,0E0,0E0,0E0,0E0,0E0,0E0,0E0,0E0,0E0,0E0,0E0,0E0,0E0,0E0,0E0,0E0,0E0,0E0,0E0,0E0,0E0,0E0],"parents":[2147483647,0,0,1,1,2,2,3,3,4,4,5,5,6,6,7,7,8,8,9,9,10,10,11,11,12,12,13,13,14,14,15,15,16,16,17,17,18,18,19,19,20,20,21,21,22,22,23,23,24,24,25,25,26,26,27,27,28,28,29,29,30,30,31,31,32,32,33,33,34,34,35,35,36,36,37,37,38,38,39,39,40,40,41,41,42,42,43,43,44,44,45,45,46,46,47,47,48,48,49,49,50,50,51,51,52,52,53,53,54,54,55,55,56,56,58,58,59,59,60,60,61,61,62,62],"right_children":[2,4,6,8,10,12,14,16,18,20,22,24,26,28,30,32,34,36,38,40,42,44,46,48,50,52,54,56,58,60,62,64,66,68,70,72,74,76,78,80,82,84,86,88,90,92,94,96,98,100,102,104,106,108,110,112,114,-1,116,118,120,122,124,-1,-1,-1,-1,-1,-1,-1,-1,-1,-1,-1,-1,-1,-1,-1,-1,-1,-1,-1,-1,-1,-1,-1,-1,-1,-1,-1,-1,-1,-1,-1,-1,-1,-1,-1,-1,-1,-1,-1,-1,-1,-1,-1,-1,-1,-1,-1,-1,-1,-1,-1,-1,-1,-1,-1,-1,-1,-1,-1,-1,-1,-1],"split_conditions":[-1.3683783E-1,0E0,1.2625739E-1,1.0163715E0,-1.5023377E-2,-1.4013821E-1,-7.7601485E-2,-3.628596E-1,-1.0386305E0,-2.4609949E-1,4.756084E-1,-1.5661254E0,8.555983E-1,1.9170209E0,1.8665534E0,2.2911842E-1,3.7090227E-1,-5.811531E-1,-3.3873224E-1,3.0992684E-1,-1.970361E-1,-2.5373754E-1,1.1337235E0,7.533796E-1,-1.9904644E0,-4.339567E-1,-9.123281E-2,-3.3997896E0,1.0222695E0,-5.7145566E-1,-6.6342646E-1,-8.778822E-1,-1.0062304E0,-1.2545625E0,-5.515737E-2,-8.88153E-1,-8.216279E-1,-9.51821E-1,-1.6271044E0,-4.8880276E-1,3.5532704E-1,-2.701384E-1,5.0192493E-1,-2.4469185E0,5.0689864E-1,7.384541E-1,1.0122734E0,2.0635162E-1,-8.7721556E-1,-1.2339305E0,4.1579568E-1,8.1282675E-2,1.36561E-1,8.268096E-1,2.614514E-2,1.0472026E-1,2.540715E-1,1.3788682E-1,2.5690389E0,-2.0445883E-1,-1.9377486E-1,-1.5990103E0,-1.9418032E0,2.9214267E-2,8.6983275E-3,-7.353194E-2,-1.5776479E-3,7.076949E-3,-6.5503344E-3,8.7394025E-3,-3.9828397E-2,2.1131E-2,7.9863355E-2,9.759606E-3,-3.136381E-2,-6.991399E-2,-6.455382E-4,-1.5900828E-2,-1.2230188E-1,-1.0505589E-1,-3.7046354E-2,8.361845E-2,-1.9576287E-2,-1.6218739E-2,2.416627E-2,-1.8990504E-2,9.0649724E-2,1.3195892E-2,-6.818979E-2,-2.479436E-2,8.271249E-2,-9.23279E-2,-9.857563E-3,1.04806304E-1,-7.3347986E-3,5.204198E-2,-9.925532E-3,-2.2749044E-2,-1.13820486E-1,3.7068628E-2,1.398837E-1,-8.260133E-4,-3.153404E-2,-3.8098663E-3,2.0300757E-2,2.3415502E-2,7.019432E-3,-3.7647568E-2,-1.3095602E-1,2.2110889E-2,-3.555436E-2,9.049566E-4,-8.3685875E-2,-3.956305E-3,-1.8736567E-2,8.748569E-3,4.3285627E-2,3.521916E-2,-2.2816816E-2,1.2818452E-3,1.4109903E-2,2.2598498E-2,1.2776181E-1,-1.4167373E-1,-3.9675646E-2],"split_indices":[17,24,5,28,27,12,23,7,26,18,3,7,28,24,7,22,8,1,21,23,10,17,29,4,4,23,18,18,0,11,12,4,6,4,30,0,0,11,24,28,23,4,7,22,28,3,13,14,25,0,1,7,6,2,18,22,12,0,1,24,27,0,22,0,0,0,0,0,0,0,0,0,0,0,0,0,0,0,0,0,0,0,0,0,0,0,0,0,0,0,0,0,0,0,0,0,0,0,0,0,0,0,0,0,0,0,0,0,0,0,0,0,0,0,0,0,0,0,0,0,0,0,0,0,0],"split_type":[0,0,0,0,0,0,0,0,0,0,0,0,0,0,0,0,0,0,0,0,0,0,0,0,0,0,0,0,0,0,0,0,0,0,0,0,0,0,0,0,0,0,0,0,0,0,0,0,0,0,0,0,0,0,0,0,0,0,0,0,0,0,0,0,0,0,0,0,0,0,0,0,0,0,0,0,0,0,0,0,0,0,0,0,0,0,0,0,0,0,0,0,0,0,0,0,0,0,0,0,0,0,0,0,0,0,0,0,0,0,0,0,0,0,0,0,0,0,0,0,0,0,0,0,0],"sum_hessian":[1.5702E4,6.927E3,8.775E3,5.927E3,1E3,5.299E3,3.476E3,5.879E3,4.8E1,6.15E2,3.85E2,1.601E3,3.698E3,1.345E3,2.131E3,1.621E3,4.258E3,7E0,4.1E1,1.11E2,5.04E2,2.93E2,9.2E1,2.8E1,1.573E3,3.492E3,2.06E2,1.334E3,1.1E1,2.077E3,5.4E1,1.182E3,4.39E2,4.067E3,1.91E2,5E0,2E0,1.2E1,2.9E1,6.1E1,5E1,3.19E2,1.85E2,2.49E2,4.4E1,6.6E1,2.6E1,6E0,2.2E1,7E0,1.566E3,8.91E2,2.601E3,2.7E1,1.79E2,3E1,1.304E3,5E0,6E0,1.54E2,1.923E3,4E0,5E1,2.59E2,9.23E2,2.8E1,4.11E2,8.62E2,3.205E3,3.4E1,1.57E2,1E0,4E0,1E0,1E0,7E0,5E0,4E0,2.5E1,2.1E1,4E1,2E0,4.8E1,7.8E1,2.41E2,1.8E2,5E0,8E0,2.41E2,4.1E1,3E0,1E1,5.6E1,1.5E1,1.1E1,4E0,2E0,4E0,1.8E1,2E0,5E0,1.433E3,1.33E2,6.32E2,2.59E2,2.127E3,4.74E2,1.6E1,1.1E1,3.7E1,1.42E2,6E0,2.4E1,5.8E2,7.24E2,1E0,5E0,1.1E1,1.43E2,1.332E3,5.91E2,1E0,3E0,4E0,4.6E1],"tree_param":{"num_deleted":"0","num_feature":"34","num_nodes":"125","size_leaf_vector":"1"}},{"base_weights":[-4.340125E-5,-1.3367741E-1,1.27536E-1,9.7762525E-2,-3.11468E-1,2.8513187E-1,-8.932417E-2,5.936383E-1,-2.5593003E-2,-2.9032665E-1,-3.14723E0,-1.5897235E-1,4.6180743E-1,-3.8956946E-1,9.904005E-2,1.2060117E0,2.3036112E-1,1.1435798E0,-8.733663E-2,-1.1676131E-1,-6.468529E-1,-4.057049E0,-7.3992383E-1,-2.5982554E0,-1.0814894E-1,5.577585E-1,-1.0501759E0,-4.20651E-1,2.9919267E0,1.354626E-1,-1.3233442E0,1.5443414E0,2.9269734E-1,-2.0351632E0,3.8581723E-1,1.2519687E0,-1.20201714E-1,2.4173619E-1,-2.59524E-1,-1.8287982E-1,1.2924609E0,-2.128888E0,-4.7136158E-1,-3.2833014E-2,-4.2870865E0,-2.1000772E0,1.8253253E0,7.607283E-1,-3.2155015E0,3.863756E0,-1.3265908E-1,1.2382114E0,4.7742048E-1,-3.0760283E0,-7.8099626E-1,-2.634968E-1,-7.77261E-1,1.3443965E-1,1.2878839E0,-6.7951834E-1,1.8980914E-1,3.1258838E0,-1.6595396E0,4.9124233E-2,-6.1284427E-2,-6.227076E-4,1.0605553E-1,2.2602053E-2,-7.245377E-2,2.712179E-2,-9.979136E-3,6.922285E-2,2.2532267E-2,2.0138382E-3,2.2216216E-2,-2.5880512E-2,-6.0436907E-3,-8.824282E-2,-4.85221E-3,1.351037E-3,4.6805352E-2,1.8835481E-2,-7.0595324E-2,3.8476707E-3,-2.2401296E-2,-1.3151444E-1,-3.528785E-2,-1.5521186E-2,-7.8890525E-2,1.4054932E-2,6.364305E-2,-7.5421804E-3,4.5578595E-2,-2.313969E-2,-1.0630687E-1,3.6327254E-2,1.363866E-1,-9.19145E-4,-3.3864237E-2,-8.54587E-2,4.0067997E-2,1.878255E-3,1.848169E-2,-2.6866726E-3,-1.2374429E-1,2.1975083E-2,-3.5178497E-2,-7.2045036E-2,-5.8362926E-3,-4.0054332E-2,-1.4175062E-2,4.515353E-2,1.489599E-2,3.714526E-2,-2.5620194E-2,1.766637E-2,1.4351787E-3,2.225952E-2,1.10195674E-1,2.5834065E-2,-6.093864E-2],"categories":[],"categories_nodes":[],"categories_segments":[],"categories_sizes":[],"default_left":[0,0,0,0,0,0,0,0,0,0,0,0,0,0,0,0,0,0,0,0,0,0,0,0,0,0,0,0,0,0,0,0,0,0,0,0,0,0,0,0,0,0,0,0,0,0,0,0,0,0,0,0,0,0,0,0,0,0,0,0,0,0,0,0,0,0,0,0,0,0,0,0,0,0,0,0,0,0,0,0,0,0,0,0,0,0,0,0,0,0,0,0,0,0,0,0,0,0,0,0,0,0,0,0,0,0,0,0,0,0,0,0,0,0,0,0,0,0,0,0,0],"id":3,"left_children":[1,3,5,7,9,11,13,15,17,19,21,23,25,27,29,31,33,35,37,39,41,43,45,47,49,51,53,55,57,59,61,63,65,67,69,71,-1,73,75,77,79,81,83,-1,85,87,89,91,93,95,97,99,101,103,105,107,109,-1,111,113,115,117,119,-1,-1,-1,-1,-1,-1,-1,-1,-1,-1,-1,-1,-1,-1,-1,-1,-1,-1,-1,-1,-1,-1,-1,-1,-1,-1,-1,-1,-1,-1,-1,-1,-1,-1,-1,-1,-1,-1,-1,-1,-1,-1,-1,-1,-1,-1,-1,-1,-1,-1,-1,-1,-1,-1,-1,-1,-1,-1],"loss_changes":[2.6773666E2,3.1563446E2,2.745976E2,2.0389154E2,2.5915747E2,3.6515875E2,1.9130919E2,1.4743646E2,1.9284442E2,2.664442E2,6.70849E1,1.6398282E2,4.8354523E2,1.3831152E2,1.0788575E2,7.587134E1,1.4800047E2,7.981984E1,1.4381468E2,2.7025943E2,3.6571545E2,1.098288E1,3.8724644E1,5.8425766E1,1.26972694E2,1.7056885E2,1.0611595E2,7.2258484E1,2.4684494E1,8.995192E1,8.296962E1,6.347998E1,6.918664E1,3.0427406E1,1.4625563E2,6.80517E1,0E0,7.5897446E1,5.8176292E1,1.6099634E2,4.334427E1,9.3605225E1,2.0845651E2,0E0,1.1624756E0,4.5069523E0,6.1319256E-1,4.2207713E0,1.5709076E1,8.9787445E0,1.312688E2,1.3514813E2,1.6109839E2,7.16702E1,1.0576987E2,1.3206633E2,6.652702E1,0E0,4.5601654E-1,4.3553486E1,1.0773134E2,2.4934387E0,4.766501E1,0E0,0E0,0E0,0E0,0E0,0E0,0E0,0E0,0E0,0E0,0E0,0E0,0E0,0E0,0E0,0E0,0E0,0E0,0E0,0E0,0E0,0E0,0E0,0E0,0E0,0E0,0E0,0E0,0E0,0E0,0E0,0E0,0E0,0E0,0E0,0E0,0E0,0E0,0E0,0E0,0E0,0E0,0E0,0E0,0E0,0E0,0E0,0E0,0E0,0E0,0E0,0E0,0E0,0E0,0E0,0E0,0E0,0E0],"parents":[2147483647,0,0,1,1,2,2,3,3,4,4,5,5,6,6,7,7,8,8,9,9,10,10,11,11,12,12,13,13,14,14,15,15,16,16,17,17,18,18,19,19,20,20,21,21,22,22,23,23,24,24,25,25,26,26,27,27,28,28,29,29,30,30,31,31,32,32,33,33,34,34,35,35,37,37,38,38,39,39,40,40,41,41,42,42,44,44,45,45,46,46,47,47,48,48,49,49,50,50,51,51,52,52,53,53,54,54,55,55,56,56,58,58,59,59,60,60,61,61,62,62],"right_children":[2,4,6,8,10,12,14,16,18,20,22,24,26,28,30,32,34,36,38,40,42,44,46,48,50,52,54,56,58,60,62,64,66,68,70,72,-1,74,76,78,80,82,84,-1,86,88,90,92,94,96,98,100,102,104,106,108,110,-1,112,114,116,118,120,-1,-1,-1,-1,-1,-1,-1,-1,-1,-1,-1,-1,-1,-1,-1,-1,-1,-1,-1,-1,-1,-1,-1,-1,-1,-1,-1,-1,-1,-1,-1,-1,-1,-1,-1,-1,-1,-1,-1,-1,-1,-1,-1,-1,-1,-1,-1,-1,-1,-1,-1,-1,-1,-1,-1,-1,-1,-1],"split_conditions":[-2.855267E-2,-1.04804665E-1,8.3922826E-2,-6.6588193E-1,1.0163715E0,-1.4831112E-1,-7.7601485E-2,-5.7940894E-1,-1.3840531E0,-3.1267563E-1,-2.641424E-1,-1.5661254E0,8.555983E-1,1.9170209E0,1.8665534E0,3.9393812E-1,-1.1641363E0,7.891853E-3,-4.177967E-1,2.0213631E-1,-6.548175E-1,-1.7370131E0,-2.6429355E-1,-8.557492E-1,-1.9904644E0,-1.6858678E-2,-9.123281E-2,7.011163E-1,1.0222695E0,-6.027177E-1,-6.6342646E-1,9.819673E-1,6.932936E-1,-1.0971645E0,-4.5738846E-1,-1.4380919E0,-1.20201714E-1,4.3039262E-2,-1.0081862E0,-1.0071588E0,-1.1904722E0,-2.4469185E0,-3.5738042E-1,-3.2833014E-2,1.0430202E0,-1.283579E0,-1.2339305E0,-3.2737964E-1,-8.7721556E-1,-1.2339305E0,4.1579568E-1,-1.8377972E0,-4.339567E-1,6.283081E-1,2.614514E-2,-7.357241E-1,-2.5113246E-1,1.3443965E-1,7.7327144E-1,-1.4637538E0,1.7704214E-1,-1.5990103E0,6.1148605E-3,4.9124233E-2,-6.1284427E-2,-6.227076E-4,1.0605553E-1,2.2602053E-2,-7.245377E-2,2.712179E-2,-9.979136E-3,6.922285E-2,2.2532267E-2,2.0138382E-3,2.2216216E-2,-2.5880512E-2,-6.0436907E-3,-8.824282E-2,-4.85221E-3,1.351037E-3,4.6805352E-2,1.8835481E-2,-7.0595324E-2,3.8476707E-3,-2.2401296E-2,-1.3151444E-1,-3.528785E-2,-1.5521186E-2,-7.8890525E-2,1.4054932E-2,6.364305E-2,-7.5421804E-3,4.5578595E-2,-2.313969E-2,-1.0630687E-1,3.6327254E-2,1.363866E-1,-9.19145E-4,-3.3864237E-2,-8.54587E-2,4.0067997E-2,1.878255E-3,1.848169E-2,-2.6866726E-3,-1.2374429E-1,2.1975083E-2,-3.5178497E-2,-7.2045036E-2,-5.8362926E-3,-4.0054332E-2,-1.4175062E-2,4.515353E-2,1.489599E-2,3.714526E-2,-2.5620194E-2,1.766637E-2,1.4351787E-3,2.225952E-2,1.10195674E-1,2.5834065E-2,-6.093864E-2],"split_indices":[17,7,5,5,28,12,23,4,16,17,18,7,28,24,7,23,13,30,22,24,10,0,23,30,4,14,18,13,0,11,12,14,18,11,13,24,0,18,11,13,12,22,4,0,6,1,0,2,25,0,1,18,23,12,18,11,4,0,4,8,24,0,23,0,0,0,0,0,0,0,0,0,0,0,0,0,0,0,0,0,0,0,0,0,0,0,0,0,0,0,0,0,0,0,0,0,0,0,0,0,0,0,0,0,0,0,0,0,0,0,0,0,0,0,0,0,0,0,0,0,0],"split_type":[0,0,0,0,0,0,0,0,0,0,0,0,0,0,0,0,0,0,0,0,0,0,0,0,0,0,0,0,0,0,0,0,0,0,0,0,0,0,0,0,0,0,0,0,0,0,0,0,0,0,0,0,0,0,0,0,0,0,0,0,0,0,0,0,0,0,0,0,0,0,0,0,0,0,0,0,0,0,0,0,0,0,0,0,0,0,0,0,0,0,0,0,0,0,0,0,0,0,0,0,0,0,0,0,0,0,0,0,0,0,0,0,0,0,0,0,0,0,0,0,0],"sum_hessian":[1.5702E4,7.669E3,8.033E3,3.332E3,4.337E3,4.652E3,3.381E3,6.63E2,2.669E3,4.306E3,3.1E1,1.324E3,3.328E3,1.303E3,2.078E3,2.46E2,4.17E2,1.33E2,2.536E3,2.897E3,1.409E3,2.2E1,9E0,2.6E1,1.298E3,3.13E3,1.98E2,1.292E3,1.1E1,2.027E3,5.1E1,1.79E2,6.7E1,2.6E1,3.91E2,1.31E2,2E0,8.71E2,1.665E3,2.768E3,1.29E2,1.48E2,1.261E3,2E0,2E1,6E0,3E0,4E0,2.2E1,7E0,1.291E3,3.29E2,2.801E3,2.2E1,1.76E2,8.98E2,3.94E2,5E0,6E0,1.26E2,1.901E3,3E0,4.8E1,1.75E2,4E0,6.2E1,5E0,3E0,2.3E1,2.27E2,1.64E2,4.1E1,9E1,6.46E2,2.25E2,1.45E2,1.52E3,2E1,2.748E3,2.3E1,1.06E2,1.1E1,1.37E2,3.97E2,8.64E2,1.9E1,1E0,2E0,4E0,1E0,2E0,2E0,2E0,3E0,1.9E1,2E0,5E0,1.172E3,1.19E2,7E0,3.22E2,7.02E2,2.099E3,6E0,1.6E1,3.6E1,1.4E2,2.7E1,8.71E2,1.38E2,2.56E2,4E0,2E0,1E1,1.16E2,4.98E2,1.403E3,1E0,2E0,6E0,4.2E1],"tree_param":{"num_deleted":"0","num_feature":"34","num_nodes":"121","size_leaf_vector":"1"}},{"base_weights":[-5.7065732E-5,-2.1813828E-2,7.600357E-1,1.6586737E-1,-1.0021999E-1,1.664131E-1,1.2838557E0,4.7259793E-2,4.1727936E-1,-8.690187E-2,-2.105716E0,-5.583029E-1,6.904454E-1,6.921515E-1,1.7761452E0,-2.0619116E0,7.165587E-2,5.176945E-1,-1.4729397E0,1.5624018E-1,-1.6167906E-1,-2.847307E0,-4.3425235E-1,7.8080744E-1,-1.1108603E0,1.0420567E0,-3.9912358E-1,9.7069514E-1,-1.5938772E0,3.125898E0,1.2015121E0,-3.0280466E0,-1.9398765E-1,5.504261E-1,2.4307896E-3,7.3293346E-1,2.5731703E-2,7.511801E-1,-1.8378981E0,2.2026989E-1,-7.883741E-1,-7.281358E-1,-1.2290816E-1,9.73724E-1,-3.0306215E0,-1.6673825E0,4.7757286E-1,1.958265E0,-3.683179E-1,-1.9855791E0,-2.8199908E-1,1.1962095E0,-7.829461E-2,3.562651E-1,-1.5618954E0,1.1280867E0,-2.1194472E0,5.821351E-2,-7.281597E-2,4.113613E0,9.859916E-1,2.8947763E0,6.11121E-1,2.697637E-2,-1.0334672E-1,3.9947495E-2,-6.587252E-2,4.427786E-2,2.3466109E-3,4.7057815E-4,-8.041183E-2,-2.7724912E-2,2.4713289E-2,-7.2150896E-3,3.124236E-2,-1.0516401E-2,3.624438E-2,-1.23880476E-1,-4.1385606E-2,9.766205E-3,-7.1039004E-3,-6.0717363E-2,-4.7239084E-3,-5.92818E-2,-1.6225673E-2,-8.992383E-3,-1.016254E-3,-1.1519953E-2,5.5337533E-2,-3.985518E-2,-1.0728739E-1,-1.9579494E-2,-7.6547556E-2,-4.600457E-3,3.3912037E-2,3.0782418E-2,9.7336315E-2,2.3606546E-2,-3.999242E-2,-3.6611915E-2,-1.1811838E-1,5.6283712E-2,-2.4932038E-2,2.72911E-2,9.3571566E-2,2.3863373E-2,-4.4685718E-2,-6.2283482E-2,2.0184172E-2,-1.3178812E-2,3.9737634E-2,-2.2988139E-2,-8.298422E-2,2.3911659E-2,-9.772823E-3,1.3112965E-1,2.3075948E-2,6.0691316E-2,-1.68323E-2,-2.7184367E-2,9.326202E-2,-4.1499473E-2,3.0608429E-2],"categories":[],"categories_nodes":[],"categories_segments":[],"categories_sizes":[],"default_left":[0,0,0,0,0,0,0,0,0,0,0,0,0,0,0,0,0,0,0,0,0,0,0,0,0,0,0,0,0,0,0,0,0,0,0,0,0,0,0,0,0,0,0,0,0,0,0,0,0,0,0,0,0,0,0,0,0,0,0,0,0,0,0,0,0,0,0,0,0,0,0,0,0,0,0,0,0,0,0,0,0,0,0,0,0,0,0,0,0,0,0,0,0,0,0,0,0,0,0,0,0,0,0,0,0,0,0,0,0,0,0,0,0,0,0,0,0,0,0,0,0,0,0],"id":4,"left_children":[1,3,5,7,9,11,13,15,17,19,21,23,25,27,29,31,33,35,37,39,41,43,45,47,49,51,53,55,57,59,61,63,65,67,69,71,73,75,77,79,81,83,85,87,89,91,93,95,97,99,101,103,-1,105,107,109,111,113,-1,115,117,119,121,-1,-1,-1,-1,-1,-1,-1,-1,-1,-1,-1,-1,-1,-1,-1,-1,-1,-1,-1,-1,-1,-1,-1,-1,-1,-1,-1,-1,-1,-1,-1,-1,-1,-1,-1,-1,-1,-1,-1,-1,-1,-1,-1,-1,-1,-1,-1,-1,-1,-1,-1,-1,-1,-1,-1,-1,-1,-1,-1,-1],"loss_changes":[2.5969955E2,2.2467606E2,1.3567213E2,1.341376E2,2.8745065E2,7.861904E1,6.634985E1,1.574987E2,2.744636E2,1.9454889E2,8.677106E1,6.524176E1,4.6388477E1,6.968036E1,9.3971405E1,6.2575928E1,1.00222824E2,1.450499E2,6.0635513E1,1.5241032E2,1.7962582E2,3.727307E1,2.6657476E1,3.5900467E1,4.4391335E1,5.435009E1,2.6906784E1,4.9081688E1,1.6661978E1,7.414789E1,8.8202866E1,4.074997E1,4.2623634E1,1.6682913E2,9.403042E1,1.442215E2,1.1328157E2,5.96148E0,6.0475586E1,1.135335E2,1.2440354E2,1.21395966E2,1.2059212E2,4.255478E0,3.889862E1,7.307001E0,5.9397135E0,1.2258472E1,1.6651934E1,3.9997124E1,4.0662807E1,4.564234E1,0E0,1.6586899E1,1.518638E1,2.8917168E1,2.2558365E0,1.6781306E0,0E0,1.8157074E1,2.199216E1,2.1521393E1,5.690235E1,0E0,0E0,0E0,0E0,0E0,0E0,0E0,0E0,0E0,0E0,0E0,0E0,0E0,0E0,0E0,0E0,0E0,0E0,0E0,0E0,0E0,0E0,0E0,0E0,0E0,0E0,0E0,0E0,0E0,0E0,0E0,0E0,0E0,0E0,0E0,0E0,0E0,0E0,0E0,0E0,0E0,0E0,0E0,0E0,0E0,0E0,0E0,0E0,0E0,0E0,0E0,0E0,0E0,0E0,0E0,0E0,0E0,0E0,0E0,0E0],"parents":[2147483647,0,0,1,1,2,2,3,3,4,4,5,5,6,6,7,7,8,8,9,9,10,10,11,11,12,12,13,13,14,14,15,15,16,16,17,17,18,18,19,19,20,20,21,21,22,22,23,23,24,24,25,25,26,26,27,27,28,28,29,29,30,30,31,31,32,32,33,33,34,34,35,35,36,36,37,37,38,38,39,39,40,40,41,41,42,42,43,43,44,44,45,45,46,46,47,47,48,48,49,49,50,50,51,51,53,53,54,54,55,55,56,56,57,57,59,59,60,60,61,61,62,62],"right_children":[2,4,6,8,10,12,14,16,18,20,22,24,26,28,30,32,34,36,38,40,42,44,46,48,50,52,54,56,58,60,62,64,66,68,70,72,74,76,78,80,82,84,86,88,90,92,94,96,98,100,102,104,-1,106,108,110,112,114,-1,116,118,120,122,-1,-1,-1,-1,-1,-1,-1,-1,-1,-1,-1,-1,-1,-1,-1,-1,-1,-1,-1,-1,-1,-1,-1,-1,-1,-1,-1,-1,-1,-1,-1,-1,-1,-1,-1,-1,-1,-1,-1,-1,-1,-1,-1,-1,-1,-1,-1,-1,-1,-1,-1,-1,-1,-1,-1,-1,-1,-1,-1,-1],"split_conditions":[9.0248734E-1,-3.5639393E-1,3.2409275E-1,2.611286E-1,1.0163715E0,2.0024225E-1,9.349401E-1,-1.6481466E0,8.6978966E-1,-5.71891E-1,6.871009E-1,9.445803E-1,5.4063547E-1,3.689183E-1,3.6946332E-1,-4.8064423E-1,-8.6080945E-1,7.7017885E-1,-1.3035412E0,8.5003054E-1,-7.2945356E-1,-1.2172292E0,-2.0308554E-1,6.5053415E-1,9.9011946E-1,2.2070844E0,1.6486313E0,1.5574586E0,1.1646528E0,5.188945E-1,1.0950869E0,-9.920548E-1,5.6057763E-1,-4.627889E-1,2.7520657E0,-5.4505926E-1,2.072963E0,6.717088E-1,2.7096558E-1,9.878003E-1,-1.862019E-1,-8.947833E-1,-2.9334685E-1,-1.7370131E0,-1.79772E-1,1.2021049E0,3.7483886E-1,7.689523E-2,9.819673E-1,4.9833342E-2,1.0981393E0,1.830057E0,-7.829461E-2,1.3579473E0,2.3266876E0,8.195306E-2,1.5294274E0,-3.7350178E-1,-7.281597E-2,5.548319E-1,1.3894217E0,-1.3278513E0,9.178812E-1,2.697637E-2,-1.0334672E-1,3.9947495E-2,-6.587252E-2,4.427786E-2,2.3466109E-3,4.7057815E-4,-8.041183E-2,-2.7724912E-2,2.4713289E-2,-7.2150896E-3,3.124236E-2,-1.0516401E-2,3.624438E-2,-1.23880476E-1,-4.1385606E-2,9.766205E-3,-7.1039004E-3,-6.0717363E-2,-4.7239084E-3,-5.92818E-2,-1.6225673E-2,-8.992383E-3,-1.016254E-3,-1.1519953E-2,5.5337533E-2,-3.985518E-2,-1.0728739E-1,-1.9579494E-2,-7.6547556E-2,-4.600457E-3,3.3912037E-2,3.0782418E-2,9.7336315E-2,2.3606546E-2,-3.999242E-2,-3.6611915E-2,-1.1811838E-1,5.6283712E-2,-2.4932038E-2,2.72911E-2,9.3571566E-2,2.3863373E-2,-4.4685718E-2,-6.2283482E-2,2.0184172E-2,-1.3178812E-2,3.9737634E-2,-2.2988139E-2,-8.298422E-2,2.3911659E-2,-9.772823E-3,1.3112965E-1,2.3075948E-2,6.0691316E-2,-1.68323E-2,-2.7184367E-2,9.326202E-2,-4.1499473E-2,3.0608429E-2],"split_indices":[26,5,21,12,28,22,24,7,28,22,24,26,28,28,4,22,4,2,5,10,13,14,29,4,17,7,10,18,0,28,1,14,4,7,4,3,18,16,30,6,12,30,2,0,7,3,31,23,14,21,24,11,0,1,12,30,0,4,0,13,18,22,26,0,0,0,0,0,0,0,0,0,0,0,0,0,0,0,0,0,0,0,0,0,0,0,0,0,0,0,0,0,0,0,0,0,0,0,0,0,0,0,0,0,0,0,0,0,0,0,0,0,0,0,0,0,0,0,0,0,0,0,0],"split_type":[0,0,0,0,0,0,0,0,0,0,0,0,0,0,0,0,0,0,0,0,0,0,0,0,0,0,0,0,0,0,0,0,0,0,0,0,0,0,0,0,0,0,0,0,0,0,0,0,0,0,0,0,0,0,0,0,0,0,0,0,0,0,0,0,0,0,0,0,0,0,0,0,0,0,0,0,0,0,0,0,0,0,0,0,0,0,0,0,0,0,0,0,0,0,0,0,0,0,0,0,0,0,0,0,0,0,0,0,0,0,0,0,0,0,0,0,0,0,0,0,0,0,0],"sum_hessian":[1.5702E4,1.5266E4,4.36E2,4.498E3,1.0768E4,2.05E2,2.31E2,3.057E3,1.441E3,1.0698E4,7E1,8.6E1,1.19E2,1.06E2,1.25E2,3.4E1,3.023E3,1.369E3,7.2E1,2.516E3,8.182E3,4.8E1,2.2E1,2.5E1,6.1E1,9E1,2.9E1,9.5E1,1.1E1,3.6E1,8.9E1,2.2E1,1.2E1,3.81E2,2.642E3,9.52E2,4.17E2,1E1,6.2E1,2.357E3,1.59E2,5.23E2,7.659E3,2E0,4.6E1,9E0,1.3E1,1.2E1,1.3E1,2.9E1,3.2E1,8.7E1,3E0,1.8E1,1.1E1,9.1E1,4E0,4E0,7E0,2.4E1,1.2E1,2.2E1,6.7E1,2E0,2E1,7E0,5E0,1.28E2,2.53E2,2.63E3,1.2E1,4.9E1,9.03E2,3.31E2,8.6E1,3E0,7E0,9E0,5.3E1,1.916E3,4.41E2,5.3E1,1.06E2,6.7E1,4.56E2,2.564E3,5.095E3,1E0,1E0,1.2E1,3.4E1,5E0,4E0,7E0,6E0,8E0,4E0,6E0,7E0,2.2E1,7E0,6E0,2.6E1,7.7E1,1E1,1.5E1,3E0,9E0,2E0,1E1,8.1E1,2E0,2E0,1E0,3E0,2.2E1,2E0,7E0,5E0,1E0,2.1E1,1.1E1,5.6E1],"tree_param":{"num_deleted":"0","num_feature":"34","num_nodes":"123","size_leaf_vector":"1"}},{"base_weights":[-8.6514796E-5,-1.4145064E-1,1.1150997E-1,-5.786715E-2,-6.362973E-1,2.2541235E-1,-1.5766531E-1,-4.0346652E-2,-2.159146E0,-1.5834908E-1,-1.3973849E0,-2.2156885E-1,3.2120624E-1,-5.0465673E-1,3.990594E-2,2.4948542E-1,-1.5071699E-1,1.559845E0,-2.816117E0,-1.3092475E0,9.721324E-2,-1.9888318E0,-3.2008293E-1,-1.3319023E-1,-2.0946417E0,3.768529E-1,-7.689217E-1,-2.2788546E0,-4.4812095E-1,-8.9947057E-1,9.419016E-2,4.1694972E-1,-2.0133218E-1,-1.1034737E-1,-1.0052636E0,2.3157244E0,-4.7186244E-1,-1.427585E0,-3.3893354E0,-2.0004418E0,-4.4330055E-1,4.435451E-1,-4.9914917E-1,-2.2407608E0,-4.3600783E-1,-8.3339226E-1,2.0334108E0,1.200525E0,-2.2178625E-1,-4.0141582E0,-1.5623964E0,4.1053753E-2,4.8482633E-1,-2.2624516E0,-5.280388E-1,-1.399577E0,-3.5904386E0,3.1061512E-1,-5.803032E-1,-1.6353481E0,-2.0099117E-3,-3.2208698E0,1.0892946E-1,1.0116644E-2,4.144374E-2,-7.1440026E-2,-1.4219028E-3,-5.6079957E-3,9.723384E-3,-1.6035842E-2,-5.3471956E-2,2.0440852E-2,7.518973E-2,9.575945E-3,-3.0809755E-2,-6.655617E-2,-9.669266E-5,-1.4256919E-2,-1.15097485E-1,-6.6239074E-2,8.450756E-2,8.1978634E-2,-1.8860934E-2,-1.5903177E-2,2.278671E-2,-1.8331727E-2,8.879835E-2,-7.2549162E-3,-7.203207E-2,-2.4144368E-2,8.1468925E-2,2.7229404E-2,-3.3807155E-2,8.549897E-2,7.952862E-3,2.463189E-2,1.1404677E-1,-2.648607E-2,-1.5467098E-3,-1.3128385E-1,-5.1325567E-2,-1.7051129E-2,-7.58401E-2,6.523132E-5,9.811991E-2,1.7535202E-2,4.930513E-3,-2.3370905E-2,-1.06133066E-1,1.4808387E-2,-2.5770701E-2,5.9397123E-3,-7.043971E-2,-5.3543307E-2,-1.21333934E-1,1.8380295E-2,-3.0075576E-2,-1.959272E-2,2.364152E-2,-2.4237495E-2,-7.494207E-2,5.6522544E-2,-1.1060841E-2,-5.760493E-3,-1.3182023E-1,4.956162E-3,-1.9830538E-2],"categories":[],"categories_nodes":[],"categories_segments":[],"categories_sizes":[],"default_left":[0,0,0,0,0,0,0,0,0,0,0,0,0,0,0,0,0,0,0,0,0,0,0,0,0,0,0,0,0,0,0,0,0,0,0,0,0,0,0,0,0,0,0,0,0,0,0,0,0,0,0,0,0,0,0,0,0,0,0,0,0,0,0,0,0,0,0,0,0,0,0,0,0,0,0,0,0,0,0,0,0,0,0,0,0,0,0,0,0,0,0,0,0,0,0,0,0,0,0,0,0,0,0,0,0,0,0,0,0,0,0,0,0,0,0,0,0,0,0,0,0,0,0,0,0,0,0],"id":5,"left_children":[1,3,5,7,9,11,13,15,17,19,21,23,25,27,29,31,33,35,37,39,41,43,45,47,49,51,53,55,57,59,61,63,65,67,69,71,73,75,77,79,81,83,85,87,89,91,93,95,97,99,101,103,105,107,109,111,113,115,117,119,121,123,125,-1,-1,-1,-1,-1,-1,-1,-1,-1,-1,-1,-1,-1,-1,-1,-1,-1,-1,-1,-1,-1,-1,-1,-1,-1,-1,-1,-1,-1,-1,-1,-1,-1,-1,-1,-1,-1,-1,-1,-1,-1,-1,-1,-1,-1,-1,-1,-1,-1,-1,-1,-1,-1,-1,-1,-1,-1,-1,-1,-1,-1,-1,-1,-1],"loss_changes":[2.4774222E2,2.8651224E2,2.691051E2,2.181549E2,3.6390292E2,2.6413022E2,1.7895006E2,1.8813211E2,1.2411293E2,1.8130905E2,2.4530988E2,1.7999362E2,3.0839203E2,9.396831E1,8.49376E1,1.2253823E2,1.4681488E2,1.3378511E1,2.8590576E1,6.614943E1,1.0452374E2,9.643225E1,1.6840834E2,1.23272736E2,4.378929E1,1.7521198E2,8.766748E1,2.8419037E1,9.23481E1,6.009503E1,7.7259125E1,9.050511E1,1.4754214E2,1.3541716E2,6.928566E1,1.6134262E-1,1.645237E0,1.5765316E1,3.5973175E1,6.820317E1,3.1747154E1,9.8861946E1,7.380961E1,6.799451E1,4.402976E1,5.927883E1,3.5342644E1,6.1033264E1,1.09901794E2,8.5035706E-1,3.6956665E1,1.4778314E2,1.1672748E2,6.15663E1,7.278833E1,2.9252815E1,1.79953E0,5.4954895E1,7.850061E1,3.367389E1,2.974195E1,2.4029121E1,6.80499E1,0E0,0E0,0E0,0E0,0E0,0E0,0E0,0E0,0E0,0E0,0E0,0E0,0E0,0E0,0E0,0E0,0E0,0E0,0E0,0E0,0E0,0E0,0E0,0E0,0E0,0E0,0E0,0E0,0E0,0E0,0E0,0E0,0E0,0E0,0E0,0E0,0E0,0E0,0E0,0E0,0E0,0E0,0E0,0E0,0E0,0E0,0E0,0E0,0E0,0E0,0E0,0E0,0E0,0E0,0E0,0E0,0E0,0E0,0E0,0E0,0E0,0E0,0E0,0E0],"parents":[2147483647,0,0,1,1,2,2,3,3,4,4,5,5,6,6,7,7,8,8,9,9,10,10,11,11,12,12,13,13,14,14,15,15,16,16,17,17,18,18,19,19,20,20,21,21,22,22,23,23,24,24,25,25,26,26,27,27,28,28,29,29,30,30,31,31,32,32,33,33,34,34,35,35,36,36,37,37,38,38,39,39,40,40,41,41,42,42,43,43,44,44,45,45,46,46,47,47,48,48,49,49,50,50,51,51,52,52,53,53,54,54,55,55,56,56,57,57,58,58,59,59,60,60,61,61,62,62],"right_children":[2,4,6,8,10,12,14,16,18,20,22,24,26,28,30,32,34,36,38,40,42,44,46,48,50,52,54,56,58,60,62,64,66,68,70,72,74,76,78,80,82,84,86,88,90,92,94,96,98,100,102,104,106,108,110,112,114,116,118,120,122,124,126,-1,-1,-1,-1,-1,-1,-1,-1,-1,-1,-1,-1,-1,-1,-1,-1,-1,-1,-1,-1,-1,-1,-1,-1,-1,-1,-1,-1,-1,-1,-1,-1,-1,-1,-1,-1,-1,-1,-1,-1,-1,-1,-1,-1,-1,-1,-1,-1,-1,-1,-1,-1,-1,-1,-1,-1,-1,-1,-1,-1,-1,-1,-1,-1],"split_conditions":[-1.3683783E-1,0E0,3.465017E-1,1.0163715E0,-1.5023377E-2,-4.064855E-1,-7.7601485E-2,-3.628596E-1,-1.0386305E0,-2.4609949E-1,8.3415784E-2,3.5483238E-1,8.555983E-1,-3.3997896E0,-5.124786E-1,2.2911842E-1,3.7090227E-1,-5.811531E-1,-3.003449E-1,3.0992684E-1,-1.970361E-1,-2.5373754E-1,1.3512622E0,-3.657901E-1,-6.17455E-1,-4.339567E-1,-9.123281E-2,5.693285E-1,-6.8930215E-1,8.7014204E-1,-1.9403822E0,4.6669114E-2,-1.0062304E0,3.9937368E-1,4.864613E-1,-8.88153E-1,-8.216279E-1,-9.51821E-1,-1.6271044E0,8.2076347E-1,3.5532704E-1,-2.701384E-1,5.0192493E-1,-1.2885957E0,5.0689864E-1,-8.5935026E-1,1.0122734E0,-5.8563996E-2,-7.78297E-1,1.972334E-1,-3.1967014E-1,1.9170209E0,1.1746272E-1,5.9259117E-2,2.614514E-2,3.8915345E-1,-5.673804E-1,1.3999059E0,1.8402714E0,-4.6408468E-1,-8.2648826E-1,-1.2187937E0,1.6733054E0,1.0116644E-2,4.144374E-2,-7.1440026E-2,-1.4219028E-3,-5.6079957E-3,9.723384E-3,-1.6035842E-2,-5.3471956E-2,2.0440852E-2,7.518973E-2,9.575945E-3,-3.0809755E-2,-6.655617E-2,-9.669266E-5,-1.4256919E-2,-1.15097485E-1,-6.6239074E-2,8.450756E-2,8.1978634E-2,-1.8860934E-2,-1.5903177E-2,2.278671E-2,-1.8331727E-2,8.879835E-2,-7.2549162E-3,-7.203207E-2,-2.4144368E-2,8.1468925E-2,2.7229404E-2,-3.3807155E-2,8.549897E-2,7.952862E-3,2.463189E-2,1.1404677E-1,-2.648607E-2,-1.5467098E-3,-1.3128385E-1,-5.1325567E-2,-1.7051129E-2,-7.58401E-2,6.523132E-5,9.811991E-2,1.7535202E-2,4.930513E-3,-2.3370905E-2,-1.06133066E-1,1.4808387E-2,-2.5770701E-2,5.9397123E-3,-7.043971E-2,-5.3543307E-2,-1.21333934E-1,1.8380295E-2,-3.0075576E-2,-1.959272E-2,2.364152E-2,-2.4237495E-2,-7.494207E-2,5.6522544E-2,-1.1060841E-2,-5.760493E-3,-1.3182023E-1,4.956162E-3,-1.9830538E-2],"split_indices":[17,24,5,28,27,12,23,7,26,18,3,15,28,18,10,22,8,1,21,23,10,17,29,4,29,23,18,25,23,13,12,3,6,18,30,0,0,11,24,30,23,4,7,22,28,22,13,1,6,6,28,24,6,22,18,22,28,4,5,22,26,1,6,0,0,0,0,0,0,0,0,0,0,0,0,0,0,0,0,0,0,0,0,0,0,0,0,0,0,0,0,0,0,0,0,0,0,0,0,0,0,0,0,0,0,0,0,0,0,0,0,0,0,0,0,0,0,0,0,0,0,0,0,0,0,0,0],"split_type":[0,0,0,0,0,0,0,0,0,0,0,0,0,0,0,0,0,0,0,0,0,0,0,0,0,0,0,0,0,0,0,0,0,0,0,0,0,0,0,0,0,0,0,0,0,0,0,0,0,0,0,0,0,0,0,0,0,0,0,0,0,0,0,0,0,0,0,0,0,0,0,0,0,0,0,0,0,0,0,0,0,0,0,0,0,0,0,0,0,0,0,0,0,0,0,0,0,0,0,0,0,0,0,0,0,0,0,0,0,0,0,0,0,0,0,0,0,0,0,0,0,0,0,0,0,0,0],"sum_hessian":[1.5702E4,6.927E3,8.775E3,5.927E3,1E3,6.166E3,2.609E3,5.879E3,4.8E1,6.15E2,3.85E2,1.088E3,5.078E3,9.46E2,1.663E3,1.621E3,4.258E3,7E0,4.1E1,1.11E2,5.04E2,2.48E2,1.37E2,1.04E3,4.8E1,4.832E3,2.46E2,2.8E1,9.18E2,9E1,1.573E3,1.182E3,4.39E2,4.067E3,1.91E2,5E0,2E0,1.3E1,2.8E1,6.1E1,5E1,3.19E2,1.85E2,2.13E2,3.5E1,1.13E2,2.4E1,6.4E1,9.76E2,9E0,3.9E1,1.176E3,3.656E3,3.3E1,2.13E2,1.8E1,1E1,1.36E2,7.82E2,4.9E1,4.1E1,6E0,1.567E3,1.093E3,8.9E1,2.8E1,4.11E2,3.458E3,6.09E2,1.2E2,7.1E1,1E0,4E0,1E0,1E0,8E0,5E0,4E0,2.4E1,5.9E1,2E0,2E0,4.8E1,7.8E1,2.41E2,1.8E2,5E0,1.6E1,1.97E2,3.2E1,3E0,1.6E1,9.7E1,1.6E1,8E0,5.7E1,7E0,1.99E2,7.77E2,7E0,2E0,2E1,1.9E1,1.163E3,1.3E1,2.788E3,8.68E2,1.6E1,1.7E1,5.2E1,1.61E2,7E0,1.1E1,3E0,7E0,1.11E2,2.5E1,7.43E2,3.9E1,2.6E1,2.3E1,6E0,3.5E1,2E0,4E0,1.461E3,1.06E2],"tree_param":{"num_deleted":"0","num_feature":"34","num_nodes":"127","size_leaf_vector":"1"}},{"base_weights":[-1.2356426E-4,-2.1016575E-2,7.2979337E-1,1.580282E-1,-9.5814735E-2,1.538221E-1,1.2380705E0,4.4622406E-2,3.9841437E-1,-8.319419E-2,-1.9962574E0,-5.4896766E-1,6.620628E-1,6.6541004E-1,1.7145514E0,-1.9969853E0,6.823737E-2,4.941054E-1,-1.4028885E0,1.883479E-1,-1.451481E-1,-2.703388E0,-4.0296796E-1,7.533374E-1,-1.0862412E0,1.0012658E0,-3.8892168E-1,9.741935E-1,-1.2934083E0,3.0228653E0,1.1576385E0,-2.9247396E0,-2.0195983E-1,5.342172E-1,8.6221675E-4,7.038226E-1,1.4788082E-2,7.4703354E-1,-1.7560036E0,2.5225136E-1,-7.048336E-1,-6.7232585E-1,-1.097484E-1,9.340871E-1,-2.8780484E0,-1.5915242E0,4.7478423E-1,1.8985043E0,-3.6384168E-1,-1.9362146E0,-2.806218E-1,1.15097E0,-7.6276265E-2,3.4030303E-1,-1.5111173E0,1.1524128E0,-1.8020543E0,-2.6723662E-1,-7.2839975E-2,3.9717631E0,9.6553355E-1,1.7225745E0,-4.6770903E-1,2.6600538E-2,-9.989866E-2,3.8479976E-2,-6.443403E-2,4.285078E-2,2.3400711E-3,4.4294616E-4,-7.307602E-2,-2.672504E-2,2.3737324E-2,-7.299713E-3,2.9987901E-2,-1.0308629E-2,3.5969447E-2,-1.18875556E-1,-3.9446134E-2,-8.614264E-4,1.408129E-2,-7.0101894E-2,-8.7345994E-5,-5.6977272E-2,-1.47487E-2,-5.926145E-3,1.3505901E-3,-1.1345703E-2,5.337962E-2,-3.837829E-2,-1.0168944E-1,1.530187E-2,-5.645122E-2,-4.2641168E-3,3.336033E-2,2.9598447E-2,9.480613E-2,2.2758136E-2,-3.9015055E-2,-3.566699E-2,-1.15281545E-1,5.4696687E-2,-2.4470087E-2,2.6253073E-2,9.007463E-2,2.3072388E-2,-4.3796375E-2,-6.0378283E-2,1.9926857E-2,5.477904E-2,1.6592268E-2,-2.0209003E-2,-8.117791E-2,1.18626235E-2,-1.9934062E-2,1.265936E-1,2.2389771E-2,5.8992065E-2,-1.5896404E-2,8.542434E-2,3.4413893E-2,-8.117042E-2,7.909052E-3],"categories":[],"categories_nodes":[],"categories_segments":[],"categories_sizes":[],"default_left":[0,0,0,0,0,0,0,0,0,0,0,0,0,0,0,0,0,0,0,0,0,0,0,0,0,0,0,0,0,0,0,0,0,0,0,0,0,0,0,0,0,0,0,0,0,0,0,0,0,0,0,0,0,0,0,0,0,0,0,0,0,0,0,0,0,0,0,0,0,0,0,0,0,0,0,0,0,0,0,0,0,0,0,0,0,0,0,0,0,0,0,0,0,0,0,0,0,0,0,0,0,0,0,0,0,0,0,0,0,0,0,0,0,0,0,0,0,0,0,0,0,0,0],"id":6,"left_children":[1,3,5,7,9,11,13,15,17,19,21,23,25,27,29,31,33,35,37,39,41,43,45,47,49,51,53,55,57,59,61,63,65,67,69,71,73,75,77,79,81,83,85,87,89,91,93,95,97,99,101,103,-1,105,107,109,111,113,-1,115,117,119,121,-1,-1,-1,-1,-1,-1,-1,-1,-1,-1,-1,-1,-1,-1,-1,-1,-1,-1,-1,-1,-1,-1,-1,-1,-1,-1,-1,-1,-1,-1,-1,-1,-1,-1,-1,-1,-1,-1,-1,-1,-1,-1,-1,-1,-1,-1,-1,-1,-1,-1,-1,-1,-1,-1,-1,-1,-1,-1,-1,-1],"loss_changes":[2.3948863E2,2.0447415E2,1.2774263E2,1.2263028E2,2.581244E2,7.394384E1,6.2163055E1,1.4757007E2,2.4924857E2,1.8001764E2,7.890375E1,6.1691696E1,4.316907E1,6.5979065E1,8.8306305E1,5.769632E1,9.4939415E1,1.3770349E2,5.6731216E1,1.1364762E2,1.6250897E2,3.3819183E1,2.4750559E1,3.3954025E1,4.191146E1,5.1203957E1,2.5064224E1,4.8091316E1,1.6815424E1,6.8396484E1,8.344522E1,3.8474945E1,4.0309906E1,1.5571439E2,8.95729E1,1.3356009E2,1.0649497E2,5.834106E0,5.6111816E1,1.132381E2,1.5233989E2,1.2056166E2,1.109472E2,4.0004644E0,3.4106445E1,7.058241E0,5.661722E0,1.1838997E1,1.5705477E1,3.817415E1,3.8633842E1,4.2320595E1,0E0,1.5788407E1,1.4427855E1,3.4514526E1,4.296913E0,2.631804E0,0E0,1.685028E1,2.0499222E1,4.0104004E1,3.9994766E1,0E0,0E0,0E0,0E0,0E0,0E0,0E0,0E0,0E0,0E0,0E0,0E0,0E0,0E0,0E0,0E0,0E0,0E0,0E0,0E0,0E0,0E0,0E0,0E0,0E0,0E0,0E0,0E0,0E0,0E0,0E0,0E0,0E0,0E0,0E0,0E0,0E0,0E0,0E0,0E0,0E0,0E0,0E0,0E0,0E0,0E0,0E0,0E0,0E0,0E0,0E0,0E0,0E0,0E0,0E0,0E0,0E0,0E0,0E0,0E0],"parents":[2147483647,0,0,1,1,2,2,3,3,4,4,5,5,6,6,7,7,8,8,9,9,10,10,11,11,12,12,13,13,14,14,15,15,16,16,17,17,18,18,19,19,20,20,21,21,22,22,23,23,24,24,25,25,26,26,27,27,28,28,29,29,30,30,31,31,32,32,33,33,34,34,35,35,36,36,37,37,38,38,39,39,40,40,41,41,42,42,43,43,44,44,45,45,46,46,47,47,48,48,49,49,50,50,51,51,53,53,54,54,55,55,56,56,57,57,59,59,60,60,61,61,62,62],"right_children":[2,4,6,8,10,12,14,16,18,20,22,24,26,28,30,32,34,36,38,40,42,44,46,48,50,52,54,56,58,60,62,64,66,68,70,72,74,76,78,80,82,84,86,88,90,92,94,96,98,100,102,104,-1,106,108,110,112,114,-1,116,118,120,122,-1,-1,-1,-1,-1,-1,-1,-1,-1,-1,-1,-1,-1,-1,-1,-1,-1,-1,-1,-1,-1,-1,-1,-1,-1,-1,-1,-1,-1,-1,-1,-1,-1,-1,-1,-1,-1,-1,-1,-1,-1,-1,-1,-1,-1,-1,-1,-1,-1,-1,-1,-1,-1,-1,-1,-1,-1,-1,-1,-1],"split_conditions":[9.0248734E-1,-3.5639393E-1,3.2409275E-1,2.611286E-1,1.0163715E0,2.0024225E-1,9.349401E-1,-1.6481466E0,8.6978966E-1,-7.201172E-1,6.871009E-1,9.445803E-1,5.4063547E-1,2.0764934E-1,3.6946332E-1,-4.8064423E-1,-8.6080945E-1,7.7017885E-1,-1.3035412E0,8.057949E-1,-7.2945356E-1,-1.2172292E0,-2.0308554E-1,6.5053415E-1,9.9011946E-1,2.2070844E0,1.6486313E0,1.454681E0,-1.5659806E-1,5.188945E-1,1.2851272E0,-9.920548E-1,5.6057763E-1,-4.627889E-1,1.8665534E0,-5.4505926E-1,2.072963E0,6.717088E-1,2.7096558E-1,-5.04567E-1,-1.862019E-1,-8.947833E-1,8.188708E-2,-1.7370131E0,-1.79772E-1,-2.6879933E-1,3.7483886E-1,7.689523E-2,9.819673E-1,4.9833342E-2,1.0981393E0,1.8671252E0,-7.6276265E-2,1.3579473E0,2.3266876E0,1.7491068E-1,1.5294274E0,8.3374834E-1,-7.2839975E-2,5.548319E-1,1.3894217E0,1.0741223E0,-6.442902E-1,2.6600538E-2,-9.989866E-2,3.8479976E-2,-6.443403E-2,4.285078E-2,2.3400711E-3,4.4294616E-4,-7.307602E-2,-2.672504E-2,2.3737324E-2,-7.299713E-3,2.9987901E-2,-1.0308629E-2,3.5969447E-2,-1.18875556E-1,-3.9446134E-2,-8.614264E-4,1.408129E-2,-7.0101894E-2,-8.7345994E-5,-5.6977272E-2,-1.47487E-2,-5.926145E-3,1.3505901E-3,-1.1345703E-2,5.337962E-2,-3.837829E-2,-1.0168944E-1,1.530187E-2,-5.645122E-2,-4.2641168E-3,3.336033E-2,2.9598447E-2,9.480613E-2,2.2758136E-2,-3.9015055E-2,-3.566699E-2,-1.15281545E-1,5.4696687E-2,-2.4470087E-2,2.6253073E-2,9.007463E-2,2.3072388E-2,-4.3796375E-2,-6.0378283E-2,1.9926857E-2,5.477904E-2,1.6592268E-2,-2.0209003E-2,-8.117791E-2,1.18626235E-2,-1.9934062E-2,1.265936E-1,2.2389771E-2,5.8992065E-2,-1.5896404E-2,8.542434E-2,3.4413893E-2,-8.117042E-2,7.909052E-3],"split_indices":[26,5,21,12,28,22,24,7,28,22,24,26,28,28,4,22,4,2,5,10,13,14,29,4,17,7,10,18,5,28,21,14,4,7,7,3,18,16,30,3,12,30,4,0,7,5,31,23,14,21,24,10,0,1,12,5,0,3,0,13,18,1,13,0,0,0,0,0,0,0,0,0,0,0,0,0,0,0,0,0,0,0,0,0,0,0,0,0,0,0,0,0,0,0,0,0,0,0,0,0,0,0,0,0,0,0,0,0,0,0,0,0,0,0,0,0,0,0,0,0,0,0,0],"split_type":[0,0,0,0,0,0,0,0,0,0,0,0,0,0,0,0,0,0,0,0,0,0,0,0,0,0,0,0,0,0,0,0,0,0,0,0,0,0,0,0,0,0,0,0,0,0,0,0,0,0,0,0,0,0,0,0,0,0,0,0,0,0,0,0,0,0,0,0,0,0,0,0,0,0,0,0,0,0,0,0,0,0,0,0,0,0,0,0,0,0,0,0,0,0,0,0,0,0,0,0,0,0,0,0,0,0,0,0,0,0,0,0,0,0,0,0,0,0,0,0,0,0,0],"sum_hessian":[1.5702E4,1.5266E4,4.36E2,4.498E3,1.0768E4,2.05E2,2.31E2,3.057E3,1.441E3,1.0698E4,7E1,8.6E1,1.19E2,1.06E2,1.25E2,3.4E1,3.023E3,1.369E3,7.2E1,1.987E3,8.711E3,4.8E1,2.2E1,2.5E1,6.1E1,9E1,2.9E1,9.2E1,1.4E1,3.6E1,8.9E1,2.2E1,1.2E1,3.81E2,2.642E3,9.52E2,4.17E2,1E1,6.2E1,1.855E3,1.32E2,5.47E2,8.164E3,2E0,4.6E1,9E0,1.3E1,1.2E1,1.3E1,2.9E1,3.2E1,8.7E1,3E0,1.8E1,1.1E1,8.7E1,5E0,8E0,6E0,2.4E1,1.2E1,6.6E1,2.3E1,2E0,2E1,7E0,5E0,1.28E2,2.53E2,2.628E3,1.4E1,4.9E1,9.03E2,3.31E2,8.6E1,3E0,7E0,9E0,5.3E1,8.09E2,1.046E3,3.9E1,9.3E1,6.9E1,4.78E2,5.209E3,2.955E3,1E0,1E0,1.2E1,3.4E1,1E0,8E0,7E0,6E0,8E0,4E0,6E0,7E0,2.2E1,7E0,6E0,2.6E1,7.7E1,1E1,1.5E1,3E0,9E0,2E0,4E1,4.7E1,3E0,2E0,3E0,5E0,2.2E1,2E0,7E0,5E0,2.1E1,4.5E1,5E0,1.8E1],"tree_param":{"num_deleted":"0","num_feature":"34","num_nodes":"123","size_leaf_vector":"1"}},{"base_weights":[-1.4462866E-4,-1.2370983E-1,1.1782217E-1,9.028922E-2,-2.8810245E-1,2.6415282E-1,-8.353633E-2,5.585704E-1,-2.6201034E-2,-6.422018E-1,-1.3301517E-1,-1.4936192E-1,4.2865956E-1,-3.6638162E-1,9.3911394E-2,-1.0024605E0,6.8457526E-1,1.1032615E0,-8.584698E-2,-7.972854E-1,2.3102815E-1,7.4847355E-2,-3.993809E-1,-2.3888152E0,-1.02699414E-1,5.167103E-1,-9.5885545E-1,-3.9576453E-1,2.8301575E0,1.2846361E-1,-1.2554307E0,-2.3104405E0,1.9213997E0,1.168976E0,3.714415E-1,1.2094296E0,-1.1807681E-1,2.2185162E-1,-2.4684778E-1,-2.7559087E-1,-1.0814664E0,1.2661621E-1,1.0708917E-1,9.8261446E-2,-3.5206983E0,-5.530138E-1,8.8226366E-1,7.913008E-1,-2.976283E0,3.7151494E0,-1.2625986E-1,1.184379E0,4.3789253E-1,-2.8406017E0,-7.0891756E-1,-2.28873E0,-3.6724523E-1,1.2688777E-1,1.2263339E0,-6.4039606E-1,1.7973422E-1,3.0719767E0,-1.5830674E0,-8.810049E-2,3.6175385E-2,-7.851588E-2,9.510272E-2,4.543121E-2,8.039189E-3,-1.1782259E-1,1.2851293E-2,6.6585064E-2,2.1898553E-2,1.6287916E-3,2.101686E-2,-3.2974612E-3,-1.4950926E-2,-8.580084E-2,-2.8265198E-3,-5.7206254E-2,-2.2187598E-2,-5.736913E-2,1.085398E-2,1.6496234E-2,7.638987E-4,-1.2070222E-1,-4.9053174E-2,-9.445227E-3,-3.6924593E-2,-2.3631647E-2,3.5358176E-2,-4.838297E-3,4.4403333E-2,-1.898128E-2,-9.8885514E-2,3.540644E-2,1.3090275E-1,-8.3895086E-4,-3.2581188E-2,-8.248797E-2,3.8344443E-2,7.801219E-3,2.2364987E-2,-1.3128666E-3,-1.1475441E-1,2.1546643E-2,-3.2351617E-2,-1.094647E-1,-4.6270557E-2,-6.3144164E-3,-2.1712705E-2,4.2960066E-2,1.4243264E-2,3.5740856E-2,-2.4214175E-2,1.7026616E-2,1.2531005E-3,2.1779926E-2,1.0835911E-1,2.537092E-2,-5.8248967E-2],"categories":[],"categories_nodes":[],"categories_segments":[],"categories_sizes":[],"default_left":[0,0,0,0,0,0,0,0,0,0,0,0,0,0,0,0,0,0,0,0,0,0,0,0,0,0,0,0,0,0,0,0,0,0,0,0,0,0,0,0,0,0,0,0,0,0,0,0,0,0,0,0,0,0,0,0,0,0,0,0,0,0,0,0,0,0,0,0,0,0,0,0,0,0,0,0,0,0,0,0,0,0,0,0,0,0,0,0,0,0,0,0,0,0,0,0,0,0,0,0,0,0,0,0,0,0,0,0,0,0,0,0,0,0,0,0,0,0,0,0,0],"id":7,"left_children":[1,3,5,7,9,11,13,15,17,19,21,23,25,27,29,31,33,35,37,39,41,43,45,47,49,51,53,55,57,59,61,63,65,67,69,71,-1,73,75,77,79,-1,81,83,85,87,89,91,93,95,97,99,101,103,105,107,109,-1,111,113,115,117,119,-1,-1,-1,-1,-1,-1,-1,-1,-1,-1,-1,-1,-1,-1,-1,-1,-1,-1,-1,-1,-1,-1,-1,-1,-1,-1,-1,-1,-1,-1,-1,-1,-1,-1,-1,-1,-1,-1,-1,-1,-1,-1,-1,-1,-1,-1,-1,-1,-1,-1,-1,-1,-1,-1,-1,-1,-1,-1],"loss_changes":[2.2891077E2,2.6985553E2,2.3674326E2,1.8183043E2,2.3814148E2,3.165888E2,1.6977785E2,1.312934E2,1.7996689E2,1.7907886E2,1.6712885E2,1.382152E2,4.0720508E2,1.23596436E2,9.7089966E1,1.9565683E2,9.285037E1,7.644992E1,1.2573704E2,1.660448E2,9.843924E1,1.4312613E2,2.6099036E2,5.2796967E1,1.1731439E2,1.6424756E2,9.1579895E1,6.8963455E1,2.174646E1,8.005867E1,7.858965E1,8.0612915E1,9.89736E1,7.459448E1,9.34657E1,6.2308456E1,0E0,6.990685E1,5.7323524E1,1.858237E2,2.0346008E2,0E0,1.0099209E2,5.541593E1,3.8482513E0,1.9042865E2,7.12024E1,3.5194335E0,1.5157822E1,7.99691E0,1.2185872E2,1.25246735E2,1.5309937E2,6.3165787E1,9.410388E1,1.3659958E1,7.110541E1,0E0,4.0212345E-1,3.975157E1,1.0174324E2,2.4449768E0,4.431463E1,0E0,0E0,0E0,0E0,0E0,0E0,0E0,0E0,0E0,0E0,0E0,0E0,0E0,0E0,0E0,0E0,0E0,0E0,0E0,0E0,0E0,0E0,0E0,0E0,0E0,0E0,0E0,0E0,0E0,0E0,0E0,0E0,0E0,0E0,0E0,0E0,0E0,0E0,0E0,0E0,0E0,0E0,0E0,0E0,0E0,0E0,0E0,0E0,0E0,0E0,0E0,0E0,0E0,0E0,0E0,0E0,0E0,0E0],"parents":[2147483647,0,0,1,1,2,2,3,3,4,4,5,5,6,6,7,7,8,8,9,9,10,10,11,11,12,12,13,13,14,14,15,15,16,16,17,17,18,18,19,19,20,20,21,21,22,22,23,23,24,24,25,25,26,26,27,27,28,28,29,29,30,30,31,31,32,32,33,33,34,34,35,35,37,37,38,38,39,39,40,40,42,42,43,43,44,44,45,45,46,46,47,47,48,48,49,49,50,50,51,51,52,52,53,53,54,54,55,55,56,56,58,58,59,59,60,60,61,61,62,62],"right_children":[2,4,6,8,10,12,14,16,18,20,22,24,26,28,30,32,34,36,38,40,42,44,46,48,50,52,54,56,58,60,62,64,66,68,70,72,-1,74,76,78,80,-1,82,84,86,88,90,92,94,96,98,100,102,104,106,108,110,-1,112,114,116,118,120,-1,-1,-1,-1,-1,-1,-1,-1,-1,-1,-1,-1,-1,-1,-1,-1,-1,-1,-1,-1,-1,-1,-1,-1,-1,-1,-1,-1,-1,-1,-1,-1,-1,-1,-1,-1,-1,-1,-1,-1,-1,-1,-1,-1,-1,-1,-1,-1,-1,-1,-1,-1,-1,-1,-1,-1,-1,-1],"split_conditions":[-2.855267E-2,-1.04804665E-1,8.3922826E-2,-6.6588193E-1,7.201663E-2,-1.4831112E-1,-7.7601485E-2,-1.3203833E0,-1.3840531E0,2.0617014E-1,-3.5738042E-1,-1.5661254E0,8.555983E-1,1.9170209E0,1.8665534E0,-2.3819584E-1,-5.7940894E-1,7.891853E-3,-4.177967E-1,-8.164092E-1,-1.0622408E0,1.0684751E0,2.0636451E-1,-8.557492E-1,-1.9904644E0,-1.6858678E-2,-9.123281E-2,-1.2423885E0,1.0222695E0,-6.027177E-1,-6.6342646E-1,6.3664064E-2,-1.2233751E0,3.9393812E-1,-1.7193056E0,-1.4380919E0,-1.1807681E-1,4.3039262E-2,-2.2647017E-1,-7.412015E-1,-4.882175E-1,1.2661621E-1,-1.0183543E0,-9.065786E-1,2.2881122E0,-9.506865E-3,-2.2928804E-1,-3.2737964E-1,-8.7721556E-1,-1.2339305E0,4.1579568E-1,-1.8377972E0,3.0834842E-1,6.283081E-1,2.614514E-2,-1.747184E-1,7.011163E-1,1.2688777E-1,7.7327144E-1,-1.4637538E0,1.7704214E-1,-1.5990103E0,6.1148605E-3,-8.810049E-2,3.6175385E-2,-7.851588E-2,9.510272E-2,4.543121E-2,8.039189E-3,-1.1782259E-1,1.2851293E-2,6.6585064E-2,2.1898553E-2,1.6287916E-3,2.101686E-2,-3.2974612E-3,-1.4950926E-2,-8.580084E-2,-2.8265198E-3,-5.7206254E-2,-2.2187598E-2,-5.736913E-2,1.085398E-2,1.6496234E-2,7.638987E-4,-1.2070222E-1,-4.9053174E-2,-9.445227E-3,-3.6924593E-2,-2.3631647E-2,3.5358176E-2,-4.838297E-3,4.4403333E-2,-1.898128E-2,-9.8885514E-2,3.540644E-2,1.3090275E-1,-8.3895086E-4,-3.2581188E-2,-8.248797E-2,3.8344443E-2,7.801219E-3,2.2364987E-2,-1.3128666E-3,-1.1475441E-1,2.1546643E-2,-3.2351617E-2,-1.094647E-1,-4.6270557E-2,-6.3144164E-3,-2.1712705E-2,4.2960066E-2,1.4243264E-2,3.5740856E-2,-2.4214175E-2,1.7026616E-2,1.2531005E-3,2.1779926E-2,1.0835911E-1,2.537092E-2,-5.8248967E-2],"split_indices":[17,7,5,5,6,12,23,6,16,4,4,7,28,24,7,28,4,30,22,4,23,28,24,30,4,14,18,29,0,11,12,3,8,23,24,24,0,18,26,6,13,0,30,30,31,24,27,2,25,0,1,18,22,12,18,6,13,0,4,8,24,0,23,0,0,0,0,0,0,0,0,0,0,0,0,0,0,0,0,0,0,0,0,0,0,0,0,0,0,0,0,0,0,0,0,0,0,0,0,0,0,0,0,0,0,0,0,0,0,0,0,0,0,0,0,0,0,0,0,0,0],"split_type":[0,0,0,0,0,0,0,0,0,0,0,0,0,0,0,0,0,0,0,0,0,0,0,0,0,0,0,0,0,0,0,0,0,0,0,0,0,0,0,0,0,0,0,0,0,0,0,0,0,0,0,0,0,0,0,0,0,0,0,0,0,0,0,0,0,0,0,0,0,0,0,0,0,0,0,0,0,0,0,0,0,0,0,0,0,0,0,0,0,0,0,0,0,0,0,0,0,0,0,0,0,0,0,0,0,0,0,0,0,0,0,0,0,0,0,0,0,0,0,0,0],"sum_hessian":[1.5702E4,7.669E3,8.033E3,3.332E3,4.337E3,4.652E3,3.381E3,6.63E2,2.669E3,1.32E3,3.017E3,1.324E3,3.328E3,1.303E3,2.078E3,4.9E1,6.14E2,1.33E2,2.536E3,1.121E3,1.99E2,1.695E3,1.322E3,2.6E1,1.298E3,3.13E3,1.98E2,1.292E3,1.1E1,2.027E3,5.1E1,3.4E1,1.5E1,2.4E2,3.74E2,1.31E2,2E0,8.71E2,1.665E3,3.96E2,7.25E2,5E0,1.94E2,1.685E3,1E1,1.181E3,1.41E2,4E0,2.2E1,7E0,1.291E3,3.29E2,2.801E3,2.2E1,1.76E2,1.8E1,1.274E3,5E0,6E0,1.26E2,1.901E3,3E0,4.8E1,2.9E1,5E0,3E0,1.2E1,1.73E2,6.7E1,4E0,3.7E2,4.1E1,9E1,6.46E2,2.25E2,1.079E3,5.86E2,2.5E1,3.71E2,2.11E2,5.14E2,2.1E1,1.73E2,2.33E2,1.452E3,7E0,3E0,8.75E2,3.06E2,2.1E1,1.2E2,2E0,2E0,3E0,1.9E1,2E0,5E0,1.172E3,1.19E2,7E0,3.22E2,1.776E3,1.025E3,6E0,1.6E1,3.6E1,1.4E2,5E0,1.3E1,8.86E2,3.88E2,4E0,2E0,1E1,1.16E2,4.98E2,1.403E3,1E0,2E0,6E0,4.2E1],"tree_param":{"num_deleted":"0","num_feature":"34","num_nodes":"121","size_leaf_vector":"1"}},{"base_weights":[-1.6232068E-4,-2.0214193E-2,7.003688E-1,-1.7729522E-1,6.011652E-2,1.4273483E-1,1.1924905E0,-2.3845716E0,-1.6393797E-1,4.1582024E-1,-6.922359E-3,-5.340071E-1,6.3218325E-1,6.3835037E-1,1.6536056E0,-3.5506463E0,-7.150061E-1,-6.876244E-1,-1.09677866E-1,-9.50428E-2,5.8196104E-1,-1.5214591E-3,-3.5331774E0,7.32464E-1,-1.0564948E0,9.605608E-1,-3.8496816E-1,9.3874896E-1,-1.2666775E0,2.9245465E0,1.1127343E0,-1.2608446E-1,-1.0144426E0,9.781981E-2,-1.1183923E-1,-1.6670077E-1,-1.239002E0,6.3392684E-2,-3.1719625E-1,8.646824E-2,-3.4936228E0,7.107059E-1,-1.9963419E-2,-1.9832024E-1,8.622049E-2,1.961018E-2,-3.9365544E0,2.402698E0,-9.343204E-3,-1.8836043E0,-2.7256215E-1,1.1054715E0,-7.402847E-2,3.1965014E-1,-1.4685332E0,-6.277614E-1,1.2480491E0,-2.7499196E-1,-7.082244E-2,3.840374E0,9.383747E-1,1.6624599E0,-4.6828035E-1,6.9254907E-3,-4.150434E-2,-2.5278518E-2,6.5680444E-2,-9.495199E-3,3.9571974E-2,-4.1819997E-2,1.4675276E-2,4.501394E-3,-1.41565725E-2,-1.5067498E-2,-1.8452195E-3,3.757746E-2,-4.862402E-3,-6.539253E-2,-1.4571813E-1,1.2161391E-2,3.564331E-2,2.294435E-2,-1.244866E-2,1.1031736E-2,-1.0617821E-2,5.153115E-3,-3.7096967E-3,-1.24186315E-1,-2.5555022E-2,2.7370028E-2,1.0994935E-1,2.6658155E-2,-3.3173926E-2,-3.4577634E-2,-1.12494774E-1,4.823701E-2,-2.5220485E-2,2.5133053E-2,8.7096974E-2,2.2133432E-2,-4.2983584E-2,-5.8593046E-2,1.9086188E-2,1.7371785E-2,-5.720894E-2,6.1076146E-2,1.5728991E-2,-2.2638397E-2,7.788831E-3,1.2242593E-1,2.1494675E-2,-6.524784E-4,7.436769E-2,1.1841509E-1,4.1190796E-2,-7.948916E-2,7.3564798E-3],"categories":[],"categories_nodes":[],"categories_segments":[],"categories_sizes":[],"default_left":[0,0,0,0,0,0,0,0,0,0,0,0,0,0,0,0,0,0,0,0,0,0,0,0,0,0,0,0,0,0,0,0,0,0,0,0,0,0,0,0,0,0,0,0,0,0,0,0,0,0,0,0,0,0,0,0,0,0,0,0,0,0,0,0,0,0,0,0,0,0,0,0,0,0,0,0,0,0,0,0,0,0,0,0,0,0,0,0,0,0,0,0,0,0,0,0,0,0,0,0,0,0,0,0,0,0,0,0,0,0,0,0,0,0,0,0,0],"id":8,"left_children":[1,3,5,7,9,11,13,15,17,19,21,23,25,27,29,31,33,35,37,39,41,43,45,47,49,51,53,55,57,59,61,-1,63,65,-1,67,69,71,73,75,77,79,81,83,85,-1,87,89,91,93,95,97,-1,99,101,103,105,107,-1,109,111,113,115,-1,-1,-1,-1,-1,-1,-1,-1,-1,-1,-1,-1,-1,-1,-1,-1,-1,-1,-1,-1,-1,-1,-1,-1,-1,-1,-1,-1,-1,-1,-1,-1,-1,-1,-1,-1,-1,-1,-1,-1,-1,-1,-1,-1,-1,-1,-1,-1,-1,-1,-1,-1,-1,-1],"loss_changes":[2.2059358E2,1.9265622E2,1.19752975E2,1.5191904E2,2.4089496E2,6.857102E1,5.8225616E1,5.7813248E1,1.4586548E2,1.3602536E2,1.6189575E2,5.8343094E1,4.045095E1,6.2421738E1,8.336011E1,2.550911E1,3.4650932E1,1.3823622E2,1.6720595E2,2.4335272E2,9.370526E1,1.4660098E2,2.4528625E1,3.2236233E1,3.9687294E1,4.7934822E1,2.3374409E1,4.5844017E1,1.5625418E1,6.3698944E1,7.899969E1,0E0,2.6171603E0,2.5448196E1,0E0,5.5839046E1,6.336209E1,1.1783954E2,1.0013748E2,1.0889137E2,2.524553E1,1.4469934E2,6.665305E1,2.3072513E2,1.054529E2,0E0,3.9878082E0,1.1706371E1,1.9689243E1,3.660515E1,3.6606617E1,3.9919197E1,0E0,1.4979291E1,1.3481262E1,2.5804554E1,4.3407112E1,2.5036533E0,0E0,1.5857758E1,1.928244E1,3.888559E1,3.8003124E1,0E0,0E0,0E0,0E0,0E0,0E0,0E0,0E0,0E0,0E0,0E0,0E0,0E0,0E0,0E0,0E0,0E0,0E0,0E0,0E0,0E0,0E0,0E0,0E0,0E0,0E0,0E0,0E0,0E0,0E0,0E0,0E0,0E0,0E0,0E0,0E0,0E0,0E0,0E0,0E0,0E0,0E0,0E0,0E0,0E0,0E0,0E0,0E0,0E0,0E0,0E0,0E0,0E0,0E0],"parents":[2147483647,0,0,1,1,2,2,3,3,4,4,5,5,6,6,7,7,8,8,9,9,10,10,11,11,12,12,13,13,14,14,15,15,16,16,17,17,18,18,19,19,20,20,21,21,22,22,23,23,24,24,25,25,26,26,27,27,28,28,29,29,30,30,32,32,33,33,35,35,36,36,37,37,38,38,39,39,40,40,41,41,42,42,43,43,44,44,46,46,47,47,48,48,49,49,50,50,51,51,53,53,54,54,55,55,56,56,57,57,59,59,60,60,61,61,62,62],"right_children":[2,4,6,8,10,12,14,16,18,20,22,24,26,28,30,32,34,36,38,40,42,44,46,48,50,52,54,56,58,60,62,-1,64,66,-1,68,70,72,74,76,78,80,82,84,86,-1,88,90,92,94,96,98,-1,100,102,104,106,108,-1,110,112,114,116,-1,-1,-1,-1,-1,-1,-1,-1,-1,-1,-1,-1,-1,-1,-1,-1,-1,-1,-1,-1,-1,-1,-1,-1,-1,-1,-1,-1,-1,-1,-1,-1,-1,-1,-1,-1,-1,-1,-1,-1,-1,-1,-1,-1,-1,-1,-1,-1,-1,-1,-1,-1,-1,-1],"split_conditions":[9.0248734E-1,-2.5806826E-1,3.2409275E-1,-1.8603382E0,-6.605402E-1,2.0024225E-1,9.349401E-1,-6.0810417E-1,-1.0101696E0,-6.843274E-2,1.0684751E0,9.445803E-1,5.4063547E-1,2.0764934E-1,3.6946332E-1,-1.0606762E0,-1.2538841E0,-1.265546E0,8.1429146E-2,5.235168E-1,1.0467399E0,-4.249713E-1,4.0728164E-1,-1.05100244E-1,9.9011946E-1,2.2070844E0,1.6486313E0,1.7717555E-1,-1.5659806E-1,5.188945E-1,1.2851272E0,-1.2608446E-1,2.7591932E-1,2.8368995E-1,-1.1183923E-1,7.4102166E-3,-3.9623043E-1,8.67079E-1,8.188708E-2,-8.392943E-1,9.464233E-2,6.319612E-2,3.255509E-1,-1.174272E0,5.061434E-1,1.961018E-2,1.7376698E0,2.614514E-2,9.819673E-1,4.9833342E-2,3.4001407E-1,1.8671252E0,-7.402847E-2,1.3579473E0,2.3266876E0,4.8035058E-1,1.7491068E-1,4.3039262E-2,-7.082244E-2,5.548319E-1,-6.4928514E-1,8.912053E-1,-6.442902E-1,6.9254907E-3,-4.150434E-2,-2.5278518E-2,6.5680444E-2,-9.495199E-3,3.9571974E-2,-4.1819997E-2,1.4675276E-2,4.501394E-3,-1.41565725E-2,-1.5067498E-2,-1.8452195E-3,3.757746E-2,-4.862402E-3,-6.539253E-2,-1.4571813E-1,1.2161391E-2,3.564331E-2,2.294435E-2,-1.244866E-2,1.1031736E-2,-1.0617821E-2,5.153115E-3,-3.7096967E-3,-1.24186315E-1,-2.5555022E-2,2.7370028E-2,1.0994935E-1,2.6658155E-2,-3.3173926E-2,-3.4577634E-2,-1.12494774E-1,4.823701E-2,-2.5220485E-2,2.5133053E-2,8.7096974E-2,2.2133432E-2,-4.2983584E-2,-5.8593046E-2,1.9086188E-2,1.7371785E-2,-5.720894E-2,6.1076146E-2,1.5728991E-2,-2.2638397E-2,7.788831E-3,1.2242593E-1,2.1494675E-2,-6.524784E-4,7.436769E-2,1.1841509E-1,4.1190796E-2,-7.948916E-2,7.3564798E-3],"split_indices":[26,23,21,6,7,22,24,23,10,18,28,26,28,28,4,7,5,17,22,11,24,12,13,4,17,7,10,30,5,28,21,0,4,1,0,4,3,4,4,5,2,15,28,17,14,0,3,18,14,21,4,10,0,1,12,24,5,18,0,13,7,14,13,0,0,0,0,0,0,0,0,0,0,0,0,0,0,0,0,0,0,0,0,0,0,0,0,0,0,0,0,0,0,0,0,0,0,0,0,0,0,0,0,0,0,0,0,0,0,0,0,0,0,0,0,0,0],"split_type":[0,0,0,0,0,0,0,0,0,0,0,0,0,0,0,0,0,0,0,0,0,0,0,0,0,0,0,0,0,0,0,0,0,0,0,0,0,0,0,0,0,0,0,0,0,0,0,0,0,0,0,0,0,0,0,0,0,0,0,0,0,0,0,0,0,0,0,0,0,0,0,0,0,0,0,0,0,0,0,0,0,0,0,0,0,0,0,0,0,0,0,0,0,0,0,0,0,0,0,0,0,0,0,0,0,0,0,0,0,0,0,0,0,0,0,0,0],"sum_hessian":[1.5702E4,1.5266E4,4.36E2,5.165E3,1.0101E4,2.05E2,2.31E2,3E1,5.135E3,1.601E3,8.5E3,8.6E1,1.19E2,1.06E2,1.25E2,1.7E1,1.3E1,4.81E2,4.654E3,3.93E2,1.208E3,8.488E3,1.2E1,2.5E1,6.1E1,9E1,2.9E1,9.2E1,1.4E1,3.6E1,8.9E1,1.3E1,4E0,1.1E1,2E0,2.48E2,2.33E2,2.538E3,2.116E3,3.74E2,1.9E1,9.95E2,2.13E2,2.617E3,5.871E3,1E0,1.1E1,7E0,1.8E1,2.9E1,3.2E1,8.7E1,3E0,1.8E1,1.1E1,1.5E1,7.7E1,8E0,6E0,2.4E1,1.2E1,6.6E1,2.3E1,1E0,3E0,8E0,3E0,2.26E2,2.2E1,2.14E2,1.9E1,2.185E3,3.53E2,1.227E3,8.89E2,6.5E1,3.09E2,1.1E1,8E0,6.08E2,3.87E2,7.1E1,1.42E2,5.64E2,2.053E3,4.171E3,1.7E3,1E1,1E0,4E0,3E0,1E1,8E0,2.2E1,7E0,7E0,2.5E1,7.7E1,1E1,1.5E1,3E0,9E0,2E0,8E0,7E0,3.6E1,4.1E1,4E0,4E0,2.2E1,2E0,8E0,4E0,6E0,6E1,5E0,1.8E1],"tree_param":{"num_deleted":"0","num_feature":"34","num_nodes":"117","size_leaf_vector":"1"}},{"base_weights":[-1.7420649E-4,-1.3155082E-1,1.03537895E-1,-5.1794894E-2,-6.037403E-1,2.1026582E-1,-1.4868227E-1,-3.551345E-2,-2.0045109E0,-1.5874681E-1,-1.3123212E0,-2.0289336E-1,2.988108E-1,-4.7375342E-1,3.6408514E-2,2.3434934E-1,-1.3827981E-1,1.4737897E0,-2.6193178E0,-1.2605344E0,8.592441E-2,-1.7439626E0,6.6333845E-2,-1.17950775E-1,-2.0033493E0,3.463978E-1,-7.741608E-1,-2.1967974E0,-4.1886547E-1,-8.49813E-1,8.762182E-2,3.9163503E-1,-1.8906727E-1,-9.9168345E-2,-9.662339E-1,2.1947348E0,-4.5936355E-1,-2.7533553E0,4.3143257E-2,-1.9333764E0,-4.1785327E-1,4.1380155E-1,-4.7862726E-1,-1.975221E0,-4.20439E-1,-6.8201476E-1,1.9208902E0,1.1623496E0,-2.0300868E-1,-3.429189E0,-1.3350365E0,2.3177931E-2,4.5061627E-1,-1.7227831E0,-4.78053E-1,-1.3390756E0,-3.4786077E0,3.1715655E-1,-5.4711086E-1,-1.5633744E0,1.9898541E-2,-3.1366282E0,1.01959914E-1,9.441878E-3,3.9663468E-2,-6.881049E-2,-1.2140383E-3,7.241675E-3,-5.724289E-3,9.081036E-3,-3.723635E-2,1.9913089E-2,7.104521E-2,9.474167E-3,-3.0145526E-2,-4.022313E-2,-1.008394E-1,-9.996836E-2,-3.4067713E-2,-2.7016148E-2,2.4018798E-2,-1.5374255E-2,2.1434136E-2,-1.7635679E-2,8.688634E-2,1.3965585E-2,-6.1734907E-2,-2.1174798E-2,8.0437206E-2,-8.784256E-2,-7.09792E-3,1.01102546E-1,-5.1433127E-3,5.7641435E-2,6.876204E-4,-2.508772E-2,-1.1987665E-3,-1.24137126E-1,-1.3372373E-2,-1.1308642E-2,-7.762046E-2,-3.685595E-4,8.986107E-2,2.9508175E-2,1.1726496E-2,-1.645696E-2,-7.783958E-2,-8.61237E-2,-9.188097E-3,6.3935244E-3,-6.786844E-2,-5.176933E-2,-1.176079E-1,1.8292122E-2,-2.8661704E-2,-1.8529398E-2,2.335597E-2,-2.2945413E-2,-7.1897306E-2,5.5089373E-2,-1.0015374E-2,-5.5902926E-3,-1.2838422E-1,4.661705E-3,-1.8871205E-2],"categories":[],"categories_nodes":[],"categories_segments":[],"categories_sizes":[],"default_left":[0,0,0,0,0,0,0,0,0,0,0,0,0,0,0,0,0,0,0,0,0,0,0,0,0,0,0,0,0,0,0,0,0,0,0,0,0,0,0,0,0,0,0,0,0,0,0,0,0,0,0,0,0,0,0,0,0,0,0,0,0,0,0,0,0,0,0,0,0,0,0,0,0,0,0,0,0,0,0,0,0,0,0,0,0,0,0,0,0,0,0,0,0,0,0,0,0,0,0,0,0,0,0,0,0,0,0,0,0,0,0,0,0,0,0,0,0,0,0,0,0,0,0,0,0],"id":9,"left_children":[1,3,5,7,9,11,13,15,17,19,21,23,25,27,29,31,33,35,37,39,41,43,45,47,49,51,53,55,57,59,61,63,65,67,69,71,73,75,-1,77,79,81,83,85,87,89,91,93,95,97,99,101,103,105,107,109,111,113,115,117,119,121,123,-1,-1,-1,-1,-1,-1,-1,-1,-1,-1,-1,-1,-1,-1,-1,-1,-1,-1,-1,-1,-1,-1,-1,-1,-1,-1,-1,-1,-1,-1,-1,-1,-1,-1,-1,-1,-1,-1,-1,-1,-1,-1,-1,-1,-1,-1,-1,-1,-1,-1,-1,-1,-1,-1,-1,-1,-1,-1,-1,-1,-1,-1],"loss_changes":[2.1397243E2,2.6087656E2,2.3627182E2,1.8839792E2,3.1542087E2,2.256691E2,1.5705487E2,1.6310138E2,1.08645996E2,1.6616695E2,2.2981842E2,1.6631033E2,2.595992E2,8.864174E1,7.559732E1,1.0809497E2,1.3782126E2,1.2157759E1,2.6801208E1,6.269516E1,9.367536E1,8.915588E1,1.3038055E2,1.1360052E2,4.211432E1,1.6383575E2,5.9849625E1,2.7225555E1,8.6919266E1,5.6505035E1,7.308519E1,8.4238556E1,1.3751476E2,1.2700479E2,6.73701E1,2.1255493E-2,1.585872E0,3.0703705E1,0E0,6.5409424E1,3.0716234E1,8.948722E1,7.026764E1,5.1364807E1,4.1725628E1,6.633665E1,8.244718E1,5.6172043E1,1.00842896E2,2.9871735E1,4.10183E1,1.25150826E2,1.1671246E2,5.078868E1,6.735203E1,2.7709011E1,1.7512817E0,5.159076E1,7.3695465E1,3.1433731E1,2.7599983E1,2.2804588E1,6.133996E1,0E0,0E0,0E0,0E0,0E0,0E0,0E0,0E0,0E0,0E0,0E0,0E0,0E0,0E0,0E0,0E0,0E0,0E0,0E0,0E0,0E0,0E0,0E0,0E0,0E0,0E0,0E0,0E0,0E0,0E0,0E0,0E0,0E0,0E0,0E0,0E0,0E0,0E0,0E0,0E0,0E0,0E0,0E0,0E0,0E0,0E0,0E0,0E0,0E0,0E0,0E0,0E0,0E0,0E0,0E0,0E0,0E0,0E0,0E0,0E0,0E0,0E0],"parents":[2147483647,0,0,1,1,2,2,3,3,4,4,5,5,6,6,7,7,8,8,9,9,10,10,11,11,12,12,13,13,14,14,15,15,16,16,17,17,18,18,19,19,20,20,21,21,22,22,23,23,24,24,25,25,26,26,27,27,28,28,29,29,30,30,31,31,32,32,33,33,34,34,35,35,36,36,37,37,39,39,40,40,41,41,42,42,43,43,44,44,45,45,46,46,47,47,48,48,49,49,50,50,51,51,52,52,53,53,54,54,55,55,56,56,57,57,58,58,59,59,60,60,61,61,62,62],"right_children":[2,4,6,8,10,12,14,16,18,20,22,24,26,28,30,32,34,36,38,40,42,44,46,48,50,52,54,56,58,60,62,64,66,68,70,72,74,76,-1,78,80,82,84,86,88,90,92,94,96,98,100,102,104,106,108,110,112,114,116,118,120,122,124,-1,-1,-1,-1,-1,-1,-1,-1,-1,-1,-1,-1,-1,-1,-1,-1,-1,-1,-1,-1,-1,-1,-1,-1,-1,-1,-1,-1,-1,-1,-1,-1,-1,-1,-1,-1,-1,-1,-1,-1,-1,-1,-1,-1,-1,-1,-1,-1,-1,-1,-1,-1,-1,-1,-1,-1,-1,-1,-1,-1,-1,-1],"split_conditions":[-1.3683783E-1,0E0,3.465017E-1,1.0163715E0,-1.5023377E-2,-4.064855E-1,-7.7601485E-2,-3.628596E-1,-1.0386305E0,-2.4609949E-1,4.756084E-1,3.5483238E-1,8.6978966E-1,-3.3997896E0,-5.124786E-1,2.2911842E-1,3.7090227E-1,-5.811531E-1,3.97855E-1,3.0992684E-1,-1.970361E-1,-2.5373754E-1,1.1337235E0,-3.657901E-1,3.2380062E-1,-4.339567E-1,5.1373196E-1,5.693285E-1,-6.8930215E-1,8.7014204E-1,-1.9403822E0,4.6669114E-2,-1.0062304E0,-1.2545625E0,-5.515737E-2,-8.88153E-1,-8.216279E-1,-3.003449E-1,4.3143257E-2,-4.8880276E-1,-1.1521827E-1,-2.701384E-1,5.0192493E-1,-2.4469185E0,5.0689864E-1,7.384541E-1,1.0122734E0,-6.6991776E-2,-7.78297E-1,1.3407835E0,7.6375765E-1,1.9170209E0,-2.0760953E-1,-1.6588001E-1,-8.015901E-3,3.8915345E-1,-5.673804E-1,1.3999059E0,1.8402714E0,-4.6408468E-1,-8.2648826E-1,-1.2187937E0,1.6733054E0,9.441878E-3,3.9663468E-2,-6.881049E-2,-1.2140383E-3,7.241675E-3,-5.724289E-3,9.081036E-3,-3.723635E-2,1.9913089E-2,7.104521E-2,9.474167E-3,-3.0145526E-2,-4.022313E-2,-1.008394E-1,-9.996836E-2,-3.4067713E-2,-2.7016148E-2,2.4018798E-2,-1.5374255E-2,2.1434136E-2,-1.7635679E-2,8.688634E-2,1.3965585E-2,-6.1734907E-2,-2.1174798E-2,8.0437206E-2,-8.784256E-2,-7.09792E-3,1.01102546E-1,-5.1433127E-3,5.7641435E-2,6.876204E-4,-2.508772E-2,-1.1987665E-3,-1.24137126E-1,-1.3372373E-2,-1.1308642E-2,-7.762046E-2,-3.685595E-4,8.986107E-2,2.9508175E-2,1.1726496E-2,-1.645696E-2,-7.783958E-2,-8.61237E-2,-9.188097E-3,6.3935244E-3,-6.786844E-2,-5.176933E-2,-1.176079E-1,1.8292122E-2,-2.8661704E-2,-1.8529398E-2,2.335597E-2,-2.2945413E-2,-7.1897306E-2,5.5089373E-2,-1.0015374E-2,-5.5902926E-3,-1.2838422E-1,4.661705E-3,-1.8871205E-2],"split_indices":[17,24,5,28,27,12,23,7,26,18,3,15,28,18,10,22,8,1,1,23,10,17,29,4,24,23,11,25,23,13,12,3,6,4,30,0,0,21,0,28,10,4,7,22,28,3,13,3,6,21,11,24,26,23,30,22,28,4,5,22,26,1,6,0,0,0,0,0,0,0,0,0,0,0,0,0,0,0,0,0,0,0,0,0,0,0,0,0,0,0,0,0,0,0,0,0,0,0,0,0,0,0,0,0,0,0,0,0,0,0,0,0,0,0,0,0,0,0,0,0,0,0,0,0,0],"split_type":[0,0,0,0,0,0,0,0,0,0,0,0,0,0,0,0,0,0,0,0,0,0,0,0,0,0,0,0,0,0,0,0,0,0,0,0,0,0,0,0,0,0,0,0,0,0,0,0,0,0,0,0,0,0,0,0,0,0,0,0,0,0,0,0,0,0,0,0,0,0,0,0,0,0,0,0,0,0,0,0,0,0,0,0,0,0,0,0,0,0,0,0,0,0,0,0,0,0,0,0,0,0,0,0,0,0,0,0,0,0,0,0,0,0,0,0,0,0,0,0,0,0,0,0,0],"sum_hessian":[1.5702E4,6.927E3,8.775E3,5.927E3,1E3,6.166E3,2.609E3,5.879E3,4.8E1,6.15E2,3.85E2,1.088E3,5.078E3,9.46E2,1.663E3,1.621E3,4.258E3,7E0,4.1E1,1.11E2,5.04E2,2.93E2,9.2E1,1.04E3,4.8E1,4.863E3,2.15E2,2.8E1,9.18E2,9E1,1.573E3,1.182E3,4.39E2,4.067E3,1.91E2,5E0,2E0,4E1,1E0,6.1E1,5E1,3.19E2,1.85E2,2.49E2,4.4E1,6.6E1,2.6E1,6.4E1,9.76E2,1.4E1,3.4E1,1.186E3,3.677E3,5E1,1.65E2,1.8E1,1E1,1.36E2,7.82E2,4.9E1,4.1E1,6E0,1.567E3,1.093E3,8.9E1,2.8E1,4.11E2,8.62E2,3.205E3,3.4E1,1.57E2,1E0,4E0,1E0,1E0,1.3E1,2.7E1,2.1E1,4E1,3.6E1,1.4E1,7.8E1,2.41E2,1.8E2,5E0,8E0,2.41E2,4.1E1,3E0,1E1,5.6E1,1.5E1,1.1E1,3.8E1,2.6E1,1.99E2,7.77E2,1.1E1,3E0,2E1,1.4E1,1.173E3,1.3E1,3.69E2,3.308E3,2.2E1,2.8E1,1E1,1.55E2,7E0,1.1E1,3E0,7E0,1.11E2,2.5E1,7.43E2,3.9E1,2.6E1,2.3E1,6E0,3.5E1,2E0,4E0,1.461E3,1.06E2],"tree_param":{"num_deleted":"0","num_feature":"34","num_nodes":"125","size_leaf_vector":"1"}},{"base_weights":[-2.2069138E-4,-1.950724E-2,6.7357326E-1,-1.6940802E-1,5.7151537E-2,-5.244959E-1,8.881206E-1,-2.3084314E0,-1.5646426E-1,3.983303E-1,-7.149788E-3,-1.3125945E0,7.687594E-1,1.3342924E0,3.1682876E-1,-2.6761692E0,2.0158443E0,-6.6130126E-1,-1.0415752E-1,-9.615531E-2,5.591484E-1,-2.0022055E-3,-3.3679712E0,4.163269E-1,-1.7967345E0,2.309624E0,3.8361937E-1,1.5747463E0,-4.0945172E-1,2.7572849E0,1.2334966E-1,-5.3239226E-1,-3.776452E0,4.554457E-3,8.615854E-2,-1.586906E-1,-1.1933045E0,6.271565E-2,-3.0424577E-1,8.052403E-2,-3.4040852E0,6.843898E-1,-2.6364172E-2,-2.2563651E-1,7.1585976E-2,1.945385E-2,-3.7567124E0,4.6593882E-2,-2.927498E-1,4.8174918E-1,-2.1276202E0,2.0927414E-2,9.455378E-2,5.276725E-1,-3.962245E-2,1.8081139E0,-3.116194E-1,-4.477239E-2,-7.211985E-2,-1.1759205E-2,3.426334E0,1.0271213E-1,1.1770532E-2,-4.5528714E-2,1.6247137E-2,-1.3585354E-1,-4.1771337E-2,-1.066474E-3,-5.8491483E-2,-4.0291004E-2,1.42784165E-2,4.3822723E-3,-1.3566655E-2,-4.6751057E-3,-1.8884419E-2,2.5930844E-2,-8.084933E-3,-6.370006E-2,-1.4200558E-1,9.242397E-3,3.131489E-2,2.1979028E-2,-1.2249987E-2,-1.4910467E-2,-1.7552641E-3,-3.817652E-3,4.6719257E-3,-1.1835756E-1,-2.5241623E-2,2.8845682E-4,-1.565782E-2,-3.331778E-3,1.9731482E-2,-7.134886E-2,-1.3461578E-2,2.437944E-2,1.7223284E-3,-2.6993316E-2,5.91663E-2,3.2597065E-2,-3.2649767E-2,-1.5786821E-2,3.392614E-2,1.3880696E-2,1.1112653E-1,-2.0029726E-2,1.3564485E-2],"categories":[],"categories_nodes":[],"categories_segments":[],"categories_sizes":[],"default_left":[0,0,0,0,0,0,0,0,0,0,0,0,0,0,0,0,0,0,0,0,0,0,0,0,0,0,0,0,0,0,0,0,0,0,0,0,0,0,0,0,0,0,0,0,0,0,0,0,0,0,0,0,0,0,0,0,0,0,0,0,0,0,0,0,0,0,0,0,0,0,0,0,0,0,0,0,0,0,0,0,0,0,0,0,0,0,0,0,0,0,0,0,0,0,0,0,0,0,0,0,0,0,0,0,0,0,0],"id":10,"left_children":[1,3,5,7,9,11,13,15,17,19,21,23,25,27,29,31,33,35,37,39,41,43,45,47,49,51,53,55,57,59,61,63,65,-1,-1,67,69,71,73,75,77,79,81,83,85,-1,87,-1,89,91,93,-1,-1,95,-1,97,99,101,-1,-1,103,-1,105,-1,-1,-1,-1,-1,-1,-1,-1,-1,-1,-1,-1,-1,-1,-1,-1,-1,-1,-1,-1,-1,-1,-1,-1,-1,-1,-1,-1,-1,-1,-1,-1,-1,-1,-1,-1,-1,-1,-1,-1,-1,-1,-1,-1],"loss_changes":[2.0407614E2,1.7544598E2,1.1279341E2,1.4266983E2,2.2162303E2,6.9296326E1,9.4143036E1,5.4690933E1,1.3555429E2,1.2744833E2,1.4706145E2,3.590371E1,1.454365E1,8.785712E1,7.709696E1,6.6393524E1,4.3514166E0,1.2869287E2,1.5544656E2,2.3054459E2,8.867456E1,1.3971829E2,2.2733673E1,8.51548E0,2.5904266E1,4.5894337E0,6.0983524E0,8.112314E1,1.8803951E1,2.6627136E1,5.630263E1,1.2461031E1,2.77583E1,0E0,0E0,5.484752E1,5.9124084E1,1.0905322E2,1.0208475E2,1.03118034E2,2.4002625E1,1.343981E2,6.234068E1,9.530704E1,1.06900375E2,0E0,3.2763672E0,0E0,4.9008536E-1,5.946189E-1,1.1137726E1,0E0,0E0,2.7676187E0,0E0,7.4204346E1,2.398815E1,1.36135435E1,0E0,0E0,6.521576E0,0E0,4.4883553E1,0E0,0E0,0E0,0E0,0E0,0E0,0E0,0E0,0E0,0E0,0E0,0E0,0E0,0E0,0E0,0E0,0E0,0E0,0E0,0E0,0E0,0E0,0E0,0E0,0E0,0E0,0E0,0E0,0E0,0E0,0E0,0E0,0E0,0E0,0E0,0E0,0E0,0E0,0E0,0E0,0E0,0E0,0E0,0E0],"parents":[2147483647,0,0,1,1,2,2,3,3,4,4,5,5,6,6,7,7,8,8,9,9,10,10,11,11,12,12,13,13,14,14,15,15,16,16,17,17,18,18,19,19,20,20,21,21,22,22,23,23,24,24,25,25,26,26,27,27,28,28,29,29,30,30,31,31,32,32,35,35,36,36,37,37,38,38,39,39,40,40,41,41,42,42,43,43,44,44,46,46,48,48,49,49,50,50,53,53,55,55,56,56,57,57,60,60,62,62],"right_children":[2,4,6,8,10,12,14,16,18,20,22,24,26,28,30,32,34,36,38,40,42,44,46,48,50,52,54,56,58,60,62,64,66,-1,-1,68,70,72,74,76,78,80,82,84,86,-1,88,-1,90,92,94,-1,-1,96,-1,98,100,102,-1,-1,104,-1,106,-1,-1,-1,-1,-1,-1,-1,-1,-1,-1,-1,-1,-1,-1,-1,-1,-1,-1,-1,-1,-1,-1,-1,-1,-1,-1,-1,-1,-1,-1,-1,-1,-1,-1,-1,-1,-1,-1,-1,-1,-1,-1,-1,-1],"split_conditions":[9.0248734E-1,-2.5806826E-1,3.580913E-1,-1.8603382E0,-6.605402E-1,4.204911E-1,7.533796E-1,1.8631976E0,-1.0101696E0,-6.843274E-2,1.0684751E0,-3.929332E-1,4.604368E-1,1.4944001E0,-1.6481466E0,2.614514E-2,9.33241E-2,-1.265546E0,8.1429146E-2,5.235168E-1,1.0467399E0,-4.5022967E-1,4.0728164E-1,8.0882233E-1,-2.854257E-1,1.0877631E0,2.4184175E0,7.197704E-1,1.0077966E0,-1.1447309E0,7.216805E-1,-1.8136421E-1,-1.3122172E0,4.554457E-3,8.615854E-2,7.5280124E-1,-3.9623043E-1,8.67079E-1,2.614514E-2,-6.454446E-1,9.464233E-2,-1.0580404E-1,3.255509E-1,-2.5373754E-1,-4.892797E-1,1.945385E-2,1.7376698E0,4.6593882E-2,3.1402287E-1,-1.1401485E0,8.510246E-1,2.0927414E-2,9.455378E-2,1.4276263E-1,-3.962245E-2,-7.087729E-1,-1.7374709E0,3.2208014E-1,-7.211985E-2,-1.1759205E-2,-9.634226E-1,1.0271213E-1,2.160512E-1,-4.5528714E-2,1.6247137E-2,-1.3585354E-1,-4.1771337E-2,-1.066474E-3,-5.8491483E-2,-4.0291004E-2,1.42784165E-2,4.3822723E-3,-1.3566655E-2,-4.6751057E-3,-1.8884419E-2,2.5930844E-2,-8.084933E-3,-6.370006E-2,-1.4200558E-1,9.242397E-3,3.131489E-2,2.1979028E-2,-1.2249987E-2,-1.4910467E-2,-1.7552641E-3,-3.817652E-3,4.6719257E-3,-1.1835756E-1,-2.5241623E-2,2.8845682E-4,-1.565782E-2,-3.331778E-3,1.9731482E-2,-7.134886E-2,-1.3461578E-2,2.437944E-2,1.7223284E-3,-2.6993316E-2,5.91663E-2,3.2597065E-2,-3.2649767E-2,-1.5786821E-2,3.392614E-2,1.3880696E-2,1.1112653E-1,-2.0029726E-2,1.3564485E-2],"split_indices":[26,23,17,6,7,22,4,4,10,18,28,22,8,22,7,18,0,17,22,11,24,29,13,12,4,0,3,28,7,23,14,29,7,0,0,12,3,4,18,5,2,25,28,17,16,0,3,0,3,4,31,0,0,24,0,22,27,7,0,0,21,0,21,0,0,0,0,0,0,0,0,0,0,0,0,0,0,0,0,0,0,0,0,0,0,0,0,0,0,0,0,0,0,0,0,0,0,0,0,0,0,0,0,0,0,0,0],"split_type":[0,0,0,0,0,0,0,0,0,0,0,0,0,0,0,0,0,0,0,0,0,0,0,0,0,0,0,0,0,0,0,0,0,0,0,0,0,0,0,0,0,0,0,0,0,0,0,0,0,0,0,0,0,0,0,0,0,0,0,0,0,0,0,0,0,0,0,0,0,0,0,0,0,0,0,0,0,0,0,0,0,0,0,0,0,0,0,0,0,0,0,0,0,0,0,0,0,0,0,0,0,0,0,0,0,0,0],"sum_hessian":[1.5702E4,1.5266E4,4.36E2,5.165E3,1.0101E4,6.6E1,3.7E2,3E1,5.135E3,1.601E3,8.5E3,4.1E1,2.5E1,2.07E2,1.63E2,2.8E1,2E0,4.81E2,4.654E3,3.93E2,1.208E3,8.488E3,1.2E1,9E0,3.2E1,4E0,2.1E1,1.82E2,2.5E1,1.1E1,1.52E2,1E1,1.8E1,1E0,1E0,2.48E2,2.33E2,2.538E3,2.116E3,3.74E2,1.9E1,9.95E2,2.13E2,2.101E3,6.387E3,1E0,1.1E1,3E0,6E0,4E0,2.8E1,2E0,2E0,2E1,1E0,1.62E2,2E1,2.2E1,3E0,2E0,9E0,4E0,1.48E2,5E0,5E0,1.3E1,5E0,2.33E2,1.5E1,2.14E2,1.9E1,2.185E3,3.53E2,1.454E3,6.62E2,1.15E2,2.59E2,1.1E1,8E0,4.87E2,5.08E2,7.1E1,1.42E2,8E2,1.301E3,1.899E3,4.488E3,1E1,1E0,3E0,3E0,1E0,3E0,2.4E1,4E0,1.2E1,8E0,9E0,1.53E2,7E0,1.3E1,1.6E1,6E0,1E0,8E0,5.8E1,9E1],"tree_param":{"num_deleted":"0","num_feature":"34","num_nodes":"107","size_leaf_vector":"1"}},{"base_weights":[-2.3060424E-4,-1.14835046E-1,1.09181434E-1,-3.0959724E-2,-4.9409345E-1,2.4683152E-1,-8.023166E-2,2.4857423E-1,-1.3314298E-1,-1.9777423E-1,-1.2419103E0,-1.4281675E-1,4.0184417E-1,-3.418435E-1,8.389631E-2,4.3065992E-1,-1.2900938E-1,-1.1528927E-1,-2.6010349E0,-3.0251443E-1,1.1505934E0,-1.6393095E0,6.192245E-2,-2.255026E0,-9.8804064E-2,4.8432142E-1,-8.978444E-1,-3.6962467E-1,2.6800697E0,1.1707002E-1,-1.2114918E0,1.5211418E0,3.6623213E-1,-3.208823E-1,6.932257E-1,-6.638746E-1,-6.436474E-2,4.719199E-2,-2.9210758E0,2.9398974E-3,-7.4851805E-1,3.5463185E0,7.9571646E-1,-1.9096296E0,-3.3328438E-1,-6.6484386E-1,1.8630861E0,7.784219E-1,-2.8164268E0,3.585647E0,-1.2154153E-1,1.1280833E0,4.0833077E-1,-2.6878102E0,-6.601774E-1,-2.210179E0,-3.419069E-1,1.20182835E-1,1.1606097E0,-6.0444385E-1,1.6518526E-1,3.0223143E0,-1.5323843E0,-6.541782E-3,6.35355E-2,8.357891E-3,3.5932764E-2,2.3587905E-2,-1.6315017E-2,7.077836E-2,1.0216708E-2,-2.185537E-3,-3.0142149E-2,-1.2618772E-3,-3.578987E-2,-9.3401335E-2,4.2719763E-2,1.6354523E-3,-8.362714E-2,-9.389792E-2,-1.9019498E-2,1.4193413E-1,-1.2010952E-2,1.6536998E-2,1.2975466E-1,1.3768925E-2,-5.9694804E-2,-1.128057E-1,6.960483E-4,-8.5555166E-2,-6.933848E-3,9.812982E-2,-5.081442E-3,-4.6678525E-3,4.3588948E-2,-1.8471312E-2,-9.3472466E-2,3.3792946E-2,1.2652941E-1,-7.879594E-4,-3.155561E-2,-8.1129394E-2,3.6585324E-2,7.1082516E-3,2.1143196E-2,-6.524096E-4,-1.08824834E-1,2.1388812E-2,-3.0474665E-2,-1.1333106E-1,-4.6209782E-2,-6.8068965E-3,-2.3507807E-2,4.0853586E-2,1.315337E-2,3.0332329E-2,-2.345436E-2,1.6274763E-2,9.2903414E-4,2.1659445E-2,1.0645294E-1,-1.3176884E-1,-3.54169E-2],"categories":[],"categories_nodes":[],"categories_segments":[],"categories_sizes":[],"default_left":[0,0,0,0,0,0,0,0,0,0,0,0,0,0,0,0,0,0,0,0,0,0,0,0,0,0,0,0,0,0,0,0,0,0,0,0,0,0,0,0,0,0,0,0,0,0,0,0,0,0,0,0,0,0,0,0,0,0,0,0,0,0,0,0,0,0,0,0,0,0,0,0,0,0,0,0,0,0,0,0,0,0,0,0,0,0,0,0,0,0,0,0,0,0,0,0,0,0,0,0,0,0,0,0,0,0,0,0,0,0,0,0,0,0,0,0,0,0,0,0,0,0,0],"id":11,"left_children":[1,3,5,7,9,11,13,15,17,19,21,23,25,27,29,31,33,35,37,39,41,43,45,47,49,51,53,55,57,59,61,63,65,67,69,71,73,-1,75,77,79,81,83,85,87,89,91,93,95,97,99,101,103,105,107,109,111,-1,113,115,117,119,121,-1,-1,-1,-1,-1,-1,-1,-1,-1,-1,-1,-1,-1,-1,-1,-1,-1,-1,-1,-1,-1,-1,-1,-1,-1,-1,-1,-1,-1,-1,-1,-1,-1,-1,-1,-1,-1,-1,-1,-1,-1,-1,-1,-1,-1,-1,-1,-1,-1,-1,-1,-1,-1,-1,-1,-1,-1,-1,-1,-1],"loss_changes":[1.9691411E2,2.4397064E2,2.094881E2,1.7947018E2,3.0754642E2,2.811005E2,1.4524435E2,1.15697365E2,2.0242487E2,1.4101144E2,2.0424951E2,1.2295448E2,3.57286E2,1.104646E2,8.948234E1,7.918498E1,8.667745E1,1.27598915E2,4.86792E1,1.26018425E2,5.8391647E1,1.0598309E2,1.22978E2,4.8172836E1,1.09259636E2,1.5270746E2,8.2883316E1,6.5208084E1,1.9528595E1,7.0503525E1,7.527837E1,6.584291E1,7.785741E1,1.10271385E2,6.0303276E1,7.809267E1,1.0521457E2,0E0,3.0335938E1,7.9308586E1,1.0057143E2,4.3979134E1,5.2840687E1,4.8401855E1,6.483437E1,6.289262E1,7.781527E1,3.3762472E0,1.32322235E1,7.682892E0,1.144909E2,1.18925476E2,1.4219424E2,5.7542038E1,8.716207E1,1.4131294E1,6.459035E1,0E0,4.1990757E-1,3.718131E1,9.630269E1,2.2790756E0,4.411725E1,0E0,0E0,0E0,0E0,0E0,0E0,0E0,0E0,0E0,0E0,0E0,0E0,0E0,0E0,0E0,0E0,0E0,0E0,0E0,0E0,0E0,0E0,0E0,0E0,0E0,0E0,0E0,0E0,0E0,0E0,0E0,0E0,0E0,0E0,0E0,0E0,0E0,0E0,0E0,0E0,0E0,0E0,0E0,0E0,0E0,0E0,0E0,0E0,0E0,0E0,0E0,0E0,0E0,0E0,0E0,0E0,0E0,0E0,0E0,0E0],"parents":[2147483647,0,0,1,1,2,2,3,3,4,4,5,5,6,6,7,7,8,8,9,9,10,10,11,11,12,12,13,13,14,14,15,15,16,16,17,17,18,18,19,19,20,20,21,21,22,22,23,23,24,24,25,25,26,26,27,27,28,28,29,29,30,30,31,31,32,32,33,33,34,34,35,35,36,36,38,38,39,39,40,40,41,41,42,42,43,43,44,44,45,45,46,46,47,47,48,48,49,49,50,50,51,51,52,52,53,53,54,54,55,55,56,56,58,58,59,59,60,60,61,61,62,62],"right_children":[2,4,6,8,10,12,14,16,18,20,22,24,26,28,30,32,34,36,38,40,42,44,46,48,50,52,54,56,58,60,62,64,66,68,70,72,74,-1,76,78,80,82,84,86,88,90,92,94,96,98,100,102,104,106,108,110,112,-1,114,116,118,120,122,-1,-1,-1,-1,-1,-1,-1,-1,-1,-1,-1,-1,-1,-1,-1,-1,-1,-1,-1,-1,-1,-1,-1,-1,-1,-1,-1,-1,-1,-1,-1,-1,-1,-1,-1,-1,-1,-1,-1,-1,-1,-1,-1,-1,-1,-1,-1,-1,-1,-1,-1,-1,-1,-1,-1,-1,-1,-1,-1,-1],"split_conditions":[-2.855267E-2,0E0,8.3922826E-2,-3.689475E-1,-1.5023377E-2,-1.4831112E-1,-7.7601485E-2,1.1202561E-1,1.0163715E0,1.4572128E0,4.756084E-1,-1.5661254E0,8.555983E-1,1.9170209E0,1.8665534E0,-1.3071319E0,5.279572E-2,-6.276355E-1,-1.2184947E0,1.1202561E-1,-2.6429355E-1,-2.5373754E-1,1.1337235E0,-8.557492E-1,-1.9904644E0,-1.6858678E-2,-9.123281E-2,-1.2423885E0,1.0222695E0,-6.027177E-1,-6.6342646E-1,-1.1741095E0,4.6669114E-2,-7.937624E-1,-8.9472294E-1,-1.1638675E-1,3.4166163E-1,4.719199E-2,3.97855E-1,7.167772E-1,-1.1794661E0,3.3794022E-1,4.652354E-1,-2.4469185E0,-3.1547648E-1,7.384541E-1,1.0122734E0,-3.2737964E-1,-8.7721556E-1,-1.2339305E0,4.1579568E-1,-1.8377972E0,3.0834842E-1,6.283081E-1,2.614514E-2,-2.7038336E-1,9.403711E-1,1.20182835E-1,7.7327144E-1,-1.3484894E0,1.7704214E-1,-1.5990103E0,-1.9418032E0,-6.541782E-3,6.35355E-2,8.357891E-3,3.5932764E-2,2.3587905E-2,-1.6315017E-2,7.077836E-2,1.0216708E-2,-2.185537E-3,-3.0142149E-2,-1.2618772E-3,-3.578987E-2,-9.3401335E-2,4.2719763E-2,1.6354523E-3,-8.362714E-2,-9.389792E-2,-1.9019498E-2,1.4193413E-1,-1.2010952E-2,1.6536998E-2,1.2975466E-1,1.3768925E-2,-5.9694804E-2,-1.128057E-1,6.960483E-4,-8.5555166E-2,-6.933848E-3,9.812982E-2,-5.081442E-3,-4.6678525E-3,4.3588948E-2,-1.8471312E-2,-9.3472466E-2,3.3792946E-2,1.2652941E-1,-7.879594E-4,-3.155561E-2,-8.1129394E-2,3.6585324E-2,7.1082516E-3,2.1143196E-2,-6.524096E-4,-1.08824834E-1,2.1388812E-2,-3.0474665E-2,-1.1333106E-1,-4.6209782E-2,-6.8068965E-3,-2.3507807E-2,4.0853586E-2,1.315337E-2,3.0332329E-2,-2.345436E-2,1.6274763E-2,9.2903414E-4,2.1659445E-2,1.0645294E-1,-1.3176884E-1,-3.54169E-2],"split_indices":[17,24,5,7,27,12,23,22,28,13,3,7,28,24,7,4,13,13,26,22,23,17,29,30,4,14,18,29,0,11,12,10,3,5,14,22,10,0,1,11,5,4,4,22,18,3,13,2,25,0,1,18,22,12,18,13,25,0,4,8,24,0,22,0,0,0,0,0,0,0,0,0,0,0,0,0,0,0,0,0,0,0,0,0,0,0,0,0,0,0,0,0,0,0,0,0,0,0,0,0,0,0,0,0,0,0,0,0,0,0,0,0,0,0,0,0,0,0,0,0,0,0,0],"split_type":[0,0,0,0,0,0,0,0,0,0,0,0,0,0,0,0,0,0,0,0,0,0,0,0,0,0,0,0,0,0,0,0,0,0,0,0,0,0,0,0,0,0,0,0,0,0,0,0,0,0,0,0,0,0,0,0,0,0,0,0,0,0,0,0,0,0,0,0,0,0,0,0,0,0,0,0,0,0,0,0,0,0,0,0,0,0,0,0,0,0,0,0,0,0,0,0,0,0,0,0,0,0,0,0,0,0,0,0,0,0,0,0,0,0,0,0,0,0,0,0,0,0,0],"sum_hessian":[1.5702E4,7.669E3,8.033E3,6.281E3,1.388E3,4.652E3,3.381E3,1.681E3,4.6E3,9.95E2,3.93E2,1.324E3,3.328E3,1.303E3,2.078E3,1.134E3,5.47E2,4.568E3,3.2E1,9.24E2,7.1E1,3.01E2,9.2E1,2.6E1,1.298E3,3.13E3,1.98E2,1.292E3,1.1E1,2.027E3,5.1E1,6.2E1,1.072E3,4.44E2,1.03E2,3.87E2,4.181E3,2E0,3E1,5.49E2,3.75E2,8E0,6.3E1,2.49E2,5.2E1,6.6E1,2.6E1,4E0,2.2E1,7E0,1.291E3,3.29E2,2.801E3,2.2E1,1.76E2,1.8E1,1.274E3,5E0,6E0,1.26E2,1.901E3,3E0,4.8E1,1.6E1,4.6E1,9.71E2,1.01E2,7.4E1,3.7E2,1.7E1,8.6E1,1.42E2,2.45E2,4.101E3,8E1,2.9E1,1E0,5.4E2,9E0,1.6E1,3.59E2,6E0,2E0,6E1,3E0,8E0,2.41E2,4E0,4.8E1,1E1,5.6E1,1.5E1,1.1E1,2E0,2E0,3E0,1.9E1,2E0,5E0,1.172E3,1.19E2,7E0,3.22E2,1.776E3,1.025E3,6E0,1.6E1,3.6E1,1.4E2,4E0,1.4E1,1.012E3,2.62E2,4E0,2E0,1.2E1,1.14E2,4.98E2,1.403E3,1E0,2E0,4E0,4.4E1],"tree_param":{"num_deleted":"0","num_feature":"34","num_nodes":"123","size_leaf_vector":"1"}},{"base_weights":[-2.281481E-4,-1.8766295E-2,6.474197E-1,1.4178401E-1,-8.583818E-2,1.1921217E-1,1.1136409E0,3.7395697E-2,3.6305842E-1,-7.45925E-2,-1.779241E0,-5.1850957E-1,5.80567E-1,5.8378977E-1,1.5547556E0,-1.8298794E0,5.899531E-2,4.496325E-1,-1.2666618E0,1.7888401E-1,-1.32425E-1,-2.4188974E0,-3.3913633E-1,6.971991E-1,-1.0199598E0,8.888899E-1,-3.7403148E-1,8.7108415E-1,-1.2363547E0,2.457014E0,8.6603343E-1,-2.20552E0,4.8981436E-2,7.0415586E-2,-2.5915325E0,6.5251434E-1,-1.3994376E-2,7.791371E-1,-1.603759E0,2.3875672E-1,-7.0034313E-1,-6.405516E-1,-9.8305486E-2,9.1583896E-1,-2.580287E0,-1.4590518E0,4.8502734E-1,2.2859313E0,-8.435466E-3,-1.8117523E0,-2.6924062E-1,1.02526E0,-7.0004165E-2,2.8835544E-1,-1.3916415E0,1.042663E0,-1.7905848E0,-2.9471207E-1,-6.811248E-2,3.3147945E0,5.5729765E-1,1.4233426E0,-6.82003E-1,1.1201871E-2,-7.45554E-2,1.869822E-3,1.2336618E-1,-1.307725E-1,5.9137275E-3,7.951299E-3,2.9828465E-2,-2.0090457E-2,1.0550479E-2,-9.086691E-3,3.6682747E-2,-1.0885101E-1,-3.5973974E-2,-2.1194392E-3,1.2393965E-2,-6.442512E-2,-1.7497486E-3,-5.425454E-2,-1.4056057E-2,-5.37583E-3,1.3288714E-3,-9.2369635E-3,5.0449714E-2,-3.454702E-2,-9.111696E-2,1.6019303E-2,-5.2194905E-2,-3.6042444E-3,3.3220775E-2,2.5068864E-2,1.058198E-1,2.554454E-2,-3.1755347E-2,-3.2900598E-2,-1.092329E-1,5.1944684E-2,-2.3339296E-2,-1.2869582E-2,3.918554E-2,-3.62262E-2,2.3032906E-2,-5.5588983E-2,1.8299643E-2,2.5199652E-2,8.8932276E-2,-2.0284444E-2,-8.0389164E-2,2.127917E-2,-1.5266323E-2,1.06464304E-1,1.4908887E-2,6.454988E-2,-1.2575703E-2,1.1386723E-1,3.1432174E-2,-7.820857E-2,4.0033087E-3],"categories":[],"categories_nodes":[],"categories_segments":[],"categories_sizes":[],"default_left":[0,0,0,0,0,0,0,0,0,0,0,0,0,0,0,0,0,0,0,0,0,0,0,0,0,0,0,0,0,0,0,0,0,0,0,0,0,0,0,0,0,0,0,0,0,0,0,0,0,0,0,0,0,0,0,0,0,0,0,0,0,0,0,0,0,0,0,0,0,0,0,0,0,0,0,0,0,0,0,0,0,0,0,0,0,0,0,0,0,0,0,0,0,0,0,0,0,0,0,0,0,0,0,0,0,0,0,0,0,0,0,0,0,0,0,0,0,0,0,0,0],"id":12,"left_children":[1,3,5,7,9,11,13,15,17,19,21,23,25,27,29,31,33,35,37,39,41,43,45,47,49,51,53,55,57,59,61,63,-1,65,67,69,71,73,75,77,79,81,83,85,87,89,91,93,95,97,99,101,-1,103,105,107,109,111,-1,113,115,117,119,-1,-1,-1,-1,-1,-1,-1,-1,-1,-1,-1,-1,-1,-1,-1,-1,-1,-1,-1,-1,-1,-1,-1,-1,-1,-1,-1,-1,-1,-1,-1,-1,-1,-1,-1,-1,-1,-1,-1,-1,-1,-1,-1,-1,-1,-1,-1,-1,-1,-1,-1,-1,-1,-1,-1,-1,-1,-1],"loss_changes":[1.8854536E2,1.644135E2,1.0748355E2,1.0390641E2,2.049462E2,6.0909527E1,5.331659E1,1.234445E2,2.0402353E2,1.5686226E2,6.45829E1,5.3747833E1,3.5651424E1,5.7029125E1,7.616919E1,4.9125145E1,9.1718216E1,1.2887338E2,5.159278E1,1.0481891E2,1.5097726E2,2.8734528E1,2.1936535E1,2.9166958E1,3.636586E1,4.238086E1,2.0622833E1,4.433876E1,1.3936625E1,8.61478E1,6.3950367E1,2.4006973E1,0E0,9.820817E1,6.493749E1,1.2593759E2,1.0045931E2,5.650472E0,4.725934E1,1.0048891E2,1.178709E2,1.0924785E2,9.418996E1,3.3292625E0,2.7186157E1,6.5250206E0,5.4056616E0,1.1455654E1,1.8057957E1,3.524991E1,3.493589E1,3.6511307E1,0E0,1.4552851E1,1.22111E1,3.1784958E1,4.1329308E0,2.2961826E0,0E0,2.2634796E1,2.8925756E1,4.413822E1,3.1741753E1,0E0,0E0,0E0,0E0,0E0,0E0,0E0,0E0,0E0,0E0,0E0,0E0,0E0,0E0,0E0,0E0,0E0,0E0,0E0,0E0,0E0,0E0,0E0,0E0,0E0,0E0,0E0,0E0,0E0,0E0,0E0,0E0,0E0,0E0,0E0,0E0,0E0,0E0,0E0,0E0,0E0,0E0,0E0,0E0,0E0,0E0,0E0,0E0,0E0,0E0,0E0,0E0,0E0,0E0,0E0,0E0,0E0,0E0],"parents":[2147483647,0,0,1,1,2,2,3,3,4,4,5,5,6,6,7,7,8,8,9,9,10,10,11,11,12,12,13,13,14,14,15,15,16,16,17,17,18,18,19,19,20,20,21,21,22,22,23,23,24,24,25,25,26,26,27,27,28,28,29,29,30,30,31,31,33,33,34,34,35,35,36,36,37,37,38,38,39,39,40,40,41,41,42,42,43,43,44,44,45,45,46,46,47,47,48,48,49,49,50,50,51,51,53,53,54,54,55,55,56,56,57,57,59,59,60,60,61,61,62,62],"right_children":[2,4,6,8,10,12,14,16,18,20,22,24,26,28,30,32,34,36,38,40,42,44,46,48,50,52,54,56,58,60,62,64,-1,66,68,70,72,74,76,78,80,82,84,86,88,90,92,94,96,98,100,102,-1,104,106,108,110,112,-1,114,116,118,120,-1,-1,-1,-1,-1,-1,-1,-1,-1,-1,-1,-1,-1,-1,-1,-1,-1,-1,-1,-1,-1,-1,-1,-1,-1,-1,-1,-1,-1,-1,-1,-1,-1,-1,-1,-1,-1,-1,-1,-1,-1,-1,-1,-1,-1,-1,-1,-1,-1,-1,-1,-1,-1,-1,-1,-1,-1,-1],"split_conditions":[9.0248734E-1,-3.5639393E-1,3.2409275E-1,2.611286E-1,1.0163715E0,2.0024225E-1,9.349401E-1,-1.6481466E0,8.6978966E-1,-7.201172E-1,6.871009E-1,9.445803E-1,5.4063547E-1,2.0764934E-1,8.0703986E-1,8.1326395E-2,2.7520657E0,7.7017885E-1,-1.3035412E0,8.211775E-1,-7.2945356E-1,-1.2172292E0,-2.0308554E-1,-1.05100244E-1,9.9011946E-1,2.2070844E0,1.6486313E0,1.454681E0,-1.5659806E-1,5.188945E-1,1.2851272E0,-8.825507E-1,4.8981436E-2,2.8803189E0,-2.3103347E-1,-1.2497941E-1,5.8439416E-1,6.717088E-1,2.7096558E-1,-6.815604E-1,-1.862019E-1,-8.947833E-1,8.188708E-2,-1.7370131E0,-1.79772E-1,-2.6879933E-1,3.7483886E-1,2.614514E-2,9.819673E-1,4.9833342E-2,1.0981393E0,8.268096E-1,-7.0004165E-2,1.4122319E-1,2.3266876E0,7.414294E-1,1.5294274E0,-1.0388095E0,-6.811248E-2,5.548319E-1,2.614514E-2,8.912053E-1,-6.442902E-1,1.1201871E-2,-7.45554E-2,1.869822E-3,1.2336618E-1,-1.307725E-1,5.9137275E-3,7.951299E-3,2.9828465E-2,-2.0090457E-2,1.0550479E-2,-9.086691E-3,3.6682747E-2,-1.0885101E-1,-3.5973974E-2,-2.1194392E-3,1.2393965E-2,-6.442512E-2,-1.7497486E-3,-5.425454E-2,-1.4056057E-2,-5.37583E-3,1.3288714E-3,-9.2369635E-3,5.0449714E-2,-3.454702E-2,-9.111696E-2,1.6019303E-2,-5.2194905E-2,-3.6042444E-3,3.3220775E-2,2.5068864E-2,1.058198E-1,2.554454E-2,-3.1755347E-2,-3.2900598E-2,-1.092329E-1,5.1944684E-2,-2.3339296E-2,-1.2869582E-2,3.918554E-2,-3.62262E-2,2.3032906E-2,-5.5588983E-2,1.8299643E-2,2.5199652E-2,8.8932276E-2,-2.0284444E-2,-8.0389164E-2,2.127917E-2,-1.5266323E-2,1.06464304E-1,1.4908887E-2,6.454988E-2,-1.2575703E-2,1.1386723E-1,3.1432174E-2,-7.820857E-2,4.0033087E-3],"split_indices":[26,5,21,12,28,22,24,7,28,22,24,26,28,28,4,12,4,2,5,10,13,14,29,4,17,7,10,18,5,28,21,2,0,7,14,4,1,16,30,3,12,30,4,0,7,5,31,18,14,21,24,2,0,13,12,18,0,5,0,13,18,14,13,0,0,0,0,0,0,0,0,0,0,0,0,0,0,0,0,0,0,0,0,0,0,0,0,0,0,0,0,0,0,0,0,0,0,0,0,0,0,0,0,0,0,0,0,0,0,0,0,0,0,0,0,0,0,0,0,0,0],"split_type":[0,0,0,0,0,0,0,0,0,0,0,0,0,0,0,0,0,0,0,0,0,0,0,0,0,0,0,0,0,0,0,0,0,0,0,0,0,0,0,0,0,0,0,0,0,0,0,0,0,0,0,0,0,0,0,0,0,0,0,0,0,0,0,0,0,0,0,0,0,0,0,0,0,0,0,0,0,0,0,0,0,0,0,0,0,0,0,0,0,0,0,0,0,0,0,0,0,0,0,0,0,0,0,0,0,0,0,0,0,0,0,0,0,0,0,0,0,0,0,0,0],"sum_hessian":[1.5702E4,1.5266E4,4.36E2,4.498E3,1.0768E4,2.05E2,2.31E2,3.057E3,1.441E3,1.0698E4,7E1,8.6E1,1.19E2,1.06E2,1.25E2,3.4E1,3.023E3,1.369E3,7.2E1,1.987E3,8.711E3,4.8E1,2.2E1,2.5E1,6.1E1,9E1,2.9E1,9.2E1,1.4E1,5.3E1,7.2E1,3.1E1,3E0,3.011E3,1.2E1,9.52E2,4.17E2,1E1,6.2E1,1.861E3,1.26E2,5.47E2,8.164E3,2E0,4.6E1,9E0,1.3E1,7E0,1.8E1,2.9E1,3.2E1,8.7E1,3E0,1.8E1,1.1E1,8.7E1,5E0,8E0,6E0,3.6E1,1.7E1,5.3E1,1.9E1,3E0,2.8E1,3.006E3,5E0,7E0,5E0,4.47E2,5.05E2,1.49E2,2.68E2,3E0,7E0,9E0,5.3E1,6.71E2,1.19E3,3.8E1,8.8E1,6.9E1,4.78E2,5.209E3,2.955E3,1E0,1E0,1.2E1,3.4E1,1E0,8E0,7E0,6E0,4E0,3E0,1E1,8E0,2.2E1,7E0,6E0,2.6E1,1.4E1,7.3E1,4E0,1.4E1,9E0,2E0,8E1,7E0,3E0,2E0,1E0,7E0,3.3E1,3E0,6E0,1.1E1,6E0,4.7E1,5E0,1.4E1],"tree_param":{"num_deleted":"0","num_feature":"34","num_nodes":"121","size_leaf_vector":"1"}},{"base_weights":[-2.3464311E-4,-1.20833434E-1,9.496917E-2,-4.5177277E-2,-5.687544E-1,1.956068E-1,-1.4285734E-1,-3.0357696E-2,-1.8226051E0,-1.5341194E-1,-1.2301072E0,-1.8995386E-1,2.7823722E-1,-4.4640687E-1,2.9981762E-2,6.0764058E-3,-7.3780763E-1,1.4306045E0,-2.3988688E0,-1.214433E0,8.22074E-2,-1.7705984E0,-2.4595925E-1,-1.0850188E-1,-1.9165165E0,3.2198527E-1,-7.0819217E-1,-2.1235077E0,-3.9299846E-1,-8.07216E-1,7.836487E-2,-6.1664145E-2,4.2982036E-1,-4.221709E-1,-1.4866556E0,2.1181748E0,-4.2140424E-1,-2.528021E0,4.344572E-2,-1.8673395E0,-3.9689097E-1,3.9556494E-1,-4.573443E-1,-1.9049228E0,8.1443876E-1,-7.1861035E-1,1.919168E0,1.1088139E0,-1.8937908E-1,-3.7660728E0,-1.4062146E0,1.6036192E-2,4.206366E-1,6.6881454E-1,-8.919303E-1,-1.2895496E0,-3.370935E0,3.213353E-1,-5.1748216E-1,-1.5006933E0,3.7571725E-2,-3.0626678E0,9.233736E-2,8.476042E-3,-4.2991852E-3,3.4547277E-2,5.999917E-3,1.240907E-2,-2.2236506E-2,-2.2384947E-2,-6.2084224E-2,1.8894462E-2,6.869651E-2,9.2999125E-3,-2.8263103E-2,-2.2255832E-2,-8.815647E-2,-6.209335E-2,8.41166E-2,8.027902E-2,-1.730776E-2,-1.4830965E-2,2.0533346E-2,-6.694469E-2,-7.6192394E-3,-7.514635E-2,-4.175535E-2,-2.329297E-2,6.866884E-2,-7.0001855E-2,-1.2346534E-2,7.972786E-2,9.33359E-3,2.2742432E-2,1.05390735E-1,1.3125587E-3,-1.8103302E-2,-1.2333043E-1,-4.7726136E-2,-1.4253731E-2,-6.940646E-2,-5.0395844E-4,8.3049715E-2,2.8219359E-2,1.0870921E-2,2.9152168E-2,-3.7206125E-2,-5.7431053E-2,-1.3608817E-2,6.5893326E-3,-6.564649E-2,-5.0158445E-2,-1.1397184E-1,1.8060919E-2,-2.700519E-2,-1.756955E-2,2.2902222E-2,1.2823594E-3,-5.662865E-2,5.359025E-2,-9.105315E-3,-5.6636916E-3,-1.2523384E-1,4.2924094E-3,-1.8055635E-2],"categories":[],"categories_nodes":[],"categories_segments":[],"categories_sizes":[],"default_left":[0,0,0,0,0,0,0,0,0,0,0,0,0,0,0,0,0,0,0,0,0,0,0,0,0,0,0,0,0,0,0,0,0,0,0,0,0,0,0,0,0,0,0,0,0,0,0,0,0,0,0,0,0,0,0,0,0,0,0,0,0,0,0,0,0,0,0,0,0,0,0,0,0,0,0,0,0,0,0,0,0,0,0,0,0,0,0,0,0,0,0,0,0,0,0,0,0,0,0,0,0,0,0,0,0,0,0,0,0,0,0,0,0,0,0,0,0,0,0,0,0,0,0,0,0],"id":13,"left_children":[1,3,5,7,9,11,13,15,17,19,21,23,25,27,29,31,33,35,37,39,41,43,45,47,49,51,53,55,57,59,61,63,65,67,69,71,73,75,-1,77,79,81,83,85,87,89,91,93,95,97,99,101,103,105,107,109,111,113,115,117,119,121,123,-1,-1,-1,-1,-1,-1,-1,-1,-1,-1,-1,-1,-1,-1,-1,-1,-1,-1,-1,-1,-1,-1,-1,-1,-1,-1,-1,-1,-1,-1,-1,-1,-1,-1,-1,-1,-1,-1,-1,-1,-1,-1,-1,-1,-1,-1,-1,-1,-1,-1,-1,-1,-1,-1,-1,-1,-1,-1,-1,-1,-1,-1],"loss_changes":[1.8030492E2,2.3475024E2,2.1007532E2,1.5609256E2,2.747738E2,1.965276E2,1.3694763E2,1.5156326E2,9.529245E1,1.5409802E2,2.0488696E2,1.5294029E2,2.1940903E2,8.398947E1,6.746562E1,1.605716E2,6.7445175E1,1.1079697E1,2.4529053E1,5.904207E1,8.556257E1,8.801257E1,1.4260138E2,1.02699646E2,4.095186E1,1.4679984E2,5.5246414E1,2.5821762E1,8.188643E1,5.3367935E1,6.9362595E1,1.355721E2,1.2766019E2,5.470538E1,3.5139435E1,9.1184616E-2,1.4345696E0,2.7884033E1,0E0,6.443297E1,2.9758057E1,8.260493E1,6.654343E1,6.9467834E1,3.2272305E1,5.5564827E1,2.885884E1,5.214715E1,9.433742E1,9.63089E-1,3.269316E1,1.07316696E2,1.1111084E2,1.624065E1,8.472589E1,2.6249622E1,1.6493607E0,4.7515358E1,6.881676E1,2.994069E1,2.5594097E1,2.157801E1,5.531945E1,0E0,0E0,0E0,0E0,0E0,0E0,0E0,0E0,0E0,0E0,0E0,0E0,0E0,0E0,0E0,0E0,0E0,0E0,0E0,0E0,0E0,0E0,0E0,0E0,0E0,0E0,0E0,0E0,0E0,0E0,0E0,0E0,0E0,0E0,0E0,0E0,0E0,0E0,0E0,0E0,0E0,0E0,0E0,0E0,0E0,0E0,0E0,0E0,0E0,0E0,0E0,0E0,0E0,0E0,0E0,0E0,0E0,0E0,0E0,0E0,0E0,0E0],"parents":[2147483647,0,0,1,1,2,2,3,3,4,4,5,5,6,6,7,7,8,8,9,9,10,10,11,11,12,12,13,13,14,14,15,15,16,16,17,17,18,18,19,19,20,20,21,21,22,22,23,23,24,24,25,25,26,26,27,27,28,28,29,29,30,30,31,31,32,32,33,33,34,34,35,35,36,36,37,37,39,39,40,40,41,41,42,42,43,43,44,44,45,45,46,46,47,47,48,48,49,49,50,50,51,51,52,52,53,53,54,54,55,55,56,56,57,57,58,58,59,59,60,60,61,61,62,62],"right_children":[2,4,6,8,10,12,14,16,18,20,22,24,26,28,30,32,34,36,38,40,42,44,46,48,50,52,54,56,58,60,62,64,66,68,70,72,74,76,-1,78,80,82,84,86,88,90,92,94,96,98,100,102,104,106,108,110,112,114,116,118,120,122,124,-1,-1,-1,-1,-1,-1,-1,-1,-1,-1,-1,-1,-1,-1,-1,-1,-1,-1,-1,-1,-1,-1,-1,-1,-1,-1,-1,-1,-1,-1,-1,-1,-1,-1,-1,-1,-1,-1,-1,-1,-1,-1,-1,-1,-1,-1,-1,-1,-1,-1,-1,-1,-1,-1,-1,-1,-1,-1,-1,-1,-1,-1],"split_conditions":[-1.3683783E-1,0E0,3.465017E-1,1.0163715E0,-1.5023377E-2,-4.064855E-1,-7.7601485E-2,3.6303964E-1,-1.0386305E0,-2.4609949E-1,8.3415784E-2,3.5483238E-1,8.6978966E-1,-3.3997896E0,-5.124786E-1,6.2500805E-1,5.339346E-1,-5.811531E-1,3.97855E-1,3.0992684E-1,-1.970361E-1,5.6584084E-1,1.3512622E0,-3.657901E-1,-6.17455E-1,-4.339567E-1,7.5367576E-1,5.693285E-1,-6.8930215E-1,8.7014204E-1,-1.9403822E0,-1.2545625E0,-3.363628E-1,-4.9337825E-1,-2.8274435E-1,-8.88153E-1,-8.216279E-1,-1.3629291E0,4.344572E-2,8.2076347E-1,3.5532704E-1,-2.701384E-1,-7.3300976E-1,-2.7848995E-1,-1.6648743E0,-3.315269E-1,1.0122734E0,-5.8563996E-2,4.9064357E-2,1.972334E-1,-3.1967014E-1,1.9170209E0,-2.0760953E-1,-2.336024E-1,2.4692614E-1,3.8915345E-1,-5.673804E-1,1.3999059E0,1.8402714E0,-5.5359614E-1,-8.2648826E-1,-1.2187937E0,1.6733054E0,8.476042E-3,-4.2991852E-3,3.4547277E-2,5.999917E-3,1.240907E-2,-2.2236506E-2,-2.2384947E-2,-6.2084224E-2,1.8894462E-2,6.869651E-2,9.2999125E-3,-2.8263103E-2,-2.2255832E-2,-8.815647E-2,-6.209335E-2,8.41166E-2,8.027902E-2,-1.730776E-2,-1.4830965E-2,2.0533346E-2,-6.694469E-2,-7.6192394E-3,-7.514635E-2,-4.175535E-2,-2.329297E-2,6.866884E-2,-7.0001855E-2,-1.2346534E-2,7.972786E-2,9.33359E-3,2.2742432E-2,1.05390735E-1,1.3125587E-3,-1.8103302E-2,-1.2333043E-1,-4.7726136E-2,-1.4253731E-2,-6.940646E-2,-5.0395844E-4,8.3049715E-2,2.8219359E-2,1.0870921E-2,2.9152168E-2,-3.7206125E-2,-5.7431053E-2,-1.3608817E-2,6.5893326E-3,-6.564649E-2,-5.0158445E-2,-1.1397184E-1,1.8060919E-2,-2.700519E-2,-1.756955E-2,2.2902222E-2,1.2823594E-3,-5.662865E-2,5.359025E-2,-9.105315E-3,-5.6636916E-3,-1.2523384E-1,4.2924094E-3,-1.8055635E-2],"split_indices":[17,24,5,28,27,12,23,8,26,18,3,15,28,18,10,18,14,1,1,23,10,28,29,4,29,23,8,25,23,13,12,4,5,5,23,0,0,0,0,30,23,4,8,17,3,0,13,1,28,6,28,24,26,6,4,22,28,4,5,25,26,1,6,0,0,0,0,0,0,0,0,0,0,0,0,0,0,0,0,0,0,0,0,0,0,0,0,0,0,0,0,0,0,0,0,0,0,0,0,0,0,0,0,0,0,0,0,0,0,0,0,0,0,0,0,0,0,0,0,0,0,0,0,0,0],"split_type":[0,0,0,0,0,0,0,0,0,0,0,0,0,0,0,0,0,0,0,0,0,0,0,0,0,0,0,0,0,0,0,0,0,0,0,0,0,0,0,0,0,0,0,0,0,0,0,0,0,0,0,0,0,0,0,0,0,0,0,0,0,0,0,0,0,0,0,0,0,0,0,0,0,0,0,0,0,0,0,0,0,0,0,0,0,0,0,0,0,0,0,0,0,0,0,0,0,0,0,0,0,0,0,0,0,0,0,0,0,0,0,0,0,0,0,0,0,0,0,0,0,0,0,0,0],"sum_hessian":[1.5702E4,6.927E3,8.775E3,5.927E3,1E3,6.166E3,2.609E3,5.879E3,4.8E1,6.15E2,3.85E2,1.088E3,5.078E3,9.46E2,1.663E3,5.592E3,2.87E2,7E0,4.1E1,1.11E2,5.04E2,2.48E2,1.37E2,1.04E3,4.8E1,4.863E3,2.15E2,2.8E1,9.18E2,9E1,1.573E3,4.822E3,7.7E2,2.03E2,8.4E1,5E0,2E0,4E1,1E0,6.1E1,5E1,3.19E2,1.85E2,2.36E2,1.2E1,1.13E2,2.4E1,6.4E1,9.76E2,9E0,3.9E1,1.186E3,3.677E3,2.5E1,1.9E2,1.8E1,1E1,1.36E2,7.82E2,4.9E1,4.1E1,6E0,1.567E3,9.24E2,3.898E3,1.85E2,5.85E2,5.6E1,1.47E2,3.8E1,4.6E1,1E0,4E0,1E0,1E0,8E0,3.2E1,5.9E1,2E0,2E0,4.8E1,7.8E1,2.41E2,1.8E1,1.67E2,1.07E2,1.29E2,6E0,6E0,1.7E1,9.6E1,1.6E1,8E0,5.7E1,7E0,6.25E2,3.51E2,