{"learner":{"attributes":{"scikit_learn":"{\"_estimator_type\": \"regressor\"}"},"feature_names":[],"feature_types":[],"gradient_booster":{"model":{"gbtree_model_param":{"num_parallel_tree":"1","num_trees":"100"},"iteration_indptr":[0,1,2,3,4,5,6,7,8,9,10,11,12,13,14,15,16,17,18,19,20,21,22,23,24,25,26,27,28,29,30,31,32,33,34,35,36,37,38,39,40,41,42,43,44,45,46,47,48,49,50,51,52,53,54,55,56,57,58,59,60,61,62,63,64,65,66,67,68,69,70,71,72,73,74,75,76,77,78,79,80,81,82,83,84,85,86,87,88,89,90,91,92,93,94,95,96,97,98,99,100],"tree_info":[0,0,0,0,0,0,0,0,0,0,0,0,0,0,0,0,0,0,0,0,0,0,0,0,0,0,0,0,0,0,0,0,0,0,0,0,0,0,0,0,0,0,0,0,0,0,0,0,0,0,0,0,0,0,0,0,0,0,0,0,0,0,0,0,0,0,0,0,0,0,0,0,0,0,0,0,0,0,0,0,0,0,0,0,0,0,0,0,0,0,0,0,0,0,0,0,0,0,0,0],"trees":[{"base_weights":[5.3712305E-5,1.7615965E-2,-3.7325567E-3,-2.82586E-2,1.9612426E-2,-2.5480194E-2,-1.3037511E-3,4.5951996E-3,-3.3333886E-3,2.2483038E-2,-9.534912E-3,-6.2680338E-3,-6.24911E-2,-4.2232242E-3,6.2265364E-3,2.9685567E-4,-0E0,1.3361332E-3,2.1753195E-4,2.2145496E-4,-1.9035152E-3,-1.2290048E-3,-0E0,-4.352424E-3,-0E0,-2.991954E-4,3.2078047E-4,5.174757E-4,-7.348095E-4],"categories":[],"categories_nodes":[],"categories_segments":[],"categories_sizes":[],"default_left":[0,0,0,0,0,0,0,0,0,0,0,0,0,0,0,0,0,0,0,0,0,0,0,0,0,0,0,0,0],"id":0,"left_children":[1,3,5,7,9,11,13,15,-1,17,19,21,23,25,27,-1,-1,-1,-1,-1,-1,-1,-1,-1,-1,-1,-1,-1,-1],"loss_changes":[1.2260872E-1,2.9730096E-2,7.6255456E-2,2.1656252E-2,2.8032787E-2,9.654706E-2,2.9505003E-2,4.955141E-5,0E0,1.9223794E-2,1.3892917E-2,1.36317145E-2,7.018624E-2,1.8408407E-2,3.1462558E-2,0E0,0E0,0E0,0E0,0E0,0E0,0E0,0E0,0E0,0E0,0E0,0E0,0E0,0E0],"parents":[2147483647,0,0,1,1,2,2,3,3,4,4,5,5,6,6,7,7,9,9,10,10,11,11,12,12,13,13,14,14],"right_children":[2,4,6,8,10,12,14,16,-1,18,20,22,24,26,28,-1,-1,-1,-1,-1,-1,-1,-1,-1,-1,-1,-1,-1,-1],"split_conditions":[-7.0306325E-1,-7.920201E-1,-8.615961E-1,-1.427615E0,1.485911E0,1.3275616E0,3.6069432E-1,-1.5637233E0,-3.3333886E-3,8.4427345E-1,3.4829274E-1,-3.0323288E-1,2.7920032E-1,6.315999E-1,7.578921E-1,2.9685567E-4,-0E0,1.3361332E-3,2.1753195E-4,2.2145496E-4,-1.9035152E-3,-1.2290048E-3,-0E0,-4.352424E-3,-0E0,-2.991954E-4,3.2078047E-4,5.174757E-4,-7.348095E-4],"split_indices":[14,24,28,4,19,25,18,4,0,27,16,18,15,20,17,0,0,0,0,0,0,0,0,0,0,0,0,0,0],"split_type":[0,0,0,0,0,0,0,0,0,0,0,0,0,0,0,0,0,0,0,0,0,0,0,0,0,0,0,0,0],"sum_hessian":[1.821E3,3.27E2,1.494E3,1.1E1,3.16E2,1.45E2,1.349E3,5E0,6E0,2.91E2,2.5E1,9.8E1,4.7E1,9.82E2,3.67E2,4E0,1E0,2.31E2,6E1,1.5E1,1E1,2.8E1,7E1,3.3E1,1.4E1,8.51E2,1.31E2,3.11E2,5.6E1],"tree_param":{"num_deleted":"0","num_feature":"29","num_nodes":"29","size_leaf_vector":"1"}},{"base_weights":[1.3520737E-4,1.3465425E-2,-4.6502133E-3,2.0269198E-2,2.4119138E-3,-2.1728963E-2,-2.5677113E-3,2.3022018E-2,-1.0016413E-2,-2.0267406E-2,6.7407535E-3,-2.7164426E-3,-5.4165654E-2,-1.716482E-2,-6.838452E-4,1.466161E-3,3.0353546E-4,-1.6142061E-3,-0E0,-1.6201746E-3,9.806035E-4,-3.3779428E-3,4.3461734E-4,4.928157E-4,-1.2313571E-3,-3.965287E-3,-7.5808284E-4,-6.261174E-4,-4.67909E-3,9.83781E-5,-5.179093E-4],"categories":[],"categories_nodes":[],"categories_segments":[],"categories_sizes":[],"default_left":[0,0,0,0,0,0,0,0,0,0,0,0,0,0,0,0,0,0,0,0,0,0,0,0,0,0,0,0,0,0,0],"id":1,"left_children":[1,3,5,7,9,11,13,15,17,19,21,23,25,27,29,-1,-1,-1,-1,-1,-1,-1,-1,-1,-1,-1,-1,-1,-1,-1,-1],"loss_changes":[1.1570361E-1,3.3856884E-2,4.4426803E-2,2.5875457E-2,1.7437229E-2,7.92697E-2,3.0707212E-2,2.5229082E-2,3.004095E-3,1.4982121E-2,1.848102E-2,2.6512824E-2,3.7398487E-2,3.398224E-2,2.7895194E-2,0E0,0E0,0E0,0E0,0E0,0E0,0E0,0E0,0E0,0E0,0E0,0E0,0E0,0E0,0E0,0E0],"parents":[2147483647,0,0,1,1,2,2,3,3,4,4,5,5,6,6,7,7,8,8,9,9,10,10,11,11,12,12,13,13,14,14],"right_children":[2,4,6,8,10,12,14,16,18,20,22,24,26,28,30,-1,-1,-1,-1,-1,-1,-1,-1,-1,-1,-1,-1,-1,-1,-1,-1],"split_conditions":[-4.564237E-1,-4.788883E-1,-8.726377E-1,1.485911E0,-4.8190993E-1,3.6834773E-1,-8.082778E-1,8.4427345E-1,1.7257545E0,9.1027476E-2,-2.663293E0,7.027495E-2,-4.0422717E-1,1.309152E0,6.1949855E-1,1.466161E-3,3.0353546E-4,-1.6142061E-3,-0E0,-1.6201746E-3,9.806035E-4,-3.3779428E-3,4.3461734E-4,4.928157E-4,-1.2313571E-3,-3.965287E-3,-7.5808284E-4,-6.261174E-4,-4.67909E-3,9.83781E-5,-5.179093E-4],"split_indices":[6,17,28,19,24,4,19,27,19,17,5,24,27,4,17,0,0,0,0,0,0,0,0,0,0,0,0,0,0,0,0],"split_type":[0,0,0,0,0,0,0,0,0,0,0,0,0,0,0,0,0,0,0,0,0,0,0,0,0,0,0,0,0,0,0],"sum_hessian":[1.798E3,4.8E2,1.318E3,2.91E2,1.89E2,1.37E2,1.181E3,2.7E2,2.1E1,2.6E1,1.63E2,8.9E1,4.8E1,1.28E2,1.053E3,1.92E2,7.8E1,4E0,1.7E1,2.2E1,4E0,2E0,1.61E2,5.4E1,3.5E1,2.7E1,2.1E1,1.23E2,5E0,8.19E2,2.34E2],"tree_param":{"num_deleted":"0","num_feature":"29","num_nodes":"31","size_leaf_vector":"1"}},{"base_weights":[2.207371E-4,1.2242438E-2,-4.318801E-3,1.6897393E-2,-0E0,-8.900716E-3,4.3902057E-3,1.9284977E-2,-2.3529346E-3,-2.675487E-2,4.922205E-3,-5.75789E-3,-2.530021E-2,1.0102978E-2,-5.7504917E-3,1.3120866E-3,4.2893016E-4,5.33443E-4,-4.7804211E-4,-1.8209612E-3,-0E0,-0E0,1.1563994E-3,-1.2057776E-3,-1.986794E-4,-4.40592E-3,-4.651261E-4,1.14556615E-5,7.9461694E-4,-9.517041E-4,2.5815197E-4],"categories":[],"categories_nodes":[],"categories_segments":[],"categories_sizes":[],"default_left":[0,0,0,0,0,0,0,0,0,0,0,0,0,0,0,0,0,0,0,0,0,0,0,0,0,0,0,0,0,0,0],"id":2,"left_children":[1,3,5,7,9,11,13,15,17,19,21,23,25,27,29,-1,-1,-1,-1,-1,-1,-1,-1,-1,-1,-1,-1,-1,-1,-1,-1],"loss_changes":[9.694824E-2,2.6928194E-2,5.128783E-2,1.7871164E-2,1.7223833E-2,4.014583E-2,2.5519747E-2,1.9903503E-2,3.2762978E-3,5.578939E-3,1.0465223E-2,2.0450018E-2,1.20081134E-1,1.4561443E-2,2.3231007E-2,0E0,0E0,0E0,0E0,0E0,0E0,0E0,0E0,0E0,0E0,0E0,0E0,0E0,0E0,0E0,0E0],"parents":[2147483647,0,0,1,1,2,2,3,3,4,4,5,5,6,6,7,7,8,8,9,9,10,10,11,11,12,12,13,13,14,14],"right_children":[2,4,6,8,10,12,14,16,18,20,22,24,26,28,30,-1,-1,-1,-1,-1,-1,-1,-1,-1,-1,-1,-1,-1,-1,-1,-1],"split_conditions":[-4.6432325E-1,-1.9354106E-1,3.1267133E-1,8.992818E-1,-4.1962335E-1,1.822835E0,4.8210147E-1,-3.798767E-1,-1.4848049E0,5.356538E-1,5.832037E-1,-8.5036093E-1,-4.0493986E-1,-3.9791766E-1,-1.5268159E-1,1.3120866E-3,4.2893016E-4,5.33443E-4,-4.7804211E-4,-1.8209612E-3,-0E0,-0E0,1.1563994E-3,-1.2057776E-3,-1.986794E-4,-4.40592E-3,-4.651261E-4,1.14556615E-5,7.9461694E-4,-9.517041E-4,2.5815197E-4],"split_indices":[17,2,21,27,26,25,17,4,2,27,20,19,5,7,19,0,0,0,0,0,0,0,0,0,0,0,0,0,0,0,0],"split_type":[0,0,0,0,0,0,0,0,0,0,0,0,0,0,0,0,0,0,0,0,0,0,0,0,0,0,0,0,0,0,0],"sum_hessian":[1.76E3,4.88E2,1.272E3,3.5E2,1.38E2,8.41E2,4.31E2,3.16E2,3.4E1,1.9E1,1.19E2,7.12E2,1.29E2,2.82E2,1.49E2,1.85E2,1.31E2,7E0,2.7E1,1.4E1,5E0,9.5E1,2.4E1,5.7E1,6.55E2,2.4E1,1.05E2,1.11E2,1.71E2,7.1E1,7.8E1],"tree_param":{"num_deleted":"0","num_feature":"29","num_nodes":"31","size_leaf_vector":"1"}},{"base_weights":[6.554309E-5,4.0830537E-3,-1.5304361E-2,1.5299847E-2,6.350606E-4,-4.6641406E-2,-8.081778E-3,1.9464122E-2,-0E0,-2.3387205E-2,1.765154E-3,-2.1478895E-2,-8.035193E-2,-7.095471E-2,-6.7057307E-3,1.4224056E-3,4.345296E-4,-3.157304E-4,3.5343532E-4,-1.5675168E-3,-0E0,-4.0231785E-4,2.1825582E-4,-1.4885052E-3,2.4899995E-4,-0E0,-4.3576634E-3,-4.027505E-3,-0E0,-8.073222E-5,-8.1878714E-4],"categories":[],"categories_nodes":[],"categories_segments":[],"categories_sizes":[],"default_left":[0,0,0,0,0,0,0,0,0,0,0,0,0,0,0,0,0,0,0,0,0,0,0,0,0,0,0,0,0,0,0],"id":3,"left_children":[1,3,5,7,9,11,13,15,17,19,21,23,25,27,29,-1,-1,-1,-1,-1,-1,-1,-1,-1,-1,-1,-1,-1,-1,-1,-1],"loss_changes":[1.1305205E-1,5.5288352E-2,7.9705134E-2,2.1040872E-2,2.8637083E-2,4.577148E-2,1.8664662E-2,2.1688059E-2,3.4139534E-3,1.1640878E-2,2.739589E-2,1.1841062E-2,1.5568614E-2,7.804204E-4,1.3288395E-2,0E0,0E0,0E0,0E0,0E0,0E0,0E0,0E0,0E0,0E0,0E0,0E0,0E0,0E0,0E0,0E0],"parents":[2147483647,0,0,1,1,2,2,3,3,4,4,5,5,6,6,7,7,8,8,9,9,10,10,11,11,12,12,13,13,14,14],"right_children":[2,4,6,8,10,12,14,16,18,20,22,24,26,28,30,-1,-1,-1,-1,-1,-1,-1,-1,-1,-1,-1,-1,-1,-1,-1,-1],"split_conditions":[6.263818E-1,-7.0306325E-1,-2.4829416E-1,8.4427345E-1,-8.844534E-1,1.8548455E0,-1.0862373E0,-5.4551375E-1,-6.4047897E-1,-1.23347215E-1,-5.845695E-1,4.1575408E-1,-2.2613313E0,6.9891375E-1,1.1619684E0,1.4224056E-3,4.345296E-4,-3.157304E-4,3.5343532E-4,-1.5675168E-3,-0E0,-4.0231785E-4,2.1825582E-4,-1.4885052E-3,2.4899995E-4,-0E0,-4.3576634E-3,-4.027505E-3,-0E0,-8.073222E-5,-8.1878714E-4],"split_indices":[4,14,1,27,15,25,19,4,26,7,18,25,0,3,4,0,0,0,0,0,0,0,0,0,0,0,0,0,0,0,0],"split_type":[0,0,0,0,0,0,0,0,0,0,0,0,0,0,0,0,0,0,0,0,0,0,0,0,0,0,0,0,0,0,0],"sum_hessian":[1.847E3,1.47E3,3.77E2,3.38E2,1.132E3,6.7E1,3.1E2,2.64E2,7.4E1,4.6E1,1.086E3,4.1E1,2.6E1,4E0,3.06E2,1.38E2,1.26E2,3.7E1,3.7E1,3.7E1,9E0,2.19E2,8.67E2,3.4E1,7E0,2E0,2.4E1,3E0,1E0,2.08E2,9.8E1],"tree_param":{"num_deleted":"0","num_feature":"29","num_nodes":"31","size_leaf_vector":"1"}},{"base_weights":[-1.1860314E-4,9.737633E-3,-4.6711364E-3,1.4173584E-2,-8.836417E-3,-2.6351E-3,-1.8402359E-2,-2.299205E-2,1.5877439E-2,-3.8169235E-2,-1.1794064E-3,3.6005758E-2,-3.118817E-3,-3.9929543E-2,-4.673258E-3,-4.3703397E-3,-0E0,8.775837E-4,-3.4322642E-4,-2.1018959E-3,-0E0,-2.5870846E-4,2.906796E-4,2.268938E-3,-0E0,-8.094224E-4,-7.6601085E-5,-2.36537E-3,-0E0,2.4782986E-4,-4.1589318E-4],"categories":[],"categories_nodes":[],"categories_segments":[],"categories_sizes":[],"default_left":[0,0,0,0,0,0,0,0,0,0,0,0,0,0,0,0,0,0,0,0,0,0,0,0,0,0,0,0,0,0,0],"id":4,"left_children":[1,3,5,7,9,11,13,15,17,19,21,23,25,27,29,-1,-1,-1,-1,-1,-1,-1,-1,-1,-1,-1,-1,-1,-1,-1,-1],"loss_changes":[8.057557E-2,4.7128946E-2,3.2598644E-2,2.878303E-2,1.9603297E-2,1.7197052E-2,4.086765E-2,2.104437E-2,1.8056594E-2,4.1284338E-3,2.396515E-3,2.2132928E-3,2.0601086E-2,1.6544513E-2,3.8168626E-3,0E0,0E0,0E0,0E0,0E0,0E0,0E0,0E0,0E0,0E0,0E0,0E0,0E0,0E0,0E0,0E0],"parents":[2147483647,0,0,1,1,2,2,3,3,4,4,5,5,6,6,7,7,8,8,9,9,10,10,11,11,12,12,13,13,14,14],"right_children":[2,4,6,8,10,12,14,16,18,20,22,24,26,28,30,-1,-1,-1,-1,-1,-1,-1,-1,-1,-1,-1,-1,-1,-1,-1,-1],"split_conditions":[-3.3215526E-1,3.1934536E-1,1.0592366E0,-1.6470445E0,-5.715843E-1,-1.3936683E0,1.62732E-1,-2.663293E0,8.992818E-1,8.538911E-1,6.1990416E-1,-1.9421618E-2,-7.9054517E-1,9.8034555E-1,4.5964214E-1,-4.3703397E-3,-0E0,8.775837E-4,-3.4322642E-4,-2.1018959E-3,-0E0,-2.5870846E-4,2.906796E-4,2.268938E-3,-0E0,-8.094224E-4,-7.6601085E-5,-2.36537E-3,-0E0,2.4782986E-4,-4.1589318E-4],"split_indices":[4,17,4,4,19,6,1,1,27,11,15,4,1,17,14,0,0,0,0,0,0,0,0,0,0,0,0,0,0,0,0],"split_type":[0,0,0,0,0,0,0,0,0,0,0,0,0,0,0,0,0,0,0,0,0,0,0,0,0,0,0,0,0,0,0],"sum_hessian":[1.805E3,5.63E2,1.242E3,4.59E2,1.04E2,1.089E3,1.53E2,1.7E1,4.42E2,1.8E1,8.6E1,1E1,1.079E3,5.6E1,9.7E1,3E0,1.4E1,4.16E2,2.6E1,1.7E1,1E0,6.4E1,2.2E1,7E0,3E0,1.09E2,9.7E2,4.7E1,9E0,1.9E1,7.8E1],"tree_param":{"num_deleted":"0","num_feature":"29","num_nodes":"31","size_leaf_vector":"1"}},{"base_weights":[-8.4263076E-5,7.864599E-3,-5.455132E-3,1.1256373E-2,-4.4492283E-3,-3.3369751E-3,-2.2188818E-2,1.3415207E-2,-4.7626114E-3,-3.3352927E-3,-2.5077674E-3,-6.407676E-3,5.2331034E-3,-5.072852E-2,-6.748354E-3,1.1534774E-3,4.3652393E-4,2.4945487E-4,-7.9211436E-4,-4.6533905E-4,5.446162E-4,-7.619632E-5,-7.1234663E-4,-6.656333E-4,3.893005E-4,-2.1993065E-4,-3.2600516E-3,-0E0,-1.3271284E-3],"categories":[],"categories_nodes":[],"categories_segments":[],"categories_sizes":[],"default_left":[0,0,0,0,0,0,0,0,0,0,0,0,0,0,0,0,0,0,0,0,0,0,0,0,0,0,0,0,0],"id":5,"left_children":[1,3,5,7,9,11,13,15,17,-1,19,21,23,25,27,-1,-1,-1,-1,-1,-1,-1,-1,-1,-1,-1,-1,-1,-1],"loss_changes":[7.784347E-2,3.1219777E-2,3.632696E-2,2.0952322E-2,1.1283411E-2,2.5993442E-2,4.5908593E-2,1.9956216E-2,8.079287E-3,0E0,1.3608929E-2,2.6425797E-2,1.1434736E-2,1.8903136E-2,9.037919E-3,0E0,0E0,0E0,0E0,0E0,0E0,0E0,0E0,0E0,0E0,0E0,0E0,0E0,0E0],"parents":[2147483647,0,0,1,1,2,2,3,3,4,4,5,5,6,6,7,7,8,8,10,10,11,11,12,12,13,13,14,14],"right_children":[2,4,6,8,10,12,14,16,18,-1,20,22,24,26,28,-1,-1,-1,-1,-1,-1,-1,-1,-1,-1,-1,-1,-1,-1],"split_conditions":[-1.5428807E-1,2.4148397E-1,1.1841776E0,8.638311E-1,-8.121825E-1,3.3200848E-1,1.62732E-1,-7.1009874E-1,3.27317E-1,-3.3352927E-3,5.715219E-1,6.742883E-1,-6.076229E-1,-5.9479666E-1,1.1848484E0,1.1534774E-3,4.3652393E-4,2.4945487E-4,-7.9211436E-4,-4.6533905E-4,5.446162E-4,-7.619632E-5,-7.1234663E-4,-6.656333E-4,3.893005E-4,-2.1993065E-4,-3.2600516E-3,-0E0,-1.3271284E-3],"split_indices":[4,2,4,27,1,27,1,8,21,0,23,25,24,16,2,0,0,0,0,0,0,0,0,0,0,0,0,0,0],"split_type":[0,0,0,0,0,0,0,0,0,0,0,0,0,0,0,0,0,0,0,0,0,0,0,0,0,0,0,0,0],"sum_hessian":[1.827E3,7.29E2,1.098E3,5.78E2,1.51E2,9.81E2,1.17E2,5.15E2,6.3E1,2E0,1.49E2,7.31E2,2.5E2,3.8E1,7.9E1,1.6E2,3.55E2,2.9E1,3.4E1,1.04E2,4.5E1,4.59E2,2.72E2,2.5E1,2.25E2,1.1E1,2.7E1,6.2E1,1.7E1],"tree_param":{"num_deleted":"0","num_feature":"29","num_nodes":"29","size_leaf_vector":"1"}},{"base_weights":[-1.2866885E-4,6.227291E-3,-6.8261405E-3,1.2057844E-2,-0E0,-2.6781395E-2,-4.5835744E-3,1.494523E-2,-4.801948E-3,-2.6016744E-2,2.5142867E-3,-3.330767E-2,2.091913E-2,-2.3660196E-3,-1.987173E-2,1.4815187E-3,4.894962E-4,3.0853672E-4,-6.6693366E-4,-0E0,-1.5904767E-3,-7.320565E-4,3.1665034E-4,-1.9840563E-3,-0E0,2.5732722E-3,-0E0,-3.041281E-4,1.4168087E-4,-2.7659994E-3,-1.8748296E-4],"categories":[],"categories_nodes":[],"categories_segments":[],"categories_sizes":[],"default_left":[0,0,0,0,0,0,0,0,0,0,0,0,0,0,0,0,0,0,0,0,0,0,0,0,0,0,0,0,0,0,0],"id":6,"left_children":[1,3,5,7,9,11,13,15,17,19,21,23,25,27,29,-1,-1,-1,-1,-1,-1,-1,-1,-1,-1,-1,-1,-1,-1,-1,-1],"loss_changes":[7.702433E-2,3.323879E-2,3.647961E-2,2.4160765E-2,2.8983513E-2,2.8396707E-2,2.498668E-2,2.6807532E-2,6.887703E-3,8.004816E-3,2.6056208E-2,1.6924575E-2,9.304969E-3,1.4043323E-2,4.874953E-2,0E0,0E0,0E0,0E0,0E0,0E0,0E0,0E0,0E0,0E0,0E0,0E0,0E0,0E0,0E0,0E0],"parents":[2147483647,0,0,1,1,2,2,3,3,4,4,5,5,6,6,7,7,8,8,9,9,10,10,11,11,12,12,13,13,14,14],"right_children":[2,4,6,8,10,12,14,16,18,20,22,24,26,28,30,-1,-1,-1,-1,-1,-1,-1,-1,-1,-1,-1,-1,-1,-1,-1,-1],"split_conditions":[3.2290872E-2,-1.9474208E-1,-6.584457E-1,8.505271E-1,-7.055343E-1,1.4251376E0,1.2078981E0,-1.0777882E0,3.27317E-1,-7.684529E-1,-5.845695E-1,9.2262834E-1,-9.0445083E-1,8.649604E-2,1.62732E-1,1.4815187E-3,4.894962E-4,3.0853672E-4,-6.6693366E-4,-0E0,-1.5904767E-3,-7.320565E-4,3.1665034E-4,-1.9840563E-3,-0E0,2.5732722E-3,-0E0,-3.041281E-4,1.4168087E-4,-2.7659994E-3,-1.8748296E-4],"split_indices":[4,17,1,27,15,21,4,2,21,27,18,17,15,20,1,0,0,0,0,0,0,0,0,0,0,0,0,0,0,0,0],"split_type":[0,0,0,0,0,0,0,0,0,0,0,0,0,0,0,0,0,0,0,0,0,0,0,0,0,0,0,0,0,0,0],"sum_hessian":[1.806E3,9.19E2,8.87E2,4.73E2,4.46E2,8.4E1,8.03E2,4.09E2,6.4E1,3.8E1,4.08E2,7.6E1,8E0,7.08E2,9.5E1,1E2,3.09E2,2.3E1,4.1E1,5E0,3.3E1,6.9E1,3.39E2,6.4E1,1.2E1,4E0,4E0,4.24E2,2.84E2,2.7E1,6.8E1],"tree_param":{"num_deleted":"0","num_feature":"29","num_nodes":"31","size_leaf_vector":"1"}},{"base_weights":[-1.265648E-3,3.6456343E-3,-9.190447E-3,5.335195E-3,-1.1978306E-2,-2.3820398E-2,-4.9123373E-3,2.0696812E-3,1.0726272E-2,-3.706355E-2,-1.987421E-3,-1.3252227E-2,-5.474905E-2,-2.828157E-2,-3.5780445E-3,2.2936969E-4,-5.9438235E-4,6.5207056E-4,-2.8070717E-4,-0E0,-2.26438E-3,-1.0399852E-3,7.6657714E-5,-2.5539082E-3,-2.9900888E-4,-4.307932E-3,-9.371483E-4,-1.83868E-3,-0E0,-9.536428E-5,-1.059118E-3],"categories":[],"categories_nodes":[],"categories_segments":[],"categories_sizes":[],"default_left":[0,0,0,0,0,0,0,0,0,0,0,0,0,0,0,0,0,0,0,0,0,0,0,0,0,0,0,0,0,0,0],"id":7,"left_children":[1,3,5,7,9,11,13,15,17,19,21,23,25,27,29,-1,-1,-1,-1,-1,-1,-1,-1,-1,-1,-1,-1,-1,-1,-1,-1],"loss_changes":[7.239708E-2,2.9281668E-2,4.169792E-2,1.6795775E-2,2.233674E-2,4.3464385E-2,1.4143251E-2,2.2271281E-2,1.5040144E-2,8.031186E-3,7.190719E-3,2.6997358E-2,2.973961E-2,7.602224E-3,1.3356943E-2,0E0,0E0,0E0,0E0,0E0,0E0,0E0,0E0,0E0,0E0,0E0,0E0,0E0,0E0,0E0,0E0],"parents":[2147483647,0,0,1,1,2,2,3,3,4,4,5,5,6,6,7,7,8,8,9,9,10,10,11,11,12,12,13,13,14,14],"right_children":[2,4,6,8,10,12,14,16,18,20,22,24,26,28,30,-1,-1,-1,-1,-1,-1,-1,-1,-1,-1,-1,-1,-1,-1,-1,-1],"split_conditions":[2.357082E-1,7.6506734E-1,-2.4829416E-1,3.9934412E-1,-3.65738E-1,1.7608252E0,-9.8050994E-1,1.3275616E0,8.992818E-1,8.3513546E-1,-6.6430345E-2,-1.0617272E0,-4.0422717E-1,8.736997E-3,1.3818893E0,2.2936969E-4,-5.9438235E-4,6.5207056E-4,-2.8070717E-4,-0E0,-2.26438E-3,-1.0399852E-3,7.6657714E-5,-2.5539082E-3,-2.9900888E-4,-4.307932E-3,-9.371483E-4,-1.83868E-3,-0E0,-9.536428E-5,-1.059118E-3],"split_indices":[4,17,1,27,19,25,19,25,27,3,20,20,27,25,2,0,0,0,0,0,0,0,0,0,0,0,0,0,0,0,0],"split_type":[0,0,0,0,0,0,0,0,0,0,0,0,0,0,0,0,0,0,0,0,0,0,0,0,0,0,0,0,0,0,0],"sum_hessian":[1.844E3,1.131E3,7.13E2,1.027E3,1.04E2,1.55E2,5.58E2,6.52E2,3.75E2,2.6E1,7.8E1,1.19E2,3.6E1,2.5E1,5.33E2,5.59E2,9.3E1,3.34E2,4.1E1,5E0,2.1E1,1.6E1,6.2E1,1.6E1,1.03E2,1.7E1,1.9E1,2E1,5E0,4.93E2,4E1],"tree_param":{"num_deleted":"0","num_feature":"29","num_nodes":"31","size_leaf_vector":"1"}},{"base_weights":[6.2829873E-4,4.9900836E-3,-6.4304434E-3,9.572064E-3,2.7881918E-4,-2.0611888E-2,-4.5530102E-4,1.5057958E-2,4.2732605E-3,-2.7767532E-2,1.4910176E-3,-1.1816275E-2,-4.2818658E-2,7.451328E-4,-2.356039E-2,1.1283526E-3,1.3544333E-4,-0E0,8.323469E-4,-2.0516855E-3,5.2778004E-4,2.0255223E-4,-4.7414872E-4,-1.2349158E-3,-0E0,-3.5416756E-3,-4.1166437E-4,-1.9253067E-4,2.8355393E-4,-1.6990508E-3,-0E0],"categories":[],"categories_nodes":[],"categories_segments":[],"categories_sizes":[],"default_left":[0,0,0,0,0,0,0,0,0,0,0,0,0,0,0,0,0,0,0,0,0,0,0,0,0,0,0,0,0,0,0],"id":8,"left_children":[1,3,5,7,9,11,13,15,17,19,21,23,25,27,29,-1,-1,-1,-1,-1,-1,-1,-1,-1,-1,-1,-1,-1,-1,-1,-1],"loss_changes":[5.521537E-2,2.3189593E-2,5.5335008E-2,1.4193784E-2,1.658848E-2,3.2313697E-2,1.5695633E-2,2.189212E-2,1.486114E-2,1.3648975E-2,1.4806299E-2,2.1234922E-2,4.189314E-2,1.0526992E-2,6.3969027E-3,0E0,0E0,0E0,0E0,0E0,0E0,0E0,0E0,0E0,0E0,0E0,0E0,0E0,0E0,0E0,0E0],"parents":[2147483647,0,0,1,1,2,2,3,3,4,4,5,5,6,6,7,7,8,8,9,9,10,10,11,11,12,12,13,13,14,14],"right_children":[2,4,6,8,10,12,14,16,18,20,22,24,26,28,30,-1,-1,-1,-1,-1,-1,-1,-1,-1,-1,-1,-1,-1,-1,-1,-1],"split_conditions":[2.2563896E-1,-1.7589997E-1,-2.4508786E-1,-4.2147315E-1,-1.3781492E0,1.8548455E0,1.3333787E0,-4.6561176E-1,6.740819E-1,3.2384834E-1,6.966389E-1,-3.4520113E-1,1.9930361E-1,-2.2297524E-1,2.7956995E-1,1.1283526E-3,1.3544333E-4,-0E0,8.323469E-4,-2.0516855E-3,5.2778004E-4,2.0255223E-4,-4.7414872E-4,-1.2349158E-3,-0E0,-3.5416756E-3,-4.1166437E-4,-1.9253067E-4,2.8355393E-4,-1.6990508E-3,-0E0],"split_indices":[4,17,28,5,23,25,2,4,19,0,14,10,15,10,23,0,0,0,0,0,0,0,0,0,0,0,0,0,0,0,0],"split_type":[0,0,0,0,0,0,0,0,0,0,0,0,0,0,0,0,0,0,0,0,0,0,0,0,0,0,0,0,0,0,0],"sum_hessian":[1.796E3,1.119E3,6.77E2,5.56E2,5.63E2,1.95E2,4.82E2,2.63E2,2.93E2,1.9E1,5.44E2,1.44E2,5.1E1,4.55E2,2.7E1,1.58E2,1.05E2,2.21E2,7.2E1,1.6E1,3E0,4.49E2,9.5E1,6.7E1,7.7E1,2.6E1,2.5E1,2.25E2,2.3E2,1.8E1,9E0],"tree_param":{"num_deleted":"0","num_feature":"29","num_nodes":"31","size_leaf_vector":"1"}},{"base_weights":[-4.166615E-4,6.870623E-3,-5.0020097E-3,1.7638473E-2,1.9860696E-3,-1.0117774E-2,-3.9155534E-4,2.2785926E-2,3.2825723E-5,-7.339381E-4,1.2947018E-2,-3.4237562E-3,-2.3015562E-2,-4.437186E-3,6.67127E-3,3.8204886E-4,1.5993456E-3,9.179787E-4,-7.576953E-4,-2.3935025E-4,2.922494E-4,1.2333132E-3,-0E0,-1.315903E-3,-2.1087695E-5,-1.7412689E-3,-1.6590575E-4,-3.534554E-4,3.3534388E-4,1.0551041E-3,-0E0],"categories":[],"categories_nodes":[],"categories_segments":[],"categories_sizes":[],"default_left":[0,0,0,0,0,0,0,0,0,0,0,0,0,0,0,0,0,0,0,0,0,0,0,0,0,0,0,0,0,0,0],"id":9,"left_children":[1,3,5,7,9,11,13,15,17,19,21,23,25,27,29,-1,-1,-1,-1,-1,-1,-1,-1,-1,-1,-1,-1,-1,-1,-1,-1],"loss_changes":[5.94594E-2,3.3820488E-2,2.4984047E-2,1.6385972E-2,1.542221E-2,4.156867E-2,1.6721753E-2,1.7391816E-2,1.5071603E-2,9.921492E-3,1.7582424E-2,2.0957608E-2,3.5616055E-2,1.1405133E-2,2.1067543E-2,0E0,0E0,0E0,0E0,0E0,0E0,0E0,0E0,0E0,0E0,0E0,0E0,0E0,0E0,0E0,0E0],"parents":[2147483647,0,0,1,1,2,2,3,3,4,4,5,5,6,6,7,7,8,8,9,9,10,10,11,11,12,12,13,13,14,14],"right_children":[2,4,6,8,10,12,14,16,18,20,22,24,26,28,30,-1,-1,-1,-1,-1,-1,-1,-1,-1,-1,-1,-1,-1,-1,-1,-1],"split_conditions":[-2.4506369E-1,-5.651841E-1,-1.3787912E-1,-2.0976937E-1,5.252945E-1,4.0777513E-1,2.8031436E-1,-1.2534811E0,-5.176662E-1,1.4947449E-1,9.75299E-1,-5.1726073E-1,8.5643485E-2,6.2488306E-1,-5.41626E-1,3.8204886E-4,1.5993456E-3,9.179787E-4,-7.576953E-4,-2.3935025E-4,2.922494E-4,1.2333132E-3,-0E0,-1.315903E-3,-2.1087695E-5,-1.7412689E-3,-1.6590575E-4,-3.534554E-4,3.3534388E-4,1.0551041E-3,-0E0],"split_indices":[17,1,28,4,20,4,21,8,23,18,10,3,16,20,16,0,0,0,0,0,0,0,0,0,0,0,0,0,0,0,0],"split_type":[0,0,0,0,0,0,0,0,0,0,0,0,0,0,0,0,0,0,0,0,0,0,0,0,0,0,0,0,0,0,0],"sum_hessian":[1.783E3,6.8E2,1.103E3,2.05E2,4.75E2,5.12E2,5.91E2,1.54E2,5.1E1,3.74E2,1.01E2,3.43E2,1.69E2,3.85E2,2.06E2,6.3E1,9.1E1,2.6E1,2.5E1,2.41E2,1.33E2,5.6E1,4.5E1,3.5E1,3.08E2,1.02E2,6.7E1,3.19E2,6.6E1,6.7E1,1.39E2],"tree_param":{"num_deleted":"0","num_feature":"29","num_nodes":"31","size_leaf_vector":"1"}},{"base_weights":[-9.641722E-4,1.1995444E-2,-3.8506805E-3,-2.058841E-3,1.6231826E-2,-3.2802694E-2,-2.9334913E-3,-1.0752277E-2,1.3975953E-2,1.9425334E-2,-5.6568403E-3,-5.0536264E-2,-7.948025E-4,2.0860564E-3,-8.879835E-3,-8.751805E-4,-0E0,1.2120086E-3,-1.8587934E-4,1.1227236E-3,-0E0,4.0715132E-4,-1.5479992E-3,-0E0,-3.117286E-3,-8.4458943E-4,8.7739015E-4,1.8292482E-4,-1.3692724E-3,-3.0999384E-3,-3.7057805E-4],"categories":[],"categories_nodes":[],"categories_segments":[],"categories_sizes":[],"default_left":[0,0,0,0,0,0,0,0,0,0,0,0,0,0,0,0,0,0,0,0,0,0,0,0,0,0,0,0,0,0,0],"id":10,"left_children":[1,3,5,7,9,11,13,15,17,19,21,23,25,27,29,-1,-1,-1,-1,-1,-1,-1,-1,-1,-1,-1,-1,-1,-1,-1,-1],"loss_changes":[6.660359E-2,2.062238E-2,3.5630774E-2,9.585728E-3,1.9171841E-2,1.8666524E-2,4.364911E-2,5.2489755E-3,5.956192E-3,1.2913115E-2,1.2660025E-2,1.3891913E-2,5.5455044E-3,3.3503644E-2,4.469887E-2,0E0,0E0,0E0,0E0,0E0,0E0,0E0,0E0,0E0,0E0,0E0,0E0,0E0,0E0,0E0,0E0],"parents":[2147483647,0,0,1,1,2,2,3,3,4,4,5,5,6,6,7,7,8,8,9,9,10,10,11,11,12,12,13,13,14,14],"right_children":[2,4,6,8,10,12,14,16,18,20,22,24,26,28,30,-1,-1,-1,-1,-1,-1,-1,-1,-1,-1,-1,-1,-1,-1,-1,-1],"split_conditions":[-7.0306325E-1,-1.3833283E0,-9.3130857E-1,1.4927144E0,-5.8677036E-1,4.0497112E-1,2.1690387E-1,-4.8964778E-1,-1.2283353E0,-6.0672164E-1,-8.8855886E-1,-6.569147E-1,-8.783115E-2,1.309152E0,-4.782286E-1,-8.751805E-4,-0E0,1.2120086E-3,-1.8587934E-4,1.1227236E-3,-0E0,4.0715132E-4,-1.5479992E-3,-0E0,-3.117286E-3,-8.4458943E-4,8.7739015E-4,1.8292482E-4,-1.3692724E-3,-3.0999384E-3,-3.7057805E-4],"split_indices":[14,8,15,16,8,20,17,17,15,15,4,11,2,4,3,0,0,0,0,0,0,0,0,0,0,0,0,0,0,0,0],"split_type":[0,0,0,0,0,0,0,0,0,0,0,0,0,0,0,0,0,0,0,0,0,0,0,0,0,0,0,0,0,0,0],"sum_hessian":[1.8E3,3.21E2,1.479E3,6.9E1,2.52E2,4.1E1,1.438E3,4.9E1,2E1,2.24E2,2.8E1,2.4E1,1.7E1,7.71E2,6.67E2,3.5E1,1.4E1,1.6E1,4E0,1.93E2,3.1E1,1.6E1,1.2E1,5E0,1.9E1,1.2E1,5E0,7.36E2,3.5E1,1.5E1,6.52E2],"tree_param":{"num_deleted":"0","num_feature":"29","num_nodes":"31","size_leaf_vector":"1"}},{"base_weights":[9.9371704E-5,1.06432745E-2,-2.358168E-3,-4.167695E-2,1.2598801E-2,-2.414972E-2,-8.0303825E-4,-2.8686803E-3,-0E0,-0E0,1.6005138E-2,-8.454874E-3,-5.849805E-2,3.1177695E-3,-6.5820594E-3,3.4488205E-4,-2.0995548E-3,9.703738E-4,-0E0,-1.3060685E-3,3.2595592E-4,-3.5608464E-3,-0E0,3.2441094E-4,-3.9621277E-4,-6.06616E-4,-1.123356E-4],"categories":[],"categories_nodes":[],"categories_segments":[],"categories_sizes":[],"default_left":[0,0,0,0,0,0,0,0,0,0,0,0,0,0,0,0,0,0,0,0,0,0,0,0,0,0,0],"id":11,"left_children":[1,3,5,7,9,11,13,-1,-1,15,17,19,21,23,25,-1,-1,-1,-1,-1,-1,-1,-1,-1,-1,-1,-1],"loss_changes":[4.7754433E-2,3.342703E-2,4.69967E-2,7.2271954E-3,1.3915442E-2,4.2945646E-2,3.1386346E-2,0E0,0E0,2.0820206E-2,1.61094E-2,1.9854557E-2,1.9186117E-2,2.9904375E-2,1.2105983E-2,0E0,0E0,0E0,0E0,0E0,0E0,0E0,0E0,0E0,0E0,0E0,0E0],"parents":[2147483647,0,0,1,1,2,2,3,3,4,4,5,5,6,6,9,9,10,10,11,11,12,12,13,13,14,14],"right_children":[2,4,6,8,10,12,14,-1,-1,16,18,20,22,24,26,-1,-1,-1,-1,-1,-1,-1,-1,-1,-1,-1,-1],"split_conditions":[-6.759743E-1,-7.920201E-1,-7.7898294E-1,2.227022E0,-1.3833283E0,1.3275616E0,2.8167534E-1,-2.8686803E-3,-0E0,-5.927256E-1,-6.451056E-1,-2.2244798E-1,3.7629163E-1,1.0958629E0,-6.6430345E-2,3.4488205E-4,-2.0995548E-3,9.703738E-4,-0E0,-1.3060685E-3,3.2595592E-4,-3.5608464E-3,-0E0,3.2441094E-4,-3.9621277E-4,-6.06616E-4,-1.123356E-4],"split_indices":[14,24,5,10,8,25,17,0,0,11,15,8,3,25,20,0,0,0,0,0,0,0,0,0,0,0,0],"split_type":[0,0,0,0,0,0,0,0,0,0,0,0,0,0,0,0,0,0,0,0,0,0,0,0,0,0,0],"sum_hessian":[1.809E3,3.49E2,1.46E3,1E1,3.39E2,9.2E1,1.368E3,7E0,3E0,7.5E1,2.64E2,6.6E1,2.6E1,8.05E2,5.63E2,6.6E1,9E0,2.22E2,4.2E1,3.3E1,3.3E1,2.1E1,5E0,6.24E2,1.81E2,2.36E2,3.27E2],"tree_param":{"num_deleted":"0","num_feature":"29","num_nodes":"27","size_leaf_vector":"1"}},{"base_weights":[-1.7067223E-4,2.213536E-3,-9.592855E-3,6.9148703E-3,-2.1832963E-3,-4.1686054E-2,-4.816108E-3,1.0658961E-2,1.2917069E-3,-2.0062782E-2,-4.5288028E-4,-5.1854152E-2,-0E0,-4.8872434E-2,-3.6871966E-3,6.9230906E-4,-1.2330254E-4,-4.5828937E-4,3.4285666E-4,-2.2148215E-3,-4.7752223E-4,1.8091843E-4,-3.7274882E-4,-3.0199718E-3,-0E0,-0E0,-7.607684E-5,-3.5449662E-3,-0E0,-4.6112706E-4,5.3627482E-5],"categories":[],"categories_nodes":[],"categories_segments":[],"categories_sizes":[],"default_left":[0,0,0,0,0,0,0,0,0,0,0,0,0,0,0,0,0,0,0,0,0,0,0,0,0,0,0,0,0,0,0],"id":12,"left_children":[1,3,5,7,9,11,13,15,17,19,21,23,25,27,29,-1,-1,-1,-1,-1,-1,-1,-1,-1,-1,-1,-1,-1,-1,-1,-1],"loss_changes":[4.173432E-2,3.041983E-2,5.2943535E-2,1.3760295E-2,2.077229E-2,1.686325E-2,1.1076083E-2,1.8574394E-2,1.7059306E-2,9.477399E-3,1.9767078E-2,1.6292132E-2,1.8520592E-5,5.7757664E-3,9.440306E-3,0E0,0E0,0E0,0E0,0E0,0E0,0E0,0E0,0E0,0E0,0E0,0E0,0E0,0E0,0E0,0E0],"parents":[2147483647,0,0,1,1,2,2,3,3,4,4,5,5,6,6,7,7,8,8,9,9,10,10,11,11,12,12,13,13,14,14],"right_children":[2,4,6,8,10,12,14,16,18,20,22,24,26,28,30,-1,-1,-1,-1,-1,-1,-1,-1,-1,-1,-1,-1,-1,-1,-1,-1],"split_conditions":[6.263818E-1,-1.347543E-1,-4.1484025E-1,-2.2310998E-1,-3.6115798E-1,6.4431036E-1,0E0,8.4427345E-1,-2.4537101E-1,-3.654852E-1,4.7385764E-1,9.8034555E-1,-7.218332E-1,6.9891375E-1,-2.8353745E-1,6.9230906E-4,-1.2330254E-4,-4.5828937E-4,3.4285666E-4,-2.2148215E-3,-4.7752223E-4,1.8091843E-4,-3.7274882E-4,-3.0199718E-3,-0E0,-0E0,-7.607684E-5,-3.5449662E-3,-0E0,-4.6112706E-4,5.3627482E-5],"split_indices":[4,2,1,4,8,21,22,27,16,16,17,17,15,3,27,0,0,0,0,0,0,0,0,0,0,0,0,0,0,0,0],"split_type":[0,0,0,0,0,0,0,0,0,0,0,0,0,0,0,0,0,0,0,0,0,0,0,0,0,0,0,0,0,0,0],"sum_hessian":[1.823E3,1.447E3,3.76E2,7.1E2,7.37E2,4.5E1,3.31E2,4.15E2,2.95E2,5.9E1,6.78E2,3.5E1,1E1,5E0,3.26E2,3.4E2,7.5E1,9.6E1,1.99E2,1.4E1,4.5E1,4.2E2,2.58E2,3E1,5E0,3E0,7E0,3E0,2E0,1.6E2,1.66E2],"tree_param":{"num_deleted":"0","num_feature":"29","num_nodes":"31","size_leaf_vector":"1"}},{"base_weights":[8.749701E-4,1.554281E-2,-5.1733415E-4,2.0358104E-2,-0E0,-2.7586345E-3,3.576355E-3,2.4346987E-2,-5.864255E-3,-1.993576E-2,7.1727037E-3,-4.770382E-3,3.8856913E-3,8.003634E-3,-5.50626E-3,1.7894758E-3,6.0834846E-4,-2.643512E-3,4.1125808E-4,-0E0,-1.8728431E-3,-0E0,4.9138593E-4,-1.3689177E-6,-9.934197E-4,-1.4245992E-4,1.03509E-3,6.3878915E-4,-6.886743E-5,8.3459476E-5,-6.3101196E-4],"categories":[],"categories_nodes":[],"categories_segments":[],"categories_sizes":[],"default_left":[0,0,0,0,0,0,0,0,0,0,0,0,0,0,0,0,0,0,0,0,0,0,0,0,0,0,0,0,0,0,0],"id":13,"left_children":[1,3,5,7,9,11,13,15,17,19,21,23,25,27,29,-1,-1,-1,-1,-1,-1,-1,-1,-1,-1,-1,-1,-1,-1,-1,-1],"loss_changes":[3.843374E-2,1.24291815E-2,1.5030451E-2,1.5065793E-2,5.8637634E-3,1.4543047E-2,2.3093602E-2,1.0378361E-2,1.4171391E-2,5.4493356E-3,9.2261843E-4,5.823382E-2,2.9025352E-2,1.8571977E-2,1.0253405E-2,0E0,0E0,0E0,0E0,0E0,0E0,0E0,0E0,0E0,0E0,0E0,0E0,0E0,0E0,0E0,0E0],"parents":[2147483647,0,0,1,1,2,2,3,3,4,4,5,5,6,6,7,7,8,8,9,9,10,10,11,11,12,12,13,13,14,14],"right_children":[2,4,6,8,10,12,14,16,18,20,22,24,26,28,30,-1,-1,-1,-1,-1,-1,-1,-1,-1,-1,-1,-1,-1,-1,-1,-1],"split_conditions":[-1.0777882E0,7.654571E-1,2.8031436E-1,2.7897952E0,-1.5563898E0,4.9177653E-1,5.1490986E-1,-1.2283353E0,-1.7490468E0,-1.1177689E0,-7.4085045E-1,1.0648303E0,1.1790137E0,2.6683193E-1,1E0,1.7894758E-3,6.0834846E-4,-2.643512E-3,4.1125808E-4,-0E0,-1.8728431E-3,-0E0,4.9138593E-4,-1.3689177E-6,-9.934197E-4,-1.4245992E-4,1.03509E-3,6.3878915E-4,-6.886743E-5,8.3459476E-5,-6.3101196E-4],"split_indices":[2,27,21,24,8,23,23,15,14,11,7,25,25,16,12,0,0,0,0,0,0,0,0,0,0,0,0,0,0,0,0],"split_type":[0,0,0,0,0,0,0,0,0,0,0,0,0,0,0,0,0,0,0,0,0,0,0,0,0,0,0,0,0,0,0],"sum_hessian":[1.807E3,1.62E2,1.645E3,1.24E2,3.8E1,1.079E3,5.66E2,1.11E2,1.3E1,1E1,2.8E1,8.4E2,2.39E2,3.88E2,1.78E2,5.2E1,5.9E1,4E0,9E0,4E0,6E0,4E0,2.4E1,6.45E2,1.95E2,1.67E2,7.2E1,2.64E2,1.24E2,8.2E1,9.6E1],"tree_param":{"num_deleted":"0","num_feature":"29","num_nodes":"31","size_leaf_vector":"1"}},{"base_weights":[-1.1406377E-4,2.9061525E-3,-5.9425626E-3,-7.4480693E-3,4.3648845E-3,-1.81121E-2,-9.965188E-4,1.838311E-2,-1.0414171E-2,1.7284332E-2,2.9708114E-3,-8.438933E-3,-4.3647055E-2,-3.5194173E-2,-0E0,-0E0,1.169991E-3,-6.764093E-4,1.3677006E-4,1.2842125E-3,-0E0,-1.7629387E-3,1.8242285E-4,-7.085987E-5,-1.0938975E-3,-2.8843924E-3,-0E0,-0E0,-3.4069268E-3,-1.4731007E-4,3.2810957E-4],"categories":[],"categories_nodes":[],"categories_segments":[],"categories_sizes":[],"default_left":[0,0,0,0,0,0,0,0,0,0,0,0,0,0,0,0,0,0,0,0,0,0,0,0,0,0,0,0,0,0,0],"id":14,"left_children":[1,3,5,7,9,11,13,15,17,19,21,23,25,27,29,-1,-1,-1,-1,-1,-1,-1,-1,-1,-1,-1,-1,-1,-1,-1,-1],"loss_changes":[3.20069E-2,1.7471429E-2,3.5750695E-2,9.891205E-3,1.6636202E-2,3.7648752E-2,1.44147E-2,1.2106372E-3,6.3166777E-3,1.4796918E-2,2.1474792E-2,1.0001325E-2,2.4092354E-2,1.2993598E-2,8.443827E-3,0E0,0E0,0E0,0E0,0E0,0E0,0E0,0E0,0E0,0E0,0E0,0E0,0E0,0E0,0E0,0E0],"parents":[2147483647,0,0,1,1,2,2,3,3,4,4,5,5,6,6,7,7,8,8,9,9,10,10,11,11,12,12,13,13,14,14],"right_children":[2,4,6,8,10,12,14,16,18,20,22,24,26,28,30,-1,-1,-1,-1,-1,-1,-1,-1,-1,-1,-1,-1,-1,-1,-1,-1],"split_conditions":[2.902259E-1,-6.912939E-1,-2.9903916E-1,-9.8164237E-1,-9.923381E-1,1.8548455E0,0E0,-9.565978E-1,8.963552E-1,8.597563E-1,-1.6470445E0,-4.7374463E-1,-8.338192E-2,7.174367E-2,3.029058E-1,-0E0,1.169991E-3,-6.764093E-4,1.3677006E-4,1.2842125E-3,-0E0,-1.7629387E-3,1.8242285E-4,-7.085987E-5,-1.0938975E-3,-2.8843924E-3,-0E0,-0E0,-3.4069268E-3,-1.4731007E-4,3.2810957E-4],"split_indices":[4,18,28,15,11,25,22,0,28,27,4,28,27,28,23,0,0,0,0,0,0,0,0,0,0,0,0,0,0,0,0],"split_type":[0,0,0,0,0,0,0,0,0,0,0,0,0,0,0,0,0,0,0,0,0,0,0,0,0,0,0,0,0,0,0],"sum_hessian":[1.799E3,1.174E3,6.25E2,1.36E2,1.038E3,1.74E2,4.51E2,1E1,1.26E2,9.3E1,9.45E2,1.3E2,4.4E1,1.1E1,4.4E2,2E0,8E0,1.08E2,1.8E1,6.4E1,2.9E1,1.3E1,9.32E2,9.1E1,3.9E1,3.2E1,1.2E1,6E0,5E0,3.07E2,1.33E2],"tree_param":{"num_deleted":"0","num_feature":"29","num_nodes":"31","size_leaf_vector":"1"}},{"base_weights":[1.5975797E-4,3.6542783E-3,-5.60033E-3,1.3970275E-2,1.9922785E-3,-7.2419117E-3,6.120448E-3,1.8699199E-2,-2.5485085E-2,7.8761356E-4,1.850874E-2,-3.3829033E-2,-5.180399E-3,2.239345E-2,-1.5702171E-2,1.3615516E-3,-2.7333962E-4,-0E0,-2.4052768E-3,1.834688E-4,-3.6540945E-4,-1.2645363E-3,1.1467207E-3,-0E0,-2.4824778E-3,-7.299958E-4,-1.4420284E-4,1.8447725E-3,-0E0,-9.264342E-4,-0E0],"categories":[],"categories_nodes":[],"categories_segments":[],"categories_sizes":[],"default_left":[0,0,0,0,0,0,0,0,0,0,0,0,0,0,0,0,0,0,0,0,0,0,0,0,0,0,0,0,0,0,0],"id":15,"left_children":[1,3,5,7,9,11,13,15,17,19,21,23,25,27,29,-1,-1,-1,-1,-1,-1,-1,-1,-1,-1,-1,-1,-1,-1,-1,-1],"loss_changes":[3.593683E-2,1.771568E-2,1.29899625E-2,2.741201E-2,1.757455E-2,2.8425956E-2,2.7654717E-2,3.0159608E-2,9.420286E-3,2.115003E-2,1.2168771E-2,1.6995229E-2,1.0214387E-2,1.640949E-2,1.52937E-3,0E0,0E0,0E0,0E0,0E0,0E0,0E0,0E0,0E0,0E0,0E0,0E0,0E0,0E0,0E0,0E0],"parents":[2147483647,0,0,1,1,2,2,3,3,4,4,5,5,6,6,7,7,8,8,9,9,10,10,11,11,12,12,13,13,14,14],"right_children":[2,4,6,8,10,12,14,16,18,20,22,24,26,28,30,-1,-1,-1,-1,-1,-1,-1,-1,-1,-1,-1,-1,-1,-1,-1,-1],"split_conditions":[1E0,-1.0960217E0,9.550405E-1,1.485911E0,1.0401208E0,-1.9569758E-2,2.3823094E-2,8.597563E-1,2.0201592E0,7.480392E-1,-6.930108E-1,-1.9343024E-1,-6.2148106E-1,-2.9147485E-1,2.8756964E0,1.3615516E-3,-2.7333962E-4,-0E0,-2.4052768E-3,1.834688E-4,-3.6540945E-4,-1.2645363E-3,1.1467207E-3,-0E0,-2.4824778E-3,-7.299958E-4,-1.4420284E-4,1.8447725E-3,-0E0,-9.264342E-4,-0E0],"split_indices":[12,2,18,19,23,8,24,27,24,25,27,26,18,27,18,0,0,0,0,0,0,0,0,0,0,0,0,0,0,0,0],"split_type":[0,0,0,0,0,0,0,0,0,0,0,0,0,0,0,0,0,0,0,0,0,0,0,0,0,0,0,0,0,0,0],"sum_hessian":[1.793E3,1.127E3,6.66E2,1.47E2,9.8E2,5.92E2,7.4E1,1.34E2,1.3E1,9.2E2,6E1,3.8E1,5.54E2,4.5E1,2.9E1,1.02E2,3.2E1,6E0,7E0,6.88E2,2.32E2,3E0,5.7E1,1.4E1,2.4E1,9.9E1,4.55E2,2.8E1,1.7E1,2.5E1,4E0],"tree_param":{"num_deleted":"0","num_feature":"29","num_nodes":"31","size_leaf_vector":"1"}},{"base_weights":[-4.2791918E-4,3.1058574E-3,-7.244076E-3,4.793504E-3,-7.3004146E-3,-3.1229623E-2,-4.658631E-3,2.6650818E-3,1.2523322E-2,1.7809756E-2,-1.0857698E-2,-3.849101E-2,-0E0,-4.143789E-2,-2.823388E-3,-5.4984674E-4,2.0112284E-4,-2.6139317E-4,7.2290975E-4,-0E0,1.1896461E-3,-9.009216E-4,7.073857E-5,-9.0505835E-4,-3.6378305E-3,1.1395805E-3,-9.58517E-4,-3.6423155E-3,-7.828342E-5,1.2557267E-4,-4.7375317E-4],"categories":[],"categories_nodes":[],"categories_segments":[],"categories_sizes":[],"default_left":[0,0,0,0,0,0,0,0,0,0,0,0,0,0,0,0,0,0,0,0,0,0,0,0,0,0,0,0,0,0,0],"id":16,"left_children":[1,3,5,7,9,11,13,15,17,19,21,23,25,27,29,-1,-1,-1,-1,-1,-1,-1,-1,-1,-1,-1,-1,-1,-1,-1,-1],"loss_changes":[4.319035E-2,2.0156346E-2,3.4465887E-2,1.5015269E-2,1.3254059E-2,1.3535459E-2,3.332375E-2,1.42009165E-2,8.108303E-3,2.284342E-3,1.3901165E-2,2.173607E-2,5.321756E-3,2.2500508E-2,1.9811425E-2,0E0,0E0,0E0,0E0,0E0,0E0,0E0,0E0,0E0,0E0,0E0,0E0,0E0,0E0,0E0,0E0],"parents":[2147483647,0,0,1,1,2,2,3,3,4,4,5,5,6,6,7,7,8,8,9,9,10,10,11,11,12,12,13,13,14,14],"right_children":[2,4,6,8,10,12,14,16,18,20,22,24,26,28,30,-1,-1,-1,-1,-1,-1,-1,-1,-1,-1,-1,-1,-1,-1,-1,-1],"split_conditions":[2.902259E-1,5.7408047E-1,-6.3138914E-1,8.170724E-1,8.194379E-2,7.808637E-1,-9.8050994E-1,-1.126001E0,-1.8812783E0,-6.557536E-1,6.8297356E-1,1.9435643E0,-3.8459295E-1,-3.651464E-1,3.7537315E-1,-5.4984674E-4,2.0112284E-4,-2.6139317E-4,7.2290975E-4,-0E0,1.1896461E-3,-9.009216E-4,7.073857E-5,-9.0505835E-4,-3.6378305E-3,1.1395805E-3,-9.58517E-4,-3.6423155E-3,-7.828342E-5,1.2557267E-4,-4.7375317E-4],"split_indices":[4,11,1,16,3,18,19,15,0,0,25,25,23,23,25,0,0,0,0,0,0,0,0,0,0,0,0,0,0,0,0],"split_type":[0,0,0,0,0,0,0,0,0,0,0,0,0,0,0,0,0,0,0,0,0,0,0,0,0,0,0,0,0,0,0],"sum_hessian":[1.774E3,1.159E3,6.15E2,1.006E3,1.53E2,5.5E1,5.6E2,8E2,2.06E2,1.5E1,1.38E2,4.5E1,1E1,2.3E1,5.37E2,6.5E1,7.35E2,1.5E1,1.91E2,3E0,1.2E1,9.2E1,4.6E1,3.1E1,1.4E1,5E0,5E0,1.1E1,1.2E1,2.9E2,2.47E2],"tree_param":{"num_deleted":"0","num_feature":"29","num_nodes":"31","size_leaf_vector":"1"}},{"base_weights":[-2.494153E-4,7.896127E-4,-1.7520843E-2,2.1103136E-3,-1.3235657E-2,-3.705826E-2,-4.5873104E-3,8.964824E-3,3.1472964E-4,-1.649477E-2,-0E0,-0E0,-4.7104537E-2,1.050041E-3,-1.7580342E-2,-1.999751E-4,7.210844E-4,-1.01813035E-4,3.367163E-4,-1.2635337E-3,-4.1736104E-4,4.7090882E-4,-6.0825E-4,-2.2920837E-4,-0E0,-3.7873753E-3,-8.2739425E-4,3.2629524E-4,-3.1910493E-4,-1.0779349E-3,-0E0],"categories":[],"categories_nodes":[],"categories_segments":[],"categories_sizes":[],"default_left":[0,0,0,0,0,0,0,0,0,0,0,0,0,0,0,0,0,0,0,0,0,0,0,0,0,0,0,0,0,0,0],"id":17,"left_children":[1,3,5,7,9,11,13,15,17,19,21,23,25,27,29,-1,-1,-1,-1,-1,-1,-1,-1,-1,-1,-1,-1,-1,-1,-1,-1],"loss_changes":[3.346843E-2,2.9775022E-2,2.2450354E-2,1.7900229E-2,6.744731E-3,1.078701E-2,6.652237E-3,2.2747738E-2,1.8971723E-2,4.507011E-3,2.8398198E-3,1.6811669E-4,1.4898762E-2,1.806017E-3,1.7245477E-3,0E0,0E0,0E0,0E0,0E0,0E0,0E0,0E0,0E0,0E0,0E0,0E0,0E0,0E0,0E0,0E0],"parents":[2147483647,0,0,1,1,2,2,3,3,4,4,5,5,6,6,7,7,8,8,9,9,10,10,11,11,12,12,13,13,14,14],"right_children":[2,4,6,8,10,12,14,16,18,20,22,24,26,28,30,-1,-1,-1,-1,-1,-1,-1,-1,-1,-1,-1,-1,-1,-1,-1,-1],"split_conditions":[1.1841776E0,9.014767E-1,1.62732E-1,-6.6173846E-1,8.543967E-1,-9.7321194E-1,2.319182E0,-4.3215492E-1,4.3305206E-1,1.9848259E-1,1.4015229E0,3.8399065E-1,-3.651464E-1,7.441926E-1,1.4331329E0,-1.999751E-4,7.210844E-4,-1.01813035E-4,3.367163E-4,-1.2635337E-3,-4.1736104E-4,4.7090882E-4,-6.0825E-4,-2.2920837E-4,-0E0,-3.7873753E-3,-8.2739425E-4,3.2629524E-4,-3.1910493E-4,-1.0779349E-3,-0E0],"split_indices":[4,2,5,4,24,23,25,24,18,4,15,16,23,23,28,0,0,0,0,0,0,0,0,0,0,0,0,0,0,0,0],"split_type":[0,0,0,0,0,0,0,0,0,0,0,0,0,0,0,0,0,0,0,0,0,0,0,0,0,0,0,0,0,0,0],"sum_hessian":[1.77E3,1.665E3,1.05E2,1.529E3,1.36E2,3.8E1,6.7E1,3.05E2,1.224E3,1.12E2,2.4E1,1E1,2.8E1,4.2E1,2.5E1,8.5E1,2.2E2,8.85E2,3.39E2,4.7E1,6.5E1,1.6E1,8E0,7E0,3E0,1.2E1,1.6E1,3.2E1,1E1,2E1,5E0],"tree_param":{"num_deleted":"0","num_feature":"29","num_nodes":"31","size_leaf_vector":"1"}},{"base_weights":[-0E0,1.1569777E-2,-1.7834734E-3,-0E0,1.6316053E-2,-2.8032234E-2,-7.467227E-4,6.6843852E-3,-1.9149438E-2,2.222967E-2,3.437257E-3,3.2629073E-3,-4.5573693E-2,1.3159084E-4,-1.5600881E-2,-2.4423725E-4,1.0584815E-3,-2.0927256E-3,-0E0,1.5601028E-3,5.3543295E-4,9.4111304E-4,-0E0,2.2540814E-3,-0E0,-3.2146329E-3,-8.744276E-5,-1.114887E-4,3.7994699E-4,-3.960231E-3,-4.5014577E-4],"categories":[],"categories_nodes":[],"categories_segments":[],"categories_sizes":[],"default_left":[0,0,0,0,0,0,0,0,0,0,0,0,0,0,0,0,0,0,0,0,0,0,0,0,0,0,0,0,0,0,0],"id":18,"left_children":[1,3,5,7,9,11,13,15,17,19,21,23,25,27,29,-1,-1,-1,-1,-1,-1,-1,-1,-1,-1,-1,-1,-1,-1,-1,-1],"loss_changes":[3.8194213E-2,1.2059089E-2,3.9853457E-2,9.04882E-3,1.03041455E-2,3.5121676E-2,2.1327639E-2,1.2289541E-2,9.532287E-3,6.9489703E-3,4.2510005E-3,5.894775E-3,2.445691E-2,2.5698712E-2,2.8654799E-2,0E0,0E0,0E0,0E0,0E0,0E0,0E0,0E0,0E0,0E0,0E0,0E0,0E0,0E0,0E0,0E0],"parents":[2147483647,0,0,1,1,2,2,3,3,4,4,5,5,6,6,7,7,8,8,9,9,10,10,11,11,12,12,13,13,14,14],"right_children":[2,4,6,8,10,12,14,16,18,20,22,24,26,28,30,-1,-1,-1,-1,-1,-1,-1,-1,-1,-1,-1,-1,-1,-1,-1,-1],"split_conditions":[-8.4954476E-1,-1.3833283E0,-1.3178545E0,-7.990668E-1,-7.2386736E-1,-7.1962905E-1,1.2708124E0,1E0,-1.0399754E0,-9.63941E-1,-8.405316E-1,-8.121193E-1,3.3500054E-1,4.4817176E-1,-5.2029365E-1,-2.4423725E-4,1.0584815E-3,-2.0927256E-3,-0E0,1.5601028E-3,5.3543295E-4,9.4111304E-4,-0E0,2.2540814E-3,-0E0,-3.2146329E-3,-8.744276E-5,-1.114887E-4,3.7994699E-4,-3.960231E-3,-4.5014577E-4],"split_indices":[2,8,28,11,8,0,4,22,3,15,0,27,3,20,11,0,0,0,0,0,0,0,0,0,0,0,0,0,0,0,0],"split_type":[0,0,0,0,0,0,0,0,0,0,0,0,0,0,0,0,0,0,0,0,0,0,0,0,0,0,0,0,0,0,0],"sum_hessian":[1.817E3,2.47E2,1.57E3,7.8E1,1.69E2,5.5E1,1.515E3,6.2E1,1.6E1,1.1E2,5.9E1,1.8E1,3.7E1,1.425E3,9E1,3.1E1,3.1E1,8E0,8E0,5.6E1,5.4E1,1.3E1,4.6E1,2E0,1.6E1,2.4E1,1.3E1,1.073E3,3.52E2,6E0,8.4E1],"tree_param":{"num_deleted":"0","num_feature":"29","num_nodes":"31","size_leaf_vector":"1"}},{"base_weights":[-5.7224235E-5,1.6780979E-3,-6.8451487E-3,-9.906582E-3,3.0098145E-3,-2.109388E-2,-8.4713596E-4,-1.390399E-2,2.8654295E-3,4.256752E-3,-5.975066E-3,-8.51539E-3,-5.1183775E-2,5.236511E-3,-5.055819E-3,-0E0,-9.1162015E-4,3.7288523E-4,-7.763221E-5,4.37721E-4,2.5843778E-5,-1.1568317E-3,5.4003496E-5,3.8391422E-4,-6.067848E-4,-3.1273204E-3,-0E0,7.303201E-7,7.217631E-4,-5.508621E-4,3.8011636E-5],"categories":[],"categories_nodes":[],"categories_segments":[],"categories_sizes":[],"default_left":[0,0,0,0,0,0,0,0,0,0,0,0,0,0,0,0,0,0,0,0,0,0,0,0,0,0,0,0,0,0,0],"id":19,"left_children":[1,3,5,7,9,11,13,15,17,19,21,23,25,27,29,-1,-1,-1,-1,-1,-1,-1,-1,-1,-1,-1,-1,-1,-1,-1,-1],"loss_changes":[2.170726E-2,2.1262633E-2,3.0093452E-2,8.240336E-3,1.4227799E-2,3.4092184E-2,6.972733E-3,6.271377E-3,1.1701774E-3,1.8193508E-2,2.0028993E-2,5.1703798E-3,1.4003627E-2,3.4543725E-3,6.9629787E-3,0E0,0E0,0E0,0E0,0E0,0E0,0E0,0E0,0E0,0E0,0E0,0E0,0E0,0E0,0E0,0E0],"parents":[2147483647,0,0,1,1,2,2,3,3,4,4,5,5,6,6,7,7,8,8,9,9,10,10,11,11,12,12,13,13,14,14],"right_children":[2,4,6,8,10,12,14,16,18,20,22,24,26,28,30,-1,-1,-1,-1,-1,-1,-1,-1,-1,-1,-1,-1,-1,-1,-1,-1],"split_conditions":[6.263818E-1,-7.6781344E-1,8.4818415E-2,3.5500616E-1,8.870603E-1,2.101346E0,4.8708856E-1,-4.6784434E-1,9.974296E-1,-4.7024306E-2,-3.7123406E-1,-7.524891E-1,9.2262834E-1,1.5752642E0,-1.8404528E-2,-0E0,-9.1162015E-4,3.7288523E-4,-7.763221E-5,4.37721E-4,2.5843778E-5,-1.1568317E-3,5.4003496E-5,3.8391422E-4,-6.067848E-4,-3.1273204E-3,-0E0,7.303201E-7,7.217631E-4,-5.508621E-4,3.8011636E-5],"split_indices":[4,18,5,20,3,25,6,3,8,19,19,21,17,25,21,0,0,0,0,0,0,0,0,0,0,0,0,0,0,0,0],"split_type":[0,0,0,0,0,0,0,0,0,0,0,0,0,0,0,0,0,0,0,0,0,0,0,0,0,0,0,0,0,0,0],"sum_hessian":[1.797E3,1.42E3,3.77E2,1.38E2,1.282E3,1.06E2,2.71E2,1.11E2,2.7E1,1.136E3,1.46E2,7.8E1,2.8E1,1.01E2,1.7E2,2.8E1,8.3E1,2.4E1,3E0,5.03E2,6.33E2,4.6E1,1E2,9E0,6.9E1,2.2E1,6E0,7.2E1,2.9E1,9.2E1,7.8E1],"tree_param":{"num_deleted":"0","num_feature":"29","num_nodes":"31","size_leaf_vector":"1"}},{"base_weights":[5.732646E-4,8.200377E-3,-2.560047E-3,1.4505411E-2,3.5866506E-3,-1.7463604E-2,-1.2584329E-3,2.0107048E-2,-0E0,-8.187993E-3,6.662865E-3,1.0443468E-3,-3.577541E-2,3.7967807E-3,-5.259779E-3,1.4103381E-3,4.4259444E-4,5.065997E-4,-2.8086113E-4,1.338722E-4,-9.141885E-4,1.2610568E-3,3.112369E-5,5.3386466E-4,-1.431651E-3,-2.3341726E-3,-0E0,-1.547251E-4,5.546178E-4,-2.022803E-3,-2.337722E-4],"categories":[],"categories_nodes":[],"categories_segments":[],"categories_sizes":[],"default_left":[0,0,0,0,0,0,0,0,0,0,0,0,0,0,0,0,0,0,0,0,0,0,0,0,0,0,0,0,0,0,0],"id":20,"left_children":[1,3,5,7,9,11,13,15,17,19,21,23,25,27,29,-1,-1,-1,-1,-1,-1,-1,-1,-1,-1,-1,-1,-1,-1,-1,-1],"loss_changes":[4.379283E-2,1.3730846E-2,2.2800341E-2,1.9432932E-2,1.149287E-2,3.6046214E-2,2.3994453E-2,1.0721788E-2,2.896647E-3,8.191289E-3,2.6657835E-2,1.1660652E-2,1.972057E-2,2.6474804E-2,9.056643E-3,0E0,0E0,0E0,0E0,0E0,0E0,0E0,0E0,0E0,0E0,0E0,0E0,0E0,0E0,0E0,0E0],"parents":[2147483647,0,0,1,1,2,2,3,3,4,4,5,5,6,6,7,7,8,8,9,9,10,10,11,11,12,12,13,13,14,14],"right_children":[2,4,6,8,10,12,14,16,18,20,22,24,26,28,30,-1,-1,-1,-1,-1,-1,-1,-1,-1,-1,-1,-1,-1,-1,-1,-1],"split_conditions":[-4.548131E-1,-4.2147315E-1,-5.457257E-1,8.4427345E-1,-5.755056E-1,-1.2218505E-1,2.3673302E-1,-5.6677073E-1,-3.8459295E-1,-3.9251125E-1,-2.666027E-1,1.8404425E0,7.956563E-1,-1.23005815E-1,-2.775789E-1,1.4103381E-3,4.4259444E-4,5.065997E-4,-2.8086113E-4,1.338722E-4,-9.141885E-4,1.2610568E-3,3.112369E-5,5.3386466E-4,-1.431651E-3,-2.3341726E-3,-0E0,-1.547251E-4,5.546178E-4,-2.022803E-3,-2.337722E-4],"split_indices":[17,5,3,27,20,4,26,4,23,7,24,24,24,15,3,0,0,0,0,0,0,0,0,0,0,0,0,0,0,0,0],"split_type":[0,0,0,0,0,0,0,0,0,0,0,0,0,0,0,0,0,0,0,0,0,0,0,0,0,0,0,0,0,0,0],"sum_hessian":[1.807E3,5.35E2,1.272E3,2.16E2,3.19E2,9.5E1,1.177E3,1.6E2,5.6E1,5.9E1,2.6E2,4.5E1,5E1,5.09E2,6.68E2,8.7E1,7.3E1,1.4E1,4.2E1,2.4E1,3.5E1,5.9E1,2.01E2,3.7E1,8E0,3.8E1,1.2E1,2.55E2,2.54E2,7E0,6.61E2],"tree_param":{"num_deleted":"0","num_feature":"29","num_nodes":"31","size_leaf_vector":"1"}},{"base_weights":[3.515412E-4,1.3554784E-2,-9.095597E-4,1.9895896E-2,-2.9573955E-3,7.99095E-4,-8.8021485E-3,5.3446125E-3,2.9069446E-2,-1.7558265E-2,8.981474E-3,1.9980234E-3,-1.8068178E-2,-2.2055665E-2,-2.3229119E-4,-1.9569376E-4,6.0783833E-4,1.6422793E-3,-0E0,-1.6387824E-3,-0E0,8.0483465E-4,-0E0,-3.143917E-4,2.2884189E-4,-0E0,-1.1041763E-3,-2.1257608E-3,1.4914312E-4,4.3854033E-4,-2.472007E-4],"categories":[],"categories_nodes":[],"categories_segments":[],"categories_sizes":[],"default_left":[0,0,0,0,0,0,0,0,0,0,0,0,0,0,0,0,0,0,0,0,0,0,0,0,0,0,0,0,0,0,0],"id":21,"left_children":[1,3,5,7,9,11,13,15,17,19,21,23,25,27,29,-1,-1,-1,-1,-1,-1,-1,-1,-1,-1,-1,-1,-1,-1,-1,-1],"loss_changes":[3.126462E-2,1.8924402E-2,2.289693E-2,1.2822125E-2,8.336728E-3,2.8672704E-2,3.206747E-2,4.214592E-3,1.0126788E-2,6.8744295E-3,2.532319E-3,2.684507E-2,7.2148982E-3,6.2479626E-2,7.6780827E-3,0E0,0E0,0E0,0E0,0E0,0E0,0E0,0E0,0E0,0E0,0E0,0E0,0E0,0E0,0E0,0E0],"parents":[2147483647,0,0,1,1,2,2,3,3,4,4,5,5,6,6,7,7,8,8,9,9,10,10,11,11,12,12,13,13,14,14],"right_children":[2,4,6,8,10,12,14,16,18,20,22,24,26,28,30,-1,-1,-1,-1,-1,-1,-1,-1,-1,-1,-1,-1,-1,-1,-1,-1],"split_conditions":[-1.0960217E0,7.863872E-1,1.4411213E0,4.874454E-1,-5.352633E-1,1.0643997E0,-2.381538E-1,-1.3833283E0,3.220943E-1,9.568268E-1,-1.0139337E0,-5.383044E-1,-8.2366246E-1,3.2224637E-1,2.5627352E-2,-1.9569376E-4,6.0783833E-4,1.6422793E-3,-0E0,-1.6387824E-3,-0E0,8.0483465E-4,-0E0,-3.143917E-4,2.2884189E-4,-0E0,-1.1041763E-3,-2.1257608E-3,1.4914312E-4,4.3854033E-4,-2.472007E-4],"split_indices":[2,27,25,10,24,2,27,8,23,27,8,18,23,3,19,0,0,0,0,0,0,0,0,0,0,0,0,0,0,0,0],"split_type":[0,0,0,0,0,0,0,0,0,0,0,0,0,0,0,0,0,0,0,0,0,0,0,0,0,0,0,0,0,0,0],"sum_hessian":[1.8E3,1.63E2,1.637E3,1.22E2,4.1E1,1.336E3,3.01E2,5.2E1,7E1,2.2E1,1.9E1,1.262E3,7.4E1,1.13E2,1.88E2,1.6E1,3.6E1,6.4E1,6E0,1.2E1,1E1,1.5E1,4E0,2.9E2,9.72E2,1E1,6.4E1,6.4E1,4.9E1,5.7E1,1.31E2],"tree_param":{"num_deleted":"0","num_feature":"29","num_nodes":"31","size_leaf_vector":"1"}},{"base_weights":[-8.560644E-4,-1.8578088E-2,-0E0,-0E0,-2.9787097E-2,6.263055E-3,-2.4781846E-3,4.7838627E-3,-2.0842357E-3,-4.0154476E-2,-0E0,8.946423E-3,-6.364855E-3,-5.2344915E-3,2.8913869E-3,-0E0,5.82324E-4,-1.9872398E-4,-0E0,-0E0,-2.2970424E-3,-6.409576E-4,4.3204354E-4,6.1862305E-4,5.860814E-5,-7.9758576E-4,2.7294134E-4,-1.0534191E-3,-1.4378129E-4,2.3125813E-3,8.904178E-5],"categories":[],"categories_nodes":[],"categories_segments":[],"categories_sizes":[],"default_left":[0,0,0,0,0,0,0,0,0,0,0,0,0,0,0,0,0,0,0,0,0,0,0,0,0,0,0,0,0,0,0],"id":22,"left_children":[1,3,5,7,9,11,13,15,17,19,21,23,25,27,29,-1,-1,-1,-1,-1,-1,-1,-1,-1,-1,-1,-1,-1,-1,-1,-1],"loss_changes":[2.5599284E-2,1.8329486E-2,2.6459793E-2,4.7826185E-4,1.4407307E-2,1.6546177E-2,1.8734878E-2,1.5997859E-3,9.8728E-5,7.879831E-3,1.9119624E-3,9.338263E-3,9.977821E-3,2.884433E-2,1.4953739E-2,0E0,0E0,0E0,0E0,0E0,0E0,0E0,0E0,0E0,0E0,0E0,0E0,0E0,0E0,0E0,0E0],"parents":[2147483647,0,0,1,1,2,2,3,3,4,4,5,5,6,6,7,7,8,8,9,9,10,10,11,11,12,12,13,13,14,14],"right_children":[2,4,6,8,10,12,14,16,18,20,22,24,26,28,30,-1,-1,-1,-1,-1,-1,-1,-1,-1,-1,-1,-1,-1,-1,-1,-1],"split_conditions":[-9.8050994E-1,-2.4508786E-1,-4.287155E-1,-4.8411852E-1,4.0046135E-1,3.556558E-1,2.8031436E-1,-1.1791801E0,9.084439E-2,-1.3392179E0,-1.7487788E-1,1.8028148E-1,5.0675654E-1,-8.03422E-1,-1.5711324E0,-0E0,5.82324E-4,-1.9872398E-4,-0E0,-0E0,-2.2970424E-3,-6.409576E-4,4.3204354E-4,6.1862305E-4,5.860814E-5,-7.9758576E-4,2.7294134E-4,-1.0534191E-3,-1.4378129E-4,2.3125813E-3,8.904178E-5],"split_indices":[19,28,4,20,23,17,21,11,1,20,2,24,20,28,28,0,0,0,0,0,0,0,0,0,0,0,0,0,0,0,0],"split_type":[0,0,0,0,0,0,0,0,0,0,0,0,0,0,0,0,0,0,0,0,0,0,0,0,0,0,0,0,0,0,0],"sum_hessian":[1.803E3,7.7E1,1.726E3,2.7E1,5E1,4.78E2,1.248E3,1.8E1,9E0,3.6E1,1.4E1,4.01E2,7.7E1,8.37E2,4.11E2,4E0,1.4E1,8E0,1E0,5E0,3.1E1,7E0,7E0,2.69E2,1.32E2,4.7E1,3E1,1.02E2,7.35E2,7E0,4.04E2],"tree_param":{"num_deleted":"0","num_feature":"29","num_nodes":"31","size_leaf_vector":"1"}},{"base_weights":[-1.6311658E-4,6.578842E-3,-2.7493518E-3,-8.715594E-3,8.274365E-3,-9.93088E-3,8.4143125E-5,-5.3108893E-2,-0E0,1.0323558E-2,-3.3905192E-3,-1.7223386E-2,-7.5074116E-4,1.0318445E-2,-1.3398977E-3,-3.7245569E-3,-0E0,2.9905268E-4,-4.6652538E-4,6.2210194E-4,-1.8317422E-5,4.6063196E-5,-3.4952382E-4,-4.8369003E-4,-1.9230916E-3,5.2444113E-5,-2.2885662E-3,-0E0,7.5768953E-4,-0E0,-5.865499E-4],"categories":[],"categories_nodes":[],"categories_segments":[],"categories_sizes":[],"default_left":[0,0,0,0,0,0,0,0,0,0,0,0,0,0,0,0,0,0,0,0,0,0,0,0,0,0,0,0,0,0,0],"id":23,"left_children":[1,3,5,7,9,11,13,15,17,19,21,23,25,27,29,-1,-1,-1,-1,-1,-1,-1,-1,-1,-1,-1,-1,-1,-1,-1,-1],"loss_changes":[3.1421497E-2,1.2864368E-2,2.8029094E-2,1.640157E-2,1.1532733E-2,2.4030894E-2,1.4669596E-2,2.451839E-3,2.215713E-3,1.0089502E-2,1.5602175E-3,2.832573E-2,1.894183E-2,4.9390327E-3,1.2150052E-2,0E0,0E0,0E0,0E0,0E0,0E0,0E0,0E0,0E0,0E0,0E0,0E0,0E0,0E0,0E0,0E0],"parents":[2147483647,0,0,1,1,2,2,3,3,4,4,5,5,6,6,7,7,8,8,9,9,10,10,11,11,12,12,13,13,14,14],"right_children":[2,4,6,8,10,12,14,16,18,20,22,24,26,28,30,-1,-1,-1,-1,-1,-1,-1,-1,-1,-1,-1,-1,-1,-1,-1,-1],"split_conditions":[-4.287155E-1,-6.8813443E-1,-3.369393E-1,-1.5322363E0,8.4427345E-1,6.1172027E-2,-5.6725794E-1,4.1551897E-1,-7.8296834E-1,3.0042163E-1,-7.991635E-1,1.3363731E-1,1.7285426E0,-4.7584268E-1,5.3164876E-1,-3.7245569E-3,-0E0,2.9905268E-4,-4.6652538E-4,6.2210194E-4,-1.8317422E-5,4.6063196E-5,-3.4952382E-4,-4.8369003E-4,-1.9230916E-3,5.2444113E-5,-2.2885662E-3,-0E0,7.5768953E-4,-0E0,-5.865499E-4],"split_indices":[4,27,28,28,27,8,8,17,27,8,0,11,4,0,27,0,0,0,0,0,0,0,0,0,0,0,0,0,0,0,0],"split_type":[0,0,0,0,0,0,0,0,0,0,0,0,0,0,0,0,0,0,0,0,0,0,0,0,0,0,0,0,0,0,0],"sum_hessian":[1.822E3,4.94E2,1.328E3,4.3E1,4.51E2,3.85E2,9.43E2,6E0,3.7E1,3.91E2,6E1,2.08E2,1.77E2,1.23E2,8.2E2,3E0,3E0,2.2E1,1.5E1,3.34E2,5.7E1,1.5E1,4.5E1,1.58E2,5E1,1.69E2,8E0,4.5E1,7.8E1,7.22E2,9.8E1],"tree_param":{"num_deleted":"0","num_feature":"29","num_nodes":"31","size_leaf_vector":"1"}},{"base_weights":[-1.1833409E-4,1.4735452E-3,-8.19762E-3,-7.743076E-3,2.5868607E-3,-2.3421524E-2,-0E0,-1.1018673E-2,1.1152581E-2,6.147255E-3,-2.809796E-5,-1.0083309E-2,-4.6952717E-2,1.7545882E-3,-1.4862869E-2,-7.0893386E-4,2.1134187E-4,1.065802E-3,-0E0,7.877172E-5,1.0305737E-3,-7.3558337E-4,1.107104E-4,-2.485085E-4,-2.3990313E-3,-3.328699E-3,-4.843053E-4,-1.1576871E-5,6.943228E-4,-0E0,-1.0191766E-3],"categories":[],"categories_nodes":[],"categories_segments":[],"categories_sizes":[],"default_left":[0,0,0,0,0,0,0,0,0,0,0,0,0,0,0,0,0,0,0,0,0,0,0,0,0,0,0,0,0,0,0],"id":24,"left_children":[1,3,5,7,9,11,13,15,17,19,21,23,25,27,29,-1,-1,-1,-1,-1,-1,-1,-1,-1,-1,-1,-1,-1,-1,-1,-1],"loss_changes":[2.3461755E-2,1.4588089E-2,3.730493E-2,9.331784E-3,1.2920284E-2,2.6778694E-2,5.4048155E-3,7.4143317E-3,2.304894E-3,3.583846E-2,2.5877336E-2,8.22442E-3,1.7321773E-2,5.6335954E-3,1.3724184E-3,0E0,0E0,0E0,0E0,0E0,0E0,0E0,0E0,0E0,0E0,0E0,0E0,0E0,0E0,0E0,0E0],"parents":[2147483647,0,0,1,1,2,2,3,3,4,4,5,5,6,6,7,7,8,8,9,9,10,10,11,11,12,12,13,13,14,14],"right_children":[2,4,6,8,10,12,14,16,18,20,22,24,26,28,30,-1,-1,-1,-1,-1,-1,-1,-1,-1,-1,-1,-1,-1,-1,-1,-1],"split_conditions":[7.174674E-1,-7.8189236E-1,1.62732E-1,4.918787E-1,-6.426251E-2,2.1225822E0,8.0396986E-1,7.56657E-1,2.9397336E-1,-2.967898E-1,-4.8190993E-1,5.4041606E-1,-1.5782923E-1,3.059788E-1,4.9443802E-1,-7.0893386E-4,2.1134187E-4,1.065802E-3,-0E0,7.877172E-5,1.0305737E-3,-7.3558337E-4,1.107104E-4,-2.485085E-4,-2.3990313E-3,-3.328699E-3,-4.843053E-4,-1.1576871E-5,6.943228E-4,-0E0,-1.0191766E-3],"split_indices":[4,18,5,19,19,25,21,27,4,19,24,27,27,21,5,0,0,0,0,0,0,0,0,0,0,0,0,0,0,0,0],"split_type":[0,0,0,0,0,0,0,0,0,0,0,0,0,0,0,0,0,0,0,0,0,0,0,0,0,0,0,0,0,0,0],"sum_hessian":[1.77E3,1.469E3,3.01E2,1.48E2,1.321E3,1.04E2,1.97E2,1.31E2,1.7E1,5.75E2,7.46E2,7E1,3.4E1,1.76E2,2.1E1,1.14E2,1.7E1,9E0,8E0,4.43E2,1.32E2,1.04E2,6.42E2,6.5E1,5E0,2E1,1.4E1,1.45E2,3.1E1,7E0,1.4E1],"tree_param":{"num_deleted":"0","num_feature":"29","num_nodes":"31","size_leaf_vector":"1"}},{"base_weights":[-2.975156E-4,-2.3377321E-3,3.8889083E-3,-4.10956E-3,7.4893576E-3,1.01954965E-2,-1.2404546E-3,-1.1245634E-3,-1.0716998E-2,1.392998E-2,-6.064143E-3,-0E0,1.3338822E-2,-2.2359883E-2,1.5799023E-3,8.496868E-5,-4.635905E-4,-1.1250604E-3,-1.783131E-4,8.25379E-4,-5.437333E-4,-1.3039539E-3,-0E0,9.904689E-5,-7.680398E-4,7.98289E-4,-0E0,-0E0,-1.8147876E-3,2.1517125E-4,-5.016083E-4],"categories":[],"categories_nodes":[],"categories_segments":[],"categories_sizes":[],"default_left":[0,0,0,0,0,0,0,0,0,0,0,0,0,0,0,0,0,0,0,0,0,0,0,0,0,0,0,0,0,0,0],"id":25,"left_children":[1,3,5,7,9,11,13,15,17,19,21,23,25,27,29,-1,-1,-1,-1,-1,-1,-1,-1,-1,-1,-1,-1,-1,-1,-1,-1],"loss_changes":[1.5381895E-2,2.1266155E-2,1.9670445E-2,1.9690638E-2,1.6671088E-2,9.579947E-3,2.0697393E-2,1.7821416E-2,2.419379E-2,8.926667E-3,8.896107E-3,2.7877758E-3,8.341111E-3,1.3753381E-2,8.072497E-3,0E0,0E0,0E0,0E0,0E0,0E0,0E0,0E0,0E0,0E0,0E0,0E0,0E0,0E0,0E0,0E0],"parents":[2147483647,0,0,1,1,2,2,3,3,4,4,5,5,6,6,7,7,8,8,9,9,10,10,11,11,12,12,13,13,14,14],"right_children":[2,4,6,8,10,12,14,16,18,20,22,24,26,28,30,-1,-1,-1,-1,-1,-1,-1,-1,-1,-1,-1,-1,-1,-1,-1,-1],"split_conditions":[3.6626476E-1,6.1039656E-1,2.8252178E-1,3.938597E-1,-4.1065404E-1,-6.4907014E-1,-5.928544E-1,4.3344507E-1,-1.0607372E-1,1.5771393E0,1.4961225E-1,5.342769E-1,7.3777556E-1,6.2406424E-2,7.061795E-1,8.496868E-5,-4.635905E-4,-1.1250604E-3,-1.783131E-4,8.25379E-4,-5.437333E-4,-1.3039539E-3,-0E0,9.904689E-5,-7.680398E-4,7.98289E-4,-0E0,-0E0,-1.8147876E-3,2.1517125E-4,-5.016083E-4],"split_indices":[18,20,19,25,21,17,24,24,28,6,23,23,17,25,11,0,0,0,0,0,0,0,0,0,0,0,0,0,0,0,0],"split_type":[0,0,0,0,0,0,0,0,0,0,0,0,0,0,0,0,0,0,0,0,0,0,0,0,0,0,0,0,0,0,0],"sum_hessian":[1.817E3,1.238E3,5.79E2,1.058E3,1.8E2,2.68E2,3.11E2,7.4E2,3.18E2,1.27E2,5.3E1,5.8E1,2.1E2,4E1,2.71E2,5.41E2,1.99E2,1.14E2,2.04E2,1.19E2,8E0,1.5E1,3.8E1,4.8E1,1E1,1.79E2,3.1E1,1.5E1,2.5E1,2.27E2,4.4E1],"tree_param":{"num_deleted":"0","num_feature":"29","num_nodes":"31","size_leaf_vector":"1"}},{"base_weights":[-5.4813107E-4,4.6137816E-4,-8.989792E-3,2.247601E-3,-4.6657273E-3,-3.3873585E-3,-6.9657885E-3,-4.1767285E-4,7.2779255E-3,-1.0199637E-2,1.2502531E-3,-2.1598663E-2,-8.209867E-4,-1.7886159E-4,4.8010363E-4,5.025659E-4,-4.139647E-4,-0E0,-7.8184385E-4,-3.9365367E-4,2.569581E-4,-2.4135025E-4,-2.2434567E-3,4.9051683E-4,-3.162713E-4],"categories":[],"categories_nodes":[],"categories_segments":[],"categories_sizes":[],"default_left":[0,0,0,0,0,0,0,0,0,0,0,0,0,0,0,0,0,0,0,0,0,0,0,0,0],"id":26,"left_children":[1,3,5,7,9,-1,11,13,15,17,19,21,23,-1,-1,-1,-1,-1,-1,-1,-1,-1,-1,-1,-1],"loss_changes":[1.6204992E-2,1.44125605E-2,1.6198594E-2,1.6791102E-2,1.3970353E-2,0E0,1.5633613E-2,2.390348E-2,1.8770171E-2,1.3087217E-2,6.3308296E-3,1.5889157E-2,8.257405E-3,0E0,0E0,0E0,0E0,0E0,0E0,0E0,0E0,0E0,0E0,0E0,0E0],"parents":[2147483647,0,0,1,1,2,2,3,3,4,4,6,6,7,7,8,8,9,9,10,10,11,11,12,12],"right_children":[2,4,6,8,10,-1,12,14,16,18,20,22,24,-1,-1,-1,-1,-1,-1,-1,-1,-1,-1,-1,-1],"split_conditions":[9.33117E-1,4.8854342E-1,-9.8050994E-1,2.8031436E-1,1.23233795E-1,-3.3873585E-3,1.7885793E-2,6.641615E-1,8.269078E-1,3.594546E-1,6.778186E-1,2.101346E0,4.8017684E-1,-1.7886159E-4,4.8010363E-4,5.025659E-4,-4.139647E-4,-0E0,-7.8184385E-4,-3.9365367E-4,2.569581E-4,-2.4135025E-4,-2.2434567E-3,4.9051683E-4,-3.162713E-4],"split_indices":[4,3,19,21,25,0,1,19,27,11,3,25,2,0,0,0,0,0,0,0,0,0,0,0,0],"split_type":[0,0,0,0,0,0,0,0,0,0,0,0,0,0,0,0,0,0,0,0,0,0,0,0,0],"sum_hessian":[1.8E3,1.598E3,2.02E2,1.2E3,3.98E2,4E0,1.98E2,7.72E2,4.28E2,2.14E2,1.84E2,5.3E1,1.45E2,5.95E2,1.77E2,3.69E2,5.9E1,7E1,1.44E2,4.7E1,1.37E2,3.4E1,1.9E1,4.3E1,1.02E2],"tree_param":{"num_deleted":"0","num_feature":"29","num_nodes":"25","size_leaf_vector":"1"}},{"base_weights":[-0E0,7.022848E-3,-1.0076687E-3,-6.0326415E-3,1.2773688E-2,-1.2254548E-2,-3.862716E-4,-2.3152502E-2,4.55969E-3,1.6735854E-2,-1.705564E-2,4.766478E-3,-2.0813957E-2,2.1817388E-3,-3.5323233E-3,-1.5746461E-3,-0E0,8.243108E-4,-4.9602566E-4,2.279399E-4,1.0402038E-3,-0E0,-1.9759422E-3,-0E0,1.0095106E-3,-1.8716952E-3,-2.0248377E-4,2.9536878E-4,-3.8374346E-4,-3.1849346E-4,4.6476675E-4],"categories":[],"categories_nodes":[],"categories_segments":[],"categories_sizes":[],"default_left":[0,0,0,0,0,0,0,0,0,0,0,0,0,0,0,0,0,0,0,0,0,0,0,0,0,0,0,0,0,0,0],"id":27,"left_children":[1,3,5,7,9,11,13,15,17,19,21,23,25,27,29,-1,-1,-1,-1,-1,-1,-1,-1,-1,-1,-1,-1,-1,-1,-1,-1],"loss_changes":[1.3011552E-2,1.8094651E-2,9.8712975E-3,1.39332395E-2,1.9872796E-2,1.2630697E-2,1.2422986E-2,8.258189E-3,7.3826658E-3,4.79972E-3,7.548699E-3,2.7613319E-3,1.0745609E-2,2.9980741E-2,2.5282415E-2,0E0,0E0,0E0,0E0,0E0,0E0,0E0,0E0,0E0,0E0,0E0,0E0,0E0,0E0,0E0,0E0],"parents":[2147483647,0,0,1,1,2,2,3,3,4,4,5,5,6,6,7,7,8,8,9,9,10,10,11,11,12,12,13,13,14,14],"right_children":[2,4,6,8,10,12,14,16,18,20,22,24,26,28,30,-1,-1,-1,-1,-1,-1,-1,-1,-1,-1,-1,-1,-1,-1,-1,-1],"split_conditions":[-9.0395415E-1,-4.5961937E-1,-9.8050994E-1,-1.3422102E0,1.4246757E0,-1.3392179E0,1.100661E-1,1.0570882E-1,-1.0960217E0,-3.1413502E-1,1.5385164E0,2.1635841E-1,-9.393229E-2,5.4875386E-1,8.779816E-1,-1.5746461E-3,-0E0,8.243108E-4,-4.9602566E-4,2.279399E-4,1.0402038E-3,-0E0,-1.9759422E-3,-0E0,1.0095106E-3,-1.8716952E-3,-2.0248377E-4,2.9536878E-4,-3.8374346E-4,-3.1849346E-4,4.6476675E-4],"split_indices":[2,24,19,8,19,20,25,25,2,19,24,21,2,24,26,0,0,0,0,0,0,0,0,0,0,0,0,0,0,0,0],"split_type":[0,0,0,0,0,0,0,0,0,0,0,0,0,0,0,0,0,0,0,0,0,0,0,0,0,0,0,0,0,0,0],"sum_hessian":[1.823E3,2.3E2,1.593E3,6.5E1,1.65E2,7.4E1,1.519E3,2.8E1,3.7E1,1.49E2,1.6E1,2.1E1,5.3E1,8.19E2,7E2,2.3E1,5E0,2.4E1,1.3E1,4.4E1,1.05E2,9E0,7E0,1.4E1,7E0,2.3E1,3E1,6.02E2,2.17E2,5.8E2,1.2E2],"tree_param":{"num_deleted":"0","num_feature":"29","num_nodes":"31","size_leaf_vector":"1"}},{"base_weights":[8.761276E-4,5.658362E-3,-1.8644581E-3,1.0030976E-2,2.0397492E-3,-2.9250126E-2,-7.8221434E-4,1.9014076E-3,1.6876472E-2,-2.811663E-2,3.2137393E-3,-4.9860302E-2,-0E0,1.5593661E-3,-5.1741577E-3,-6.088791E-4,3.9556608E-4,1.1905641E-3,1.386568E-4,-0E0,-1.9815217E-3,3.1564472E-4,-2.263363E-4,-0E0,-2.7878515E-3,3.036196E-4,-0E0,2.3674702E-4,-4.5373218E-4,-4.2087724E-4,1.794197E-4],"categories":[],"categories_nodes":[],"categories_segments":[],"categories_sizes":[],"default_left":[0,0,0,0,0,0,0,0,0,0,0,0,0,0,0,0,0,0,0,0,0,0,0,0,0,0,0,0,0,0,0],"id":28,"left_children":[1,3,5,7,9,11,13,15,17,19,21,23,25,27,29,-1,-1,-1,-1,-1,-1,-1,-1,-1,-1,-1,-1,-1,-1,-1,-1],"loss_changes":[2.371884E-2,9.247158E-3,3.0138774E-2,1.4061941E-2,1.0911709E-2,2.6297975E-2,1.1486648E-2,1.1430993E-2,1.1848319E-2,5.4391455E-3,8.9871315E-3,8.729417E-3,2.9499157E-4,2.2943435E-2,1.162548E-2,0E0,0E0,0E0,0E0,0E0,0E0,0E0,0E0,0E0,0E0,0E0,0E0,0E0,0E0,0E0,0E0],"parents":[2147483647,0,0,1,1,2,2,3,3,4,4,5,5,6,6,7,7,8,8,9,9,10,10,11,11,12,12,13,13,14,14],"right_children":[2,4,6,8,10,12,14,16,18,20,22,24,26,28,30,-1,-1,-1,-1,-1,-1,-1,-1,-1,-1,-1,-1,-1,-1,-1,-1],"split_conditions":[-2.5891593E-1,-2.2800355E-1,-8.121825E-1,-2.4144739E-2,-1.8812783E0,2.1992503E-2,5.136179E-1,-4.9334738E-1,6.315999E-1,-1.4088688E0,2.4441697E-1,-1.1331483E0,1.5663332E-1,1.3275616E0,1.2678804E0,-6.088791E-4,3.9556608E-4,1.1905641E-3,1.386568E-4,-0E0,-1.9815217E-3,3.1564472E-4,-2.263363E-4,-0E0,-2.7878515E-3,3.036196E-4,-0E0,2.3674702E-4,-4.5373218E-4,-4.2087724E-4,1.794197E-4],"split_indices":[2,23,1,20,0,8,3,18,20,9,0,18,14,25,25,0,0,0,0,0,0,0,0,0,0,0,0,0,0,0,0],"split_type":[0,0,0,0,0,0,0,0,0,0,0,0,0,0,0,0,0,0,0,0,0,0,0,0,0,0,0,0,0,0,0],"sum_hessian":[1.779E3,6.61E2,1.118E3,2.86E2,3.75E2,3.8E1,1.08E3,1.38E2,1.48E2,1E1,3.65E2,2.3E1,1.5E1,6.9E2,3.9E2,3.6E1,1.02E2,9.4E1,5.4E1,2E0,8E0,2.7E2,9.5E1,2E0,2.1E1,7E0,8E0,5.39E2,1.51E2,2.93E2,9.7E1],"tree_param":{"num_deleted":"0","num_feature":"29","num_nodes":"31","size_leaf_vector":"1"}},{"base_weights":[3.1404436E-4,-8.438716E-3,1.5789352E-3,-1.975658E-3,-2.4565881E-2,3.5893782E-3,-3.4744223E-3,-8.049397E-3,1.0786906E-2,8.689825E-3,-3.2725703E-2,6.679797E-3,-1.3349042E-4,-6.218982E-3,5.678836E-3,-7.5219374E-4,7.757183E-4,9.4701676E-4,-2.2686294E-5,5.5377174E-4,-0E0,-2.8333517E-3,-4.993285E-4,2.928193E-4,2.0955463E-3,-1.8565204E-4,3.914337E-4,-3.772801E-4,2.2677763E-4,-1.521869E-3,5.01698E-4],"categories":[],"categories_nodes":[],"categories_segments":[],"categories_sizes":[],"default_left":[0,0,0,0,0,0,0,0,0,0,0,0,0,0,0,0,0,0,0,0,0,0,0,0,0,0,0,0,0,0,0],"id":29,"left_children":[1,3,5,7,9,11,13,15,17,19,21,23,25,27,29,-1,-1,-1,-1,-1,-1,-1,-1,-1,-1,-1,-1,-1,-1,-1,-1],"loss_changes":[1.9654227E-2,2.0436548E-2,1.643154E-2,1.2525779E-2,1.8698253E-2,1.4116634E-2,1.1293592E-2,1.9469842E-2,6.256441E-3,3.4885644E-4,1.9988991E-2,1.3950165E-2,1.4352506E-2,5.3572766E-3,1.320767E-2,0E0,0E0,0E0,0E0,0E0,0E0,0E0,0E0,0E0,0E0,0E0,0E0,0E0,0E0,0E0,0E0],"parents":[2147483647,0,0,1,1,2,2,3,3,4,4,5,5,6,6,7,7,8,8,9,9,10,10,11,11,12,12,13,13,14,14],"right_children":[2,4,6,8,10,12,14,16,18,20,22,24,26,28,30,-1,-1,-1,-1,-1,-1,-1,-1,-1,-1,-1,-1,-1,-1,-1,-1],"split_conditions":[-8.726377E-1,3.570301E-1,4.8854342E-1,-1.1824358E-2,-1.4784293E0,9.403109E-2,1.3309827E0,8.3311886E-1,5.9432745E-1,2.6829782E-1,-6.565617E-1,7.505457E-1,5.573003E-1,1.5044264E0,4.767758E-2,-7.5219374E-4,7.757183E-4,9.4701676E-4,-2.2686294E-5,5.5377174E-4,-0E0,-2.8333517E-3,-4.993285E-4,2.928193E-4,2.0955463E-3,-1.8565204E-4,3.914337E-4,-3.772801E-4,2.2677763E-4,-1.521869E-3,5.01698E-4],"split_indices":[28,4,3,8,23,25,25,10,26,3,27,15,28,3,11,0,0,0,0,0,0,0,0,0,0,0,0,0,0,0,0],"split_type":[0,0,0,0,0,0,0,0,0,0,0,0,0,0,0,0,0,0,0,0,0,0,0,0,0,0,0,0,0,0,0],"sum_hessian":[1.835E3,2.21E2,1.614E3,1.63E2,5.8E1,1.169E3,4.45E2,1.16E2,4.7E1,9E0,4.9E1,6.53E2,5.16E2,3.51E2,9.4E1,9.3E1,2.3E1,3.2E1,1.5E1,8E0,1E0,2.1E1,2.8E1,6.42E2,1.1E1,3.65E2,1.51E2,3.21E2,3E1,7E0,8.7E1],"tree_param":{"num_deleted":"0","num_feature":"29","num_nodes":"31","size_leaf_vector":"1"}},{"base_weights":[-1.3757756E-4,3.3691414E-3,-4.3193707E-3,-3.0928105E-3,5.3694844E-3,-1.3614137E-2,-0E0,-9.008116E-3,1.519939E-2,9.445444E-3,3.9714237E-4,-3.730267E-2,-9.4188405E-3,-1.1469414E-2,1.5776189E-3,5.3334696E-4,-7.442638E-4,9.3463383E-4,-2.3232808E-4,5.1101862E-5,9.4809674E-4,4.931981E-4,-1.5384915E-4,-0E0,-2.5671269E-3,1.5517997E-3,-5.894342E-4,-1.7944115E-3,-3.613473E-5,4.263967E-4,-1.6983828E-4],"categories":[],"categories_nodes":[],"categories_segments":[],"categories_sizes":[],"default_left":[0,0,0,0,0,0,0,0,0,0,0,0,0,0,0,0,0,0,0,0,0,0,0,0,0,0,0,0,0,0,0],"id":30,"left_children":[1,3,5,7,9,11,13,15,17,19,21,23,25,27,29,-1,-1,-1,-1,-1,-1,-1,-1,-1,-1,-1,-1,-1,-1,-1,-1],"loss_changes":[2.68134E-2,1.2886019E-2,3.4667283E-2,2.332266E-2,1.4394693E-2,2.2007976E-2,9.817426E-3,2.0353936E-2,4.9578464E-3,3.0527703E-2,1.2351726E-2,1.4416307E-2,2.1066831E-2,1.3370412E-2,1.8140014E-2,0E0,0E0,0E0,0E0,0E0,0E0,0E0,0E0,0E0,0E0,0E0,0E0,0E0,0E0,0E0,0E0],"parents":[2147483647,0,0,1,1,2,2,3,3,4,4,5,5,6,6,7,7,8,8,9,9,10,10,11,11,12,12,13,13,14,14],"right_children":[2,4,6,8,10,12,14,16,18,20,22,24,26,28,30,-1,-1,-1,-1,-1,-1,-1,-1,-1,-1,-1,-1,-1,-1,-1,-1],"split_conditions":[4.9112264E-2,-4.1586232E-1,-2.3101385E-1,2.7896315E-1,-9.093505E-2,-6.0445595E-1,-9.276047E-1,-6.345885E-1,9.974296E-1,-3.814171E-1,-1.8064904E-1,-1.033092E0,-6.5409756E-1,-1.8964833E-1,-9.996624E-2,5.3334696E-4,-7.442638E-4,9.3463383E-4,-2.3232808E-4,5.1101862E-5,9.4809674E-4,4.931981E-4,-1.5384915E-4,-0E0,-2.5671269E-3,1.5517997E-3,-5.894342E-4,-1.7944115E-3,-3.613473E-5,4.263967E-4,-1.6983828E-4],"split_indices":[4,18,28,20,24,3,20,7,8,24,21,23,15,15,19,0,0,0,0,0,0,0,0,0,0,0,0,0,0,0,0],"split_type":[0,0,0,0,0,0,0,0,0,0,0,0,0,0,0,0,0,0,0,0,0,0,0,0,0,0,0,0,0,0,0],"sum_hessian":[1.82E3,9.77E2,8.43E2,2.19E2,7.58E2,2.71E2,5.72E2,1.7E2,4.9E1,4.05E2,3.53E2,3.6E1,2.35E2,6.4E1,5.08E2,3.5E1,1.35E2,4.6E1,3E0,2.21E2,1.84E2,1.02E2,2.51E2,1.2E1,2.4E1,1E1,2.25E2,1.6E1,4.8E1,2.2E2,2.88E2],"tree_param":{"num_deleted":"0","num_feature":"29","num_nodes":"31","size_leaf_vector":"1"}},{"base_weights":[-3.3170538E-4,3.0669563E-3,-2.869565E-3,-5.9289522E-3,5.174375E-3,-5.975789E-3,3.546809E-3,-1.1856921E-2,6.2508928E-3,1.1565213E-2,4.389037E-4,-8.572029E-3,1.8096396E-3,1.5359937E-2,-3.4849164E-3,2.0169349E-4,-8.8467303E-4,1.3350795E-3,-1.7383466E-4,-0E0,7.022877E-4,9.341186E-4,-5.946876E-5,-1.7018335E-4,-1.1845573E-3,-2.5596216E-4,6.8744173E-4,2.8329898E-4,1.1639564E-3,1.564895E-4,-6.2933395E-4],"categories":[],"categories_nodes":[],"categories_segments":[],"categories_sizes":[],"default_left":[0,0,0,0,0,0,0,0,0,0,0,0,0,0,0,0,0,0,0,0,0,0,0,0,0,0,0,0,0,0,0],"id":31,"left_children":[1,3,5,7,9,11,13,15,17,19,21,23,25,27,29,-1,-1,-1,-1,-1,-1,-1,-1,-1,-1,-1,-1,-1,-1,-1,-1],"loss_changes":[1.5471523E-2,1.419279E-2,2.109167E-2,1.0309754E-2,1.7497433E-2,1.5143935E-2,2.87361E-2,1.0341064E-2,1.0173824E-2,8.6396225E-3,1.2614012E-2,3.9874904E-2,1.4996642E-2,6.8766996E-3,1.3206798E-2,0E0,0E0,0E0,0E0,0E0,0E0,0E0,0E0,0E0,0E0,0E0,0E0,0E0,0E0,0E0,0E0],"parents":[2147483647,0,0,1,1,2,2,3,3,4,4,5,5,6,6,7,7,8,8,9,9,10,10,11,11,12,12,13,13,14,14],"right_children":[2,4,6,8,10,12,14,16,18,20,22,24,26,28,30,-1,-1,-1,-1,-1,-1,-1,-1,-1,-1,-1,-1,-1,-1,-1,-1],"split_conditions":[-1.4490657E-1,-4.750925E-1,1.9730757E-1,-1.5804325E-1,3.6094874E-2,4.8191413E-1,-4.0586472E-1,-3.1753525E-1,1.8074244E-1,-5.515713E-1,-1.3497307E0,1.0592654E0,6.2488306E-1,6.3158756E-1,4.0046135E-1,2.0169349E-4,-8.8467303E-4,1.3350795E-3,-1.7383466E-4,-0E0,7.022877E-4,9.341186E-4,-5.946876E-5,-1.7018335E-4,-1.1845573E-3,-2.5596216E-4,6.8744173E-4,2.8329898E-4,1.1639564E-3,1.564895E-4,-6.2933395E-4],"split_indices":[2,24,21,3,24,23,16,18,3,18,3,25,20,21,23,0,0,0,0,0,0,0,0,0,0,0,0,0,0,0,0],"split_type":[0,0,0,0,0,0,0,0,0,0,0,0,0,0,0,0,0,0,0,0,0,0,0,0,0,0,0,0,0,0,0],"sum_hessian":[1.794E3,7.5E2,1.044E3,1.33E2,6.17E2,7.14E2,3.3E2,9.5E1,3.8E1,2.53E2,3.64E2,5.45E2,1.69E2,1.28E2,2.02E2,2.1E1,7.4E1,1.5E1,2.3E1,3.8E1,2.15E2,3.4E1,3.3E2,4.12E2,1.33E2,1.02E2,6.7E1,6.4E1,6.4E1,1.11E2,9.1E1],"tree_param":{"num_deleted":"0","num_feature":"29","num_nodes":"31","size_leaf_vector":"1"}},{"base_weights":[-5.8344813E-5,9.78465E-3,-1.2980936E-3,-8.0024207E-4,1.4328124E-2,-1.1394698E-2,-1.4197736E-4,5.7901284E-3,-1.3709411E-2,1.8449005E-2,-1.093295E-2,-2.5448784E-2,-2.5436937E-4,-1.6938744E-3,5.8041904E-3,9.78569E-4,-2.1074862E-4,-0E0,-9.703017E-4,1.2299198E-3,3.541627E-4,-0E0,-1.7463071E-3,2.365661E-5,-1.4893924E-3,2.119296E-4,-5.722993E-4,4.6978417E-5,-5.43743E-4,-0E0,7.393963E-4],"categories":[],"categories_nodes":[],"categories_segments":[],"categories_sizes":[],"default_left":[0,0,0,0,0,0,0,0,0,0,0,0,0,0,0,0,0,0,0,0,0,0,0,0,0,0,0,0,0,0,0],"id":32,"left_children":[1,3,5,7,9,11,13,15,17,19,21,23,25,27,29,-1,-1,-1,-1,-1,-1,-1,-1,-1,-1,-1,-1,-1,-1,-1,-1],"loss_changes":[2.1080349E-2,1.0597952E-2,1.7579637E-2,5.29527E-3,1.5631113E-2,2.1847686E-2,1.29791675E-2,5.754618E-3,2.8324863E-3,5.3941533E-3,5.287013E-3,1.0256559E-2,5.3953365E-3,2.9146474E-2,1.43864695E-2,0E0,0E0,0E0,0E0,0E0,0E0,0E0,0E0,0E0,0E0,0E0,0E0,0E0,0E0,0E0,0E0],"parents":[2147483647,0,0,1,1,2,2,3,3,4,4,5,5,6,6,7,7,8,8,9,9,10,10,11,11,12,12,13,13,14,14],"right_children":[2,4,6,8,10,12,14,16,18,20,22,24,26,28,30,-1,-1,-1,-1,-1,-1,-1,-1,-1,-1,-1,-1,-1,-1,-1,-1],"split_conditions":[-9.811733E-1,-4.5961937E-1,-8.726377E-1,-5.762298E-1,1.485911E0,-1.4632966E-1,5.477942E-1,7.863872E-1,-9.613965E-1,-9.63941E-1,2.0201592E0,-1.0029578E0,-3.6387832E-3,2.953814E-1,7.2187847E-1,9.78569E-4,-2.1074862E-4,-0E0,-9.703017E-4,1.2299198E-3,3.541627E-4,-0E0,-1.7463071E-3,2.365661E-5,-1.4893924E-3,2.119296E-4,-5.722993E-4,4.6978417E-5,-5.43743E-4,-0E0,7.393963E-4],"split_indices":[2,24,28,24,19,23,20,27,4,15,24,7,4,19,24,0,0,0,0,0,0,0,0,0,0,0,0,0,0,0,0],"split_type":[0,0,0,0,0,0,0,0,0,0,0,0,0,0,0,0,0,0,0,0,0,0,0,0,0,0,0,0,0,0,0],"sum_hessian":[1.795E3,1.91E2,1.604E3,5.1E1,1.4E2,1.55E2,1.449E3,2.9E1,2.2E1,1.24E2,1.6E1,6.4E1,9.1E1,1.163E3,2.86E2,1.6E1,1.3E1,4E0,1.8E1,7.4E1,5E1,1.1E1,5E0,6E0,5.8E1,5.9E1,3.2E1,8.96E2,2.67E2,1.77E2,1.09E2],"tree_param":{"num_deleted":"0","num_feature":"29","num_nodes":"31","size_leaf_vector":"1"}},{"base_weights":[-0E0,2.9392282E-3,-3.2402496E-3,1.0694215E-3,1.1037367E-2,-9.895776E-3,1.2287062E-3,3.2734836E-3,-6.4793495E-3,1.7151158E-2,-2.2663511E-3,-2.2283794E-2,-2.7556657E-3,-3.399554E-3,3.845174E-3,-8.207888E-5,3.279514E-4,-1.4008258E-3,-1.6747239E-5,-0E0,9.974445E-4,-5.632624E-4,3.9010504E-4,-6.175384E-4,-2.5162227E-3,3.7400547E-4,-3.3697506E-4,-0E0,-8.30739E-4,-1.3089208E-4,2.6789572E-4],"categories":[],"categories_nodes":[],"categories_segments":[],"categories_sizes":[],"default_left":[0,0,0,0,0,0,0,0,0,0,0,0,0,0,0,0,0,0,0,0,0,0,0,0,0,0,0,0,0,0,0],"id":33,"left_children":[1,3,5,7,9,11,13,15,17,19,21,23,25,27,29,-1,-1,-1,-1,-1,-1,-1,-1,-1,-1,-1,-1,-1,-1,-1,-1],"loss_changes":[1.7256899E-2,1.2995814E-2,2.678524E-2,1.2578404E-2,1.5029153E-2,2.9188853E-2,6.2699066E-3,1.0353189E-2,1.8990427E-2,5.984381E-3,4.783245E-3,2.8205529E-2,9.51832E-3,8.778188E-3,3.6317213E-3,0E0,0E0,0E0,0E0,0E0,0E0,0E0,0E0,0E0,0E0,0E0,0E0,0E0,0E0,0E0,0E0],"parents":[2147483647,0,0,1,1,2,2,3,3,4,4,5,5,6,6,7,7,8,8,9,9,10,10,11,11,12,12,13,13,14,14],"right_children":[2,4,6,8,10,12,14,16,18,20,22,24,26,28,30,-1,-1,-1,-1,-1,-1,-1,-1,-1,-1,-1,-1,-1,-1,-1,-1],"split_conditions":[4.9112264E-2,8.0078113E-1,-9.785955E-2,2.953814E-1,1.485911E0,-1.5134436E-2,-1.4108792E-1,-4.8320264E-1,-5.1986414E-1,-3.814171E-1,-5.378681E-1,1.2770647E-1,1.7066659E-1,3.772904E-1,-3.5716164E-1,-8.207888E-5,3.279514E-4,-1.4008258E-3,-1.6747239E-5,-0E0,9.974445E-4,-5.632624E-4,3.9010504E-4,-6.175384E-4,-2.5162227E-3,3.7400547E-4,-3.3697506E-4,-0E0,-8.30739E-4,-1.3089208E-4,2.6789572E-4],"split_indices":[4,19,28,19,19,15,24,19,16,24,3,11,3,19,15,0,0,0,0,0,0,0,0,0,0,0,0,0,0,0,0],"split_type":[0,0,0,0,0,0,0,0,0,0,0,0,0,0,0,0,0,0,0,0,0,0,0,0,0,0,0,0,0,0,0],"sum_hessian":[1.808E3,9.38E2,8.7E2,7.73E2,1.65E2,3.58E2,5.12E2,6.09E2,1.64E2,1.18E2,4.7E1,1.25E2,2.33E2,1.71E2,3.41E2,2.32E2,3.77E2,3.2E1,1.32E2,1.6E1,1.02E2,3E1,1.7E1,9.6E1,2.9E1,5.8E1,1.75E2,1.33E2,3.8E1,5.2E1,2.89E2],"tree_param":{"num_deleted":"0","num_feature":"29","num_nodes":"31","size_leaf_vector":"1"}},{"base_weights":[3.9343443E-4,3.2930193E-3,-1.5985157E-3,1.5498914E-2,2.073097E-3,-1.0524593E-2,1.2121198E-3,-4.2603826E-3,2.6449574E-2,-1.8341798E-2,2.7697962E-3,3.812007E-2,-1.2244546E-2,5.8402936E-3,-1.6683991E-3,-0E0,-6.865265E-4,1.9923018E-3,-0E0,-2.7894066E-3,7.3421244E-5,-2.2447167E-4,2.4373767E-4,2.693432E-3,-0E0,-3.2955103E-4,-1.3195437E-3,4.2087925E-4,-8.0762495E-4,9.7925795E-6,-5.065909E-4],"categories":[],"categories_nodes":[],"categories_segments":[],"categories_sizes":[],"default_left":[0,0,0,0,0,0,0,0,0,0,0,0,0,0,0,0,0,0,0,0,0,0,0,0,0,0,0,0,0,0,0],"id":34,"left_children":[1,3,5,7,9,11,13,15,17,19,21,23,25,27,29,-1,-1,-1,-1,-1,-1,-1,-1,-1,-1,-1,-1,-1,-1,-1,-1],"loss_changes":[1.0432585E-2,9.289008E-3,2.6859859E-2,1.5314245E-2,8.236385E-3,1.9297834E-2,1.0798872E-2,2.1059907E-3,1.1898005E-2,1.8866656E-2,1.0267703E-2,4.33717E-3,1.6522024E-2,1.7047206E-2,8.363876E-3,0E0,0E0,0E0,0E0,0E0,0E0,0E0,0E0,0E0,0E0,0E0,0E0,0E0,0E0,0E0,0E0],"parents":[2147483647,0,0,1,1,2,2,3,3,4,4,5,5,6,6,7,7,8,8,9,9,10,10,11,11,12,12,13,13,14,14],"right_children":[2,4,6,8,10,12,14,16,18,20,22,24,26,28,30,-1,-1,-1,-1,-1,-1,-1,-1,-1,-1,-1,-1,-1,-1,-1,-1],"split_conditions":[-1.3532004E-1,-6.4923286E-1,-2.8274095E-1,-1.2564641E0,-1.6470445E0,-1.417535E0,1.5971181E-1,-4.7917482E-1,-1.164347E-1,-5.9263754E-1,-3.9313E-1,-1.275629E0,1.4169191E0,1.1841776E0,1.20984696E-1,-0E0,-6.865265E-4,1.9923018E-3,-0E0,-2.7894066E-3,7.3421244E-5,-2.2447167E-4,2.4373767E-4,2.693432E-3,-0E0,-3.2955103E-4,-1.3195437E-3,4.2087925E-4,-8.0762495E-4,9.7925795E-6,-5.065909E-4],"split_indices":[4,24,1,14,4,2,3,28,14,3,24,8,25,4,10,0,0,0,0,0,0,0,0,0,0,0,0,0,0,0,0],"split_type":[0,0,0,0,0,0,0,0,0,0,0,0,0,0,0,0,0,0,0,0,0,0,0,0,0,0,0,0,0,0,0],"sum_hessian":[1.775E3,7.43E2,1.032E3,5.9E1,6.84E2,2.55E2,7.77E2,1.8E1,4.1E1,1.7E1,6.67E2,6E0,2.49E2,3.11E2,4.66E2,6E0,1.2E1,2.5E1,1.6E1,7E0,1E1,1.39E2,5.28E2,4E0,2E0,1.84E2,6.5E1,2.83E2,2.8E1,3.73E2,9.3E1],"tree_param":{"num_deleted":"0","num_feature":"29","num_nodes":"31","size_leaf_vector":"1"}},{"base_weights":[4.177259E-5,8.579198E-3,-8.233728E-4,-1.218235E-3,1.555596E-2,-1.3045584E-2,-0E0,1.3860288E-3,-3.3749E-2,2.4339713E-2,4.1442956E-3,-2.1026738E-3,-3.06931E-2,-6.859807E-3,1.3571319E-3,8.6528074E-4,-4.2660494E-4,-3.709996E-3,1.2594473E-5,-0E0,1.4722088E-3,5.212713E-4,-1.0387691E-3,-6.0670305E-4,3.531894E-4,-0E0,-1.955246E-3,-5.309139E-4,4.3526338E-4,1.7144872E-4,-1.442626E-4],"categories":[],"categories_nodes":[],"categories_segments":[],"categories_sizes":[],"default_left":[0,0,0,0,0,0,0,0,0,0,0,0,0,0,0,0,0,0,0,0,0,0,0,0,0,0,0,0,0,0,0],"id":35,"left_children":[1,3,5,7,9,11,13,15,17,19,21,23,25,27,29,-1,-1,-1,-1,-1,-1,-1,-1,-1,-1,-1,-1,-1,-1,-1,-1],"loss_changes":[1.4210603E-2,1.3619798E-2,1.6927345E-2,9.128665E-3,8.076824E-3,1.7126095E-2,1.4134643E-2,1.0814338E-2,1.8416427E-2,6.1121024E-3,7.6338793E-3,7.029403E-3,9.490188E-3,1.4908957E-2,1.1376416E-2,0E0,0E0,0E0,0E0,0E0,0E0,0E0,0E0,0E0,0E0,0E0,0E0,0E0,0E0,0E0,0E0],"parents":[2147483647,0,0,1,1,2,2,3,3,4,4,5,5,6,6,7,7,8,8,9,9,10,10,11,11,12,12,13,13,14,14],"right_children":[2,4,6,8,10,12,14,16,18,20,22,24,26,28,30,-1,-1,-1,-1,-1,-1,-1,-1,-1,-1,-1,-1,-1,-1,-1,-1],"split_conditions":[-1.0777882E0,-1.3833283E0,-9.242808E-1,-6.101218E-1,-1.8181467E-1,-3.8376436E-1,-6.2148106E-1,-4.8760074E-1,1.5308961E-1,-4.2084968E-1,2.7496362E-1,3.295989E-1,-1.4033548E0,6.2488306E-1,4.8210147E-1,8.6528074E-4,-4.2660494E-4,-3.709996E-3,1.2594473E-5,-0E0,1.4722088E-3,5.212713E-4,-1.0387691E-3,-6.0670305E-4,3.531894E-4,-0E0,-1.955246E-3,-5.309139E-4,4.3526338E-4,1.7144872E-4,-1.442626E-4],"split_indices":[2,8,15,11,0,11,18,23,17,18,23,20,15,20,17,0,0,0,0,0,0,0,0,0,0,0,0,0,0,0,0],"split_type":[0,0,0,0,0,0,0,0,0,0,0,0,0,0,0,0,0,0,0,0,0,0,0,0,0,0,0,0,0,0,0],"sum_hessian":[1.817E3,1.77E2,1.64E3,6.8E1,1.09E2,1.05E2,1.535E3,6.1E1,7E0,5.6E1,5.3E1,6.9E1,3.6E1,2.49E2,1.286E3,2.7E1,3.4E1,4E0,3E0,1.1E1,4.5E1,4.6E1,7E0,3.8E1,3.1E1,8E0,2.8E1,2.06E2,4.3E1,8.8E2,4.06E2],"tree_param":{"num_deleted":"0","num_feature":"29","num_nodes":"31","size_leaf_vector":"1"}},{"base_weights":[-4.0922637E-4,-2.2959902E-3,3.9314707E-3,-9.17324E-3,-6.178266E-5,1.4305934E-2,8.262496E-4,-1.4047378E-2,5.941947E-4,4.696694E-3,-3.908894E-3,-0E0,1.8619167E-2,-1.7298128E-2,2.878985E-3,-3.833387E-4,-1.9627558E-3,1.3193265E-3,-4.4209298E-4,8.042957E-5,9.548549E-4,-3.0716817E-4,4.4863315E-5,-3.2492704E-4,3.1089966E-4,1.1227772E-3,-0E0,-1.6246171E-3,1.4209103E-4,4.1755429E-4,-1.0478235E-5],"categories":[],"categories_nodes":[],"categories_segments":[],"categories_sizes":[],"default_left":[0,0,0,0,0,0,0,0,0,0,0,0,0,0,0,0,0,0,0,0,0,0,0,0,0,0,0,0,0,0,0],"id":36,"left_children":[1,3,5,7,9,11,13,15,17,19,21,23,25,27,29,-1,-1,-1,-1,-1,-1,-1,-1,-1,-1,-1,-1,-1,-1,-1,-1],"loss_changes":[1.4407067E-2,1.8374626E-2,1.5323408E-2,1.549319E-2,1.7513717E-2,6.3406825E-3,1.3898956E-2,2.7979169E-2,2.4621913E-2,1.6487138E-2,6.3615153E-3,1.2027143E-3,5.830368E-3,1.4379784E-2,7.153723E-3,0E0,0E0,0E0,0E0,0E0,0E0,0E0,0E0,0E0,0E0,0E0,0E0,0E0,0E0,0E0,0E0],"parents":[2147483647,0,0,1,1,2,2,3,3,4,4,5,5,6,6,7,7,8,8,9,9,10,10,11,11,12,12,13,13,14,14],"right_children":[2,4,6,8,10,12,14,16,18,20,22,24,26,28,30,-1,-1,-1,-1,-1,-1,-1,-1,-1,-1,-1,-1,-1,-1,-1,-1],"split_conditions":[3.9511245E-1,-2.5219762E-1,-3.2023248E-1,4.0497112E-1,2.6004422E-1,5.064024E-1,-8.4297246E-1,1.3035996E0,6.2488306E-1,6.2488306E-1,2.955404E-1,-7.518255E-1,8.505271E-1,-1.9986491E-1,-6.7078054E-1,-3.833387E-4,-1.9627558E-3,1.3193265E-3,-4.4209298E-4,8.042957E-5,9.548549E-4,-3.0716817E-4,4.4863315E-5,-3.2492704E-4,3.1089966E-4,1.1227772E-3,-0E0,-1.6246171E-3,1.4209103E-4,4.1755429E-4,-1.0478235E-5],"split_indices":[27,8,28,20,17,27,19,25,20,20,28,1,27,15,15,0,0,0,0,0,0,0,0,0,0,0,0,0,0,0,0],"split_type":[0,0,0,0,0,0,0,0,0,0,0,0,0,0,0,0,0,0,0,0,0,0,0,0,0,0,0,0,0,0,0],"sum_hessian":[1.777E3,1.255E3,5.22E2,2.96E2,9.59E2,1.12E2,4.1E2,2.04E2,9.2E1,4.17E2,5.42E2,2.8E1,8.4E1,3.6E1,3.74E2,1.67E2,3.7E1,2.7E1,6.5E1,3.5E2,6.7E1,3.84E2,1.58E2,1.1E1,1.7E1,6.9E1,1.5E1,2.3E1,1.3E1,1.46E2,2.28E2],"tree_param":{"num_deleted":"0","num_feature":"29","num_nodes":"31","size_leaf_vector":"1"}},{"base_weights":[-2.314078E-4,-1.7470473E-3,4.827698E-3,4.3941436E-5,-8.861244E-3,-5.849126E-2,5.867514E-3,1.4297691E-3,-6.6506388E-3,-1.21679865E-2,-0E0,-3.4751028E-3,-0E0,8.036473E-3,-1.3876219E-2,3.0909803E-6,4.6202345E-4,3.3124972E-5,-1.0798918E-3,-7.2509394E-4,3.2844746E-5,-3.4324758E-4,5.4878433E-4,5.9703126E-4,-0E0,1.1257169E-4,-1.0369443E-3],"categories":[],"categories_nodes":[],"categories_segments":[],"categories_sizes":[],"default_left":[0,0,0,0,0,0,0,0,0,0,0,0,0,0,0,0,0,0,0,0,0,0,0,0,0,0,0],"id":37,"left_children":[1,3,5,7,9,11,13,15,17,19,21,-1,-1,23,25,-1,-1,-1,-1,-1,-1,-1,-1,-1,-1,-1,-1],"loss_changes":[1.3502375E-2,1.8732885E-2,2.1416847E-2,9.776208E-3,8.38186E-3,2.2160094E-3,1.6485587E-2,9.0272855E-3,2.1565184E-2,7.739581E-3,6.1850687E-3,0E0,0E0,1.0696532E-2,5.769192E-3,0E0,0E0,0E0,0E0,0E0,0E0,0E0,0E0,0E0,0E0,0E0,0E0],"parents":[2147483647,0,0,1,1,2,2,3,3,4,4,5,5,6,6,7,7,8,8,9,9,10,10,13,13,14,14],"right_children":[2,4,6,8,10,12,14,16,18,20,22,-1,-1,24,26,-1,-1,-1,-1,-1,-1,-1,-1,-1,-1,-1,-1],"split_conditions":[5.477942E-1,6.335217E-1,-2.0382028E0,2.553695E-1,2.598508E0,-2.1989039E-1,1.2078981E0,7.633077E-1,2.6998654E-1,7.863872E-1,6.406882E-2,-3.4751028E-3,-0E0,6.1674935E-1,-8.916412E-1,3.0909803E-6,4.6202345E-4,3.3124972E-5,-1.0798918E-3,-7.2509394E-4,3.2844746E-5,-3.4324758E-4,5.4878433E-4,5.9703126E-4,-0E0,1.1257169E-4,-1.0369443E-3],"split_indices":[20,24,8,20,24,0,4,2,2,27,20,0,0,7,23,0,0,0,0,0,0,0,0,0,0,0,0],"split_type":[0,0,0,0,0,0,0,0,0,0,0,0,0,0,0,0,0,0,0,0,0,0,0,0,0,0,0],"sum_hessian":[1.799E3,1.4E3,3.99E2,1.108E3,2.92E2,4E0,3.95E2,9.31E2,1.77E2,2.11E2,8.1E1,3E0,1E0,3.61E2,3.4E1,8.04E2,1.27E2,1.15E2,6.2E1,1.85E2,2.6E1,5.1E1,3E1,2.38E2,1.23E2,6E0,2.8E1],"tree_param":{"num_deleted":"0","num_feature":"29","num_nodes":"27","size_leaf_vector":"1"}},{"base_weights":[4.6665437E-4,1.9005762E-3,-6.0178484E-3,4.0610088E-4,6.870893E-3,-2.7470658E-2,-8.6410524E-4,1.0533524E-3,-1.792273E-2,-2.2464147E-2,8.440425E-3,-0E0,-3.288363E-2,-3.3058266E-3,5.744787E-3,-1.3437262E-4,1.9099154E-4,-0E0,-1.208628E-3,-3.3447866E-3,-0E0,6.372974E-4,3.936988E-5,-0E0,-1.9021335E-3,8.571928E-6,-7.9748436E-4,1.0042436E-3,-3.414287E-4],"categories":[],"categories_nodes":[],"categories_segments":[],"categories_sizes":[],"default_left":[0,0,0,0,0,0,0,0,0,0,0,0,0,0,0,0,0,0,0,0,0,0,0,0,0,0,0,0,0],"id":38,"left_children":[1,3,5,7,9,11,13,15,17,19,21,-1,23,25,27,-1,-1,-1,-1,-1,-1,-1,-1,-1,-1,-1,-1,-1,-1],"loss_changes":[1.6615544E-2,1.05006695E-2,3.2412153E-2,1.2318845E-2,1.4165355E-2,9.216372E-3,4.0030084E-3,1.1972944E-2,5.7022152E-3,1.0835225E-2,9.213671E-3,0E0,7.798951E-3,1.0505669E-2,1.2280963E-2,0E0,0E0,0E0,0E0,0E0,0E0,0E0,0E0,0E0,0E0,0E0,0E0,0E0,0E0],"parents":[2147483647,0,0,1,1,2,2,3,3,4,4,5,5,6,6,7,7,8,8,9,9,10,10,12,12,13,13,14,14],"right_children":[2,4,6,8,10,12,14,16,18,20,22,-1,24,26,28,-1,-1,-1,-1,-1,-1,-1,-1,-1,-1,-1,-1,-1,-1],"split_conditions":[7.174674E-1,5.0675654E-1,-1.5359196E-1,1.0643997E0,-1.6470445E0,-5.215834E-1,6.416296E-1,-1.2551218E-1,4.2331803E-1,-2.663293E0,1.4023854E-1,-0E0,-7.2959405E-1,3.83839E-1,7.923821E-1,-1.3437262E-4,1.9099154E-4,-0E0,-1.208628E-3,-3.3447866E-3,-0E0,6.372974E-4,3.936988E-5,-0E0,-1.9021335E-3,8.571928E-6,-7.9748436E-4,1.0042436E-3,-3.414287E-4],"split_indices":[4,20,1,6,4,26,20,21,11,1,28,0,21,19,20,0,0,0,0,0,0,0,0,0,0,0,0,0,0],"split_type":[0,0,0,0,0,0,0,0,0,0,0,0,0,0,0,0,0,0,0,0,0,0,0,0,0,0,0,0,0],"sum_hessian":[1.829E3,1.511E3,3.18E2,1.178E3,3.33E2,5.7E1,2.61E2,1.144E3,3.4E1,1.3E1,3.2E2,9E0,4.8E1,2.02E2,5.9E1,4.71E2,6.73E2,6E0,2.8E1,3E0,1E1,1.96E2,1.24E2,7E0,4.1E1,1.53E2,4.9E1,3.1E1,2.8E1],"tree_param":{"num_deleted":"0","num_feature":"29","num_nodes":"29","size_leaf_vector":"1"}},{"base_weights":[9.034388E-5,5.388933E-3,-1.4196332E-3,7.331352E-3,-8.808443E-3,2.061021E-3,-1.6821669E-3,9.732013E-3,-7.249979E-3,-1.843587E-2,3.1639123E-5,-5.5218E-3,3.2093987E-4,-5.8623677E-4,5.6193717E-4,-5.698957E-4,-0E0,-0E0,-1.4428886E-3,3.7453746E-4,-0E0,-1.1532046E-4,-1.0760413E-3,5.3259195E-5,-8.3271135E-4],"categories":[],"categories_nodes":[],"categories_segments":[],"categories_sizes":[],"default_left":[0,0,0,0,0,0,0,0,0,0,0,0,0,0,0,0,0,0,0,0,0,0,0,0,0],"id":39,"left_children":[1,3,5,7,9,-1,11,13,15,17,19,21,23,-1,-1,-1,-1,-1,-1,-1,-1,-1,-1,-1,-1],"loss_changes":[1.4477895E-2,1.1085659E-2,1.1284002E-2,1.3025511E-2,5.5006165E-3,0E0,1.0904972E-2,1.0363966E-2,2.3888992E-3,6.152964E-3,6.7331776E-4,2.2260338E-2,9.462758E-3,0E0,0E0,0E0,0E0,0E0,0E0,0E0,0E0,0E0,0E0,0E0,0E0],"parents":[2147483647,0,0,1,1,2,2,3,3,4,4,6,6,7,7,8,8,9,9,10,10,11,11,12,12],"right_children":[2,4,6,8,10,-1,12,14,16,18,20,22,24,-1,-1,-1,-1,-1,-1,-1,-1,-1,-1,-1,-1],"split_conditions":[-5.241018E-1,5.092628E-1,-1.6945921E0,8.4427345E-1,5.0675654E-1,2.061021E-3,-2.2294182E-1,-1.6470445E0,2.227022E0,-2.8679547E-1,-1.9023179E-1,7.6836824E-1,1.3333787E0,-5.8623677E-4,5.6193717E-4,-5.698957E-4,-0E0,-0E0,-1.4428886E-3,3.7453746E-4,-0E0,-1.1532046E-4,-1.0760413E-3,5.3259195E-5,-8.3271135E-4],"split_indices":[4,17,2,27,20,0,28,4,10,2,18,4,2,0,0,0,0,0,0,0,0,0,0,0,0],"split_type":[0,0,0,0,0,0,0,0,0,0,0,0,0,0,0,0,0,0,0,0,0,0,0,0,0],"sum_hessian":[1.758E3,4.04E2,1.354E3,3.62E2,4.2E1,5E0,1.349E3,3.17E2,4.5E1,2.5E1,1.7E1,4.79E2,8.7E2,1.6E1,3.01E2,3.6E1,9E0,8E0,1.7E1,1.1E1,6E0,4.05E2,7.4E1,8.4E2,3E1],"tree_param":{"num_deleted":"0","num_feature":"29","num_nodes":"25","size_leaf_vector":"1"}},{"base_weights":[-3.437522E-4,1.5568072E-3,-4.3988246E-3,2.187198E-3,-9.788368E-3,-2.8458562E-2,-2.7801397E-3,-6.8050795E-3,3.082817E-3,-2.1116737E-2,-0E0,-4.8330788E-2,2.0120614E-3,-1.2743674E-2,-1.1811632E-3,3.4674464E-4,-8.384183E-4,5.4695556E-4,5.205492E-5,-1.5223318E-3,-0E0,1.0928535E-3,-3.2144166E-5,-2.9749438E-7,-3.0101114E-3,-0E0,9.611871E-4,-0E0,-9.446378E-4,6.443539E-5,-3.4904113E-4],"categories":[],"categories_nodes":[],"categories_segments":[],"categories_sizes":[],"default_left":[0,0,0,0,0,0,0,0,0,0,0,0,0,0,0,0,0,0,0,0,0,0,0,0,0,0,0,0,0,0,0],"id":40,"left_children":[1,3,5,7,9,11,13,15,17,19,21,23,25,27,29,-1,-1,-1,-1,-1,-1,-1,-1,-1,-1,-1,-1,-1,-1,-1,-1],"loss_changes":[1.4055584E-2,7.843564E-3,1.9657806E-2,8.87824E-3,8.107832E-3,2.4711248E-2,7.4344217E-3,1.396779E-2,1.568107E-2,5.162455E-3,2.3977498E-3,6.599903E-3,1.7991804E-3,6.8035284E-3,7.5685205E-3,0E0,0E0,0E0,0E0,0E0,0E0,0E0,0E0,0E0,0E0,0E0,0E0,0E0,0E0,0E0,0E0],"parents":[2147483647,0,0,1,1,2,2,3,3,4,4,5,5,6,6,7,7,8,8,9,9,10,10,11,11,12,12,13,13,14,14],"right_children":[2,4,6,8,10,12,14,16,18,20,22,24,26,28,30,-1,-1,-1,-1,-1,-1,-1,-1,-1,-1,-1,-1,-1,-1,-1,-1],"split_conditions":[3.540112E-1,1.0418365E0,-1.1245172E0,-1.2534811E0,3.147464E-1,2.517296E-1,-4.9254665E-1,-4.789024E-1,-7.1967095E-1,9.5291257E-1,-4.8328325E-1,-3.62581E-1,1.0959477E0,-5.593177E-1,2.4651287E-1,3.4674464E-4,-8.384183E-4,5.4695556E-4,5.205492E-5,-1.5223318E-3,-0E0,1.0928535E-3,-3.2144166E-5,-2.9749438E-7,-3.0101114E-3,-0E0,9.611871E-4,-0E0,-9.446378E-4,6.443539E-5,-3.4904113E-4],"split_indices":[4,7,20,8,25,3,1,23,14,1,10,0,1,2,10,0,0,0,0,0,0,0,0,0,0,0,0,0,0,0,0],"split_type":[0,0,0,0,0,0,0,0,0,0,0,0,0,0,0,0,0,0,0,0,0,0,0,0,0,0,0,0,0,0,0],"sum_hessian":[1.785E3,1.199E3,5.86E2,1.145E3,5.4E1,3.2E1,5.54E2,9.3E1,1.052E3,2.9E1,2.5E1,2.1E1,1.1E1,6.7E1,4.87E2,3.5E1,5.8E1,2.06E2,8.46E2,1.9E1,1E1,4E0,2.1E1,6E0,1.5E1,7E0,4E0,1.8E1,4.9E1,3.3E2,1.57E2],"tree_param":{"num_deleted":"0","num_feature":"29","num_nodes":"31","size_leaf_vector":"1"}},{"base_weights":[2.5554653E-5,5.8376085E-4,-8.188289E-3,-3.3830674E-3,1.5712917E-3,-2.582782E-2,-2.910439E-3,-9.750994E-3,3.8351605E-3,2.4107816E-3,-3.5843826E-3,-0E0,-3.549818E-2,-7.7687516E-3,3.3040275E-4,-8.6059485E-4,9.477236E-5,-2.6485073E-5,7.69043E-4,2.595875E-4,-2.8952474E-5,-5.3662265E-4,3.569502E-4,-1.9095913E-3,-0E0,-6.2547403E-4,-0E0,2.7374612E-4,-1.0522241E-4],"categories":[],"categories_nodes":[],"categories_segments":[],"categories_sizes":[],"default_left":[0,0,0,0,0,0,0,0,0,0,0,0,0,0,0,0,0,0,0,0,0,0,0,0,0,0,0,0,0],"id":41,"left_children":[1,3,5,7,9,11,13,15,17,19,21,-1,23,25,27,-1,-1,-1,-1,-1,-1,-1,-1,-1,-1,-1,-1,-1,-1],"loss_changes":[7.410245E-3,6.405312E-3,6.547081E-3,1.51080005E-2,5.8035143E-3,3.7071202E-3,2.0689834E-3,1.677054E-2,8.599013E-3,1.0375312E-2,1.3849977E-2,0E0,1.1218153E-3,2.3878128E-3,8.370885E-4,0E0,0E0,0E0,0E0,0E0,0E0,0E0,0E0,0E0,0E0,0E0,0E0,0E0,0E0],"parents":[2147483647,0,0,1,1,2,2,3,3,4,4,5,5,6,6,7,7,8,8,9,9,10,10,12,12,13,13,14,14],"right_children":[2,4,6,8,10,12,14,16,18,20,22,-1,24,26,28,-1,-1,-1,-1,-1,-1,-1,-1,-1,-1,-1,-1,-1,-1],"split_conditions":[1.2475525E0,-7.3545897E-1,-4.9314263E-1,5.1738375E-1,7.3777556E-1,-1.027049E0,8.4511614E-1,3.7457356E-1,4.0787873E-1,3.535575E-2,7.784502E-1,-0E0,1.6389289E0,2.4092326E-1,7.2096384E-1,-8.6059485E-4,9.477236E-5,-2.6485073E-5,7.69043E-4,2.595875E-4,-2.8952474E-5,-5.3662265E-4,3.569502E-4,-1.9095913E-3,-0E0,-6.2547403E-4,-0E0,2.7374612E-4,-1.0522241E-4],"split_indices":[7,1,21,16,17,21,0,17,24,25,25,0,8,27,21,0,0,0,0,0,0,0,0,0,0,0,0,0,0],"split_type":[0,0,0,0,0,0,0,0,0,0,0,0,0,0,0,0,0,0,0,0,0,0,0,0,0,0,0,0,0],"sum_hessian":[1.78E3,1.679E3,1.01E2,3.14E2,1.365E3,1.8E1,8.3E1,1.74E2,1.4E2,1.191E3,1.74E2,6E0,1.2E1,4.5E1,3.8E1,1.11E2,6.3E1,9.6E1,4.4E1,6.34E2,5.57E2,1.1E2,6.4E1,1.1E1,1E0,3.2E1,1.3E1,2.5E1,1.3E1],"tree_param":{"num_deleted":"0","num_feature":"29","num_nodes":"29","size_leaf_vector":"1"}},{"base_weights":[-0E0,1.548795E-3,-5.8252728E-3,1.8704556E-4,6.6465866E-3,-2.0647682E-2,-1.8756469E-3,-4.6524266E-3,2.9462334E-3,-2.5288561E-2,8.774396E-3,-0E0,-2.7011093E-2,-7.6713706E-3,1.5320268E-3,5.091406E-4,-3.034528E-4,2.9513333E-4,-3.8078797E-4,-0E0,-1.621622E-3,6.3217606E-4,-6.888137E-5,-2.2503418E-4,1.6965708E-4,-0E0,-1.6172493E-3,-2.5736575E-3,-2.6370477E-4,2.4018288E-4,-7.816075E-5],"categories":[],"categories_nodes":[],"categories_segments":[],"categories_sizes":[],"default_left":[0,0,0,0,0,0,0,0,0,0,0,0,0,0,0,0,0,0,0,0,0,0,0,0,0,0,0,0,0,0,0],"id":42,"left_children":[1,3,5,7,9,11,13,15,17,19,21,23,25,27,29,-1,-1,-1,-1,-1,-1,-1,-1,-1,-1,-1,-1,-1,-1,-1,-1],"loss_changes":[1.588429E-2,9.145145E-3,1.9252755E-2,1.4985403E-2,1.7800864E-2,7.973224E-3,6.491418E-3,8.035822E-3,2.2855856E-2,4.081553E-3,1.1710178E-2,3.8166545E-4,7.36396E-3,6.759397E-3,2.1239417E-3,0E0,0E0,0E0,0E0,0E0,0E0,0E0,0E0,0E0,0E0,0E0,0E0,0E0,0E0,0E0,0E0],"parents":[2147483647,0,0,1,1,2,2,3,3,4,4,5,5,6,6,7,7,8,8,9,9,10,10,11,11,12,12,13,13,14,14],"right_children":[2,4,6,8,10,12,14,16,18,20,22,24,26,28,30,-1,-1,-1,-1,-1,-1,-1,-1,-1,-1,-1,-1,-1,-1,-1,-1],"split_conditions":[6.263818E-1,5.252945E-1,-1.6140935E-1,-2.2677353E-1,-1.6470445E0,-4.5469227E-1,-8.188123E-2,-1.2897642E0,5.035888E-1,-4.150064E-1,8.2755023E-1,-5.528464E-1,-7.205888E-1,-9.8050994E-1,4.7776696E-1,5.091406E-4,-3.034528E-4,2.9513333E-4,-3.8078797E-4,-0E0,-1.621622E-3,6.3217606E-4,-6.888137E-5,-2.2503418E-4,1.6965708E-4,-0E0,-1.6172493E-3,-2.5736575E-3,-2.6370477E-4,2.4018288E-4,-7.816075E-5],"split_indices":[4,20,1,21,4,8,23,17,23,24,17,8,16,19,0,0,0,0,0,0,0,0,0,0,0,0,0,0,0,0,0],"split_type":[0,0,0,0,0,0,0,0,0,0,0,0,0,0,0,0,0,0,0,0,0,0,0,0,0,0,0,0,0,0,0],"sum_hessian":[1.782E3,1.415E3,3.67E2,1.133E3,2.82E2,7.1E1,2.96E2,3.98E2,7.35E2,1.4E1,2.68E2,1.9E1,5.2E1,1.2E2,1.76E2,2.8E1,3.7E2,5.82E2,1.53E2,2E0,1.2E1,2.01E2,6.7E1,1.5E1,4E0,9E0,4.3E1,3E0,1.17E2,1.01E2,7.5E1],"tree_param":{"num_deleted":"0","num_feature":"29","num_nodes":"31","size_leaf_vector":"1"}},{"base_weights":[1.8100203E-4,1.2103719E-2,-4.1602508E-4,-0E0,1.8076872E-2,-2.4200664E-3,2.5490841E-3,-6.2636137E-3,6.6839084E-3,5.540562E-3,3.3411898E-2,-4.0556355E-3,4.100117E-3,1.0374372E-2,-6.8424875E-4,-0E0,-5.2269595E-4,4.659337E-4,-0E0,8.2400435E-4,-4.404995E-4,-0E0,1.8047736E-3,-6.1914376E-5,-6.6814333E-4,-4.2022057E-4,5.252929E-4,-1.611105E-3,6.5024674E-4,9.1662914E-5,-6.7640434E-4],"categories":[],"categories_nodes":[],"categories_segments":[],"categories_sizes":[],"default_left":[0,0,0,0,0,0,0,0,0,0,0,0,0,0,0,0,0,0,0,0,0,0,0,0,0,0,0,0,0,0,0],"id":43,"left_children":[1,3,5,7,9,11,13,15,17,19,21,23,25,27,29,-1,-1,-1,-1,-1,-1,-1,-1,-1,-1,-1,-1,-1,-1,-1,-1],"loss_changes":[1.4007892E-2,7.1424926E-3,1.0154432E-2,1.3316363E-3,8.22329E-3,1.1113623E-2,1.7928291E-2,8.2379056E-4,3.2976957E-4,7.1917274E-3,2.0574406E-3,2.0680685E-2,1.607829E-2,2.1468133E-2,1.6262138E-2,0E0,0E0,0E0,0E0,0E0,0E0,0E0,0E0,0E0,0E0,0E0,0E0,0E0,0E0,0E0,0E0],"parents":[2147483647,0,0,1,1,2,2,3,3,4,4,5,5,6,6,7,7,8,8,9,9,10,10,11,11,12,12,13,13,14,14],"right_children":[2,4,6,8,10,12,14,16,18,20,22,24,26,28,30,-1,-1,-1,-1,-1,-1,-1,-1,-1,-1,-1,-1,-1,-1,-1,-1],"split_conditions":[-1.3328216E0,-4.213723E-2,1.9730757E-1,5.237153E-1,-7.315429E-1,6.4857E-1,-4.2100602E-1,-9.08833E-1,-8.1643397E-1,6.838263E-1,-2.6312804E0,9.5238775E-1,-1.908111E-2,-8.324053E-1,6.193103E-1,-0E0,-5.2269595E-4,4.659337E-4,-0E0,8.2400435E-4,-4.404995E-4,-0E0,1.8047736E-3,-6.1914376E-5,-6.6814333E-4,-4.2022057E-4,5.252929E-4,-1.611105E-3,6.5024674E-4,9.1662914E-5,-6.7640434E-4],"split_indices":[2,20,21,21,17,20,16,23,7,21,23,25,24,15,20,0,0,0,0,0,0,0,0,0,0,0,0,0,0,0,0],"split_type":[0,0,0,0,0,0,0,0,0,0,0,0,0,0,0,0,0,0,0,0,0,0,0,0,0,0,0,0,0,0,0],"sum_hessian":[1.802E3,9.3E1,1.709E3,3E1,6.3E1,1.04E3,6.69E2,1.7E1,1.3E1,3.9E1,2.4E1,8.44E2,1.96E2,2.04E2,4.65E2,4E0,1.3E1,1E1,3E0,2.6E1,1.3E1,2E0,2.2E1,6.57E2,1.87E2,6.1E1,1.35E2,9E0,1.95E2,3.83E2,8.2E1],"tree_param":{"num_deleted":"0","num_feature":"29","num_nodes":"31","size_leaf_vector":"1"}},{"base_weights":[1.5970753E-4,-1.7898217E-3,3.7669837E-3,-1.3549128E-2,-1.1228475E-4,6.641027E-3,-4.203872E-3,-2.252795E-2,3.6508879E-3,1.5003367E-2,-1.3210223E-3,9.045664E-4,1.7078936E-2,-9.768422E-3,2.0795336E-3,-3.7113266E-4,-1.7958711E-3,5.0538697E-4,-0E0,4.883018E-5,1.2013213E-3,6.864181E-5,-2.9251052E-4,2.797815E-4,-2.4774225E-4,1.0615785E-3,1.8955301E-4,-0E0,-6.982356E-4,4.1604374E-4,-3.4016548E-4],"categories":[],"categories_nodes":[],"categories_segments":[],"categories_sizes":[],"default_left":[0,0,0,0,0,0,0,0,0,0,0,0,0,0,0,0,0,0,0,0,0,0,0,0,0,0,0,0,0,0,0],"id":44,"left_children":[1,3,5,7,9,11,13,15,17,19,21,23,25,27,29,-1,-1,-1,-1,-1,-1,-1,-1,-1,-1,-1,-1,-1,-1,-1,-1],"loss_changes":[1.2666032E-2,2.0982657E-2,1.4933125E-2,2.2664359E-2,1.692244E-2,2.6926994E-2,6.418459E-3,1.400657E-2,1.7766806E-3,6.082603E-3,1.1839293E-2,8.805143E-3,6.466713E-3,4.8762606E-3,3.9783437E-3,0E0,0E0,0E0,0E0,0E0,0E0,0E0,0E0,0E0,0E0,0E0,0E0,0E0,0E0,0E0,0E0],"parents":[2147483647,0,0,1,1,2,2,3,3,4,4,5,5,6,6,7,7,8,8,9,9,10,10,11,11,12,12,13,13,14,14],"right_children":[2,4,6,8,10,12,14,16,18,20,22,24,26,28,30,-1,-1,-1,-1,-1,-1,-1,-1,-1,-1,-1,-1,-1,-1,-1,-1],"split_conditions":[2.8031436E-1,-7.936758E-1,5.5561566E-1,2.517296E-1,-9.741822E-1,-9.327997E-2,-3.8000554E-2,8.736997E-3,8.10407E-2,-3.5175E-1,-1.5822223E-1,9.811329E-2,6.907003E-1,5.2371657E-1,1.6802002E0,-3.7113266E-4,-1.7958711E-3,5.0538697E-4,-0E0,4.883018E-5,1.2013213E-3,6.864181E-5,-2.9251052E-4,2.797815E-4,-2.4774225E-4,1.0615785E-3,1.8955301E-4,-0E0,-6.982356E-4,4.1604374E-4,-3.4016548E-4],"split_indices":[21,28,3,3,14,11,19,25,4,0,18,20,25,17,18,0,0,0,0,0,0,0,0,0,0,0,0,0,0,0,0],"split_type":[0,0,0,0,0,0,0,0,0,0,0,0,0,0,0,0,0,0,0,0,0,0,0,0,0,0,0,0,0,0,0],"sum_hessian":[1.771E3,1.132E3,6.39E2,1.33E2,9.99E2,4.79E2,1.6E2,9.1E1,4.2E1,6.7E1,9.32E2,3.16E2,1.63E2,9.3E1,6.7E1,4.7E1,4.4E1,2.2E1,2E1,3.1E1,3.6E1,5.71E2,3.61E2,1.85E2,1.31E2,1.18E2,4.5E1,2.3E1,7E1,4.6E1,2.1E1],"tree_param":{"num_deleted":"0","num_feature":"29","num_nodes":"31","size_leaf_vector":"1"}},{"base_weights":[3.9113784E-5,5.6158076E-3,-1.3495344E-3,1.7336382E-3,2.0335859E-2,6.855084E-4,-4.67215E-3,5.125213E-3,-1.3980173E-2,-0E0,2.558335E-2,3.7028114E-3,-5.638459E-3,-9.7264005E-3,3.505073E-3,7.6929893E-4,-0E0,-2.2384123E-5,-1.503027E-3,-1.0060861E-3,9.673812E-4,-0E0,1.4877229E-3,4.2938493E-5,6.543393E-4,-1.0767112E-3,-1.2280942E-4,-1.7119067E-4,-9.603818E-4,4.8240405E-4,-9.698269E-5],"categories":[],"categories_nodes":[],"categories_segments":[],"categories_sizes":[],"default_left":[0,0,0,0,0,0,0,0,0,0,0,0,0,0,0,0,0,0,0,0,0,0,0,0,0,0,0,0,0,0,0],"id":45,"left_children":[1,3,5,7,9,11,13,15,17,19,21,23,25,27,29,-1,-1,-1,-1,-1,-1,-1,-1,-1,-1,-1,-1,-1,-1,-1,-1],"loss_changes":[1.4474196E-2,1.9244593E-2,1.0125142E-2,1.5387703E-2,6.463496E-3,1.6504392E-2,2.4007525E-2,1.4107535E-2,7.598484E-3,7.356705E-3,5.843289E-3,1.4687319E-2,1.1307084E-2,1.9004095E-2,7.7799796E-3,0E0,0E0,0E0,0E0,0E0,0E0,0E0,0E0,0E0,0E0,0E0,0E0,0E0,0E0,0E0,0E0],"parents":[2147483647,0,0,1,1,2,2,3,3,4,4,5,5,6,6,7,7,8,8,9,9,10,10,11,11,12,12,13,13,14,14],"right_children":[2,4,6,8,10,12,14,16,18,20,22,24,26,28,30,-1,-1,-1,-1,-1,-1,-1,-1,-1,-1,-1,-1,-1,-1,-1,-1],"split_conditions":[-5.923687E-1,6.078984E-1,4.044635E-1,1.0618685E0,-3.6348352E-1,4.8854342E-1,3.7629163E-1,-5.618887E-1,-2.5428572E-1,-2.2953315E-1,-1.4527017E0,4.042885E-1,-6.564515E-1,8.8855065E-2,-6.3481696E-2,7.6929893E-4,-0E0,-2.2384123E-5,-1.503027E-3,-1.0060861E-3,9.673812E-4,-0E0,1.4877229E-3,4.2938493E-5,6.543393E-4,-1.0767112E-3,-1.2280942E-4,-1.7119067E-4,-9.603818E-4,4.8240405E-4,-9.698269E-5],"split_indices":[4,25,25,18,27,3,3,3,28,9,8,18,18,11,16,0,0,0,0,0,0,0,0,0,0,0,0,0,0,0,0],"split_type":[0,0,0,0,0,0,0,0,0,0,0,0,0,0,0,0,0,0,0,0,0,0,0,0,0,0,0,0,0,0,0],"sum_hessian":[1.812E3,3.75E2,1.437E3,3.03E2,7.2E1,8.73E2,5.64E2,2.55E2,4.8E1,1.7E1,5.5E1,6.02E2,2.71E2,3.56E2,2.08E2,8.7E1,1.68E2,3E1,1.8E1,7E0,1E1,8E0,4.7E1,4.71E2,1.31E2,3.9E1,2.32E2,2.21E2,1.35E2,1.06E2,1.02E2],"tree_param":{"num_deleted":"0","num_feature":"29","num_nodes":"31","size_leaf_vector":"1"}},{"base_weights":[-7.9606473E-4,2.0045363E-3,-3.1163886E-3,-1.6610578E-3,9.560412E-3,4.3589342E-3,-6.1223665E-3,3.643893E-5,-1.1439637E-2,-2.0599151E-2,1.0689837E-2,-7.569744E-3,7.641547E-3,-1.0868605E-2,1.5099413E-3,-3.8859725E-4,1.7080466E-4,-2.7705095E-4,-1.655509E-3,-0E0,-1.4937305E-3,8.0145505E-4,1.6442503E-4,1.4577046E-4,-9.5035665E-4,8.590432E-4,2.509957E-5,1.1816021E-3,-6.1113574E-4,-1.20838326E-4,5.2169507E-4],"categories":[],"categories_nodes":[],"categories_segments":[],"categories_sizes":[],"default_left":[0,0,0,0,0,0,0,0,0,0,0,0,0,0,0,0,0,0,0,0,0,0,0,0,0,0,0,0,0,0,0],"id":46,"left_children":[1,3,5,7,9,11,13,15,17,19,21,23,25,27,29,-1,-1,-1,-1,-1,-1,-1,-1,-1,-1,-1,-1,-1,-1,-1,-1],"loss_changes":[1.19768325E-2,2.3184808E-2,2.307816E-2,1.0037857E-2,8.528464E-3,1.114652E-2,2.7613696E-2,1.1439912E-2,7.2001265E-3,2.3846773E-3,8.56675E-3,8.2603395E-3,1.3819474E-2,2.0731471E-2,1.0463419E-2,0E0,0E0,0E0,0E0,0E0,0E0,0E0,0E0,0E0,0E0,0E0,0E0,0E0,0E0,0E0,0E0],"parents":[2147483647,0,0,1,1,2,2,3,3,4,4,5,5,6,6,7,7,8,8,9,9,10,10,11,11,12,12,13,13,14,14],"right_children":[2,4,6,8,10,12,14,16,18,20,22,24,26,28,30,-1,-1,-1,-1,-1,-1,-1,-1,-1,-1,-1,-1,-1,-1,-1,-1],"split_conditions":[-1.1186563E-1,-3.948634E-1,-4.9861088E-1,6.114833E-1,-1.3090508E0,-4.4517252E-1,2.7496362E-1,-4.772238E-1,8.309843E-1,-2.2613313E0,2.275954E-1,-9.906875E-1,1.3138182E-1,-1.0029578E0,8.0078113E-1,-3.8859725E-4,1.7080466E-4,-2.7705095E-4,-1.655509E-3,-0E0,-1.4937305E-3,8.0145505E-4,1.6442503E-4,1.4577046E-4,-9.5035665E-4,8.590432E-4,2.509957E-5,1.1816021E-3,-6.1113574E-4,-1.20838326E-4,5.2169507E-4],"split_indices":[19,19,4,24,7,24,23,4,4,0,17,4,24,7,19,0,0,0,0,0,0,0,0,0,0,0,0,0,0,0,0],"split_type":[0,0,0,0,0,0,0,0,0,0,0,0,0,0,0,0,0,0,0,0,0,0,0,0,0,0,0,0,0,0,0],"sum_hessian":[1.824E3,8.07E2,1.017E3,5.35E2,2.72E2,2.82E2,7.35E2,4.48E2,8.7E1,6E0,2.66E2,5.4E1,2.28E2,4.61E2,2.74E2,1.26E2,3.22E2,7.3E1,1.4E1,1E0,5E0,1.46E2,1.2E2,2.4E1,3E1,9.1E1,1.37E2,1.4E1,4.47E2,1.83E2,9.1E1],"tree_param":{"num_deleted":"0","num_feature":"29","num_nodes":"31","size_leaf_vector":"1"}},{"base_weights":[-6.249649E-4,-8.960685E-3,-8.447379E-5,7.0525305E-3,-1.5215375E-2,2.6167054E-3,-2.1367988E-3,1.35988565E-2,-0E0,-2.1412008E-2,-0E0,5.9175002E-3,-3.8226233E-3,-5.3363717E-3,1.813886E-3,1.0698771E-3,-0E0,-0E0,-5.5859473E-5,-1.24783E-3,-0E0,1.9756197E-4,-0E0,-9.129312E-5,4.6563774E-4,-2.812438E-4,7.4173114E-4,2.1594786E-4,-4.0346335E-4,-2.1924391E-4,4.6943207E-4],"categories":[],"categories_nodes":[],"categories_segments":[],"categories_sizes":[],"default_left":[0,0,0,0,0,0,0,0,0,0,0,0,0,0,0,0,0,0,0,0,0,0,0,0,0,0,0,0,0,0,0],"id":47,"left_children":[1,3,5,7,9,11,13,15,17,19,21,23,25,27,29,-1,-1,-1,-1,-1,-1,-1,-1,-1,-1,-1,-1,-1,-1,-1,-1],"loss_changes":[7.2539747E-3,1.0839205E-2,9.453955E-3,2.3199324E-3,8.996915E-3,1.5514384E-2,1.2939228E-2,2.4384623E-3,6.240561E-6,6.4185876E-3,1.8734751E-4,1.3542967E-2,7.0307353E-3,1.5292153E-2,2.0825725E-2,0E0,0E0,0E0,0E0,0E0,0E0,0E0,0E0,0E0,0E0,0E0,0E0,0E0,0E0,0E0,0E0],"parents":[2147483647,0,0,1,1,2,2,3,3,4,4,5,5,6,6,7,7,8,8,9,9,10,10,11,11,12,12,13,13,14,14],"right_children":[2,4,6,8,10,12,14,16,18,20,22,24,26,28,30,-1,-1,-1,-1,-1,-1,-1,-1,-1,-1,-1,-1,-1,-1,-1,-1],"split_conditions":[-9.205405E-1,-1.3392179E0,-9.996624E-2,1.1214437E-1,6.339946E-1,2.7080154E-1,3.441053E-1,-1.6033535E-1,-8.605921E-1,4.7010085E-1,7.630969E-1,-4.9334738E-1,1.5377764E0,-6.203954E-1,1.9601315E-1,1.0698771E-3,-0E0,-0E0,-5.5859473E-5,-1.24783E-3,-0E0,1.9756197E-4,-0E0,-9.129312E-5,4.6563774E-4,-2.812438E-4,7.4173114E-4,2.1594786E-4,-4.0346335E-4,-2.1924391E-4,4.6943207E-4],"split_indices":[19,20,19,3,3,23,20,10,10,25,8,18,25,6,23,0,0,0,0,0,0,0,0,0,0,0,0,0,0,0,0],"split_type":[0,0,0,0,0,0,0,0,0,0,0,0,0,0,0,0,0,0,0,0,0,0,0,0,0,0,0,0,0,0,0],"sum_hessian":[1.81E3,9.8E1,1.712E3,2.3E1,7.5E1,7.18E2,9.94E2,1.8E1,5E0,5.7E1,1.8E1,4.85E2,2.33E2,5.63E2,4.31E2,1.2E1,6E0,1E0,4E0,5.2E1,5E0,1.1E1,7E0,1.39E2,3.46E2,2.18E2,1.5E1,1.16E2,4.47E2,2.3E2,2.01E2],"tree_param":{"num_deleted":"0","num_feature":"29","num_nodes":"31","size_leaf_vector":"1"}},{"base_weights":[-3.8646688E-4,-1.7811425E-3,3.3333788E-3,1.42431E-3,-5.6155883E-3,-1.6500727E-4,9.0297675E-3,-1.1934679E-2,3.0890882E-3,-2.2466565E-3,-1.587479E-2,-4.036275E-3,1.0998764E-2,1.4564343E-2,-1.4553745E-3,5.688608E-4,-1.1099777E-3,4.475148E-5,6.3676626E-4,-0E0,-9.236969E-4,3.1177828E-4,-1.3498345E-3,1.1695997E-4,-6.476156E-4,1.6381881E-4,2.0461988E-3,-0E0,9.82867E-4,-2.3093037E-3,7.887374E-5],"categories":[],"categories_nodes":[],"categories_segments":[],"categories_sizes":[],"default_left":[0,0,0,0,0,0,0,0,0,0,0,0,0,0,0,0,0,0,0,0,0,0,0,0,0,0,0,0,0,0,0],"id":48,"left_children":[1,3,5,7,9,11,13,15,17,19,21,23,25,27,29,-1,-1,-1,-1,-1,-1,-1,-1,-1,-1,-1,-1,-1,-1,-1,-1],"loss_changes":[9.272083E-3,1.6909536E-2,1.0373775E-2,1.509821E-2,1.9753782E-2,1.16652595E-2,1.2474006E-2,1.8803243E-2,1.22766085E-2,1.8059447E-2,3.8393095E-2,1.3540438E-2,1.0929186E-2,1.0641253E-2,1.2809067E-2,0E0,0E0,0E0,0E0,0E0,0E0,0E0,0E0,0E0,0E0,0E0,0E0,0E0,0E0,0E0,0E0],"parents":[2147483647,0,0,1,1,2,2,3,3,4,4,5,5,6,6,7,7,8,8,9,9,10,10,11,11,12,12,13,13,14,14],"right_children":[2,4,6,8,10,12,14,16,18,20,22,24,26,28,30,-1,-1,-1,-1,-1,-1,-1,-1,-1,-1,-1,-1,-1,-1,-1,-1],"split_conditions":[4.564865E-1,-9.996624E-2,5.783075E-1,-9.8050994E-1,1.1709744E0,5.937538E-1,2.5011523E0,-3.2023248E-1,2.8152826E-1,2.757428E-1,-3.5404176E-1,6.181173E-2,1.9725379E0,-4.5582306E-2,-1.6945921E0,5.688608E-4,-1.1099777E-3,4.475148E-5,6.3676626E-4,-0E0,-9.236969E-4,3.1177828E-4,-1.3498345E-3,1.1695997E-4,-6.476156E-4,1.6381881E-4,2.0461988E-3,-0E0,9.82867E-4,-2.3093037E-3,7.887374E-5],"split_indices":[20,19,24,19,25,21,24,28,10,20,11,4,25,10,2,0,0,0,0,0,0,0,0,0,0,0,0,0,0,0,0],"split_type":[0,0,0,0,0,0,0,0,0,0,0,0,0,0,0,0,0,0,0,0,0,0,0,0,0,0,0,0,0,0,0],"sum_hessian":[1.815E3,1.34E3,4.75E2,7.16E2,6.24E2,2.84E2,1.91E2,7.2E1,6.44E2,4.78E2,1.46E2,2.18E2,6.6E1,1.31E2,6E1,1.9E1,5.3E1,5.34E2,1.1E2,4.19E2,5.9E1,4.6E1,1E2,1.21E2,9.7E1,5.6E1,1E1,3.2E1,9.9E1,5E0,5.5E1],"tree_param":{"num_deleted":"0","num_feature":"29","num_nodes":"31","size_leaf_vector":"1"}},{"base_weights":[-7.720965E-5,-1.450248E-2,1.564321E-4,-2.1968426E-2,-0E0,5.2074827E-3,-8.586723E-4,-0E0,-2.693375E-2,-0E0,8.0485205E-4,-3.6784345E-3,8.097832E-3,-6.053966E-3,2.3426382E-4,-0E0,-1.4794113E-3,2.1876475E-4,-7.6378876E-4,1.7657262E-4,7.2387623E-4,-4.399019E-4,2.9113085E-4,3.4537085E-4,-4.3369546E-5],"categories":[],"categories_nodes":[],"categories_segments":[],"categories_sizes":[],"default_left":[0,0,0,0,0,0,0,0,0,0,0,0,0,0,0,0,0,0,0,0,0,0,0,0,0],"id":49,"left_children":[1,3,5,7,9,11,13,-1,15,-1,-1,17,19,21,23,-1,-1,-1,-1,-1,-1,-1,-1,-1,-1],"loss_changes":[7.604606E-3,5.4589263E-3,9.6429335E-3,2.9288735E-3,1.0364589E-3,8.6133685E-3,8.981334E-3,0E0,2.4253316E-3,0E0,0E0,7.6950127E-3,5.3727347E-3,9.245892E-3,9.483267E-3,0E0,0E0,0E0,0E0,0E0,0E0,0E0,0E0,0E0,0E0],"parents":[2147483647,0,0,1,1,2,2,3,3,4,4,5,5,6,6,8,8,11,11,12,12,13,13,14,14],"right_children":[2,4,6,8,10,12,14,-1,16,-1,-1,18,20,22,24,-1,-1,-1,-1,-1,-1,-1,-1,-1,-1],"split_conditions":[-2.1210053E0,3.682825E-1,-5.596408E-1,-2.0813506E0,1.2242786E0,-4.750925E-1,-5.9629136E-1,-0E0,-1.6488446E0,-0E0,8.0485205E-4,-4.7197294E-1,-7.562139E-1,8.590018E-1,-6.651901E-1,-0E0,-1.4794113E-3,2.1876475E-4,-7.6378876E-4,1.7657262E-4,7.2387623E-4,-4.399019E-4,2.9113085E-4,3.4537085E-4,-4.3369546E-5],"split_indices":[0,17,9,15,25,24,18,0,17,0,0,17,9,28,16,0,0,0,0,0,0,0,0,0,0],"split_type":[0,0,0,0,0,0,0,0,0,0,0,0,0,0,0,0,0,0,0,0,0,0,0,0,0],"sum_hessian":[1.829E3,3.5E1,1.794E3,2.6E1,9E0,3.16E2,1.478E3,5E0,2.1E1,6E0,3E0,6.9E1,2.47E2,2.72E2,1.206E3,