{"learner":{"attributes":{"scikit_learn":"{\"_estimator_type\": \"regressor\"}"},"feature_names":[],"feature_types":[],"gradient_booster":{"model":{"gbtree_model_param":{"num_parallel_tree":"1","num_trees":"150"},"iteration_indptr":[0,1,2,3,4,5,6,7,8,9,10,11,12,13,14,15,16,17,18,19,20,21,22,23,24,25,26,27,28,29,30,31,32,33,34,35,36,37,38,39,40,41,42,43,44,45,46,47,48,49,50,51,52,53,54,55,56,57,58,59,60,61,62,63,64,65,66,67,68,69,70,71,72,73,74,75,76,77,78,79,80,81,82,83,84,85,86,87,88,89,90,91,92,93,94,95,96,97,98,99,100,101,102,103,104,105,106,107,108,109,110,111,112,113,114,115,116,117,118,119,120,121,122,123,124,125,126,127,128,129,130,131,132,133,134,135,136,137,138,139,140,141,142,143,144,145,146,147,148,149,150],"tree_info":[0,0,0,0,0,0,0,0,0,0,0,0,0,0,0,0,0,0,0,0,0,0,0,0,0,0,0,0,0,0,0,0,0,0,0,0,0,0,0,0,0,0,0,0,0,0,0,0,0,0,0,0,0,0,0,0,0,0,0,0,0,0,0,0,0,0,0,0,0,0,0,0,0,0,0,0,0,0,0,0,0,0,0,0,0,0,0,0,0,0,0,0,0,0,0,0,0,0,0,0,0,0,0,0,0,0,0,0,0,0,0,0,0,0,0,0,0,0,0,0,0,0,0,0,0,0,0,0,0,0,0,0,0,0,0,0,0,0,0,0,0,0,0,0,0,0,0,0,0,0],"trees":[{"base_weights":[-1.5619464E-4,7.1797417E-3,-4.6418724E-3,9.083499E-3,-3.2772224E-2,6.993591E-3,-7.395233E-3,2.0854012E-4,2.0014618E-3,-1.1611182E-3,4.5425282E-4,6.0387854E-5,1.0053217E-3,-1.5565378E-4,-6.13582E-4],"categories":[],"categories_nodes":[],"categories_segments":[],"categories_sizes":[],"default_left":[0,0,0,0,0,0,0,0,0,0,0,0,0,0,0],"id":0,"left_children":[1,3,5,7,9,11,13,-1,-1,-1,-1,-1,-1,-1,-1],"loss_changes":[1.979079E-1,1.6667275E-1,1.20739244E-1,2.4827167E-1,3.3676706E-2,8.398249E-2,8.180176E-2,0E0,0E0,0E0,0E0,0E0,0E0,0E0,0E0],"parents":[2147483647,0,0,1,1,2,2,3,3,4,4,5,5,6,6],"right_children":[2,4,6,8,10,12,14,-1,-1,-1,-1,-1,-1,-1,-1],"split_conditions":[-2.2693709E-1,3.791181E0,-6.6868436E-1,1.4730579E0,9.3022686E-1,5.6833625E-1,1.092972E0,2.0854012E-4,2.0014618E-3,-1.1611182E-3,4.5425282E-4,6.0387854E-5,1.0053217E-3,-1.5565378E-4,-6.13582E-4],"split_indices":[1,8,26,13,26,3,1,0,0,0,0,0,0,0,0],"split_type":[0,0,0,0,0,0,0,0,0,0,0,0,0,0,0],"sum_hessian":[6.033E3,2.268E3,3.765E3,2.171E3,9.7E1,7.03E2,3.062E3,2.098E3,7.3E1,9.1E1,6E0,6E2,1.03E2,2.636E3,4.26E2],"tree_param":{"num_deleted":"0","num_feature":"30","num_nodes":"15","size_leaf_vector":"1"}},{"base_weights":[-1.2349365E-4,-2.5279992E-3,1.043481E-2,5.402999E-4,-1.2410915E-2,2.3031875E-2,-0E0,-9.2082504E-5,2.49996E-4,-2.9230694E-4,-1.2788075E-3,-2.4416202E-4,9.58825E-4,-2.7538624E-4,5.225219E-4],"categories":[],"categories_nodes":[],"categories_segments":[],"categories_sizes":[],"default_left":[0,0,0,0,0,0,0,0,0,0,0,0,0,0,0],"id":1,"left_children":[1,3,5,7,9,11,13,-1,-1,-1,-1,-1,-1,-1,-1],"loss_changes":[1.5371239E-1,1.5502015E-1,1.5050139E-1,1.084209E-1,8.410387E-2,1.4886889E-1,9.555427E-2,0E0,0E0,0E0,0E0,0E0,0E0,0E0,0E0],"parents":[2147483647,0,0,1,1,2,2,3,3,4,4,5,5,6,6],"right_children":[2,4,6,8,10,12,14,-1,-1,-1,-1,-1,-1,-1,-1],"split_conditions":[9.0831167E-1,9.9857044E-1,-7.437927E-1,2.3451051E-1,1.7127658E0,-2.304573E0,4.118466E-1,-9.2082504E-5,2.49996E-4,-2.9230694E-4,-1.2788075E-3,-2.4416202E-4,9.58825E-4,-2.7538624E-4,5.225219E-4],"split_indices":[11,14,23,19,9,13,13,0,0,0,0,0,0,0,0],"split_type":[0,0,0,0,0,0,0,0,0,0,0,0,0,0,0],"sum_hessian":[6.132E3,5.014E3,1.118E3,3.807E3,1.207E3,5.13E2,6.05E2,2.58E3,1.227E3,1.117E3,9E1,1.08E2,4.05E2,4.02E2,2.03E2],"tree_param":{"num_deleted":"0","num_feature":"30","num_nodes":"15","size_leaf_vector":"1"}},{"base_weights":[5.2939235E-5,-3.041993E-3,1.1910179E-2,1.8968773E-3,-8.444617E-3,2.651396E-2,2.8863426E-3,1.0479898E-4,-4.2550583E-4,-1.0990496E-4,-6.408285E-4,-4.7264685E-4,1.1793469E-3,2.0577498E-4,-6.274008E-4],"categories":[],"categories_nodes":[],"categories_segments":[],"categories_sizes":[],"default_left":[0,0,0,0,0,0,0,0,0,0,0,0,0,0,0],"id":2,"left_children":[1,3,5,7,9,11,13,-1,-1,-1,-1,-1,-1,-1,-1],"loss_changes":[2.2711664E-1,1.3087268E-1,1.6200376E-1,6.1678067E-2,1.3806008E-1,2.6583055E-1,7.266033E-2,0E0,0E0,0E0,0E0,0E0,0E0,0E0,0E0],"parents":[2147483647,0,0,1,1,2,2,3,3,4,4,5,5,6,6],"right_children":[2,4,6,8,10,12,14,-1,-1,-1,-1,-1,-1,-1,-1],"split_conditions":[7.9699826E-1,8.941318E-3,-9.179851E-1,1.0782351E0,1.04732E0,-1.8955439E0,1.5961317E0,1.0479898E-4,-4.2550583E-4,-1.0990496E-4,-6.408285E-4,-4.7264685E-4,1.1793469E-3,2.0577498E-4,-6.274008E-4],"split_indices":[11,17,23,25,14,15,25,0,0,0,0,0,0,0,0],"split_type":[0,0,0,0,0,0,0,0,0,0,0,0,0,0,0],"sum_hessian":[6.128E3,4.843E3,1.285E3,2.506E3,2.337E3,4.8E2,8.05E2,2.294E3,2.12E2,1.72E3,6.17E2,1.07E2,3.73E2,6.99E2,1.06E2],"tree_param":{"num_deleted":"0","num_feature":"30","num_nodes":"15","size_leaf_vector":"1"}},{"base_weights":[-6.929207E-4,-2.1730806E-3,1.6463123E-2,-6.617266E-4,-1.5995678E-2,5.4249883E-2,7.5574564E-3,-2.27973E-6,-1.1163378E-3,-3.317187E-4,-1.3135427E-3,1.931786E-3,-1.1401152E-4,4.1752303E-4,-5.797086E-4],"categories":[],"categories_nodes":[],"categories_segments":[],"categories_sizes":[],"default_left":[0,0,0,0,0,0,0,0,0,0,0,0,0,0,0],"id":3,"left_children":[1,3,5,7,9,11,13,-1,-1,-1,-1,-1,-1,-1,-1],"loss_changes":[1.5266475E-1,1.1443551E-1,1.4437503E-1,1.00593366E-1,6.0720414E-2,6.540474E-2,6.5434024E-2,0E0,0E0,0E0,0E0,0E0,0E0,0E0,0E0],"parents":[2147483647,0,0,1,1,2,2,3,3,4,4,5,5,6,6],"right_children":[2,4,6,8,10,12,14,-1,-1,-1,-1,-1,-1,-1,-1],"split_conditions":[1.4672064E0,1.0373333E0,-6.4816207E-1,3.791181E0,6.2421864E-1,1.6296139E0,7.892705E-1,-2.27973E-6,-1.1163378E-3,-3.317187E-4,-1.3135427E-3,1.931786E-3,-1.1401152E-4,4.1752303E-4,-5.797086E-4],"split_indices":[11,1,26,8,11,12,26,0,0,0,0,0,0,0,0],"split_type":[0,0,0,0,0,0,0,0,0,0,0,0,0,0,0],"sum_hessian":[6.152E3,5.677E3,4.75E2,5.134E3,5.43E2,8.5E1,3.9E2,5.06E3,7.4E1,4.69E2,7.4E1,7.6E1,9E0,3.23E2,6.7E1],"tree_param":{"num_deleted":"0","num_feature":"30","num_nodes":"15","size_leaf_vector":"1"}},{"base_weights":[5.7358546E-5,5.5704376E-4,-4.9626574E-2,2.7341958E-2,-4.6166996E-4,-0E0,-7.180004E-2,1.3309825E-3,-7.73627E-6,1.5378144E-4,-1.05789586E-4,-1.0939589E-4,1.1216598E-4,-0E0,-2.4612383E-3],"categories":[],"categories_nodes":[],"categories_segments":[],"categories_sizes":[],"default_left":[0,0,0,0,0,0,0,0,0,0,0,0,0,0,0],"id":4,"left_children":[1,3,5,7,9,11,13,-1,-1,-1,-1,-1,-1,-1,-1],"loss_changes":[1.4040281E-1,1.7298463E-1,6.381108E-2,1.2015559E-1,9.997495E-2,2.4105441E-4,2.8185531E-2,0E0,0E0,0E0,0E0,0E0,0E0,0E0,0E0],"parents":[2147483647,0,0,1,1,2,2,3,3,4,4,5,5,6,6],"right_children":[2,4,6,8,10,12,14,-1,-1,-1,-1,-1,-1,-1,-1],"split_conditions":[5.3101773E0,-1.9565334E0,-1.1681116E-1,-1.4600998E0,-2.2693709E-1,-1.736921E-1,5.77449E-1,1.3309825E-3,-7.73627E-6,1.5378144E-4,-1.05789586E-4,-1.0939589E-4,1.1216598E-4,-0E0,-2.4612383E-3],"split_indices":[8,6,29,2,1,19,16,0,0,0,0,0,0,0,0],"split_type":[0,0,0,0,0,0,0,0,0,0,0,0,0,0,0],"sum_hessian":[6.149E3,6.093E3,5.6E1,2.32E2,5.861E3,1.7E1,3.9E1,1.49E2,8.3E1,2.047E3,3.814E3,5E0,1.2E1,5E0,3.4E1],"tree_param":{"num_deleted":"0","num_feature":"30","num_nodes":"15","size_leaf_vector":"1"}},{"base_weights":[-7.574712E-4,-3.475011E-3,9.790265E-3,-2.3433082E-3,-2.3206977E-2,2.2382192E-2,1.1512417E-3,4.6738645E-5,-1.7029938E-4,-1.5629176E-3,-1.5278053E-4,-5.456504E-4,9.23227E-4,1.20499426E-4,-8.188108E-4],"categories":[],"categories_nodes":[],"categories_segments":[],"categories_sizes":[],"default_left":[0,0,0,0,0,0,0,0,0,0,0,0,0,0,0],"id":5,"left_children":[1,3,5,7,9,11,13,-1,-1,-1,-1,-1,-1,-1,-1],"loss_changes":[1.7403185E-1,1.0280165E-1,1.2859188E-1,6.1335742E-2,1.1816874E-1,1.7054212E-1,5.4950707E-2,0E0,0E0,0E0,0E0,0E0,0E0,0E0,0E0],"parents":[2147483647,0,0,1,1,2,2,3,3,4,4,5,5,6,6],"right_children":[2,4,6,8,10,12,14,-1,-1,-1,-1,-1,-1,-1,-1],"split_conditions":[8.072925E-1,2E0,-9.2239267E-1,3.6871575E-2,-4.7851112E-1,-2.54327E0,9.815067E-1,4.6738645E-5,-1.7029938E-4,-1.5629176E-3,-1.5278053E-4,-5.456504E-4,9.23227E-4,1.20499426E-4,-8.188108E-4],"split_indices":[11,4,7,7,2,13,26,0,0,0,0,0,0,0,0],"split_type":[0,0,0,0,0,0,0,0,0,0,0,0,0,0,0],"sum_hessian":[6.126E3,4.89E3,1.236E3,4.637E3,2.53E2,4.91E2,7.45E2,2.102E3,2.535E3,9.2E1,1.61E2,7.9E1,4.12E2,6.85E2,6E1],"tree_param":{"num_deleted":"0","num_feature":"30","num_nodes":"15","size_leaf_vector":"1"}},{"base_weights":[-0E0,5.0351936E-3,-5.5897357E-3,1.0120524E-3,1.7171975E-2,-3.0970997E-3,-1.4976199E-2,1.4582781E-4,-3.2477587E-4,6.5945496E-4,-5.182184E-4,-3.8669088E-5,-4.3402796E-4,-6.599517E-4,1.568507E-5],"categories":[],"categories_nodes":[],"categories_segments":[],"categories_sizes":[],"default_left":[0,0,0,0,0,0,0,0,0,0,0,0,0,0,0],"id":6,"left_children":[1,3,5,7,9,11,13,-1,-1,-1,-1,-1,-1,-1,-1],"loss_changes":[1.7152116E-1,1.5132079E-1,6.330394E-2,1.0847599E-1,1.3037807E-1,4.359453E-2,6.928639E-2,0E0,0E0,0E0,0E0,0E0,0E0,0E0,0E0],"parents":[2147483647,0,0,1,1,2,2,3,3,4,4,5,5,6,6],"right_children":[2,4,6,8,10,12,14,-1,-1,-1,-1,-1,-1,-1,-1],"split_conditions":[3.6871575E-2,9.0831167E-1,-3.4416102E-2,9.9857044E-1,3.545153E0,7.8432965E-1,7.360598E-1,1.4582781E-4,-3.2477587E-4,6.5945496E-4,-5.182184E-4,-3.8669088E-5,-4.3402796E-4,-6.599517E-4,1.568507E-5],"split_indices":[7,11,3,14,8,17,28,0,0,0,0,0,0,0,0],"split_type":[0,0,0,0,0,0,0,0,0,0,0,0,0,0,0],"sum_hessian":[6.091E3,3.192E3,2.899E3,2.413E3,7.79E2,2.312E3,5.87E2,1.837E3,5.76E2,6.9E2,8.9E1,2.014E3,2.98E2,4.15E2,1.72E2],"tree_param":{"num_deleted":"0","num_feature":"30","num_nodes":"15","size_leaf_vector":"1"}},{"base_weights":[5.710898E-4,2.6171364E-2,-5.657874E-4,3.5590038E-2,-1.669726E-2,-1.7281311E-3,1.9124366E-2,1.4738076E-3,2.7509293E-5,-0E0,-1.2569057E-3,-2.22073E-5,-6.8664213E-4,8.8218006E-4,-0E0],"categories":[],"categories_nodes":[],"categories_segments":[],"categories_sizes":[],"default_left":[0,0,0,0,0,0,0,0,0,0,0,0,0,0,0],"id":7,"left_children":[1,3,5,7,9,11,13,-1,-1,-1,-1,-1,-1,-1,-1],"loss_changes":[1.8566619E-1,1.14393175E-1,1.3042197E-1,9.414101E-2,2.8474975E-2,1.1056903E-1,6.786961E-2,0E0,0E0,0E0,0E0,0E0,0E0,0E0,0E0],"parents":[2147483647,0,0,1,1,2,2,3,3,4,4,5,5,6,6],"right_children":[2,4,6,8,10,12,14,-1,-1,-1,-1,-1,-1,-1,-1],"split_conditions":[-1.9565334E0,3.791181E0,1.598943E0,-1.1377417E0,-1.2688493E0,1.8005105E0,5.83943E-1,1.4738076E-3,2.7509293E-5,-0E0,-1.2569057E-3,-2.22073E-5,-6.8664213E-4,8.8218006E-4,-0E0],"split_indices":[6,8,11,2,0,24,22,0,0,0,0,0,0,0,0],"split_type":[0,0,0,0,0,0,0,0,0,0,0,0,0,0,0],"sum_hessian":[6.159E3,2.71E2,5.888E3,2.27E2,4.4E1,5.572E3,3.16E2,1.58E2,6.9E1,2.1E1,2.3E1,5.335E3,2.37E2,2.12E2,1.04E2],"tree_param":{"num_deleted":"0","num_feature":"30","num_nodes":"15","size_leaf_vector":"1"}},{"base_weights":[7.206632E-4,2.5900923E-2,-3.986802E-4,3.699993E-2,-1.856472E-2,2.3917083E-3,-7.4609425E-3,2.5211019E-4,1.6934583E-3,-1.4787535E-3,9.9346566E-5,1.1640972E-4,-4.4462224E-4,-3.036515E-4,3.875995E-4],"categories":[],"categories_nodes":[],"categories_segments":[],"categories_sizes":[],"default_left":[0,0,0,0,0,0,0,0,0,0,0,0,0,0,0],"id":8,"left_children":[1,3,5,7,9,11,13,-1,-1,-1,-1,-1,-1,-1,-1],"loss_changes":[1.7772399E-1,1.3716844E-1,1.157909E-1,1.0560635E-1,4.4641405E-2,1.0336378E-1,8.996343E-2,0E0,0E0,0E0,0E0,0E0,0E0,0E0,0E0],"parents":[2147483647,0,0,1,1,2,2,3,3,4,4,5,5,6,6],"right_children":[2,4,6,8,10,12,14,-1,-1,-1,-1,-1,-1,-1,-1],"split_conditions":[-1.9565334E0,3.791181E0,4.3874332E-1,1.1240253E0,-2.530732E-1,6.770033E1,1.0968748E0,2.5211019E-4,1.6934583E-3,-1.4787535E-3,9.9346566E-5,1.1640972E-4,-4.4462224E-4,-3.036515E-4,3.875995E-4],"split_indices":[6,8,1,8,26,20,12,0,0,0,0,0,0,0,0],"split_type":[0,0,0,0,0,0,0,0,0,0,0,0,0,0,0],"sum_hessian":[6.079E3,2.68E2,5.811E3,2.19E2,4.9E1,4.14E3,1.671E3,9.4E1,1.25E2,2.5E1,2.4E1,3.824E3,3.16E2,1.489E3,1.82E2],"tree_param":{"num_deleted":"0","num_feature":"30","num_nodes":"15","size_leaf_vector":"1"}},{"base_weights":[-7.241539E-4,5.1670745E-3,-4.2336853E-3,6.611607E-3,-2.339329E-2,-9.079545E-4,-1.4856688E-2,1.2891662E-5,4.65436E-4,-6.5917164E-5,-1.6611126E-3,3.3204132E-4,-1.00877915E-4,-3.8503893E-4,-1.994444E-3],"categories":[],"categories_nodes":[],"categories_segments":[],"categories_sizes":[],"default_left":[0,0,0,0,0,0,0,0,0,0,0,0,0,0,0],"id":9,"left_children":[1,3,5,7,9,11,13,-1,-1,-1,-1,-1,-1,-1,-1],"loss_changes":[1.2608361E-1,8.884545E-2,1.3225853E-1,1.1457546E-1,5.3526014E-2,8.492844E-2,7.403755E-2,0E0,0E0,0E0,0E0,0E0,0E0,0E0,0E0],"parents":[2147483647,0,0,1,1,2,2,3,3,4,4,5,5,6,6],"right_children":[2,4,6,8,10,12,14,-1,-1,-1,-1,-1,-1,-1,-1],"split_conditions":[-2.2693709E-1,3.791181E0,4.928135E-1,1.535769E-1,5.5117E-1,-7.766861E-1,2.3017502E2,1.2891662E-5,4.65436E-4,-6.5917164E-5,-1.6611126E-3,3.3204132E-4,-1.00877915E-4,-3.8503893E-4,-1.994444E-3],"split_indices":[1,10,17,28,14,26,19,0,0,0,0,0,0,0,0],"split_type":[0,0,0,0,0,0,0,0,0,0,0,0,0,0,0],"sum_hessian":[6.109E3,2.254E3,3.855E3,2.154E3,1E2,2.954E3,9.01E2,1.288E3,8.66E2,6.5E1,3.5E1,4.85E2,2.469E3,8.72E2,2.9E1],"tree_param":{"num_deleted":"0","num_feature":"30","num_nodes":"15","size_leaf_vector":"1"}},{"base_weights":[-0E0,-1.3982842E-3,1.6453791E-2,-1.1116161E-3,-7.15976E-2,2.2574883E-2,-1.8050008E-2,5.0192207E-6,-4.1340833E-4,-0E0,-2.8158245E-3,7.985707E-4,-5.955043E-4,-0E0,-1.009759E-3],"categories":[],"categories_nodes":[],"categories_segments":[],"categories_sizes":[],"default_left":[0,0,0,0,0,0,0,0,0,0,0,0,0,0,0],"id":10,"left_children":[1,3,5,7,9,11,13,-1,-1,-1,-1,-1,-1,-1,-1],"loss_changes":[1.4260249E-1,9.462245E-2,1.03929505E-1,9.392984E-2,2.6860751E-2,7.375625E-2,1.6891712E-2,0E0,0E0,0E0,0E0,0E0,0E0,0E0,0E0],"parents":[2147483647,0,0,1,1,2,2,3,3,4,4,5,5,6,6],"right_children":[2,4,6,8,10,12,14,-1,-1,-1,-1,-1,-1,-1,-1],"split_conditions":[1.4672064E0,5.3101773E0,8.012931E-1,1.0373333E0,-9.5413023E-1,4.7227683E0,4.2511427E-1,5.0192207E-6,-4.1340833E-4,-0E0,-2.8158245E-3,7.985707E-4,-5.955043E-4,-0E0,-1.009759E-3],"split_indices":[11,8,26,1,0,8,25,0,0,0,0,0,0,0,0],"split_type":[0,0,0,0,0,0,0,0,0,0,0,0,0,0,0],"sum_hessian":[6.092E3,5.606E3,4.86E2,5.587E3,1.9E1,4.19E2,6.7E1,5.057E3,5.3E2,5E0,1.4E1,3.88E2,3.1E1,3.3E1,3.4E1],"tree_param":{"num_deleted":"0","num_feature":"30","num_nodes":"15","size_leaf_vector":"1"}},{"base_weights":[1.9888238E-4,8.66521E-4,-3.1421546E-2,3.4504183E-2,-2.2364983E-4,-8.205956E-3,-6.0359485E-2,1.2201105E-3,-3.7486744E-4,-3.829038E-5,4.804685E-4,-2.6060136E-3,-0E0,-2.0707063E-3,-0E0],"categories":[],"categories_nodes":[],"categories_segments":[],"categories_sizes":[],"default_left":[0,0,0,0,0,0,0,0,0,0,0,0,0,0,0],"id":11,"left_children":[1,3,5,7,9,11,13,-1,-1,-1,-1,-1,-1,-1,-1],"loss_changes":[1.22016095E-1,2.2941276E-1,6.284832E-2,6.404567E-2,9.592013E-2,4.9909946E-2,3.5030425E-2,0E0,0E0,0E0,0E0,0E0,0E0,0E0,0E0],"parents":[2147483647,0,0,1,1,2,2,3,3,4,4,5,5,6,6],"right_children":[2,4,6,8,10,12,14,-1,-1,-1,-1,-1,-1,-1,-1],"split_conditions":[3.791181E0,-2.0268362E0,5.715279E-1,1.7791475E0,1.2117108E0,-2.809361E-1,6.628986E-1,1.2201105E-3,-3.7486744E-4,-3.829038E-5,4.804685E-4,-2.6060136E-3,-0E0,-2.0707063E-3,-0E0],"split_indices":[8,6,14,14,15,19,2,0,0,0,0,0,0,0,0],"split_type":[0,0,0,0,0,0,0,0,0,0,0,0,0,0,0],"sum_hessian":[6.141E3,6.022E3,1.19E2,1.96E2,5.826E3,7.1E1,4.8E1,1.78E2,1.8E1,5.486E3,3.4E2,7E0,6.4E1,4.4E1,4E0],"tree_param":{"num_deleted":"0","num_feature":"30","num_nodes":"15","size_leaf_vector":"1"}},{"base_weights":[7.4681826E-4,-1.6778485E-3,6.993265E-3,2.1758433E-3,-7.496612E-3,1.037129E-3,1.9802209E-2,8.846207E-5,-9.3119807E-4,-1.8387978E-3,-1.7552581E-4,-3.2278104E-4,1.4678549E-4,1.204033E-3,1.5532695E-4],"categories":[],"categories_nodes":[],"categories_segments":[],"categories_sizes":[],"default_left":[0,0,0,0,0,0,0,0,0,0,0,0,0,0,0],"id":12,"left_children":[1,3,5,7,9,11,13,-1,-1,-1,-1,-1,-1,-1,-1],"loss_changes":[9.440498E-2,9.995941E-2,1.280859E-1,6.0267713E-2,1.4056335E-1,5.3411614E-2,1.4956157E-1,0E0,0E0,0E0,0E0,0E0,0E0,0E0,0E0],"parents":[2147483647,0,0,1,1,2,2,3,3,4,4,5,5,6,6],"right_children":[2,4,6,8,10,12,14,-1,-1,-1,-1,-1,-1,-1,-1],"split_conditions":[5.2270335E-1,2.0609231E-1,3.4912476E-1,2.099808E0,-8.7487847E-1,-5.1613796E-1,-7.9727106E-2,8.846207E-5,-9.3119807E-4,-1.8387978E-3,-1.7552581E-4,-3.2278104E-4,1.4678549E-4,1.204033E-3,1.5532695E-4],"split_indices":[11,27,13,3,11,18,25,0,0,0,0,0,0,0,0],"split_type":[0,0,0,0,0,0,0,0,0,0,0,0,0,0,0],"sum_hessian":[6.145E3,4.398E3,1.747E3,2.62E3,1.778E3,1.206E3,5.41E2,2.568E3,5.2E1,4.8E1,1.73E3,2.81E2,9.25E2,2.19E2,3.22E2],"tree_param":{"num_deleted":"0","num_feature":"30","num_nodes":"15","size_leaf_vector":"1"}},{"base_weights":[-4.863637E-5,2.4208616E-2,-1.2012648E-3,4.9168658E-2,1.5938004E-3,-1.5975997E-2,1.18513584E-4,6.398194E-4,3.046142E-3,-1.953757E-3,2.0579918E-4,-8.981832E-4,-1.0914268E-4,1.7870258E-5,-9.978298E-4],"categories":[],"categories_nodes":[],"categories_segments":[],"categories_sizes":[],"default_left":[0,0,0,0,0,0,0,0,0,0,0,0,0,0,0],"id":13,"left_children":[1,3,5,7,9,11,13,-1,-1,-1,-1,-1,-1,-1,-1],"loss_changes":[1.6565478E-1,1.3870798E-1,1.1827504E-1,1.4698702E-1,3.6930893E-2,7.707216E-2,7.730915E-2,0E0,0E0,0E0,0E0,0E0,0E0,0E0,0E0],"parents":[2147483647,0,0,1,1,2,2,3,3,4,4,5,5,6,6],"right_children":[2,4,6,8,10,12,14,-1,-1,-1,-1,-1,-1,-1,-1],"split_conditions":[-1.9565334E0,4.2263478E-1,-8.5541165E-1,8.072925E-1,-3.4473544E-1,-1.684962E-1,2.8007545E0,6.398194E-4,3.046142E-3,-1.953757E-3,2.0579918E-4,-8.981832E-4,-1.0914268E-4,1.7870258E-5,-9.978298E-4],"split_indices":[6,16,11,11,19,2,0,0,0,0,0,0,0,0,0],"split_type":[0,0,0,0,0,0,0,0,0,0,0,0,0,0,0],"sum_hessian":[6.13E3,2.68E2,5.862E3,1.22E2,1.46E2,4.96E2,5.366E3,8.3E1,3.9E1,7E0,1.39E2,2.23E2,2.73E2,5.298E3,6.8E1],"tree_param":{"num_deleted":"0","num_feature":"30","num_nodes":"15","size_leaf_vector":"1"}},{"base_weights":[4.484898E-4,8.946157E-3,-1.8496921E-3,1.0805267E-2,-3.175785E-2,2.0678327E-4,-9.333331E-3,1.11212394E-4,7.8030024E-4,-0E0,-1.5017784E-3,3.6191508E-5,-5.686666E-4,-1.1612995E-4,-6.959101E-4],"categories":[],"categories_nodes":[],"categories_segments":[],"categories_sizes":[],"default_left":[0,0,0,0,0,0,0,0,0,0,0,0,0,0,0],"id":14,"left_children":[1,3,5,7,9,11,13,-1,-1,-1,-1,-1,-1,-1,-1],"loss_changes":[1.2159469E-1,9.543627E-2,7.624991E-2,1.3039523E-1,3.3130847E-2,6.728835E-2,7.365262E-2,0E0,0E0,0E0,0E0,0E0,0E0,0E0,0E0],"parents":[2147483647,0,0,1,1,2,2,3,3,4,4,5,5,6,6],"right_children":[2,4,6,8,10,12,14,-1,-1,-1,-1,-1,-1,-1,-1],"split_conditions":[-6.3856685E-1,4.7227683E0,5.487621E-1,9.0831167E-1,-1.2688493E0,1.1158049E0,4.0809894E-1,1.11212394E-4,7.8030024E-4,-0E0,-1.5017784E-3,3.6191508E-5,-5.686666E-4,-1.1612995E-4,-6.959101E-4],"split_indices":[5,8,17,11,0,7,27,0,0,0,0,0,0,0,0],"split_type":[0,0,0,0,0,0,0,0,0,0,0,0,0,0,0],"sum_hessian":[6.135E3,1.329E3,4.806E3,1.277E3,5.2E1,3.744E3,1.062E3,8.82E2,3.95E2,1.8E1,3.4E1,3.571E3,1.73E2,7.75E2,2.87E2],"tree_param":{"num_deleted":"0","num_feature":"30","num_nodes":"15","size_leaf_vector":"1"}},{"base_weights":[9.93843E-4,1.532344E-3,-4.1371714E-2,-8.051462E-4,1.1314068E-2,-5.2614473E-2,-0E0,7.087463E-5,-1.7030956E-4,8.863165E-4,1.2620163E-4,-1.8690033E-3,-0E0,3.895578E-4,-0E0],"categories":[],"categories_nodes":[],"categories_segments":[],"categories_sizes":[],"default_left":[0,0,0,0,0,0,0,0,0,0,0,0,0,0,0],"id":15,"left_children":[1,3,5,7,9,11,13,-1,-1,-1,-1,-1,-1,-1,-1],"loss_changes":[1.3013902E-1,1.4140098E-1,4.206793E-2,7.6114126E-2,1.4587633E-1,2.7133465E-2,1.2224731E-3,0E0,0E0,0E0,0E0,0E0,0E0,0E0,0E0],"parents":[2147483647,0,0,1,1,2,2,3,3,4,4,5,5,6,6],"right_children":[2,4,6,8,10,12,14,-1,-1,-1,-1,-1,-1,-1,-1],"split_conditions":[4.7227683E0,8.195426E-1,2.2923615E0,1.913259E-1,-1.1286479E0,6.852403E-1,-1.2252875E-1,7.087463E-5,-1.7030956E-4,8.863165E-4,1.2620163E-4,-1.8690033E-3,-0E0,3.895578E-4,-0E0],"split_indices":[8,11,28,27,23,18,29,0,0,0,0,0,0,0,0],"split_type":[0,0,0,0,0,0,0,0,0,0,0,0,0,0,0],"sum_hessian":[6.14E3,6.069E3,7.1E1,4.878E3,1.191E3,5.9E1,1.2E1,2.925E3,1.953E3,3.24E2,8.67E2,4.9E1,1E1,7E0,5E0],"tree_param":{"num_deleted":"0","num_feature":"30","num_nodes":"15","size_leaf_vector":"1"}},{"base_weights":[3.238902E-4,1.1107137E-3,-2.4861816E-2,2.1797875E-3,-1.8000571E-2,-3.6596198E-2,6.8493867E-3,5.321981E-4,2.6198848E-5,2.5326979E-5,-8.9077296E-4,-1.4108121E-3,-2.4543446E-4,-2.9159206E-4,9.160289E-4],"categories":[],"categories_nodes":[],"categories_segments":[],"categories_sizes":[],"default_left":[0,0,0,0,0,0,0,0,0,0,0,0,0,0,0],"id":16,"left_children":[1,3,5,7,9,11,13,-1,-1,-1,-1,-1,-1,-1,-1],"loss_changes":[1.1368772E-1,1.1584886E-1,7.196767E-2,1.0847999E-1,7.293199E-2,2.5299832E-2,2.1465912E-2,0E0,0E0,0E0,0E0,0E0,0E0,0E0,0E0],"parents":[2147483647,0,0,1,1,2,2,3,3,4,4,5,5,6,6],"right_children":[2,4,6,8,10,12,14,-1,-1,-1,-1,-1,-1,-1,-1],"split_conditions":[2.3711493E0,2E0,1.1611543E0,-1.3227961E0,-3.2641253E-1,8.0031353E-1,-5.599558E-1,5.321981E-4,2.6198848E-5,2.5326979E-5,-8.9077296E-4,-1.4108121E-3,-2.4543446E-4,-2.9159206E-4,9.160289E-4],"split_indices":[24,4,12,2,13,28,21,0,0,0,0,0,0,0,0],"split_type":[0,0,0,0,0,0,0,0,0,0,0,0,0,0,0],"sum_hessian":[6.036E3,5.863E3,1.73E2,5.565E3,2.98E2,1.32E2,4.1E1,4.16E2,5.149E3,1.06E2,1.92E2,9E1,4.2E1,1.8E1,2.3E1],"tree_param":{"num_deleted":"0","num_feature":"30","num_nodes":"15","size_leaf_vector":"1"}},{"base_weights":[-4.4780623E-4,3.3889554E-4,-2.9474601E-2,-1.0572126E-3,2.0545566E-2,-7.11723E-2,-1.8489257E-2,7.107221E-5,-1.8814477E-4,-0E0,9.902151E-4,-0E0,-2.306371E-3,1.0913766E-3,-7.727014E-4],"categories":[],"categories_nodes":[],"categories_segments":[],"categories_sizes":[],"default_left":[0,0,0,0,0,0,0,0,0,0,0,0,0,0,0],"id":17,"left_children":[1,3,5,7,9,11,13,-1,-1,-1,-1,-1,-1,-1,-1],"loss_changes":[1.4562918E-1,1.7104559E-1,5.4324806E-2,9.920894E-2,1.0488504E-1,1.3737172E-2,5.2706413E-2,0E0,0E0,0E0,0E0,0E0,0E0,0E0,0E0],"parents":[2147483647,0,0,1,1,2,2,3,3,4,4,5,5,6,6],"right_children":[2,4,6,8,10,12,14,-1,-1,-1,-1,-1,-1,-1,-1],"split_conditions":[2.3711493E0,1.4672064E0,-6.233476E-1,1.913259E-1,-1.551529E0,-1.0502825E0,-8.5776925E-1,7.107221E-5,-1.8814477E-4,-0E0,9.902151E-4,-0E0,-2.306371E-3,1.0913766E-3,-7.727014E-4],"split_indices":[24,11,12,27,13,27,11,0,0,0,0,0,0,0,0],"split_type":[0,0,0,0,0,0,0,0,0,0,0,0,0,0,0],"sum_hessian":[6.058E3,5.89E3,1.68E2,5.498E3,3.92E2,3E1,1.38E2,3.289E3,2.209E3,1.44E2,2.48E2,2E0,2.8E1,1.2E1,1.26E2],"tree_param":{"num_deleted":"0","num_feature":"30","num_nodes":"15","size_leaf_vector":"1"}},{"base_weights":[-1.6285243E-4,-2.286022E-3,9.343099E-3,1.1724976E-3,-7.4343635E-3,1.2760216E-2,-2.5849372E-2,1.2703789E-4,-2.0101864E-4,-1.7397358E-3,-1.9138806E-4,4.7431592E-4,-7.0560124E-4,-0E0,-1.3622525E-3],"categories":[],"categories_nodes":[],"categories_segments":[],"categories_sizes":[],"default_left":[0,0,0,0,0,0,0,0,0,0,0,0,0,0,0],"id":18,"left_children":[1,3,5,7,9,11,13,-1,-1,-1,-1,-1,-1,-1,-1],"loss_changes":[1.2257184E-1,9.1615215E-2,1.294835E-1,7.162498E-2,9.3731776E-2,1.10187456E-1,3.8515497E-2,0E0,0E0,0E0,0E0,0E0,0E0,0E0,0E0],"parents":[2147483647,0,0,1,1,2,2,3,3,4,4,5,5,6,6],"right_children":[2,4,6,8,10,12,14,-1,-1,-1,-1,-1,-1,-1,-1],"split_conditions":[9.0831167E-1,2.0609231E-1,9.428163E-1,1.0111667E0,-8.7513006E-1,3.791181E0,7.6026154E-1,1.2703789E-4,-2.0101864E-4,-1.7397358E-3,-1.9138806E-4,4.7431592E-4,-7.0560124E-4,-0E0,-1.3622525E-3],"split_indices":[11,27,26,14,11,8,9,0,0,0,0,0,0,0,0],"split_type":[0,0,0,0,0,0,0,0,0,0,0,0,0,0,0],"sum_hessian":[6.16E3,5.057E3,1.103E3,2.996E3,2.061E3,1.012E3,9.1E1,2.18E3,8.16E2,3.7E1,2.024E3,9.4E2,7.2E1,4.3E1,4.8E1],"tree_param":{"num_deleted":"0","num_feature":"30","num_nodes":"15","size_leaf_vector":"1"}},{"base_weights":[-4.6566574E-4,2.0232271E-2,-1.3551395E-3,3.0654492E-2,-1.5054748E-2,-1.4080216E-4,-1.4289926E-2,-7.67011E-5,1.1608001E-3,-1.4582132E-3,2.2250609E-4,1.5520118E-4,-8.6579996E-5,4.1919455E-4,-6.834993E-4],"categories":[],"categories_nodes":[],"categories_segments":[],"categories_sizes":[],"default_left":[0,0,0,0,0,0,0,0,0,0,0,0,0,0,0],"id":19,"left_children":[1,3,5,7,9,11,13,-1,-1,-1,-1,-1,-1,-1,-1],"loss_changes":[1.0735549E-1,9.200409E-2,8.825141E-2,5.9851766E-2,4.752099E-2,7.7688046E-2,1.1852595E-1,0E0,0E0,0E0,0E0,0E0,0E0,0E0,0E0],"parents":[2147483647,0,0,1,1,2,2,3,3,4,4,5,5,6,6],"right_children":[2,4,6,8,10,12,14,-1,-1,-1,-1,-1,-1,-1,-1],"split_conditions":[-2.0268362E0,3.545153E0,6.770033E1,-2.892967E-1,-1.5971479E-1,-2.2693709E-1,-5.2300775E-1,-7.67011E-5,1.1608001E-3,-1.4582132E-3,2.2250609E-4,1.5520118E-4,-8.6579996E-5,4.1919455E-4,-6.834993E-4],"split_indices":[6,8,20,19,26,1,17,0,0,0,0,0,0,0,0],"split_type":[0,0,0,0,0,0,0,0,0,0,0,0,0,0,0],"sum_hessian":[6.087E3,2.39E2,5.848E3,1.9E2,4.9E1,5.364E3,4.84E2,3.1E1,1.59E2,2.4E1,2.5E1,1.796E3,3.568E3,1.05E2,3.79E2],"tree_param":{"num_deleted":"0","num_feature":"30","num_nodes":"15","size_leaf_vector":"1"}},{"base_weights":[6.670583E-4,-1.5438922E-3,1.0960767E-2,1.6323301E-3,-6.5000327E-3,1.8890064E-2,-4.7328463E-3,1.8067125E-4,-4.478083E-5,-1.8628971E-3,-1.5998489E-4,3.906379E-4,1.7318062E-3,-1.6086267E-5,-1.143107E-3],"categories":[],"categories_nodes":[],"categories_segments":[],"categories_sizes":[],"default_left":[0,0,0,0,0,0,0,0,0,0,0,0,0,0,0],"id":20,"left_children":[1,3,5,7,9,11,13,-1,-1,-1,-1,-1,-1,-1,-1],"loss_changes":[1.407609E-1,7.971215E-2,1.3985382E-1,4.2404845E-2,1.1143332E-1,1.5039104E-1,4.0365957E-2,0E0,0E0,0E0,0E0,0E0,0E0,0E0,0E0],"parents":[2147483647,0,0,1,1,2,2,3,3,4,4,5,5,6,6],"right_children":[2,4,6,8,10,12,14,-1,-1,-1,-1,-1,-1,-1,-1],"split_conditions":[9.0831167E-1,2.2687013E-1,1.1888868E0,3.6871575E-2,-8.7513006E-1,8.485259E-1,1.5891829E0,1.8067125E-4,-4.478083E-5,-1.8628971E-3,-1.5998489E-4,3.906379E-4,1.7318062E-3,-1.6086267E-5,-1.143107E-3],"split_indices":[11,27,24,7,11,13,21,0,0,0,0,0,0,0,0],"split_type":[0,0,0,0,0,0,0,0,0,0,0,0,0,0,0],"sum_hessian":[6.081E3,4.986E3,1.095E3,3.008E3,1.978E3,7.38E2,3.57E2,1.284E3,1.724E3,3.6E1,1.942E3,6.47E2,9.1E1,3.24E2,3.3E1],"tree_param":{"num_deleted":"0","num_feature":"30","num_nodes":"15","size_leaf_vector":"1"}},{"base_weights":[-2.0214227E-4,4.2694673E-4,-2.7357584E-2,8.580286E-3,-2.5597264E-3,3.4968043E-3,-4.3082494E-2,8.967339E-4,1.6700075E-4,2.193935E-6,-3.6166311E-4,1.1578496E-3,-4.435462E-4,-1.5918023E-3,2.272814E-4],"categories":[],"categories_nodes":[],"categories_segments":[],"categories_sizes":[],"default_left":[0,0,0,0,0,0,0,0,0,0,0,0,0,0,0],"id":21,"left_children":[1,3,5,7,9,11,13,-1,-1,-1,-1,-1,-1,-1,-1],"loss_changes":[1.12553135E-1,1.4872068E-1,8.234756E-2,9.662714E-2,1.1305581E-1,3.513001E-2,6.416467E-2,0E0,0E0,0E0,0E0,0E0,0E0,0E0,0E0],"parents":[2147483647,0,0,1,1,2,2,3,3,4,4,5,5,6,6],"right_children":[2,4,6,8,10,12,14,-1,-1,-1,-1,-1,-1,-1,-1],"split_conditions":[3.545153E0,-4.482842E-1,7.610208E-1,-1.9565334E0,5.309472E-1,1.9400705E0,2.2923615E0,8.967339E-4,1.6700075E-4,2.193935E-6,-3.6166311E-4,1.1578496E-3,-4.435462E-4,-1.5918023E-3,2.272814E-4],"split_indices":[8,5,16,6,17,20,28,0,0,0,0,0,0,0,0],"split_type":[0,0,0,0,0,0,0,0,0,0,0,0,0,0,0],"sum_hessian":[6.194E3,6.045E3,1.49E2,1.643E3,4.402E3,4.5E1,1.04E2,1.93E2,1.45E3,3.426E3,9.76E2,2E1,2.5E1,9.1E1,1.3E1],"tree_param":{"num_deleted":"0","num_feature":"30","num_nodes":"15","size_leaf_vector":"1"}},{"base_weights":[-0E0,-1.3653196E-3,1.4454443E-2,-0E0,-1.4552377E-2,-1.02795875E-2,2.0823283E-2,8.826874E-5,-1.3577995E-4,-3.0069414E-4,-1.3058572E-3,3.3255818E-4,-8.0087257E-4,1.2928675E-3,9.153036E-5],"categories":[],"categories_nodes":[],"categories_segments":[],"categories_sizes":[],"default_left":[0,0,0,0,0,0,0,0,0,0,0,0,0,0,0],"id":22,"left_children":[1,3,5,7,9,11,13,-1,-1,-1,-1,-1,-1,-1,-1],"loss_changes":[1.1869923E-1,9.890635E-2,8.432784E-2,6.776588E-2,5.425571E-2,3.8435735E-2,1.5477778E-1,0E0,0E0,0E0,0E0,0E0,0E0,0E0,0E0],"parents":[2147483647,0,0,1,1,2,2,3,3,4,4,5,5,6,6],"right_children":[2,4,6,8,10,12,14,-1,-1,-1,-1,-1,-1,-1,-1],"split_conditions":[1.436083E0,1.2073829E0,-2.54327E0,2.0609231E-1,5.780839E-1,5.5209565E-1,8.5859853E-1,8.826874E-5,-1.3577995E-4,-3.0069414E-4,-1.3058572E-3,3.3255818E-4,-8.0087257E-4,1.2928675E-3,9.153036E-5],"split_indices":[11,24,13,27,27,9,24,0,0,0,0,0,0,0,0],"split_type":[0,0,0,0,0,0,0,0,0,0,0,0,0,0,0],"sum_hessian":[6.108E3,5.59E3,5.18E2,5.074E3,5.16E2,9.8E1,4.2E2,3.059E3,2.015E3,4.54E2,6.2E1,3.6E1,6.2E1,1.8E2,2.4E2],"tree_param":{"num_deleted":"0","num_feature":"30","num_nodes":"15","size_leaf_vector":"1"}},{"base_weights":[4.0681576E-4,1.0123355E-3,-3.796099E-2,8.485019E-3,-1.920647E-3,-4.900009E-2,-0E0,1.0040862E-4,6.252864E-4,2.0929045E-4,-1.1503716E-4,-0E0,-1.5833743E-3,-6.457346E-4,2.9129256E-4],"categories":[],"categories_nodes":[],"categories_segments":[],"categories_sizes":[],"default_left":[0,0,0,0,0,0,0,0,0,0,0,0,0,0,0],"id":23,"left_children":[1,3,5,7,9,11,13,-1,-1,-1,-1,-1,-1,-1,-1],"loss_changes":[1.3530742E-1,1.3602532E-1,2.6612252E-2,1.05195105E-1,7.379191E-2,1.6740143E-2,8.031742E-3,0E0,0E0,0E0,0E0,0E0,0E0,0E0,0E0],"parents":[2147483647,0,0,1,1,2,2,3,3,4,4,5,5,6,6],"right_children":[2,4,6,8,10,12,14,-1,-1,-1,-1,-1,-1,-1,-1],"split_conditions":[2.8007545E0,-4.401652E-1,5.290397E-1,9.0831167E-1,-7.426941E-1,-4.4179592E-1,3.3305478E-1,1.0040862E-4,6.252864E-4,2.0929045E-4,-1.1503716E-4,-0E0,-1.5833743E-3,-6.457346E-4,2.9129256E-4],"split_indices":[0,5,29,11,26,16,12,0,0,0,0,0,0,0,0],"split_type":[0,0,0,0,0,0,0,0,0,0,0,0,0,0,0],"sum_hessian":[6.221E3,6.131E3,9E1,1.752E3,4.379E3,6.5E1,2.5E1,1.252E3,5E2,7.52E2,3.627E3,3E0,6.2E1,1.5E1,1E1],"tree_param":{"num_deleted":"0","num_feature":"30","num_nodes":"15","size_leaf_vector":"1"}},{"base_weights":[5.897011E-4,1.8885166E-3,-1.24867335E-2,2.5616316E-3,-2.2269964E-2,-2.1251239E-2,7.2064544E-3,1.06003536E-4,-4.450805E-4,-1.0734611E-3,2.3440263E-4,3.821852E-3,-6.9556676E-4,4.0078725E-4,-0E0],"categories":[],"categories_nodes":[],"categories_segments":[],"categories_sizes":[],"default_left":[0,0,0,0,0,0,0,0,0,0,0,0,0,0,0],"id":24,"left_children":[1,3,5,7,9,11,13,-1,-1,-1,-1,-1,-1,-1,-1],"loss_changes":[1.01233974E-1,8.5846305E-2,9.59342E-2,8.916785E-2,6.447861E-2,8.373162E-2,8.528569E-3,0E0,0E0,0E0,0E0,0E0,0E0,0E0,0E0],"parents":[2147483647,0,0,1,1,2,2,3,3,4,4,5,5,6,6],"right_children":[2,4,6,8,10,12,14,-1,-1,-1,-1,-1,-1,-1,-1],"split_conditions":[2.3910944E0,2.4990501E0,5.4120886E-1,2E0,1.9646566E0,-1.4911529E0,3.2536151E0,1.06003536E-4,-4.450805E-4,-1.0734611E-3,2.3440263E-4,3.821852E-3,-6.9556676E-4,4.0078725E-4,-0E0],"split_indices":[14,24,12,4,11,21,14,0,0,0,0,0,0,0,0],"split_type":[0,0,0,0,0,0,0,0,0,0,0,0,0,0,0],"sum_hessian":[6.116E3,5.581E3,5.35E2,5.44E3,1.41E2,3.79E2,1.56E2,5.166E3,2.74E2,1.03E2,3.8E1,3E0,3.76E2,9.3E1,6.3E1],"tree_param":{"num_deleted":"0","num_feature":"30","num_nodes":"15","size_leaf_vector":"1"}},{"base_weights":[1.5055767E-4,5.293102E-3,-3.1934779E-3,7.814981E-3,-9.308686E-3,-2.8258815E-2,-2.1131109E-3,1.8166749E-4,1.0046388E-3,5.251775E-4,-5.0654623E-4,-1.1989444E-3,1.2592528E-3,-8.743487E-5,7.2837033E-4],"categories":[],"categories_nodes":[],"categories_segments":[],"categories_sizes":[],"default_left":[0,0,0,0,0,0,0,0,0,0,0,0,0,0,0],"id":25,"left_children":[1,3,5,7,9,11,13,-1,-1,-1,-1,-1,-1,-1,-1],"loss_changes":[1.0495271E-1,8.884156E-2,9.123999E-2,8.402617E-2,6.944757E-2,1.1604662E-1,6.889806E-2,0E0,0E0,0E0,0E0,0E0,0E0,0E0,0E0],"parents":[2147483647,0,0,1,1,2,2,3,3,4,4,5,5,6,6],"right_children":[2,4,6,8,10,12,14,-1,-1,-1,-1,-1,-1,-1,-1],"split_conditions":[-1.9349846E-1,5.7541504E1,-1.3204036E0,1.2447832E0,-1.6680206E0,1.5196309E0,1.7005211E0,1.8166749E-4,1.0046388E-3,5.251775E-4,-5.0654623E-4,-1.1989444E-3,1.2592528E-3,-8.743487E-5,7.2837033E-4],"split_indices":[1,20,23,13,2,12,11,0,0,0,0,0,0,0,0],"split_type":[0,0,0,0,0,0,0,0,0,0,0,0,0,0,0],"sum_hessian":[6.072E3,2.422E3,3.65E3,2.08E3,3.42E2,1.41E2,3.509E3,1.956E3,1.24E2,6.8E1,2.74E2,1.24E2,1.7E1,3.415E3,9.4E1],"tree_param":{"num_deleted":"0","num_feature":"30","num_nodes":"15","size_leaf_vector":"1"}},{"base_weights":[5.4709355E-5,3.9929105E-3,-4.1277683E-3,8.75262E-3,-2.9459156E-3,-1.5918653E-3,-1.3402176E-2,3.1818915E-4,-6.9222663E-4,-1.10978646E-4,2.771487E-3,-4.641604E-4,-5.8846467E-6,-6.144645E-4,-1.1805615E-5],"categories":[],"categories_nodes":[],"categories_segments":[],"categories_sizes":[],"default_left":[0,0,0,0,0,0,0,0,0,0,0,0,0,0,0],"id":26,"left_children":[1,3,5,7,9,11,13,-1,-1,-1,-1,-1,-1,-1,-1],"loss_changes":[9.9313766E-2,1.0507145E-1,6.431602E-2,1.0799119E-1,6.806424E-2,4.0527944E-2,5.006265E-2,0E0,0E0,0E0,0E0,0E0,0E0,0E0,0E0],"parents":[2147483647,0,0,1,1,2,2,3,3,4,4,5,5,6,6],"right_children":[2,4,6,8,10,12,14,-1,-1,-1,-1,-1,-1,-1,-1],"split_conditions":[3.6871575E-2,6.768836E-3,-4.628337E-2,3.791181E0,2.6705408E0,-9.052561E-1,4.428293E-1,3.1818915E-4,-6.9222663E-4,-1.10978646E-4,2.771487E-3,-4.641604E-4,-5.8846467E-6,-6.144645E-4,-1.1805615E-5],"split_indices":[7,1,3,8,11,12,28,0,0,0,0,0,0,0,0],"split_type":[0,0,0,0,0,0,0,0,0,0,0,0,0,0,0],"sum_hessian":[6.031E3,3.137E3,2.894E3,1.882E3,1.255E3,2.294E3,6E2,1.786E3,9.6E1,1.248E3,7E0,1.93E2,2.101E3,3.76E2,2.24E2],"tree_param":{"num_deleted":"0","num_feature":"30","num_nodes":"15","size_leaf_vector":"1"}},{"base_weights":[5.075007E-5,5.951921E-4,-3.0405568E-2,-1.735587E-3,8.1939725E-3,-0E0,-3.768699E-2,8.319404E-4,-7.132305E-5,5.518536E-4,4.6708243E-5,-0E0,3.120522E-4,-2.1962589E-4,-1.5785212E-3],"categories":[],"categories_nodes":[],"categories_segments":[],"categories_sizes":[],"default_left":[0,0,0,0,0,0,0,0,0,0,0,0,0,0,0],"id":27,"left_children":[1,3,5,7,9,11,13,-1,-1,-1,-1,-1,-1,-1,-1],"loss_changes":[9.387027E-2,1.0808387E-1,2.6484244E-2,8.021101E-2,9.224662E-2,1.000815E-3,2.2662856E-2,0E0,0E0,0E0,0E0,0E0,0E0,0E0,0E0],"parents":[2147483647,0,0,1,1,2,2,3,3,4,4,5,5,6,6],"right_children":[2,4,6,8,10,12,14,-1,-1,-1,-1,-1,-1,-1,-1],"split_conditions":[2.8007545E0,6.633601E-1,-1.0677142E-1,-1.1655109E0,-8.2545525E-1,5.5156505E-1,-2.0930791E-1,8.319404E-4,-7.132305E-5,5.518536E-4,4.6708243E-5,-0E0,3.120522E-4,-2.1962589E-4,-1.5785212E-3],"split_indices":[0,11,20,21,23,12,12,0,0,0,0,0,0,0,0],"split_type":[0,0,0,0,0,0,0,0,0,0,0,0,0,0,0],"sum_hessian":[6.11E3,6.011E3,9.9E1,4.575E3,1.436E3,1.6E1,8.3E1,8.9E1,4.486E3,5.51E2,8.85E2,7E0,9E0,3.3E1,5E1],"tree_param":{"num_deleted":"0","num_feature":"30","num_nodes":"15","size_leaf_vector":"1"}},{"base_weights":[2.8889318E-4,1.066012E-3,-2.457292E-2,2.168043E-2,1.90269E-4,-3.191313E-2,-0E0,1.323687E-3,-0E0,2.0632907E-4,-5.2780233E-5,-1.614709E-3,-5.8670266E-4,2.1600576E-4,-5.7945354E-4],"categories":[],"categories_nodes":[],"categories_segments":[],"categories_sizes":[],"default_left":[0,0,0,0,0,0,0,0,0,0,0,0,0,0,0],"id":28,"left_children":[1,3,5,7,9,11,13,-1,-1,-1,-1,-1,-1,-1,-1],"loss_changes":[1.1268573E-1,1.0213128E-1,2.8265014E-2,1.020474E-1,7.597917E-2,1.7196372E-2,7.527007E-3,0E0,0E0,0E0,0E0,0E0,0E0,0E0,0E0],"parents":[2147483647,0,0,1,1,2,2,3,3,4,4,5,5,6,6],"right_children":[2,4,6,8,10,12,14,-1,-1,-1,-1,-1,-1,-1,-1],"split_conditions":[2.3711493E0,-2.0268362E0,1.9646566E0,4.0892428E-1,-5.773992E-1,1.7494106E-4,1.5283233E0,1.323687E-3,-0E0,2.0632907E-4,-5.2780233E-5,-1.614709E-3,-5.8670266E-4,2.1600576E-4,-5.7945354E-4],"split_indices":[24,6,11,16,26,6,14,0,0,0,0,0,0,0,0],"split_type":[0,0,0,0,0,0,0,0,0,0,0,0,0,0,0],"sum_hessian":[6.136E3,5.96E3,1.76E2,2.31E2,5.729E3,1.32E2,4.4E1,1.08E2,1.23E2,1.322E3,4.407E3,4E1,9.2E1,2.8E1,1.6E1],"tree_param":{"num_deleted":"0","num_feature":"30","num_nodes":"15","size_leaf_vector":"1"}},{"base_weights":[3.3748694E-4,9.441527E-4,-2.8899858E-2,2.0874666E-2,1.07769534E-4,2.478734E-3,-4.6316247E-2,-1.57039E-5,1.1852912E-3,2.2665152E-5,-5.418489E-4,-7.858677E-5,1.3337418E-3,-1.668353E-3,-0E0],"categories":[],"categories_nodes":[],"categories_segments":[],"categories_sizes":[],"default_left":[0,0,0,0,0,0,0,0,0,0,0,0,0,0,0],"id":29,"left_children":[1,3,5,7,9,11,13,-1,-1,-1,-1,-1,-1,-1,-1],"loss_changes":[1.0088283E-1,9.42085E-2,7.397242E-2,1.0076754E-1,6.321015E-2,1.8247074E-2,4.1067943E-2,0E0,0E0,0E0,0E0,0E0,0E0,0E0,0E0],"parents":[2147483647,0,0,1,1,2,2,3,3,4,4,5,5,6,6],"right_children":[2,4,6,8,10,12,14,-1,-1,-1,-1,-1,-1,-1,-1],"split_conditions":[3.791181E0,-1.9565334E0,7.610208E-1,1.1240253E0,3.3755517E0,1.4243273E0,5.3912807E-1,-1.57039E-5,1.1852912E-3,2.2665152E-5,-5.418489E-4,-7.858677E-5,1.3337418E-3,-1.668353E-3,-0E0],"split_indices":[8,6,16,8,14,12,26,0,0,0,0,0,0,0,0],"split_type":[0,0,0,0,0,0,0,0,0,0,0,0,0,0,0],"sum_hessian":[6.081E3,5.966E3,1.15E2,2.28E2,5.738E3,3.6E1,7.9E1,1E2,1.28E2,5.554E3,1.84E2,2.7E1,9E0,6.8E1,1.1E1],"tree_param":{"num_deleted":"0","num_feature":"30","num_nodes":"15","size_leaf_vector":"1"}},{"base_weights":[-1.311892E-4,7.741973E-4,-1.874252E-2,1.6481927E-2,-1.925437E-4,-1.3691334E-2,-1.0127325E-1,1.1724663E-3,3.4148143E-5,4.3441298E-5,-2.8383505E-4,-2.0844676E-3,-2.872469E-4,-4.702197E-3,-0E0],"categories":[],"categories_nodes":[],"categories_segments":[],"categories_sizes":[],"default_left":[0,0,0,0,0,0,0,0,0,0,0,0,0,0,0],"id":30,"left_children":[1,3,5,7,9,11,13,-1,-1,-1,-1,-1,-1,-1,-1],"loss_changes":[1.0781001E-1,9.266801E-2,9.482924E-2,1.1243059E-1,8.5354514E-2,4.512053E-2,8.109656E-2,0E0,0E0,0E0,0E0,0E0,0E0,0E0,0E0],"parents":[2147483647,0,0,1,1,2,2,3,3,4,4,5,5,6,6],"right_children":[2,4,6,8,10,12,14,-1,-1,-1,-1,-1,-1,-1,-1],"split_conditions":[2E0,-1.4600998E0,9.019557E2,-1.9534482E-1,7.3003155E-1,-4.135839E-1,-5.739672E-1,1.1724663E-3,3.4148143E-5,4.3441298E-5,-2.8383505E-4,-2.0844676E-3,-2.872469E-4,-4.702197E-3,-0E0],"split_indices":[4,2,19,29,17,20,2,0,0,0,0,0,0,0,0],"split_type":[0,0,0,0,0,0,0,0,0,0,0,0,0,0,0],"sum_hessian":[6.131E3,5.834E3,2.97E2,3.53E2,5.481E3,2.83E2,1.4E1,1.36E2,2.17E2,4.634E3,8.47E2,1.5E1,2.68E2,9E0,5E0],"tree_param":{"num_deleted":"0","num_feature":"30","num_nodes":"15","size_leaf_vector":"1"}},{"base_weights":[-3.950331E-4,3.39713E-3,-3.994249E-3,2.395047E-3,3.6398493E-2,-5.015791E-3,2.134811E-2,5.215828E-4,1.7747656E-5,2.0431497E-3,-2.1777536E-4,-9.8085766E-5,-8.480438E-4,2.035996E-3,2.9263285E-4],"categories":[],"categories_nodes":[],"categories_segments":[],"categories_sizes":[],"default_left":[0,0,0,0,0,0,0,0,0,0,0,0,0,0,0],"id":31,"left_children":[1,3,5,7,9,11,13,-1,-1,-1,-1,-1,-1,-1,-1],"loss_changes":[8.348208E-2,8.748111E-2,7.791247E-2,7.283196E-2,1.2503543E-1,1.1606892E-1,4.1507218E-2,0E0,0E0,0E0,0E0,0E0,0E0,0E0,0E0],"parents":[2147483647,0,0,1,1,2,2,3,3,4,4,5,5,6,6],"right_children":[2,4,6,8,10,12,14,-1,-1,-1,-1,-1,-1,-1,-1],"split_conditions":[-3.2073796E-2,1.5787122E0,1.598943E0,-1.5658376E0,4.5039266E-2,1.4271069E0,-9.760631E-1,5.215828E-4,1.7747656E-5,2.0431497E-3,-2.1777536E-4,-9.8085766E-5,-8.480438E-4,2.035996E-3,2.9263285E-4],"split_indices":[1,13,11,2,21,10,17,0,0,0,0,0,0,0,0],"split_type":[0,0,0,0,0,0,0,0,0,0,0,0,0,0,0],"sum_hessian":[6.105E3,2.939E3,3.166E3,2.86E3,7.9E1,3.053E3,1.13E2,2.92E2,2.568E3,4.9E1,3E1,2.85E3,2.03E2,1.8E1,9.5E1],"tree_param":{"num_deleted":"0","num_feature":"30","num_nodes":"15","size_leaf_vector":"1"}},{"base_weights":[-6.2253256E-4,-2.6876372E-4,-6.286403E-2,2.0937188E-2,-1.0816697E-3,-8.499705E-2,-0E0,1.2452282E-3,-0E0,-4.904605E-3,-2.7597396E-5,-0E0,-2.80152E-3,-0E0,1.439552E-4],"categories":[],"categories_nodes":[],"categories_segments":[],"categories_sizes":[],"default_left":[0,0,0,0,0,0,0,0,0,0,0,0,0,0,0],"id":32,"left_children":[1,3,5,7,9,11,13,-1,-1,-1,-1,-1,-1,-1,-1],"loss_changes":[1.1763182E-1,9.897668E-2,6.287405E-2,8.872849E-2,1.11706614E-1,2.033472E-2,9.78591E-5,0E0,0E0,0E0,0E0,0E0,0E0,0E0,0E0],"parents":[2147483647,0,0,1,1,2,2,3,3,4,4,5,5,6,6],"right_children":[2,4,6,8,10,12,14,-1,-1,-1,-1,-1,-1,-1,-1],"split_conditions":[6.013245E0,-2.0268362E0,3.4791198E0,3.5863894E-1,-2.6721456E0,-4.4968194E-1,-3.5002747E0,1.2452282E-3,-0E0,-4.904605E-3,-2.7597396E-5,-0E0,-2.80152E-3,-0E0,1.439552E-4],"split_indices":[8,6,3,16,25,18,0,0,0,0,0,0,0,0,0],"split_type":[0,0,0,0,0,0,0,0,0,0,0,0,0,0,0],"sum_hessian":[6.059E3,6.029E3,3E1,2.11E2,5.818E3,2.5E1,5E0,1.05E2,1.06E2,4E0,5.814E3,2E0,2.3E1,1E0,4E0],"tree_param":{"num_deleted":"0","num_feature":"30","num_nodes":"15","size_leaf_vector":"1"}},{"base_weights":[4.6632672E-4,8.21543E-4,-7.181891E-2,-9.848347E-4,9.213979E-3,-0E0,-8.9089766E-2,5.8226793E-5,-1.5715003E-4,6.745611E-4,2.2251876E-5,-0E0,-2.7689382E-3],"categories":[],"categories_nodes":[],"categories_segments":[],"categories_sizes":[],"default_left":[0,0,0,0,0,0,0,0,0,0,0,0,0],"id":33,"left_children":[1,3,5,7,9,-1,11,-1,-1,-1,-1,-1,-1],"loss_changes":[1.3815624E-1,9.3705006E-2,4.120159E-2,6.2430702E-2,1.17337346E-1,0E0,4.4288784E-3,0E0,0E0,0E0,0E0,0E0,0E0],"parents":[2147483647,0,0,1,1,2,2,3,3,4,4,6,6],"right_children":[2,4,6,8,10,-1,12,-1,-1,-1,-1,-1,-1],"split_conditions":[6.013245E0,8.9443785E-1,-4.493457E0,1.913259E-1,-1.0098463E0,-0E0,-8.711852E-1,5.8226793E-5,-1.5715003E-4,6.745611E-4,2.2251876E-5,-0E0,-2.7689382E-3],"split_indices":[8,11,7,27,7,0,11,0,0,0,0,0,0],"split_type":[0,0,0,0,0,0,0,0,0,0,0,0,0],"sum_hessian":[6.071E3,6.045E3,2.6E1,4.95E3,1.095E3,4E0,2.2E1,2.898E3,2.052E3,4.15E2,6.8E2,1E0,2.1E1],"tree_param":{"num_deleted":"0","num_feature":"30","num_nodes":"13","size_leaf_vector":"1"}},{"base_weights":[5.49896E-5,9.6416514E-4,-1.5888928E-2,1.626351E-3,-2.4029227E-2,-2.9600136E-2,-1.8818306E-3,1.9465786E-4,-5.031384E-5,9.927769E-5,-1.0387099E-3,-1.0898083E-4,-1.3052461E-3,-0E0,-9.1807934E-4],"categories":[],"categories_nodes":[],"categories_segments":[],"categories_sizes":[],"default_left":[0,0,0,0,0,0,0,0,0,0,0,0,0,0,0],"id":34,"left_children":[1,3,5,7,9,11,13,-1,-1,-1,-1,-1,-1,-1,-1],"loss_changes":[8.388901E-2,8.9295894E-2,5.1892452E-2,9.10783E-2,4.7899395E-2,4.1716784E-2,1.37038445E-2,0E0,0E0,0E0,0E0,0E0,0E0,0E0,0E0],"parents":[2147483647,0,0,1,1,2,2,3,3,4,4,5,5,6,6],"right_children":[2,4,6,8,10,12,14,-1,-1,-1,-1,-1,-1,-1,-1],"split_conditions":[3.024813E0,3.545153E0,1.6205034E-1,-1.4628369E-1,6.3621396E-1,-1.9161713E-1,1.1139348E0,1.9465786E-4,-5.031384E-5,9.927769E-5,-1.0387099E-3,-1.0898083E-4,-1.3052461E-3,-0E0,-9.1807934E-4],"split_indices":[14,8,12,7,16,9,26,0,0,0,0,0,0,0,0],"split_type":[0,0,0,0,0,0,0,0,0,0,0,0,0,0,0],"sum_hessian":[6.044E3,5.733E3,3.11E2,5.595E3,1.38E2,1.48E2,1.63E2,2.294E3,3.301E3,3.2E1,1.06E2,5.8E1,9E1,1.48E2,1.5E1],"tree_param":{"num_deleted":"0","num_feature":"30","num_nodes":"15","size_leaf_vector":"1"}},{"base_weights":[-0E0,6.971872E-4,-1.9826358E-2,2.1079208E-3,-9.477669E-3,-9.860945E-3,-5.799345E-2,3.174109E-5,5.323763E-4,-5.7733043E-5,-7.9751346E-4,-1.1578007E-3,-0E0,-1.9727866E-3,-0E0],"categories":[],"categories_nodes":[],"categories_segments":[],"categories_sizes":[],"default_left":[0,0,0,0,0,0,0,0,0,0,0,0,0,0,0],"id":35,"left_children":[1,3,5,7,9,11,13,-1,-1,-1,-1,-1,-1,-1,-1],"loss_changes":[8.3573796E-2,8.360123E-2,6.0960434E-2,8.147677E-2,8.372462E-2,4.6568807E-2,2.2827238E-2,0E0,0E0,0E0,0E0,0E0,0E0,0E0,0E0],"parents":[2147483647,0,0,1,1,2,2,3,3,4,4,5,5,6,6],"right_children":[2,4,6,8,10,12,14,-1,-1,-1,-1,-1,-1,-1,-1],"split_conditions":[2.2553968E0,8.6148465E-1,3.9797002E-1,1.1795733E0,3.5773292E-1,-6.3562463E-3,2.597138E0,3.174109E-5,5.323763E-4,-5.7733043E-5,-7.9751346E-4,-1.1578007E-3,-0E0,-1.9727866E-3,-0E0],"split_indices":[24,17,27,13,27,6,11,0,0,0,0,0,0,0,0],"split_type":[0,0,0,0,0,0,0,0,0,0,0,0,0,0,0],"sum_hessian":[6.157E3,5.952E3,2.05E2,5.249E3,7.03E2,1.68E2,3.7E1,4.934E3,3.15E2,4.98E2,2.05E2,4.2E1,1.26E2,3.4E1,3E0],"tree_param":{"num_deleted":"0","num_feature":"30","num_nodes":"15","size_leaf_vector":"1"}},{"base_weights":[-3.538958E-4,4.6260576E-3,-3.648687E-3,2.763795E-3,2.8462833E-2,4.5608017E-3,-5.658056E-3,1.6159858E-4,-2.9126322E-4,1.2180533E-3,-4.657602E-4,-1.616655E-5,7.3585735E-4,-8.3851024E-5,-4.640385E-4],"categories":[],"categories_nodes":[],"categories_segments":[],"categories_sizes":[],"default_left":[0,0,0,0,0,0,0,0,0,0,0,0,0,0,0],"id":36,"left_children":[1,3,5,7,9,11,13,-1,-1,-1,-1,-1,-1,-1,-1],"loss_changes":[9.995066E-2,9.876597E-2,6.1402183E-2,7.2120495E-2,9.413129E-2,7.77141E-2,7.9716384E-2,0E0,0E0,0E0,0E0,0E0,0E0,0E0,0E0],"parents":[2147483647,0,0,1,1,2,2,3,3,4,4,5,5,6,6],"right_children":[2,4,6,8,10,12,14,-1,-1,-1,-1,-1,-1,-1,-1],"split_conditions":[-1.9349846E-1,1.2117108E0,-6.6868436E-1,1.2480237E0,2.287396E0,6.7026657E-1,3.52251E-1,1.6159858E-4,-2.9126322E-4,1.2180533E-3,-4.657602E-4,-1.616655E-5,7.3585735E-4,-8.3851024E-5,-4.640385E-4],"split_indices":[1,15,26,14,10,19,9,0,0,0,0,0,0,0,0],"split_type":[0,0,0,0,0,0,0,0,0,0,0,0,0,0,0],"sum_hessian":[6.106E3,2.401E3,3.705E3,2.237E3,1.64E2,7.04E2,3.001E3,1.865E3,3.72E2,1.33E2,3.1E1,5.51E2,1.53E2,2.343E3,6.58E2],"tree_param":{"num_deleted":"0","num_feature":"30","num_nodes":"15","size_leaf_vector":"1"}},{"base_weights":[-7.6205615E-5,-1.2532673E-2,8.435636E-4,3.4367677E-2,-1.5463726E-2,2.1319122E-3,-9.654634E-3,2.2911162E-3,-0E0,-3.1081107E-4,-1.0440414E-3,-4.4598567E-4,8.9015724E-5,-6.9961324E-4,-6.533384E-5],"categories":[],"categories_nodes":[],"categories_segments":[],"categories_sizes":[],"default_left":[0,0,0,0,0,0,0,0,0,0,0,0,0,0,0],"id":37,"left_children":[1,3,5,7,9,11,13,-1,-1,-1,-1,-1,-1,-1,-1],"loss_changes":[7.3996015E-2,5.6614235E-2,7.6006755E-2,1.7186161E-2,3.0487359E-2,7.0160314E-2,5.5761937E-2,0E0,0E0,0E0,0E0,0E0,0E0,0E0,0E0],"parents":[2147483647,0,0,1,1,2,2,3,3,4,4,5,5,6,6],"right_children":[2,4,6,8,10,12,14,-1,-1,-1,-1,-1,-1,-1,-1],"split_conditions":[-9.052561E-1,-1.7495066E0,2.218435E0,1.4682922E0,5.265361E-1,-1.2710397E0,-1.1978988E-1,2.2911162E-3,-0E0,-3.1081107E-4,-1.0440414E-3,-4.4598567E-4,8.9015724E-5,-6.9961324E-4,-6.533384E-5],"split_indices":[12,5,14,3,5,22,12,0,0,0,0,0,0,0,0],"split_type":[0,0,0,0,0,0,0,0,0,0,0,0,0,0,0],"sum_hessian":[6.203E3,4.45E2,5.758E3,2.1E1,4.24E2,5.15E3,6.08E2,7E0,1.4E1,3.46E2,7.8E1,2.27E2,4.923E3,2.03E2,4.05E2],"tree_param":{"num_deleted":"0","num_feature":"30","num_nodes":"15","size_leaf_vector":"1"}},{"base_weights":[-7.5053604E-4,7.3791295E-3,-2.4367375E-3,4.908277E-3,3.9130002E-2,9.530442E-5,-9.698852E-3,-1.8577134E-4,2.3129304E-4,1.6992107E-3,-1.1892914E-4,7.107019E-5,-3.5875244E-4,-1.189293E-3,-2.3354676E-4],"categories":[],"categories_nodes":[],"categories_segments":[],"categories_sizes":[],"default_left":[0,0,0,0,0,0,0,0,0,0,0,0,0,0,0],"id":38,"left_children":[1,3,5,7,9,11,13,-1,-1,-1,-1,-1,-1,-1,-1],"loss_changes":[8.213222E-2,6.890434E-2,9.548567E-2,3.0035822E-2,6.321718E-2,9.9788256E-2,6.453453E-2,0E0,0E0,0E0,0E0,0E0,0E0,0E0,0E0],"parents":[2147483647,0,0,1,1,2,2,3,3,4,4,5,5,6,6],"right_children":[2,4,6,8,10,12,14,-1,-1,-1,-1,-1,-1,-1,-1],"split_conditions":[-7.532089E-1,1.4672064E0,4.8149794E-1,-6.540577E-1,2.8777525E0,1.5784632E0,-1.2319593E0,-1.8577134E-4,2.3129304E-4,1.6992107E-3,-1.1892914E-4,7.107019E-5,-3.5875244E-4,-1.189293E-3,-2.3354676E-4],"split_indices":[26,11,1,6,8,14,23,0,0,0,0,0,0,0,0],"split_type":[0,0,0,0,0,0,0,0,0,0,0,0,0,0,0],"sum_hessian":[6.081E3,1.019E3,5.062E3,9.53E2,6.6E1,3.728E3,1.334E3,1.74E2,7.79E2,5.1E1,1.5E1,3.154E3,5.74E2,7.2E1,1.262E3],"tree_param":{"num_deleted":"0","num_feature":"30","num_nodes":"15","size_leaf_vector":"1"}},{"base_weights":[3.024663E-4,1.8431118E-3,-1.0424592E-2,-0E0,1.02081215E-2,2.1127868E-3,-1.70923E-2,-4.962107E-4,2.806648E-5,4.029279E-5,6.8430713E-4,2.4867084E-4,-1.2564326E-3,-7.084434E-4,-9.7866425E-5],"categories":[],"categories_nodes":[],"categories_segments":[],"categories_sizes":[],"default_left":[0,0,0,0,0,0,0,0,0,0,0,0,0,0,0],"id":39,"left_children":[1,3,5,7,9,11,13,-1,-1,-1,-1,-1,-1,-1,-1],"loss_changes":[9.834526E-2,8.328727E-2,6.588632E-2,6.9065474E-2,1.0268367E-1,5.8327314E-2,3.8206875E-2,0E0,0E0,0E0,0E0,0E0,0E0,0E0,0E0],"parents":[2147483647,0,0,1,1,2,2,3,3,4,4,5,5,6,6],"right_children":[2,4,6,8,10,12,14,-1,-1,-1,-1,-1,-1,-1,-1],"split_conditions":[8.413231E-1,9.0831167E-1,-3.6420098E-1,-1.4614297E0,1.4334494E-1,8.824003E1,2.2343263E-1,-4.962107E-4,2.806648E-5,4.029279E-5,6.8430713E-4,2.4867084E-4,-1.2564326E-3,-7.084434E-4,-9.7866425E-5],"split_indices":[17,11,25,5,13,19,12,0,0,0,0,0,0,0,0],"split_type":[0,0,0,0,0,0,0,0,0,0,0,0,0,0,0],"sum_hessian":[6.08E3,5.337E3,7.43E2,4.364E3,9.73E2,2.45E2,4.98E2,2.39E2,4.125E3,5.83E2,3.9E2,2.2E2,2.5E1,3.26E2,1.72E2],"tree_param":{"num_deleted":"0","num_feature":"30","num_nodes":"15","size_leaf_vector":"1"}},{"base_weights":[-1.9194693E-5,7.038215E-3,-2.4685822E-3,1.0295315E-2,-5.2684895E-3,6.2341504E-3,-4.1697496E-3,4.8350176E-4,-3.1227962E-6,8.5698855E-5,-9.799844E-4,1.0158616E-4,1.1917457E-3,-7.714379E-5,-5.1091827E-4],"categories":[],"categories_nodes":[],"categories_segments":[],"categories_sizes":[],"default_left":[0,0,0,0,0,0,0,0,0,0,0,0,0,0,0],"id":40,"left_children":[1,3,5,7,9,11,13,-1,-1,-1,-1,-1,-1,-1,-1],"loss_changes":[1.0550564E-1,6.393184E-2,6.768502E-2,7.981381E-2,7.676282E-2,5.8744248E-2,7.478688E-2,0E0,0E0,0E0,0E0,0E0,0E0,0E0,0E0],"parents":[2147483647,0,0,1,1,2,2,3,3,4,4,5,5,6,6],"right_children":[2,4,6,8,10,12,14,-1,-1,-1,-1,-1,-1,-1,-1],"split_conditions":[-5.068044E-1,6.779123E1,-7.426941E-1,-7.9727106E-2,5.85399E-1,6.4409814E0,1.2338504E0,4.8350176E-4,-3.1227962E-6,8.5698855E-5,-9.799844E-4,1.0158616E-4,1.1917457E-3,-7.714379E-5,-5.1091827E-4],"split_indices":[1,19,26,25,0,19,8,0,0,0,0,0,0,0,0],"split_type":[0,0,0,0,0,0,0,0,0,0,0,0,0,0,0],"sum_hessian":[6.169E3,1.563E3,4.606E3,1.252E3,3.11E2,7.29E2,3.877E3,8.18E2,4.34E2,2.33E2,7.8E1,6.79E2,5E1,3.466E3,4.11E2],"tree_param":{"num_deleted":"0","num_feature":"30","num_nodes":"15","size_leaf_vector":"1"}},{"base_weights":[-6.4342294E-4,1.1520309E-4,-1.661423E-2,7.0197764E-4,-2.2805842E-2,-8.5678145E-2,-1.1649606E-2,4.979506E-6,9.3907904E-4,-0E0,-1.0390785E-3,-6.852915E-3,-4.1985358E-4,-1.4764606E-3,-1.650083E-4],"categories":[],"categories_nodes":[],"categories_segments":[],"categories_sizes":[],"default_left":[0,0,0,0,0,0,0,0,0,0,0,0,0,0,0],"id":41,"left_children":[1,3,5,7,9,11,13,-1,-1,-1,-1,-1,-1,-1,-1],"loss_changes":[7.848335E-2,7.30802E-2,7.5967036E-2,8.577336E-2,4.2722523E-2,1.0487933E-1,5.029932E-2,0E0,0E0,0E0,0E0,0E0,0E0,0E0,0E0],"parents":[2147483647,0,0,1,1,2,2,3,3,4,4,5,5,6,6],"right_children":[2,4,6,8,10,12,14,-1,-1,-1,-1,-1,-1,-1,-1],"split_conditions":[2E0,2.620255E0,-4.1732576E-1,1.7260032E0,-4.4769105E-1,-2.0213424E-1,-8.6791885E-1,4.979506E-6,9.3907904E-4,-0E0,-1.0390785E-3,-6.852915E-3,-4.1985358E-4,-1.4764606E-3,-1.650083E-4],"split_indices":[4,24,20,13,27,13,11,0,0,0,0,0,0,0,0],"split_type":[0,0,0,0,0,0,0,0,0,0,0,0,0,0,0],"sum_hessian":[6.137E3,5.844E3,2.93E2,5.709E3,1.35E2,1.6E1,2.77E2,5.619E3,9E1,4.1E1,9.4E1,4E0,1.2E1,3.3E1,2.44E2],"tree_param":{"num_deleted":"0","num_feature":"30","num_nodes":"15","size_leaf_vector":"1"}},{"base_weights":[-3.0890917E-6,3.6539312E-3,-4.042269E-3,4.661474E-3,-2.1667283E-2,-1.4521263E-2,-1.3664439E-3,9.120495E-5,7.9537695E-4,-3.921503E-4,-2.1348167E-3,3.0940314E-4,-5.9932395E-4,2.0796501E-4,-9.903347E-5],"categories":[],"categories_nodes":[],"categories_segments":[],"categories_sizes":[],"default_left":[0,0,0,0,0,0,0,0,0,0,0,0,0,0,0],"id":42,"left_children":[1,3,5,7,9,11,13,-1,-1,-1,-1,-1,-1,-1,-1],"loss_changes":[9.051998E-2,7.690898E-2,7.849563E-2,1.0129166E-1,2.6463311E-2,8.0957726E-2,3.7024092E-2,0E0,0E0,0E0,0E0,0E0,0E0,0E0,0E0],"parents":[2147483647,0,0,1,1,2,2,3,3,4,4,5,5,6,6],"right_children":[2,4,6,8,10,12,14,-1,-1,-1,-1,-1,-1,-1,-1],"split_conditions":[3.6871575E-2,3.791181E0,-1.2327547E-1,9.949161E-1,1.5784632E0,-7.26358E-1,-7.426941E-1,9.120495E-5,7.9537695E-4,-3.921503E-4,-2.1348167E-3,3.0940314E-4,-5.9932395E-4,2.0796501E-4,-9.903347E-5],"split_indices":[7,8,6,13,14,17,26,0,0,0,0,0,0,0,0],"split_type":[0,0,0,0,0,0,0,0,0,0,0,0,0,0,0],"sum_hessian":[6.121E3,3.18E3,2.941E3,3.068E3,1.12E2,5.79E2,2.362E3,2.867E3,2.01E2,1E2,1.2E1,9.6E1,4.83E2,4.22E2,1.94E3],"tree_param":{"num_deleted":"0","num_feature":"30","num_nodes":"15","size_leaf_vector":"1"}},{"base_weights":[2.4054163E-4,1.436701E-3,-1.0795312E-2,8.0350395E-3,-8.793538E-4,1.0476351E-2,-2.2541873E-2,3.231201E-4,-3.152003E-4,1.0457316E-5,-3.1896972E-4,-1.4600279E-4,8.0633967E-4,-1.0863947E-3,7.183746E-6],"categories":[],"categories_nodes":[],"categories_segments":[],"categories_sizes":[],"default_left":[0,0,0,0,0,0,0,0,0,0,0,0,0,0,0],"id":43,"left_children":[1,3,5,7,9,11,13,-1,-1,-1,-1,-1,-1,-1,-1],"loss_changes":[7.807262E-2,8.6090654E-2,1.468125E-1,7.421367E-2,5.1137432E-2,5.5173896E-2,1.2680155E-1,0E0,0E0,0E0,0E0,0E0,0E0,0E0,0E0],"parents":[2147483647,0,0,1,1,2,2,3,3,4,4,5,5,6,6],"right_children":[2,4,6,8,10,12,14,-1,-1,-1,-1,-1,-1,-1,-1],"split_conditions":[6.770033E1,-4.5865223E-1,-2.5667697E-1,2.4273806E0,8.413231E-1,-2.5658214E-1,5.635371E-1,3.231201E-4,-3.152003E-4,1.0457316E-5,-3.1896972E-4,-1.4600279E-4,8.0633967E-4,-1.0863947E-3,7.183746E-6],"split_indices":[20,5,17,16,17,16,29,0,0,0,0,0,0,0,0],"split_type":[0,0,0,0,0,0,0,0,0,0,0,0,0,0,0],"sum_hessian":[6.091E3,5.516E3,5.75E2,1.461E3,4.055E3,1.97E2,3.78E2,1.285E3,1.76E2,3.579E3,4.76E2,9.4E1,1.03E2,2.43E2,1.35E2],"tree_param":{"num_deleted":"0","num_feature":"30","num_nodes":"15","size_leaf_vector":"1"}},{"base_weights":[1.027896E-4,7.621753E-4,-2.5489653E-2,2.4164805E-2,-1.1409128E-4,1.7038062E-3,-3.872054E-2,-0E0,1.3051091E-3,9.329103E-6,-7.6509273E-4,-1.6785783E-4,8.0568023E-4,-1.670384E-3,-0E0],"categories":[],"categories_nodes":[],"categories_segments":[],"categories_sizes":[],"default_left":[0,0,0,0,0,0,0,0,0,0,0,0,0,0,0],"id":44,"left_children":[1,3,5,7,9,11,13,-1,-1,-1,-1,-1,-1,-1,-1],"loss_changes":[9.914589E-2,1.3098781E-1,6.2250294E-2,1.0637741E-1,6.9586314E-2,1.3109331E-2,7.2390795E-2,0E0,0E0,0E0,0E0,0E0,0E0,0E0,0E0],"parents":[2147483647,0,0,1,1,2,2,3,3,4,4,5,5,6,6],"right_children":[2,4,6,8,10,12,14,-1,-1,-1,-1,-1,-1,-1,-1],"split_conditions":[3.545153E0,-1.9565334E0,6.3621396E-1,1.0975444E0,1.3699929E0,1.3636453E0,1.7151996E0,-0E0,1.3051091E-3,9.329103E-6,-7.6509273E-4,-1.6785783E-4,8.0568023E-4,-1.670384E-3,-0E0],"split_indices":[8,6,16,8,27,21,28,0,0,0,0,0,0,0,0],"split_type":[0,0,0,0,0,0,0,0,0,0,0,0,0,0,0],"sum_hessian":[6.241E3,6.094E3,1.47E2,2.3E2,5.864E3,4.2E1,1.05E2,1.03E2,1.27E2,5.758E3,1.06E2,2.5E1,1.7E1,7.4E1,3.1E1],"tree_param":{"num_deleted":"0","num_feature":"30","num_nodes":"15","size_leaf_vector":"1"}},{"base_weights":[2.0918302E-4,7.6337246E-4,-3.5474993E-2,1.8498024E-2,-0E0,-4.0170126E-2,-0E0,-1.2448529E-3,7.477111E-4,-2.3644208E-3,4.4752237E-6,-0E0,-1.3194236E-3],"categories":[],"categories_nodes":[],"categories_segments":[],"categories_sizes":[],"default_left":[0,0,0,0,0,0,0,0,0,0,0,0,0],"id":45,"left_children":[1,3,5,7,9,11,-1,-1,-1,-1,-1,-1,-1],"loss_changes":[1.1048296E-1,8.114163E-2,1.091405E-2,9.1429755E-2,7.0007525E-2,1.1883251E-2,0E0,0E0,0E0,0E0,0E0,0E0,0E0],"parents":[2147483647,0,0,1,1,2,2,3,3,4,4,5,5],"right_children":[2,4,6,8,10,12,-1,-1,-1,-1,-1,-1,-1],"split_conditions":[2.8007545E0,-1.722486E0,9.7313523E-1,-1.5986615E0,-3.184191E0,-1.9929918E0,-0E0,-1.2448529E-3,7.477111E-4,-2.3644208E-3,4.4752237E-6,-0E0,-1.3194236E-3],"split_indices":[0,2,23,22,23,1,0,0,0,0,0,0,0],"split_type":[0,0,0,0,0,0,0,0,0,0,0,0,0],"sum_hessian":[6.025E3,5.94E3,8.5E1,2.47E2,5.693E3,7.3E1,1.2E1,2E1,2.27E2,1.1E1,5.682E3,6E0,6.7E1],"tree_param":{"num_deleted":"0","num_feature":"30","num_nodes":"13","size_leaf_vector":"1"}},{"base_weights":[-0E0,4.596367E-3,-2.9853177E-3,5.9197983E-3,-2.6124863E-2,-8.2143047E-4,-1.5185638E-2,1.2721748E-4,1.3724774E-3,-1.2903126E-3,-0E0,2.923844E-4,-9.430293E-5,-3.830416E-4,-2.5946002E-3],"categories":[],"categories_nodes":[],"categories_segments":[],"categories_sizes":[],"default_left":[0,0,0,0,0,0,0,0,0,0,0,0,0,0,0],"id":46,"left_children":[1,3,5,7,9,11,13,-1,-1,-1,-1,-1,-1,-1,-1],"loss_changes":[8.357824E-2,9.2453435E-2,9.3550146E-2,1.4170119E-1,3.9927866E-2,7.580479E-2,6.7864165E-2,0E0,0E0,0E0,0E0,0E0,0E0,0E0,0E0],"parents":[2147483647,0,0,1,1,2,2,3,3,4,4,5,5,6,6],"right_children":[2,4,6,8,10,12,14,-1,-1,-1,-1,-1,-1,-1,-1],"split_conditions":[-1.9349846E-1,3.791181E0,7.189503E-1,1.3842211E0,1.3604778E-1,-7.426941E-1,2.3017502E2,1.2721748E-4,1.3724774E-3,-1.2903126E-3,-0E0,2.923844E-4,-9.430293E-5,-3.830416E-4,-2.5946002E-3],"split_indices":[1,8,17,13,26,26,19,0,0,0,0,0,0,0,0],"split_type":[0,0,0,0,0,0,0,0,0,0,0,0,0,0,0],"sum_hessian":[6.092E3,2.397E3,3.695E3,2.306E3,9.1E1,3.156E3,5.39E2,2.219E3,8.7E1,5.5E1,3.6E1,5.49E2,2.607E3,5.25E2,1.4E1],"tree_param":{"num_deleted":"0","num_feature":"30","num_nodes":"15","size_leaf_vector":"1"}},{"base_weights":[2.4871406E-4,4.272932E-3,-2.8223728E-3,5.745675E-3,-1.7381435E-2,2.0902537E-4,-1.2237432E-2,1.2096347E-4,8.434729E-4,2.583472E-5,-9.052921E-4,-8.21118E-4,3.9613198E-5,-2.4158134E-4,-1.1659246E-3],"categories":[],"categories_nodes":[],"categories_segments":[],"categories_sizes":[],"default_left":[0,0,0,0,0,0,0,0,0,0,0,0,0,0,0],"id":47,"left_children":[1,3,5,7,9,11,13,-1,-1,-1,-1,-1,-1,-1,-1],"loss_changes":[7.6028846E-2,8.275219E-2,1.01109594E-1,8.873376E-2,4.473981E-2,7.258735E-2,8.371197E-2,0E0,0E0,0E0,0E0,0E0,0E0,0E0,0E0],"parents":[2147483647,0,0,1,1,2,2,3,3,4,4,5,5,6,6],"right_children":[2,4,6,8,10,12,14,-1,-1,-1,-1,-1,-1,-1,-1],"split_conditions":[-1.2204162E-1,3.3730028E0,4.0809894E-1,1.0710338E0,8.5558647E-1,-8.357152E-1,8.2807624E-1,1.2096347E-4,8.434729E-4,2.583472E-5,-9.052921E-4,-8.21118E-4,3.9613198E-5,-2.4158134E-4,-1.1659246E-3],"split_indices":[7,8,27,13,16,6,17,0,0,0,0,0,0,0,0],"split_type":[0,0,0,0,0,0,0,0,0,0,0,0,0,0,0],"sum_hessian":[6.122E3,2.685E3,3.437E3,2.525E3,1.6E2,2.58E3,8.57E2,2.356E3,1.69E2,5.8E1,1.02E2,9.1E1,2.489E3,7.49E2,1.08E2],"tree_param":{"num_deleted":"0","num_feature":"30","num_nodes":"15","size_leaf_vector":"1"}},{"base_weights":[2.7639885E-4,2.5989728E-3,-5.955893E-3,3.2376624E-3,-1.8764809E-2,-8.581929E-3,1.1537308E-2,1.9933554E-4,-2.8801827E-5,-0E0,-9.813067E-4,2.1864718E-3,-2.7334742E-4,2.0633608E-3,1.849507E-4],"categories":[],"categories_nodes":[],"categories_segments":[],"categories_sizes":[],"default_left":[0,0,0,0,0,0,0,0,0,0,0,0,0,0,0],"id":48,"left_children":[1,3,5,7,9,11,13,-1,-1,-1,-1,-1,-1,-1,-1],"loss_changes":[8.795765E-2,5.7511233E-2,7.445158E-2,6.4050525E-2,3.5314444E-2,4.6151236E-2,4.3045867E-2,0E0,0E0,0E0,0E0,0E0,0E0,0E0,0E0],"parents":[2147483647,0,0,1,1,2,2,3,3,4,4,5,5,6,6],"right_children":[2,4,6,8,10,12,14,-1,-1,-1,-1,-1,-1,-1,-1],"split_conditions":[4.5405498E-1,3.545153E0,1.0605658E0,3.6871575E-2,2.799297E-1,-1.4911529E0,-1.1485598E0,1.9933554E-4,-2.8801827E-5,-0E0,-9.813067E-4,2.1864718E-3,-2.7334742E-4,2.0633608E-3,1.849507E-4],"split_indices":[1,8,12,7,14,21,23,0,0,0,0,0,0,0,0],"split_type":[0,0,0,0,0,0,0,0,0,0,0,0,0,0,0],"sum_hessian":[6.134E3,4.498E3,1.636E3,4.379E3,1.19E2,1.435E3,2.01E2,2.45E3,1.929E3,4.7E1,7.2E1,6E0,1.429E3,1.3E1,1.88E2],"tree_param":{"num_deleted":"0","num_feature":"30","num_nodes":"15","size_leaf_vector":"1"}},{"base_weights":[-7.489166E-5,1.051393E-3,-9.988292E-3,-1.2015272E-3,6.6456706E-3,6.675899E-3,-1.4713529E-2,1.7450275E-5,-4.6707233E-4,3.3894044E-5,6.082612E-4,3.5780462E-4,-4.5850023E-4,-7.2684325E-4,-2.7068015E-4],"categories":[],"categories_nodes":[],"categories_segments":[],"categories_sizes":[],"default_left":[0,0,0,0,0,0,0,0,0,0,0,0,0,0,0],"id":49,"left_children":[1,3,5,7,9,11,13,-1,-1,-1,-1,-1,-1,-1,-1],"loss_changes":[7.048202E-2,7.02567E-2,5.292114E-2,1.02777824E-1,1.1502442E-1,1.4340384E-2,1.9531444E-2,0E0,0E0,0E0,0E0,0E0,0E0,0E0,0E0],"parents":[2147483647,0,0,1,1,2,2,3,3,4,4,5,5,6,6],"right_children":[2,4,6,8,10,12,14,-1,-1,-1,-1,-1,-1,-1,-1],"split_conditions":[7.120824E-1,5.2270335E-1,-7.426941E-1,1.0703754E0,3.4912476E-1,5.487621E-1,-1.9242516E-1,1.7450275E-5,-4.6707233E-4,3.3894044E-5,6.082612E-4,3.5780462E-4,-4.5850023E-4,-7.2684325E-4,-2.7068015E-4],"split_indices":[7,11,26,10,13,17,29,0,0,0,0,0,0,0,0],"split_type":[0,0,0,0,0,0,0,0,0,0,0,0,0,0,0],"sum_hessian":[6.112E3,5.466E3,6.46E2,3.865E3,1.601E3,1.31E2,5.15E2,3.423E3,4.42E2,1.153E3,4.48E2,1.15E2,1.6E1,1.76E2,3.39E2],"tree_param":{"num_deleted":"0","num_feature":"30","num_nodes":"15","size_leaf_vector":"1"}},{"base_weights":[5.448948E-4,9.766537E-4,-3.1919423E-2,-0E0,1.288286E-2,8.165149E-3,-4.0082388E-2,4.3127337E-5,-2.043228E-4,-1.8271075E-3,4.6880174E-4,-0E0,6.089231E-4,-1.4092552E-3,-0E0],"categories":[],"categories_nodes":[],"categories_segments":[],"categories_sizes":[],"default_left":[0,0,0,0,0,0,0,0,0,0,0,0,0,0,0],"id":50,"left_children":[1,3,5,7,9,11,13,-1,-1,-1,-1,-1,-1,-1,-1],"loss_changes":[7.7539556E-2,7.0487E-2,3.1701967E-2,5.460923E-2,8.189849E-2,8.5559936E-4,1.9294523E-2,0E0,0E0,0E0,0E0,0E0,0E0,0E0,0E0],"parents":[2147483647,0,0,1,1,2,2,3,3,4,4,5,5,6,6],"right_children":[2,4,6,8,10,12,14,-1,-1,-1,-1,-1,-1,-1,-1],"split_conditions":[2.2734585E0,1.436083E0,-9.486328E-1,1.4445311E0,-3.5114E-1,8.521743E-1,2.7729053E2,4.3127337E-5,-2.043228E-4,-1.8271075E-3,4.6880174E-4,-0E0,6.089231E-4,-1.4092552E-3,-0E0],"split_indices":[25,11,18,14,19,12,19,0,0,0,0,0,0,0,0],"split_type":[0,0,0,0,0,0,0,0,0,0,0,0,0,0,0],"sum_hessian":[6.083E3,6.011E3,7.2E1,5.552E3,4.59E2,7E0,6.5E1,4.579E3,9.73E2,1.3E1,4.46E2,4E0,3E0,5.6E1,9E0],"tree_param":{"num_deleted":"0","num_feature":"30","num_nodes":"15","size_leaf_vector":"1"}},{"base_weights":[-4.422688E-4,2.6066686E-4,-2.5234282E-2,-2.536282E-3,4.2643384E-3,-3.7682135E-2,-1.1105724E-2,-4.028133E-4,-3.0215406E-5,7.130664E-5,6.552281E-4,-1.3991069E-3,-0E0,2.0332169E-4,-6.791126E-4],"categories":[],"categories_nodes":[],"categories_segments":[],"categories_sizes":[],"default_left":[0,0,0,0,0,0,0,0,0,0,0,0,0,0,0],"id":51,"left_children":[1,3,5,7,9,11,13,-1,-1,-1,-1,-1,-1,-1,-1],"loss_changes":[1.1271211E-1,6.685324E-2,1.9047283E-2,5.3928964E-2,7.608205E-2,2.7393594E-2,2.3232985E-2,0E0,0E0,0E0,0E0,0E0,0E0,0E0,0E0],"parents":[2147483647,0,0,1,1,2,2,3,3,4,4,5,5,6,6],"right_children":[2,4,6,8,10,12,14,-1,-1,-1,-1,-1,-1,-1,-1],"split_conditions":[2.3711493E0,1.18018456E-1,5.1088566E-1,-8.412034E-1,1.4672064E0,1.9323936E2,-3.541605E-1,-4.028133E-4,-3.0215406E-5,7.130664E-5,6.552281E-4,-1.3991069E-3,-0E0,2.0332169E-4,-6.791126E-4],"split_indices":[24,20,12,22,11,20,27,0,0,0,0,0,0,0,0],"split_type":[0,0,0,0,0,0,0,0,0,0,0,0,0,0,0],"sum_hessian":[6.109E3,5.931E3,1.78E2,3.455E3,2.476E3,8.5E1,9.3E1,4.05E2,3.05E3,2.249E3,2.27E2,6.8E1,1.7E1,2.8E1,6.5E1],"tree_param":{"num_deleted":"0","num_feature":"30","num_nodes":"15","size_leaf_vector":"1"}},{"base_weights":[-0E0,1.8086268E-3,-7.813212E-3,4.169283E-3,-4.2442037E-3,-2.01699E-2,-1.4524962E-4,1.4526621E-4,-5.24974E-4,3.9989955E-4,-2.4017096E-4,6.7452784E-5,-8.362166E-4,4.5779223E-5,-1.3286185E-3],"categories":[],"categories_nodes":[],"categories_segments":[],"categories_sizes":[],"default_left":[0,0,0,0,0,0,0,0,0,0,0,0,0,0,0],"id":52,"left_children":[1,3,5,7,9,11,13,-1,-1,-1,-1,-1,-1,-1,-1],"loss_changes":[8.745354E-2,7.020371E-2,1.0570766E-1,4.8842598E-2,8.788808E-2,8.159427E-2,6.487374E-2,0E0,0E0,0E0,0E0,0E0,0E0,0E0,0E0],"parents":[2147483647,0,0,1,1,2,2,3,3,4,4,5,5,6,6],"right_children":[2,4,6,8,10,12,14,-1,-1,-1,-1,-1,-1,-1,-1],"split_conditions":[1.3941462E0,4.0676042E-1,-1.6534102E-1,3.791181E0,-7.426941E-1,-4.1147646E-1,2.8777525E0,1.4526621E-4,-5.24974E-4,3.9989955E-4,-2.4017096E-4,6.7452784E-5,-8.362166E-4,4.5779223E-5,-1.3286185E-3],"split_indices":[14,1,16,8,26,3,8,0,0,0,0,0,0,0,0],"split_type":[0,0,0,0,0,0,0,0,0,0,0,0,0,0,0],"sum_hessian":[6.083E3,4.914E3,1.169E3,3.565E3,1.349E3,4.35E2,7.34E2,3.469E3,9.6E1,2.26E2,1.123E3,1.03E2,3.32E2,7.02E2,3.2E1],"tree_param":{"num_deleted":"0","num_feature":"30","num_nodes":"15","size_leaf_vector":"1"}},{"base_weights":[-2.7940626E-4,3.2226776E-4,-1.9970292E-2,1.1627574E-3,-1.4768603E-2,-3.215243E-2,-4.0486357E-3,8.789928E-6,4.6451858E-4,-1.822389E-4,-1.595696E-3,-0E0,-1.1745231E-3,3.1001505E-4,-6.6955737E-4],"categories":[],"categories_nodes":[],"categories_segments":[],"categories_sizes":[],"default_left":[0,0,0,0,0,0,0,0,0,0,0,0,0,0,0],"id":53,"left_children":[1,3,5,7,9,11,13,-1,-1,-1,-1,-1,-1,-1,-1],"loss_changes":[7.840658E-2,7.279712E-2,2.8981797E-2,6.713169E-2,8.573067E-2,2.8031431E-2,2.7819626E-2,0E0,0E0,0E0,0E0,0E0,0E0,0E0,0E0],"parents":[2147483647,0,0,1,1,2,2,3,3,4,4,5,5,6,6],"right_children":[2,4,6,8,10,12,14,-1,-1,-1,-1,-1,-1,-1,-1],"split_conditions":[2.2553968E0,2E0,5.842805E-1,1.2117108E0,6.779123E1,-7.6372474E-1,4.276745E-1,8.789928E-6,4.6451858E-4,-1.822389E-4,-1.595696E-3,-0E0,-1.1745231E-3,3.1001505E-4,-6.6955737E-4],"split_indices":[24,4,12,13,19,26,7,0,0,0,0,0,0,0,0],"split_type":[0,0,0,0,0,0,0,0,0,0,0,0,0,0,0],"sum_hessian":[6.203E3,6.007E3,1.96E2,5.706E3,3.01E2,1.02E2,9.4E1,5.396E3,3.1E2,2.51E2,5E1,1.5E1,8.7E1,4.5E1,4.9E1],"tree_param":{"num_deleted":"0","num_feature":"30","num_nodes":"15","size_leaf_vector":"1"}},{"base_weights":[-2.4521904E-4,1.5540555E-3,-8.307174E-3,-1.3607879E-3,7.3121036E-3,-2.3620248E-2,1.9840627E-4,1.6415963E-5,-3.0474624E-4,3.4472786E-4,-1.735772E-4,-2.8699305E-4,-1.2033654E-3,6.773665E-5,-1.7602727E-3],"categories":[],"categories_nodes":[],"categories_segments":[],"categories_sizes":[],"default_left":[0,0,0,0,0,0,0,0,0,0,0,0,0,0,0],"id":54,"left_children":[1,3,5,7,9,11,13,-1,-1,-1,-1,-1,-1,-1,-1],"loss_changes":[9.000565E-2,8.4607944E-2,1.538493E-1,5.711183E-2,9.412174E-2,8.396058E-2,7.325916E-2,0E0,0E0,0E0,0E0,0E0,0E0,0E0,0E0],"parents":[2147483647,0,0,1,1,2,2,3,3,4,4,5,5,6,6],"right_children":[2,4,6,8,10,12,14,-1,-1,-1,-1,-1,-1,-1,-1],"split_conditions":[1.4445311E0,2.3451051E-1,-1.6035317E-1,5.998733E-1,6.770033E1,5.9416735E-1,3.791181E0,1.6415963E-5,-3.0474624E-4,3.4472786E-4,-1.735772E-4,-2.8699305E-4,-1.2033654E-3,6.773665E-5,-1.7602727E-3],"split_indices":[14,19,16,1,20,19,8,0,0,0,0,0,0,0,0],"split_type":[0,0,0,0,0,0,0,0,0,0,0,0,0,0,0],"sum_hessian":[6.088E3,4.952E3,1.136E3,3.259E3,1.693E3,4.16E2,7.2E2,2.655E3,6.04E2,1.298E3,3.95E2,2.33E2,1.83E2,7E2,2E1],"tree_param":{"num_deleted":"0","num_feature":"30","num_nodes":"15","size_leaf_vector":"1"}},{"base_weights":[-1.3369111E-4,3.2756504E-4,-1.6378313E-2,-5.80817E-3,1.981671E-3,-3.6247473E-2,-1.4587428E-3,-5.680875E-5,-7.6308975E-4,-2.8629503E-7,3.1895057E-4,-1.3606653E-3,-0E0,2.6673294E-4,-3.8813706E-4],"categories":[],"categories_nodes":[],"categories_segments":[],"categories_sizes":[],"default_left":[0,0,0,0,0,0,0,0,0,0,0,0,0,0,0],"id":55,"left_children":[1,3,5,7,9,11,13,-1,-1,-1,-1,-1,-1,-1,-1],"loss_changes":[5.022481E-2,5.976104E-2,4.5475613E-2,8.829678E-2,8.437068E-2,3.5185218E-2,1.4495405E-2,0E0,0E0,0E0,0E0,0E0,0E0,0E0,0E0],"parents":[2147483647,0,0,1,1,2,2,3,3,4,4,5,5,6,6],"right_children":[2,4,6,8,10,12,14,-1,-1,-1,-1,-1,-1,-1,-1],"split_conditions":[2.3711493E0,-3.028953E-1,2.8684714E-1,3.6578894E-1,5.857047E-1,1.9323936E2,4.3982407E-1,-5.680875E-5,-7.6308975E-4,-2.8629503E-7,3.1895057E-4,-1.3606653E-3,-0E0,2.6673294E-4,-3.8813706E-4],"split_indices":[24,19,28,9,13,20,29,0,0,0,0,0,0,0,0],"split_type":[0,0,0,0,0,0,0,0,0,0,0,0,0,0,0],"sum_hessian":[6.167E3,5.982E3,1.85E2,1.238E3,4.744E3,7.2E1,1.13E2,1.043E3,1.95E2,3.833E3,9.11E2,6.3E1,9E0,4.8E1,6.5E1],"tree_param":{"num_deleted":"0","num_feature":"30","num_nodes":"15","size_leaf_vector":"1"}},{"base_weights":[-4.898165E-4,5.173174E-4,-1.0356826E-2,7.3050573E-3,-1.7524749E-3,5.7647103E-3,-2.0917E-2,4.9881235E-4,3.7821665E-5,-1.7060205E-5,-3.663104E-4,-5.141641E-4,5.033703E-4,-4.4703984E-4,-3.0593767E-3],"categories":[],"categories_nodes":[],"categories_segments":[],"categories_sizes":[],"default_left":[0,0,0,0,0,0,0,0,0,0,0,0,0,0,0],"id":56,"left_children":[1,3,5,7,9,11,13,-1,-1,-1,-1,-1,-1,-1,-1],"loss_changes":[6.300233E-2,8.620941E-2,1.0379534E-1,7.4814916E-2,4.7540028E-2,5.6300372E-2,1.4802419E-1,0E0,0E0,0E0,0E0,0E0,0E0,0E0,0E0],"parents":[2147483647,0,0,1,1,2,2,3,3,4,4,5,5,6,6],"right_children":[2,4,6,8,10,12,14,-1,-1,-1,-1,-1,-1,-1,-1],"split_conditions":[6.779123E1,-5.10585E-1,-2.4817538E-1,-5.787491E-1,8.2823163E-1,-5.2013713E-1,2E0,4.9881235E-4,3.7821665E-5,-1.7060205E-5,-3.663104E-4,-5.141641E-4,5.033703E-4,-4.4703984E-4,-3.0593767E-3],"split_indices":[19,7,17,1,7,28,4,0,0,0,0,0,0,0,0],"split_type":[0,0,0,0,0,0,0,0,0,0,0,0,0,0,0],"sum_hessian":[6.092E3,5.505E3,5.87E2,1.407E3,4.098E3,2.23E2,3.64E2,5.37E2,8.7E2,3.703E3,3.95E2,6.5E1,1.58E2,3.42E2,2.2E1],"tree_param":{"num_deleted":"0","num_feature":"30","num_nodes":"15","size_leaf_vector":"1"}},{"base_weights":[1.4383855E-5,-4.3959558E-2,2.5293216E-4,-0E0,-8.2147874E-2,1.3046819E-2,-4.5593153E-4,-3.3695408E-4,-3.9741346E-3,1.251428E-3,3.1957108E-5,2.4703504E-5,-3.470319E-4],"categories":[],"categories_nodes":[],"categories_segments":[],"categories_sizes":[],"default_left":[0,0,0,0,0,0,0,0,0,0,0,0,0],"id":57,"left_children":[1,3,5,-1,7,9,11,-1,-1,-1,-1,-1,-1],"loss_changes":[5.3046208E-2,4.350382E-2,5.8210116E-2,0E0,1.4556691E-2,1.0513312E-1,8.420788E-2,0E0,0E0,0E0,0E0,0E0,0E0],"parents":[2147483647,0,0,1,1,2,2,4,4,5,5,6,6],"right_children":[2,4,6,-1,8,10,12,-1,-1,-1,-1,-1,-1],"split_conditions":[-1.9259971E0,3.1950307E-1,-1.5097699E0,-0E0,-1.3676186E-1,-3.0451906E-1,1.2697155E0,-3.3695408E-4,-3.9741346E-3,1.251428E-3,3.1957108E-5,2.4703504E-5,-3.470319E-4],"split_indices":[22,11,2,0,29,29,10,0,0,0,0,0,0],"split_type":[0,0,0,0,0,0,0,0,0,0,0,0,0],"sum_hessian":[6.098E3,2.7E1,6.071E3,1.3E1,1.4E1,3.37E2,5.734E3,8E0,6E0,9.3E1,2.44E2,5.122E3,6.12E2],"tree_param":{"num_deleted":"0","num_feature":"30","num_nodes":"13","size_leaf_vector":"1"}},{"base_weights":[7.4181746E-4,3.922128E-3,-2.5887408E-3,4.9542566E-3,-2.2590645E-2,6.8547865E-3,-5.1069655E-3,7.7994616E-4,1.15454626E-4,1.9193775E-4,-1.1302748E-3,-2.3880358E-4,2.629457E-4,-5.9394736E-4,-1.2002378E-4],"categories":[],"categories_nodes":[],"categories_segments":[],"categories_sizes":[],"default_left":[0,0,0,0,0,0,0,0,0,0,0,0,0,0,0],"id":58,"left_children":[1,3,5,7,9,11,13,-1,-1,-1,-1,-1,-1,-1,-1],"loss_changes":[6.379647E-2,8.053803E-2,6.825705E-2,6.2235303E-2,5.477993E-2,1.683634E-2,3.142827E-2,0E0,0E0,0E0,0E0,0E0,0E0,0E0,0E0],"parents":[2147483647,0,0,1,1,2,2,3,3,4,4,5,5,6,6],"right_children":[2,4,6,8,10,12,14,-1,-1,-1,-1,-1,-1,-1,-1],"split_conditions":[3.6871575E-2,3.791181E0,-6.7995614E-1,-1.8865792E0,6.3621396E-1,-9.052561E-1,-1.1414441E0,7.7994616E-4,1.15454626E-4,1.9193775E-4,-1.1302748E-3,-2.3880358E-4,2.629457E-4,-5.9394736E-4,-1.2002378E-4],"split_indices":[7,8,26,1,16,12,12,0,0,0,0,0,0,0,0],"split_type":[0,0,0,0,0,0,0,0,0,0,0,0,0,0,0],"sum_hessian":[5.991E3,3.103E3,2.888E3,2.996E3,1.07E2,5.87E2,2.301E3,1.38E2,2.858E3,3.1E1,7.6E1,5.2E1,5.35E2,1.45E2,2.156E3],"tree_param":{"num_deleted":"0","num_feature":"30","num_nodes":"15","size_leaf_vector":"1"}},{"base_weights":[-4.1210653E-5,-1.5273207E-3,6.5286485E-3,-6.284903E-4,-1.8869609E-2,1.8188199E-2,-1.2524613E-3,-0E0,-8.5954496E-4,-9.900497E-4,-0E0,-4.4887126E-4,9.062718E-4,-1.3254527E-3,6.056147E-5],"categories":[],"categories_nodes":[],"categories_segments":[],"categories_sizes":[],"default_left":[0,0,0,0,0,0,0,0,0,0,0,0,0,0,0],"id":59,"left_children":[1,3,5,7,9,11,13,-1,-1,-1,-1,-1,-1,-1,-1],"loss_changes":[5.862459E-2,7.35641E-2,1.0405898E-1,8.450531E-2,5.627071E-2,1.8454412E-1,1.0145594E-1,0E0,0E0,0E0,0E0,0E0,0E0,0E0,0E0],"parents":[2147483647,0,0,1,1,2,2,3,3,4,4,5,5,6,6],"right_children":[2,4,6,8,10,12,14,-1,-1,-1,-1,-1,-1,-1,-1],"split_conditions":[9.0831167E-1,2E0,-8.095139E-1,2.099808E0,8.741568E-1,-1.8955439E0,-6.440827E-2,-0E0,-8.5954496E-4,-9.900497E-4,-0E0,-4.4887126E-4,9.062718E-4,-1.3254527E-3,6.056147E-5],"split_indices":[11,4,23,3,1,13,12,0,0,0,0,0,0,0,0],"split_type":[0,0,0,0,0,0,0,0,0,0,0,0,0,0,0],"sum_hessian":[6.132E3,5.032E3,1.1E3,4.798E3,2.34E2,4.53E2,6.47E2,4.693E3,1.05E2,1.28E2,1.06E2,1.15E2,3.38E2,5.1E1,5.96E2],"tree_param":{"num_deleted":"0","num_feature":"30","num_nodes":"15","size_leaf_vector":"1"}},{"base_weights":[1.6363536E-4,5.474756E-4,-2.5755953E-2,2.4704907E-2,1.2463938E-4,-4.4240344E-2,-0E0,-4.8662955E-4,1.2944479E-3,-2.1410056E-3,9.762228E-6,-1.6269913E-3,-0E0,-2.7167785E-4,9.5926184E-4],"categories":[],"categories_nodes":[],"categories_segments":[],"categories_sizes":[],"default_left":[0,0,0,0,0,0,0,0,0,0,0,0,0,0,0],"id":60,"left_children":[1,3,5,7,9,11,13,-1,-1,-1,-1,-1,-1,-1,-1],"loss_changes":[5.489012E-2,5.5797245E-2,3.5328295E-2,7.804774E-2,6.8023875E-2,1.5114449E-2,8.788951E-3,0E0,0E0,0E0,0E0,0E0,0E0,0E0,0E0],"parents":[2147483647,0,0,1,1,2,2,3,3,4,4,5,5,6,6],"right_children":[2,4,6,8,10,12,14,-1,-1,-1,-1,-1,-1,-1,-1],"split_conditions":[3.1302931E0,-2.4113529E0,-3.355704E-2,-2.2028766E0,-2.6721456E0,5.2253765E-1,1.2322733E0,-4.8662955E-4,1.2944479E-3,-2.1410056E-3,9.762228E-6,-1.6269913E-3,-0E0,-2.7167785E-4,9.5926184E-4],"split_indices":[0,2,6,13,25,29,12,0,0,0,0,0,0,0,0],"split_type":[0,0,0,0,0,0,0,0,0,0,0,0,0,0,0],"sum_hessian":[6.15E3,6.07E3,8E1,9.4E1,5.976E3,4.5E1,3.5E1,2.5E1,6.9E1,1.3E1,5.963E3,3.5E1,1E1,2.9E1,6E0],"tree_param":{"num_deleted":"0","num_feature":"30","num_nodes":"15","size_leaf_vector":"1"}},{"base_weights":[3.3746878E-4,-8.6237285E-3,1.6185343E-3,-3.821022E-2,-2.6430301E-3,1.7113E-2,4.8053192E-4,-2.9327988E-4,-1.7413596E-3,-1.9652154E-3,-2.2275994E-5,6.8634376E-4,-2.572239E-4,3.510456E-5,-4.828859E-4],"categories":[],"categories_nodes":[],"categories_segments":[],"categories_sizes":[],"default_left":[0,0,0,0,0,0,0,0,0,0,0,0,0,0,0],"id":61,"left_children":[1,3,5,7,9,11,13,-1,-1,-1,-1,-1,-1,-1,-1],"loss_changes":[6.77887E-2,1.1950846E-1,8.9480676E-2,4.846731E-2,5.71702E-2,5.534529E-2,5.3148497E-2,0E0,0E0,0E0,0E0,0E0,0E0,0E0,0E0],"parents":[2147483647,0,0,1,1,2,2,3,3,4,4,5,5,6,6],"right_children":[2,4,6,8,10,12,14,-1,-1,-1,-1,-1,-1,-1,-1],"split_conditions":[-8.5771686E-1,-3.42858E-1,-1.3227961E0,-3.7620172E-1,-2.54327E0,6.5716815E-1,2.2553968E0,-2.9327988E-4,-1.7413596E-3,-1.9652154E-3,-2.2275994E-5,6.8634376E-4,-2.572239E-4,3.510456E-5,-4.828859E-4],"split_indices":[22,19,2,20,13,24,24,0,0,0,0,0,0,0,0],"split_type":[0,0,0,0,0,0,0,0,0,0,0,0,0,0,0],"sum_hessian":[6.057E3,7.33E2,5.324E3,1.16E2,6.17E2,3.49E2,4.975E3,5.3E1,6.3E1,1.4E1,6.03E2,2.93E2,5.6E1,4.791E3,1.84E2],"tree_param":{"num_deleted":"0","num_feature":"30","num_nodes":"15","size_leaf_vector":"1"}},{"base_weights":[-4.5825588E-4,-1.6562545E-3,8.950449E-3,-8.86861E-3,-5.2046E-4,2.647031E-2,-3.3837263E-3,-2.2170774E-4,-1.7889333E-3,5.007446E-4,-4.024503E-5,-5.608124E-4,9.970851E-4,4.3637925E-4,-2.3570252E-4],"categories":[],"categories_nodes":[],"categories_segments":[],"categories_sizes":[],"default_left":[0,0,0,0,0,0,0,0,0,0,0,0,0,0,0],"id":62,"left_children":[1,3,5,7,9,11,13,-1,-1,-1,-1,-1,-1,-1,-1],"loss_changes":[6.6917285E-2,4.215942E-2,1.4954992E-1,3.6360018E-2,6.292986E-2,9.034473E-2,2.9012712E-2,0E0,0E0,0E0,0E0,0E0,0E0,0E0,0E0],"parents":[2147483647,0,0,1,1,2,2,3,3,4,4,5,5,6,6],"right_children":[2,4,6,8,10,12,14,-1,-1,-1,-1,-1,-1,-1,-1],"split_conditions":[9.207433E-1,-8.412034E-1,-1.5217476E-1,4.272385E0,-1.5658376E0,-4.641491E-1,-5.639445E-1,-2.2170774E-4,-1.7889333E-3,5.007446E-4,-4.024503E-5,-5.608124E-4,9.970851E-4,4.3637925E-4,-2.3570252E-4],"split_indices":[13,22,21,16,2,28,5,0,0,0,0,0,0,0,0],"split_type":[0,0,0,0,0,0,0,0,0,0,0,0,0,0,0],"sum_hessian":[6.098E3,5.433E3,6.65E2,7.09E2,4.724E3,2.83E2,3.82E2,6.94E2,1.5E1,2.01E2,4.523E3,3.2E1,2.51E2,6.5E1,3.17E2],"tree_param":{"num_deleted":"0","num_feature":"30","num_nodes":"15","size_leaf_vector":"1"}},{"base_weights":[-0E0,1.3797882E-2,-7.73362E-4,-1.1294288E-2,2.4199113E-2,-7.0749365E-2,-5.54883E-4,7.057879E-4,-1.1773311E-3,9.2113524E-4,-0E0,-1.3714119E-4,-4.0908186E-3,1.5221053E-4,-6.924596E-5],"categories":[],"categories_nodes":[],"categories_segments":[],"categories_sizes":[],"default_left":[0,0,0,0,0,0,0,0,0,0,0,0,0,0,0],"id":63,"left_children":[1,3,5,7,9,11,13,-1,-1,-1,-1,-1,-1,-1,-1],"loss_changes":[6.781957E-2,9.157422E-2,6.9662824E-2,9.394148E-2,4.270023E-2,2.6484959E-2,5.565417E-2,0E0,0E0,0E0,0E0,0E0,0E0,0E0,0E0],"parents":[2147483647,0,0,1,1,2,2,3,3,4,4,5,5,6,6],"right_children":[2,4,6,8,10,12,14,-1,-1,-1,-1,-1,-1,-1,-1],"split_conditions":[-1.5658376E0,-8.5771686E-1,-3.184191E0,-1.3359295E0,3.791181E0,-1.5992781E0,-5.6716937E-1,7.057879E-4,-1.1773311E-3,9.2113524E-4,-0E0,-1.3714119E-4,-4.0908186E-3,1.5221053E-4,-6.924596E-5],"split_indices":[2,22,23,1,8,1,26,0,0,0,0,0,0,0,0],"split_type":[0,0,0,0,0,0,0,0,0,0,0,0,0,0,0],"sum_hessian":[6.061E3,3.38E2,5.723E3,9.2E1,2.46E2,1.4E1,5.709E3,3.7E1,5.5E1,1.98E2,4.8E1,9E0,5E0,1.322E3,4.387E3],"tree_param":{"num_deleted":"0","num_feature":"30","num_nodes":"15","size_leaf_vector":"1"}},{"base_weights":[-9.338863E-4,-6.2614883E-4,-5.094586E-2,-8.933923E-3,5.28586E-4,-0E0,-5.887738E-2,-9.124164E-4,-1.2768595E-4,5.1768916E-4,-1.0902239E-6,-3.9678407E-4,-2.7432167E-3],"categories":[],"categories_nodes":[],"categories_segments":[],"categories_sizes":[],"default_left":[0,0,0,0,0,0,0,0,0,0,0,0,0],"id":64,"left_children":[1,3,5,7,9,-1,11,-1,-1,-1,-1,-1,-1],"loss_changes":[8.0769815E-2,6.018261E-2,1.4225662E-2,6.819039E-2,5.4288235E-2,0E0,1.5526004E-2,0E0,0E0,0E0,0E0,0E0,0E0],"parents":[2147483647,0,0,1,1,2,2,3,3,4,4,6,6],"right_children":[2,4,6,8,10,-1,12,-1,-1,-1,-1,-1,-1],"split_conditions":[1.6745895E0,-8.5771686E-1,-7.894825E-1,-3.42858E-1,-1.722486E0,-0E0,-5.5907905E-1,-9.124164E-4,-1.2768595E-4,5.1768916E-4,-1.0902239E-6,-3.9678407E-4,-2.7432167E-3],"split_indices":[27,22,6,19,2,0,12,0,0,0,0,0,0],"split_type":[0,0,0,0,0,0,0,0,0,0,0,0,0],"sum_hessian":[6.086E3,6.054E3,3.2E1,7.65E2,5.289E3,4E0,2.8E1,1.27E2,6.38E2,1.87E2,5.102E3,1.5E1,1.3E1],"tree_param":{"num_deleted":"0","num_feature":"30","num_nodes":"13","size_leaf_vector":"1"}},{"base_weights":[-3.538056E-4,3.8214156E-4,-1.5219886E-2,3.6783058E-3,-2.9863403E-3,-1.1137021E-2,-9.908612E-2,1.383001E-4,-4.9576064E-4,-2.1120879E-5,-2.9376085E-4,-7.040161E-4,7.0615406E-6,-4.3119635E-3,-0E0],"categories":[],"categories_nodes":[],"categories_segments":[],"categories_sizes":[],"default_left":[0,0,0,0,0,0,0,0,0,0,0,0,0,0,0],"id":65,"left_children":[1,3,5,7,9,11,13,-1,-1,-1,-1,-1,-1,-1,-1],"loss_changes":[7.056099E-2,6.4642936E-2,7.634795E-2,5.2988976E-2,4.1397817E-2,4.6929985E-2,5.9982955E-2,0E0,0E0,0E0,0E0,0E0,0E0,0E0,0E0],"parents":[2147483647,0,0,1,1,2,2,3,3,4,4,5,5,6,6],"right_children":[2,4,6,8,10,12,14,-1,-1,-1,-1,-1,-1,-1,-1],"split_conditions":[2E0,3.6871575E-2,9.019557E2,3.791181E0,3.9797002E-1,1.5220344E-1,-5.739672E-1,1.383001E-4,-4.9576064E-4,-2.1120879E-5,-2.9376085E-4,-7.040161E-4,7.0615406E-6,-4.3119635E-3,-0E0],"split_indices":[4,7,19,10,27,19,2,0,0,0,0,0,0,0,0],"split_type":[0,0,0,0,0,0,0,0,0,0,0,0,0,0,0],"sum_hessian":[6.11E3,5.806E3,3.04E2,2.972E3,2.834E3,2.93E2,1.1E1,2.853E3,1.19E2,2.15E3,6.84E2,1.51E2,1.42E2,8E0,3E0],"tree_param":{"num_deleted":"0","num_feature":"30","num_nodes":"15","size_leaf_vector":"1"}},{"base_weights":[5.732232E-4,1.0580359E-3,-1.9920604E-2,2.0853532E-2,2.810722E-4,-0E0,-2.7528783E-2,9.840856E-4,-1.21191406E-4,-1.0737174E-5,3.862709E-4,4.2901802E-4,-2.606424E-4,-1.1322075E-3,-0E0],"categories":[],"categories_nodes":[],"categories_segments":[],"categories_sizes":[],"default_left":[0,0,0,0,0,0,0,0,0,0,0,0,0,0,0],"id":66,"left_children":[1,3,5,7,9,11,13,-1,-1,-1,-1,-1,-1,-1,-1],"loss_changes":[5.640639E-2,8.7324E-2,2.2012178E-2,7.125163E-2,4.985749E-2,4.625319E-3,2.9208235E-2,0E0,0E0,0E0,0E0,0E0,0E0,0E0,0E0],"parents":[2147483647,0,0,1,1,2,2,3,3,4,4,5,5,6,6],"right_children":[2,4,6,8,10,12,14,-1,-1,-1,-1,-1,-1,-1,-1],"split_conditions":[3.545153E0,-1.9565334E0,6.3621396E-1,1.1152421E0,1.598943E0,6.72579E-1,1.7151996E0,9.840856E-4,-1.21191406E-4,-1.0737174E-5,3.862709E-4,4.2901802E-4,-2.606424E-4,-1.1322075E-3,-0E0],"split_indices":[10,6,16,28,11,24,28,0,0,0,0,0,0,0,0],"split_type":[0,0,0,0,0,0,0,0,0,0,0,0,0,0,0],"sum_hessian":[6.151E3,6.021E3,1.3E2,2.15E2,5.806E3,3.3E1,9.7E1,1.52E2,6.3E1,5.507E3,2.99E2,1.6E1,1.7E1,7.2E1,2.5E1],"tree_param":{"num_deleted":"0","num_feature":"30","num_nodes":"15","size_leaf_vector":"1"}},{"base_weights":[-0E0,1.4502589E-3,-7.209299E-3,-1.1484111E-3,6.6398676E-3,2.0103228E-4,-2.1867707E-2,3.3746335E-5,-2.5441078E-4,3.1127094E-4,-1.513812E-4,-2.05526E-4,3.1581585E-4,-8.110122E-4,1.0025032E-3],"categories":[],"categories_nodes":[],"categories_segments":[],"categories_sizes":[],"default_left":[0,0,0,0,0,0,0,0,0,0,0,0,0,0,0],"id":67,"left_children":[1,3,5,7,9,11,13,-1,-1,-1,-1,-1,-1,-1,-1],"loss_changes":[6.386443E-2,7.0534766E-2,1.1634968E-1,5.826537E-2,7.744982E-2,4.952563E-2,9.980442E-2,0E0,0E0,0E0,0E0,0E0,0E0,0E0,0E0],"parents":[2147483647,0,0,1,1,2,2,3,3,4,4,5,5,6,6],"right_children":[2,4,6,8,10,12,14,-1,-1,-1,-1,-1,-1,-1,-1],"split_conditions":[1.5968907E0,2.2746392E-1,9.611701E-1,4.5405498E-1,6.770033E1,1.924064E-1,8.143769E-1,3.3746335E-5,-2.5441078E-4,3.1127094E-4,-1.513812E-4,-2.05526E-4,3.1581585E-4,-8.110122E-4,1.0025032E-3],"split_indices":[14,19,20,1,20,13,27,0,0,0,0,0,0,0,0],"split_type":[0,0,0,0,0,0,0,0,0,0,0,0,0,0,0],"sum_hessian":[6.149E3,5.128E3,1.021E3,3.385E3,1.743E3,6.67E2,3.54E2,2.558E3,8.27E2,1.337E3,4.06E2,3.82E2,2.85E2,3.28E2,2.6E1],"tree_param":{"num_deleted":"0","num_feature":"30","num_nodes":"15","size_leaf_vector":"1"}},{"base_weights":[-0E0,3.036043E-3,-3.3710902E-3,4.320059E-3,-1.3673167E-2,-1.3014274E-2,-1.010182E-3,8.734243E-5,6.5071974E-4,-1.2620544E-3,-1.5658319E-4,-2.3105236E-4,-1.1937581E-3,4.9046084E-5,-3.762537E-4],"categories":[],"categories_nodes":[],"categories_segments":[],"categories_sizes":[],"default_left":[0,0,0,0,0,0,0,0,0,0,0,0,0,0,0],"id":68,"left_children":[1,3,5,7,9,11,13,-1,-1,-1,-1,-1,-1,-1,-1],"loss_changes":[6.2630124E-2,6.7453176E-2,6.1904937E-2,6.807878E-2,4.0513217E-2,6.547339E-2,7.3777944E-2,0E0,0E0,0E0,0E0,0E0,0E0,0E0,0E0],"parents":[2147483647,0,0,1,1,2,2,3,3,4,4,5,5,6,6],"right_children":[2,4,6,8,10,12,14,-1,-1,-1,-1,-1,-1,-1,-1],"split_conditions":[3.6871575E-2,2E0,-1.2327547E-1,1.0234421E0,-1.3204036E0,9.65273E-1,4.322505E-1,8.734243E-5,6.5071974E-4,-1.2620544E-3,-1.5658319E-4,-2.3105236E-4,-1.1937581E-3,4.9046084E-5,-3.762537E-4],"split_indices":[7,4,6,15,23,14,27,0,0,0,0,0,0,0,0],"split_type":[0,0,0,0,0,0,0,0,0,0,0,0,0,0,0],"sum_hessian":[6.125E3,3.252E3,2.873E3,3.034E3,2.18E2,5.44E2,2.329E3,2.82E3,2.14E2,4.3E1,1.75E2,4.62E2,8.2E1,1.877E3,4.52E2],"tree_param":{"num_deleted":"0","num_feature":"30","num_nodes":"15","size_leaf_vector":"1"}},{"base_weights":[-6.791084E-4,-5.2136358E-5,-1.9274158E-2,-1.480472E-3,7.281029E-3,-2.7445575E-2,-0E0,-7.4356917E-6,-3.283797E-4,-1.05864E-4,5.122913E-4,-1.4853108E-3,-4.418984E-4,5.3783116E-4,-5.5391336E-4],"categories":[],"categories_nodes":[],"categories_segments":[],"categories_sizes":[],"default_left":[0,0,0,0,0,0,0,0,0,0,0,0,0,0,0],"id":69,"left_children":[1,3,5,7,9,11,13,-1,-1,-1,-1,-1,-1,-1,-1],"loss_changes":[6.603192E-2,6.0279764E-2,3.5319023E-2,5.508548E-2,1.02114215E-1,2.2546083E-2,1.5603147E-2,0E0,0E0,0E0,0E0,0E0,0E0,0E0,0E0],"parents":[2147483647,0,0,1,1,2,2,3,3,4,4,5,5,6,6],"right_children":[2,4,6,8,10,12,14,-1,-1,-1,-1,-1,-1,-1,-1],"split_conditions":[2.3711493E0,9.0831167E-1,2.1011581E0,1.1528342E0,7.985166E-1,1.2077592E-1,1.4631833E0,-7.4356917E-6,-3.283797E-4,-1.05864E-4,5.122913E-4,-1.4853108E-3,-4.418984E-4,5.3783116E-4,-5.5391336E-4],"split_indices":[24,11,11,10,3,6,6,0,0,0,0,0,0,0,0],"split_type":[0,0,0,0,0,0,0,0,0,0,0,0,0,0,0],"sum_hessian":[6.078E3,5.893E3,1.85E2,4.961E3,9.32E2,1.38E2,4.7E1,4.413E3,5.48E2,4.31E2,5.01E2,4.3E1,9.5E1,3E1,1.7E1],"tree_param":{"num_deleted":"0","num_feature":"30","num_nodes":"15","size_leaf_vector":"1"}},{"base_weights":[-0E0,2.4814843E-4,-3.195659E-2,1.866857E-2,-4.0401268E-4,-4.4063695E-2,-0E0,8.163912E-4,-2.8138462E-4,-5.1603452E-5,1.3267634E-4,-0E0,-1.5480062E-3,6.968394E-5,-0E0],"categories":[],"categories_nodes":[],"categories_segments":[],"categories_sizes":[],"default_left":[0,0,0,0,0,0,0,0,0,0,0,0,0,0,0],"id":70,"left_children":[1,3,5,7,9,11,13,-1,-1,-1,-1,-1,-1,-1,-1],"loss_changes":[5.0671887E-2,7.8043036E-2,2.9796124E-2,5.7785697E-2,3.6768008E-2,1.642719E-2,2.8325805E-5,0E0,0E0,0E0,0E0,0E0,0E0,0E0,0E0],"parents":[2147483647,0,0,1,1,2,2,3,3,4,4,5,5,6,6],"right_children":[2,4,6,8,10,12,14,-1,-1,-1,-1,-1,-1,-1,-1],"split_conditions":[5.3101773E0,-2.0268362E0,2.2923615E0,-5.9759414E-1,6.9770235E-1,5.77449E-1,-3.147004E0,8.163912E-4,-2.8138462E-4,-5.1603452E-5,1.3267634E-4,-0E0,-1.5480062E-3,6.968394E-5,-0E0],"split_indices":[8,6,28,2,28,16,7,0,0,0,0,0,0,0,0],"split_type":[0,0,0,0,0,0,0,0,0,0,0,0,0,0,0],"sum_hessian":[6.165E3,6.116E3,4.9E1,2.22E2,5.894E3,4.1E1,8E0,1.77E2,4.5E1,4.672E3,1.222E3,5E0,3.6E1,5E0,3E0],"tree_param":{"num_deleted":"0","num_feature":"30","num_nodes":"15","size_leaf_vector":"1"}},{"base_weights":[-7.232117E-4,-3.2393768E-4,-2.1449344E-2,5.091174E-4,-8.939693E-3,-1.0128182E-2,-6.325154E-2,6.618003E-4,-0E0,5.3908554E-4,-4.922293E-4,-6.747263E-4,3.017947E-4,-0E0,-2.2917958E-3],"categories":[],"categories_nodes":[],"categories_segments":[],"categories_sizes":[],"default_left":[0,0,0,0,0,0,0,0,0,0,0,0,0,0,0],"id":71,"left_children":[1,3,5,7,9,11,13,-1,-1,-1,-1,-1,-1,-1,-1],"loss_changes":[4.4945955E-2,4.5074485E-2,3.0357923E-2,5.662427E-2,1.1106348E-1,2.4690446E-2,8.312874E-3,0E0,0E0,0E0,0E0,0E0,0E0,0E0,0E0],"parents":[2147483647,0,0,1,1,2,2,3,3,4,4,5,5,6,6],"right_children":[2,4,6,8,10,12,14,-1,-1,-1,-1,-1,-1,-1,-1],"split_conditions":[2.8007545E0,5.7541504E1,6.227E-1,-1.8865792E0,-5.070684E-1,5.290397E-1,3.894717E-2,6.618003E-4,-0E0,5.3908554E-4,-4.922293E-4,-6.747263E-4,3.017947E-4,-0E0,-2.2917958E-3],"split_indices":[0,20,27,1,17,29,20,0,0,0,0,0,0,0,0],"split_type":[0,0,0,0,0,0,0,0,0,0,0,0,0,0,0],"sum_hessian":[6.089E3,5.986E3,1.03E2,5.432E3,5.54E2,8.6E1,1.7E1,1.19E2,5.313E3,1.13E2,4.41E2,6.1E1,2.5E1,4E0,1.3E1],"tree_param":{"num_deleted":"0","num_feature":"30","num_nodes":"15","size_leaf_vector":"1"}},{"base_weights":[-4.3767501E-4,3.037763E-4,-1.545684E-2,1.3500235E-2,-2.0005836E-4,-5.9485294E-2,-9.876039E-3,-7.6297653E-4,6.429101E-4,6.3474504E-6,-6.2204304E-4,-0E0,-2.5858297E-3,-1.7557571E-3,-1.6995509E-4],"categories":[],"categories_nodes":[],"categories_segments":[],"categories_sizes":[],"default_left":[0,0,0,0,0,0,0,0,0,0,0,0,0,0,0],"id":72,"left_children":[1,3,5,7,9,11,13,-1,-1,-1,-1,-1,-1,-1,-1],"loss_changes":[7.228963E-2,4.2196456E-2,5.7517007E-2,7.114954E-2,5.258018E-2,6.1804384E-2,4.046081E-2,0E0,0E0,0E0,0E0,0E0,0E0,0E0,0E0],"parents":[2147483647,0,0,1,1,2,2,3,3,4,4,5,5,6,6],"right_children":[2,4,6,8,10,12,14,-1,-1,-1,-1,-1,-1,-1,-1],"split_conditions":[2E0,-2.0368955E0,-3.6866271E-1,-2.304573E0,3.0186672E0,-4.8960844E-1,-4.135839E-1,-7.6297653E-4,6.429101E-4,6.3474504E-6,-6.2204304E-4,-0E0,-2.5858297E-3,-1.7557571E-3,-1.6995509E-4],"split_indices":[4,5,6,13,8,12,20,0,0,0,0,0,0,0,0],"split_type":[0,0,0,0,0,0,0,0,0,0,0,0,0,0,0],"sum_hessian":[6.151E3,5.846E3,3.05E2,2.33E2,5.613E3,2.9E1,2.76E2,3.4E1,1.99E2,5.491E3,1.22E2,7E0,2.2E1,1.7E1,2.59E2],"tree_param":{"num_deleted":"0","num_feature":"30","num_nodes":"15","size_leaf_vector":"1"}},{"base_weights":[-1.7352878E-4,-7.2375718E-3,1.6275399E-3,-3.296117E-2,-5.504862E-3,2.4585633E-3,-1.2179676E-2,-0E0,-2.070175E-3,-0E0,-3.6530104E-4,4.0801227E-5,3.696612E-4,2.6572033E-4,-5.723289E-4],"categories":[],"categories_nodes":[],"categories_segments":[],"categories_sizes":[],"default_left":[0,0,0,0,0,0,0,0,0,0,0,0,0,0,0],"id":73,"left_children":[1,3,5,7,9,11,13,-1,-1,-1,-1,-1,-1,-1,-1],"loss_changes":[7.843263E-2,4.642026E-2,5.260996E-2,7.724586E-2,4.1130394E-2,4.5780864E-2,3.963726E-2,0E0,0E0,0E0,0E0,0E0,0E0,0E0,0E0],"parents":[2147483647,0,0,1,1,2,2,3,3,4,4,5,5,6,6],"right_children":[2,4,6,8,10,12,14,-1,-1,-1,-1,-1,-1,-1,-1],"split_conditions":[-2.9930136E-1,-1.2211033E0,1.0711144E0,-5.8760233E-3,1.8228583E-1,1.436083E0,-5.864631E-1,-0E0,-2.070175E-3,-0E0,-3.6530104E-4,4.0801227E-5,3.696612E-4,2.6572033E-4,-5.723289E-4],"split_indices":[19,22,27,16,27,11,2,0,0,0,0,0,0,0,0],"split_type":[0,0,0,0,0,0,0,0,0,0,0,0,0,0,0],"sum_hessian":[6.054E3,1.258E3,4.796E3,7E1,1.188E3,4.541E3,2.55E2,3.8E1,3.2E1,6.68E2,5.2E2,4.109E3,4.32E2,5.4E1,2.01E2],"tree_param":{"num_deleted":"0","num_feature":"30","num_nodes":"15","size_leaf_vector":"1"}},{"base_weights":[-2.1087192E-4,1.1356142E-3,-7.441675E-3,1.8737514E-3,-1.3681923E-2,1.1691779E-2,-1.04620615E-2,4.4045687E-6,2.8707474E-4,-2.1135938E-4,-9.807269E-4,7.084788E-4,-5.1877747E-4,-2.4147744E-4,-1.2619342E-3],"categories":[],"categories_nodes":[],"categories_segments":[],"categories_sizes":[],"default_left":[0,0,0,0,0,0,0,0,0,0,0,0,0,0,0],"id":74,"left_children":[1,3,5,7,9,11,13,-1,-1,-1,-1,-1,-1,-1,-1],"loss_changes":[6.137092E-2,5.3362705E-2,5.712349E-2,6.295806E-2,1.8803284E-2,4.4625573E-2,5.366788E-2,0E0,0E0,0E0,0E0,0E0,0E0,0E0,0E0],"parents":[2147483647,0,0,1,1,2,2,3,3,4,4,5,5,6,6],"right_children":[2,4,6,8,10,12,14,-1,-1,-1,-1,-1,-1,-1,-1],"split_conditions":[7.3003155E-1,2.0280895E0,-1.2870854E0,6.4707583E-1,4.322505E-1,3.791181E0,1.3730779E2,4.4045687E-6,2.8707474E-4,-2.1135938E-4,-9.807269E-4,7.084788E-4,-5.1877747E-4,-2.4147744E-4,-1.2619342E-3],"split_indices":[17,24,2,13,27,8,19,0,0,0,0,0,0,0,0],"split_type":[0,0,0,0,0,0,0,0,0,0,0,0,0,0,0],"sum_hessian":[6.141E3,5.148E3,9.93E2,4.92E3,2.28E2,1.24E2,8.69E2,4.045E3,8.75E2,1.79E2,4.9E1,9.4E1,3E1,8.15E2,5.4E1],"tree_param":{"num_deleted":"0","num_feature":"30","num_nodes":"15","size_leaf_vector":"1"}},{"base_weights":[-9.2765375E-4,-4.8041192E-4,-2.2036504E-2,-2.4864865E-3,3.090253E-3,-2.9799797E-2,-0E0,-1.1820961E-5,-4.2541622E-4,2.3780207E-5,4.6573617E-4,-1.2768226E-3,-0E0,-4.9525866E-6,1.0883743E-3],"categories":[],"categories_nodes":[],"categories_segments":[],"categories_sizes":[],"default_left":[0,0,0,0,0,0,0,0,0,0,0,0,0,0,0],"id":75,"left_children":[1,3,5,7,9,11,13,-1,-1,-1,-1,-1,-1,-1,-1],"loss_changes":[5.254445E-2,4.3160386E-2,2.5468692E-2,9.2182755E-2,5.677622E-2,2.7217366E-2,6.9104508E-3,0E0,0E0,0E0,0E0,0E0,0E0,0E0,0E0],"parents":[2147483647,0,0,1,1,2,2,3,3,4,4,5,5,6,6],"right_children":[2,4,6,8,10,12,14,-1,-1,-1,-1,-1,-1,-1,-1],"split_conditions":[2.520076E0,3.0454484E-1,1.7005211E0,1.5140777E0,9.040349E-1,5.587601E1,6.552369E-1,-1.1820961E-5,-4.2541622E-4,2.3780207E-5,4.6573617E-4,-1.2768226E-3,-0E0,-4.9525866E-6,1.0883743E-3],"split_indices":[0,28,11,14,15,19,29,0,0,0,0,0,0,0,0],"split_type":[0,0,0,0,0,0,0,0,0,0,0,0,0,0,0],"sum_hessian":[6.162E3,6.046E3,1.16E2,3.916E3,2.13E3,9.2E1,2.4E1,3.34E3,5.76E2,1.815E3,3.15E2,6E1,3.2E1,1.9E1,5E0],"tree_param":{"num_deleted":"0","num_feature":"30","num_nodes":"15","size_leaf_vector":"1"}},{"base_weights":[-7.954488E-4,-2.0658199E-4,-1.5622665E-2,-2.3806456E-3,3.716007E-3,-2.559873E-2,4.4404465E-4,-3.4643697E-5,-3.3783616E-4,2.224139E-5,6.165117E-4,-0E0,-9.4871095E-4,-4.6069344E-4,3.432647E-4],"categories":[],"categories_nodes":[],"categories_segments":[],"categories_sizes":[],"default_left":[0,0,0,0,0,0,0,0,0,0,0,0,0,0,0],"id":76,"left_children":[1,3,5,7,9,11,13,-1,-1,-1,-1,-1,-1,-1,-1],"loss_changes":[4.963651E-2,5.0156016E-2,4.127318E-2,3.880767E-2,9.834313E-2,2.1730475E-2,1.1968193E-2,0E0,0E0,0E0,0E0,0E0,0E0,0E0,0E0],"parents":[2147483647,0,0,1,1,2,2,3,3,4,4,5,5,6,6],"right_children":[2,4,6,8,10,12,14,-1,-1,-1,-1,-1,-1,-1,-1],"split_conditions":[2.1833882E0,2.3451051E-1,7.948575E-1,8.608601E-1,8.172989E-1,2.5335494E-1,-1.8805648E-1,-3.4643697E-5,-3.3783616E-4,2.224139E-5,6.165117E-4,-0E0,-9.4871095E-4,-4.6069344E-4,3.432647E-4],"split_indices":[24,19,12,1,15,10,6,0,0,0,0,0,0,0,0],"split_type":[0,0,0,0,0,0,0,0,0,0,0,0,0,0,0],"sum_hessian":[6.138E3,5.92E3,2.18E2,3.85E3,2.07E3,1.44E2,7.4E1,3.408E3,4.42E2,1.772E3,2.98E2,2.8E1,1.16E2,2.1E1,5.3E1],"tree_param":{"num_deleted":"0","num_feature":"30","num_nodes":"15","size_leaf_vector":"1"}},{"base_weights":[1.1170094E-4,3.7527052E-4,-5.1315393E-2,-1.1191831E-3,6.545349E-3,-0E0,-7.587436E-2,-4.4835234E-4,-0E0,-2.2175774E-4,2.947213E-4,-0E0,-3.2079997E-3],"categories":[],"categories_nodes":[],"categories_segments":[],"categories_sizes":[],"default_left":[0,0,0,0,0,0,0,0,0,0,0,0,0],"id":77,"left_children":[1,3,5,7,9,-1,11,-1,-1,-1,-1,-1,-1],"loss_changes":[6.990213E-2,5.7331517E-2,2.4426587E-2,7.438348E-2,5.620404E-2,0E0,1.22213885E-2,0E0,0E0,0E0,0E0,0E0,0E0],"parents":[2147483647,0,0,1,1,2,2,3,3,4,4,6,6],"right_children":[2,4,6,8,10,-1,12,-1,-1,-1,-1,-1,-1],"split_conditions":[1.6745895E0,8.195426E-1,-1.9900073E-1,-1.332008E0,7.949349E-2,-0E0,-1.2207309E0,-4.4835234E-4,-0E0,-2.2175774E-4,2.947213E-4,-0E0,-3.2079997E-3],"split_indices":[27,11,5,7,9,0,12,0,0,0,0,0,0],"split_type":[0,0,0,0,0,0,0,0,0,0,0,0,0],"sum_hessian":[6.096E3,6.07E3,2.6E1,4.854E3,1.216E3,1E1,1.6E1,3.6E2,4.494E3,2.17E2,9.99E2,7E0,9E0],"tree_param":{"num_deleted":"0","num_feature":"30","num_nodes":"13","size_leaf_vector":"1"}},{"base_weights":[3.7782913E-5,4.148059E-4,-1.7007755E-2,1.3442024E-3,-6.7982045E-3,-0E0,-2.3882661E-2,6.945087E-5,-2.1867876E-4,-6.8269426E-4,-7.4326286E-5,3.1810632E-4,-0E0,-0E0,-9.134103E-4],"categories":[],"categories_nodes":[],"categories_segments":[],"categories_sizes":[],"default_left":[0,0,0,0,0,0,0,0,0,0,0,0,0,0,0],"id":78,"left_children":[1,3,5,7,9,11,13,-1,-1,-1,-1,-1,-1,-1,-1],"loss_changes":[3.5230663E-2,3.8923275E-2,1.8982641E-2,4.363797E-2,3.885708E-2,1.8270713E-3,1.2862127E-2,0E0,0E0,0E0,0E0,0E0,0E0,0E0,0E0],"parents":[2147483647,0,0,1,1,2,2,3,3,4,4,5,5,6,6],"right_children":[2,4,6,8,10,12,14,-1,-1,-1,-1,-1,-1,-1,-1],"split_conditions":[1.3371748E0,7.120824E-1,-3.8564342E-1,6.779123E1,-3.9319673E-1,-2.7287123E-1,-3.0312887E-1,6.945087E-5,-2.1867876E-4,-6.8269426E-4,-7.4326286E-5,3.1810632E-4,-0E0,-0E0,-9.134103E-4],"split_indices":[27,7,2,19,22,22,20,0,0,0,0,0,0,0,0],"split_type":[0,0,0,0,0,0,0,0,0,0,0,0,0,0,0],"sum_hessian":[6.127E3,6.009E3,1.18E2,5.354E3,6.55E2,2.5E1,9.3E1,4.839E3,5.15E2,1.27E2,5.28E2,1.6E1,9E0,2.2E1,7.1E1],"tree_param":{"num_deleted":"0","num_feature":"30","num_nodes":"15","size_leaf_vector":"1"}},{"base_weights":[1.6684839E-4,3.8805977E-4,-4.3105584E-2,-3.483589E-4,9.458594E-3,-5.8871202E-2,-0E0,5.8835525E-5,-1.1869909E-4,1.6046329E-3,1.2600615E-4,-0E0,-2.2017402E-3],"categories":[],"categories_nodes":[],"categories_segments":[],"categories_sizes":[],"default_left":[0,0,0,0,0,0,0,0,0,0,0,0,0],"id":79,"left_children":[1,3,5,7,9,11,-1,-1,-1,-1,-1,-1,-1],"loss_changes":[4.7661122E-2,4.2819217E-2,1.6334385E-2,4.707033E-2,9.694205E-2,2.7308464E-3,0E0,0E0,0E0,0E0,0E0,0E0,0E0],"parents":[2147483647,0,0,1,1,2,2,3,3,4,4,5,5],"right_children":[2,4,6,8,10,12,-1,-1,-1,-1,-1,-1,-1],"split_conditions":[1.6745895E0,1.4672064E0,-1.288409E-1,2.0609231E-1,-1.0976435E0,-1.2207309E0,-0E0,5.8835525E-5,-1.1869909E-4,1.6046329E-3,1.2600615E-4,-0E0,-2.2017402E-3],"split_indices":[27,11,8,27,17,12,0,0,0,0,0,0,0],"split_type":[0,0,0,0,0,0,0,0,0,0,0,0,0],"sum_hessian":[6.094E3,6.069E3,2.5E1,5.588E3,4.81E2,1.8E1,7E0,3.365E3,2.223E3,4.6E1,4.35E2,6E0,1.2E1],"tree_param":{"num_deleted":"0","num_feature":"30","num_nodes":"13","size_leaf_vector":"1"}},{"base_weights":[3.088114E-4,8.0009043E-4,-2.3673981E-2,2.0738707E-3,-5.485844E-3,-3.1911664E-2,-0E0,7.742927E-5,-4.5535548E-4,-1.0041616E-4,-9.15413E-4,-1.0644568E-3,-0E0,1.4495618E-4,-0E0],"categories":[],"categories_nodes":[],"categories_segments":[],"categories_sizes":[],"default_left":[0,0,0,0,0,0,0,0,0,0,0,0,0,0,0],"id":80,"left_children":[1,3,5,7,9,11,13,-1,-1,-1,-1,-1,-1,-1,-1],"loss_changes":[6.675E-2,4.7489505E-2,2.4361253E-2,4.107014E-2,4.4191875E-2,1.4457829E-2,3.0934773E-4,0E0,0E0,0E0,0E0,0E0,0E0,0E0,0E0],"parents":[2147483647,0,0,1,1,2,2,3,3,4,4,5,5,6,6],"right_children":[2,4,6,8,10,12,14,-1,-1,-1,-1,-1,-1,-1,-1],"split_conditions":[2.8007545E0,7.189503E-1,8.319664E-1,2.3711493E0,1.3730779E2,2.671062E0,1.426002E-1,7.742927E-5,-4.5535548E-4,-1.0041616E-4,-9.15413E-4,-1.0644568E-3,-0E0,1.4495618E-4,-0E0],"split_indices":[0,17,6,24,19,12,26,0,0,0,0,0,0,0,0],"split_type":[0,0,0,0,0,0,0,0,0,0,0,0,0,0,0],"sum_hessian":[6.15E3,6.037E3,1.13E2,5.053E3,9.84E2,8.6E1,2.7E1,4.923E3,1.3E2,9.16E2,6.8E1,8.1E1,5E0,1.3E1,1.4E1],"tree_param":{"num_deleted":"0","num_feature":"30","num_nodes":"15","size_leaf_vector":"1"}},{"base_weights":[-1.1004695E-3,-8.743066E-4,-4.056598E-2,2.6573977E-3,-3.179532E-3,-0E0,-4.932811E-2,5.3870608E-5,1.0882304E-3,-2.672021E-4,-3.3597735E-5,-0E0,-1.8689601E-3],"categories":[],"categories_nodes":[],"categories_segments":[],"categories_sizes":[],"default_left":[0,0,0,0,0,0,0,0,0,0,0,0,0],"id":81,"left_children":[1,3,5,7,9,-1,11,-1,-1,-1,-1,-1,-1],"loss_changes":[4.3758333E-2,4.927602E-2,1.4951721E-2,5.8287732E-2,4.107925E-2,0E0,1.715289E-2,0E0,0E0,0E0,0E0,0E0,0E0],"parents":[2147483647,0,0,1,1,2,2,3,3,4,4,6,6],"right_children":[2,4,6,8,10,-1,12,-1,-1,-1,-1,-1,-1],"split_conditions":[6.013245E0,-1.9349846E-1,-4.493457E0,1.5787122E0,-4.005008E-1,-0E0,-6.563771E-2,5.3870608E-5,1.0882304E-3,-2.672021E-4,-3.3597735E-5,-0E0,-1.8689601E-3],"split_indices":[10,1,7,15,22,0,18,0,0,0,0,0,0],"split_type":[0,0,0,0,0,0,0,0,0,0,0,0,0],"sum_hessian":[6.064E3,6.036E3,2.8E1,2.341E3,3.695E3,3E0,2.5E1,2.29E3,5.1E1,9.45E2,2.75E3,5E0,2E1],"tree_param":{"num_deleted":"0","num_feature":"30","num_nodes":"13","size_leaf_vector":"1"}},{"base_weights":[-3.6343376E-4,1.2676778E-2,-1.2329286E-3,1.6591359E-2,-3.1585567E-2,-0E0,-1.3304965E-2,1.1542942E-3,1.2759224E-4,-0E0,-1.8178408E-3,-2.0412514E-5,5.545953E-4,8.93667E-4,-4.6942104E-4],"categories":[],"categories_nodes":[],"categories_segments":[],"categories_sizes":[],"default_left":[0,0,0,0,0,0,0,0,0,0,0,0,0,0,0],"id":82,"left_children":[1,3,5,7,9,11,13,-1,-1,-1,-1,-1,-1,-1,-1],"loss_changes":[6.592449E-2,5.8975738E-2,8.2892045E-2,8.034255E-2,2.8129008E-2,6.2554136E-2,4.8794046E-2,0E0,0E0,0E0,0E0,0E0,0E0,0E0,0E0],"parents":[2147483647,0,0,1,1,2,2,3,3,4,4,5,5,6,6],"right_children":[2,4,6,8,10,12,14,-1,-1,-1,-1,-1,-1,-1,-1],"split_conditions":[-1.4600998E0,1.6418668E0,1.383382E0,-2.3964949E-1,-8.5541165E-1,1.3842211E0,-2.303583E0,1.1542942E-3,1.2759224E-4,-0E0,-1.8178408E-3,-2.0412514E-5,5.545953E-4,8.93667E-4,-4.6942104E-4],"split_indices":[2,14,10,29,11,13,23,0,0,0,0,0,0,0,0],"split_type":[0,0,0,0,0,0,0,0,0,0,0,0,0,0,0],"sum_hessian":[6.066E3,3.61E2,5.705E3,3.37E2,2.4E1,5.188E3,5.17E2,1.14E2,2.23E2,1E1,1.4E1,5.012E3,1.76E2,2.1E1,4.96E2],"tree_param":{"num_deleted":"0","num_feature":"30","num_nodes":"15","size_leaf_vector":"1"}},{"base_weights":[-3.40928E-4,-0E0,-2.8294342E-2,1.7792886E-4,-4.0530086E-2,-0E0,-4.3701544E-2,-4.1123794E-6,6.0105475E-4,-1.4642399E-3,-0E0,-4.328275E-4,-0E0,-0E0,-1.6302571E-3],"categories":[],"categories_nodes":[],"categories_segments":[],"categories_sizes":[],"default_left":[0,0,0,0,0,0,0,0,0,0,0,0,0,0,0],"id":83,"left_children":[1,3,5,7,9,11,13,-1,-1,-1,-1,-1,-1,-1,-1],"loss_changes":[5.4721925E-2,4.988361E-2,2.5250655E-2,4.297079E-2,1.0459762E-2,1.3009697E-3,1.749856E-2,0E0,0E0,0E0,0E0,0E0,0E0,0E0,0E0],"parents":[2147483647,0,0,1,1,2,2,3,3,4,4,5,5,6,6],"right_children":[2,4,6,8,10,12,14,-1,-1,-1,-1,-1,-1,-1,-1],"split_conditions":[4.7227683E0,1.6745895E0,1.147309E0,2.250457E0,1.3247392E0,-4.1418295E-2,8.122392E-2,-4.1123794E-6,6.0105475E-4,-1.4642399E-3,-0E0,-4.328275E-4,-0E0,-0E0,-1.6302571E-3],"split_indices":[8,27,9,9,12,20,28,0,0,0,0,0,0,0,0],"split_type":[0,0,0,0,0,0,0,0,0,0,0,0,0,0,0],"sum_hessian":[6.173E3,6.104E3,6.9E1,6.074E3,3E1,2.7E1,4.2E1,5.967E3,1.07E2,2.5E1,5E0,6E0,2.1E1,9E0,3.3E1],"tree_param":{"num_deleted":"0","num_feature":"30","num_nodes":"15","size_leaf_vector":"1"}},{"base_weights":[-4.697187E-6,5.5457815E-4,-1.18505685E-2,3.2632656E-3,-2.2001062E-3,-7.1233444E-2,-7.226796E-3,1.2931017E-4,-4.5773952E-4,-3.1399887E-4,-0E0,-5.1473854E-3,-1.909824E-4,-1.00122335E-4,-2.5106827E-3],"categories":[],"categories_nodes":[],"categories_segments":[],"categories_sizes":[],"default_left":[0,0,0,0,0,0,0,0,0,0,0,0,0,0,0],"id":84,"left_children":[1,3,5,7,9,11,13,-1,-1,-1,-1,-1,-1,-1,-1],"loss_changes":[4.295555E-2,4.327799E-2,6.0774747E-2,5.453282E-2,5.104949E-2,6.752397E-2,6.0328167E-2,0E0,0E0,0E0,0E0,0E0,0E0,0E0,0E0],"parents":[2147483647,0,0,1,1,2,2,3,3,4,4,5,5,6,6],"right_children":[2,4,6,8,10,12,14,-1,-1,-1,-1,-1,-1,-1,-1],"split_conditions":[2E0,3.6871575E-2,-4.135839E-1,3.4898334E0,-1.2327547E-1,-7.9310745E-2,9.019557E2,1.2931017E-4,-4.5773952E-4,-3.1399887E-4,-0E0,-5.1473854E-3,-1.909824E-4,-1.00122335E-4,-2.5106827E-3],"split_indices":[4,7,20,16,6,9,19,0,0,0,0,0,0,0,0],"split_type":[0,0,0,0,0,0,0,0,0,0,0,0,0,0,0],"sum_hessian":[6.057E3,5.764E3,2.93E2,2.952E3,2.812E3,1.7E1,2.76E2,2.807E3,1.45E2,5.9E2,2.222E3,5E0,1.2E1,2.66E2,1E1],"tree_param":{"num_deleted":"0","num_feature":"30","num_nodes":"15","size_leaf_vector":"1"}},{"base_weights":[-1.6149107E-4,-2.1599282E-2,1.6395412E-4,1.1906733E-2,-4.773138E-2,-8.099266E-3,8.976542E-4,1.8056841E-3,-0E0,-3.9338393E-4,-2.2793957E-3,3.5749138E-3,-2.9439636E-4,4.1885305E-5,-4.7998995E-4],"categories":[],"categories_nodes":[],"categories_segments":[],"categories_sizes":[],"default_left":[0,0,0,0,0,0,0,0,0,0,0,0,0,0,0],"id":85,"left_children":[1,3,5,7,9,11,13,-1,-1,-1,-1,-1,-1,-1,-1],"loss_changes":[4.8171263E-2,9.950214E-2,3.4779355E-2,2.0417076E-2,