{"learner":{"attributes":{"scikit_learn":"{\"_estimator_type\": \"regressor\"}"},"feature_names":[],"feature_types":[],"gradient_booster":{"model":{"gbtree_model_param":{"num_parallel_tree":"1","num_trees":"150"},"iteration_indptr":[0,1,2,3,4,5,6,7,8,9,10,11,12,13,14,15,16,17,18,19,20,21,22,23,24,25,26,27,28,29,30,31,32,33,34,35,36,37,38,39,40,41,42,43,44,45,46,47,48,49,50,51,52,53,54,55,56,57,58,59,60,61,62,63,64,65,66,67,68,69,70,71,72,73,74,75,76,77,78,79,80,81,82,83,84,85,86,87,88,89,90,91,92,93,94,95,96,97,98,99,100,101,102,103,104,105,106,107,108,109,110,111,112,113,114,115,116,117,118,119,120,121,122,123,124,125,126,127,128,129,130,131,132,133,134,135,136,137,138,139,140,141,142,143,144,145,146,147,148,149,150],"tree_info":[0,0,0,0,0,0,0,0,0,0,0,0,0,0,0,0,0,0,0,0,0,0,0,0,0,0,0,0,0,0,0,0,0,0,0,0,0,0,0,0,0,0,0,0,0,0,0,0,0,0,0,0,0,0,0,0,0,0,0,0,0,0,0,0,0,0,0,0,0,0,0,0,0,0,0,0,0,0,0,0,0,0,0,0,0,0,0,0,0,0,0,0,0,0,0,0,0,0,0,0,0,0,0,0,0,0,0,0,0,0,0,0,0,0,0,0,0,0,0,0,0,0,0,0,0,0,0,0,0,0,0,0,0,0,0,0,0,0,0,0,0,0,0,0,0,0,0,0,0,0],"trees":[{"base_weights":[-3.2578065E-11,4.2685256E-3,-9.038082E-3,8.0311395E-2,3.8252468E-3,-1.5315003E-2,-9.6439704E-4,-5.1563075E-3,1.3262329E-1,4.1882556E-2,3.1788177E-3,-8.397059E-3,-2.178824E-2,4.3277547E-4,-2.0011088E-3,-3.8309576E-4,2.6526523E-4,1.1214886E-3,4.4126287E-3,5.1339973E-2,-1.5875168E-2,-1.1267535E-3,7.373542E-3,-1.0075766E-2,2.1148542E-2,-3.2848924E-2,-1.4760966E-2,-2.5843105E-3,2.1205124E-2,2.1577533E-2,5.743199E-2,-7.7246735E-4,2.0619099E-4,5.2958527E-3,-7.2296173E-3,1.0565678E-2,-1.0656228E-3,1.7975692E-2,-1.2116652E-2,-3.8945565E-3,1.154791E-3,-6.319306E-3,-3.796427E-2,1.3022031E-2,-1.7174443E-2,1.0542832E-2,-7.111623E-3,5.2555814E-2,7.125789E-3,7.7853136E-4,6.12522E-5,1.7817746E-3,4.203682E-4,-2.1330183E-4,2.2816926E-4,-6.615043E-4,-2.4917756E-5,-7.94261E-4,3.3435953E-4,-1.2277116E-4,7.459909E-4,-1.1482137E-4,6.815713E-4,3.181103E-5,-4.7852367E-4,9.2573246E-5,-2.8730108E-4,8.015701E-5,-1.1154189E-3,-1.6836458E-3,-8.321475E-4,-7.5698685E-5,8.7216025E-4,-9.3173113E-4,-3.3004285E-4,-4.444642E-4,5.38184E-4,-3.2120518E-4,2.9317848E-4,2.1682028E-3,-5.509984E-7,-1.729645E-4,5.089126E-4],"categories":[],"categories_nodes":[],"categories_segments":[],"categories_sizes":[],"default_left":[0,0,0,0,0,0,0,0,0,0,0,0,0,0,0,0,0,0,0,0,0,0,0,0,0,0,0,0,0,0,0,0,0,0,0,0,0,0,0,0,0,0,0,0,0,0,0,0,0,0,0,0,0,0,0,0,0,0,0,0,0,0,0,0,0,0,0,0,0,0,0,0,0,0,0,0,0,0,0,0,0,0,0],"id":0,"left_children":[1,3,5,7,9,11,13,15,17,19,21,23,25,27,-1,-1,-1,-1,-1,29,31,33,35,37,39,41,43,45,47,49,51,-1,-1,53,55,57,59,61,63,65,-1,67,69,71,73,75,77,79,81,-1,-1,-1,-1,-1,-1,-1,-1,-1,-1,-1,-1,-1,-1,-1,-1,-1,-1,-1,-1,-1,-1,-1,-1,-1,-1,-1,-1,-1,-1,-1,-1,-1,-1],"loss_changes":[7.8894645E-2,4.6513483E-2,3.3229906E-2,3.6451656E-2,3.386593E-2,1.6341418E-2,2.6481397E-2,5.392261E-4,1.3893843E-3,1.337852E-2,2.4570841E-2,9.140802E-3,1.42831355E-2,1.7790964E-2,0E0,0E0,0E0,0E0,0E0,2.3870245E-3,1.0754127E-3,2.6378198E-2,1.85722E-2,1.0007525E-2,4.493511E-3,9.666793E-3,8.135973E-3,1.4813784E-2,1.5515786E-2,3.742152E-4,5.2976236E-4,0E0,0E0,9.4529325E-3,3.2700427E-2,1.1030313E-2,1.5014789E-2,1.3279899E-3,8.10051E-3,2.2786784E-4,0E0,3.7065896E-3,9.769544E-3,2.5683776E-3,8.999798E-3,1.2270015E-2,1.1334597E-2,1.14043355E-2,3.3952256E-3,0E0,0E0,0E0,0E0,0E0,0E0,0E0,0E0,0E0,0E0,0E0,0E0,0E0,0E0,0E0,0E0,0E0,0E0,0E0,0E0,0E0,0E0,0E0,0E0,0E0,0E0,0E0,0E0,0E0,0E0,0E0,0E0,0E0,0E0],"parents":[2147483647,0,0,1,1,2,2,3,3,4,4,5,5,6,6,7,7,8,8,9,9,10,10,11,11,12,12,13,13,19,19,20,20,21,21,22,22,23,23,24,24,25,25,26,26,27,27,28,28,29,29,30,30,33,33,34,34,35,35,36,36,37,37,38,38,39,39,41,41,42,42,43,43,44,44,45,45,46,46,47,47,48,48],"right_children":[2,4,6,8,10,12,14,16,18,20,22,24,26,28,-1,-1,-1,-1,-1,30,32,34,36,38,40,42,44,46,48,50,52,-1,-1,54,56,58,60,62,64,66,-1,68,70,72,74,76,78,80,82,-1,-1,-1,-1,-1,-1,-1,-1,-1,-1,-1,-1,-1,-1,-1,-1,-1,-1,-1,-1,-1,-1,-1,-1,-1,-1,-1,-1,-1,-1,-1,-1,-1,-1],"split_conditions":[2.8299206E-1,-2.1006348E0,7.059316E-2,1.0271575E0,-1.7217035E0,-2.6390174E-1,2.0360587E0,-1.3849685E0,-2.0707386E0,-2.6113135E-1,-3.969413E-2,1.5525086E0,-1.602612E-1,2.3359425E0,-2.0011088E-3,-3.8309576E-4,2.6526523E-4,1.1214886E-3,4.4126287E-3,5.933905E-1,7.539965E-2,-4.4176537E-1,4.2173408E-2,-7.277901E-1,-4.484026E-1,-8.00521E-1,-8.762151E-1,-2.8867656E-1,-5.5165716E-2,-7.547056E-1,-1.2713741E-1,-7.7246735E-4,2.0619099E-4,-7.5408804E-1,-4.0935838E-1,-2.0707386E0,9.1987455E-1,-8.7892246E-1,3.5967976E-1,1.2349898E-1,1.154791E-3,1.145733E0,-3.9789194E-1,7.376879E-2,-7.784396E-1,-1.7405923E-1,9.625327E-1,2.5453222E0,1.0144796E0,7.7853136E-4,6.12522E-5,1.7817746E-3,4.203682E-4,-2.1330183E-4,2.2816926E-4,-6.615043E-4,-2.4917756E-5,-7.94261E-4,3.3435953E-4,-1.2277116E-4,7.459909E-4,-1.1482137E-4,6.815713E-4,3.181103E-5,-4.7852367E-4,9.2573246E-5,-2.8730108E-4,8.015701E-5,-1.1154189E-3,-1.6836458E-3,-8.321475E-4,-7.5698685E-5,8.7216025E-4,-9.3173113E-4,-3.3004285E-4,-4.444642E-4,5.38184E-4,-3.2120518E-4,2.9317848E-4,2.1682028E-3,-5.509984E-7,-1.729645E-4,5.089126E-4],"split_indices":[14,21,5,6,4,7,22,1,1,14,7,22,22,13,0,0,0,0,0,7,0,18,1,23,7,5,6,22,22,1,2,0,0,21,6,1,6,7,24,4,0,8,13,1,27,7,23,2,15,0,0,0,0,0,0,0,0,0,0,0,0,0,0,0,0,0,0,0,0,0,0,0,0,0,0,0,0,0,0,0,0,0,0],"split_type":[0,0,0,0,0,0,0,0,0,0,0,0,0,0,0,0,0,0,0,0,0,0,0,0,0,0,0,0,0,0,0,0,0,0,0,0,0,0,0,0,0,0,0,0,0,0,0,0,0,0,0,0,0,0,0,0,0,0,0,0,0,0,0,0,0,0,0,0,0,0,0,0,0,0,0,0,0,0,0,0,0,0,0],"sum_hessian":[2.043E3,1.388E3,6.55E2,7E0,1.381E3,3.68E2,2.87E2,3E0,4E0,2.2E1,1.359E3,1.79E2,1.89E2,2.82E2,5E0,2E0,1E0,1E0,3E0,1.9E1,3E0,6.71E2,6.88E2,1.7E2,9E0,7.2E1,1.17E2,2.47E2,3.5E1,4E0,1.5E1,2E0,1E0,3.27E2,3.44E2,4.99E2,1.89E2,1.1E1,1.59E2,4E0,5E0,1.2E1,6E1,9E0,1.08E2,6.3E1,1.84E2,1E1,2.5E1,3E0,1E0,1.4E1,1E0,5.1E1,2.76E2,1.03E2,2.41E2,7E0,4.92E2,1.7E2,1.9E1,2E0,9E0,3.6E1,1.23E2,2E0,2E0,1E1,2E0,2E1,4E1,5E0,4E0,3.2E1,7.6E1,1.4E1,4.9E1,1.52E2,3.2E1,7E0,3E0,1.1E1,1.4E1],"tree_param":{"num_deleted":"0","num_feature":"34","num_nodes":"83","size_leaf_vector":"1"}},{"base_weights":[2.4537662E-6,4.1835527E-3,-8.693481E-3,7.85791E-2,3.7473463E-3,-1.471934E-2,-9.66292E-4,-5.0310753E-3,1.2975141E-1,2.076417E-3,1.778724E-2,-8.029726E-3,-2.0916753E-2,3.765122E-4,-1.9510812E-3,-3.7543388E-4,2.6128627E-4,1.1046663E-3,4.3133446E-3,3.1704563E-3,-1.1321422E-2,3.1274006E-2,4.9951876E-4,-9.737331E-3,1.9245738E-2,-3.19121E-2,-1.411033E-2,-2.887156E-3,2.1838106E-2,1.4833258E-3,1.3388816E-2,-2.4929687E-2,-1.1241022E-4,4.0521376E-2,5.810889E-4,2.0711832E-2,-2.7006625E-3,1.748365E-2,-1.1718047E-2,-2.246854E-3,3.7530705E-2,-6.2093623E-3,-3.6866583E-2,-1.8637966E-2,8.958949E-4,-4.1410304E-3,4.123177E-2,-2.4735811E-3,3.963177E-2,-1.0467555E-3,6.1451305E-5,-3.7390325E-4,5.402596E-4,-5.2313134E-4,-1.5138824E-3,6.029509E-4,-3.421008E-4,1.5175379E-3,8.5505325E-4,-1.4235829E-4,5.252772E-4,7.470029E-4,1.2105801E-4,6.2726566E-4,-1.9272517E-4,-1.1252494E-4,6.6316884E-4,3.927961E-5,-4.694248E-4,1.1005785E-4,-2.8155503E-4,1.3114904E-3,5.0318846E-4,7.7970915E-5,-1.0931104E-3,-1.6355417E-3,-8.07792E-4,-3.5671328E-4,-1.3287594E-3,3.461209E-4,-2.5414152E-4,-2.4901803E-5,-5.5123656E-4,1.5596185E-3,-3.495201E-4,-4.4557298E-4,2.3030576E-4,1.5936405E-3,4.2733338E-4],"categories":[],"categories_nodes":[],"categories_segments":[],"categories_sizes":[],"default_left":[0,0,0,0,0,0,0,0,0,0,0,0,0,0,0,0,0,0,0,0,0,0,0,0,0,0,0,0,0,0,0,0,0,0,0,0,0,0,0,0,0,0,0,0,0,0,0,0,0,0,0,0,0,0,0,0,0,0,0,0,0,0,0,0,0,0,0,0,0,0,0,0,0,0,0,0,0,0,0,0,0,0,0,0,0,0,0,0,0],"id":1,"left_children":[1,3,5,7,9,11,13,15,17,19,21,23,25,27,-1,-1,-1,-1,-1,29,31,33,35,37,39,41,43,45,47,49,51,53,55,57,59,61,63,65,67,69,71,73,75,77,79,81,83,85,87,-1,-1,-1,-1,-1,-1,-1,-1,-1,-1,-1,-1,-1,-1,-1,-1,-1,-1,-1,-1,-1,-1,-1,-1,-1,-1,-1,-1,-1,-1,-1,-1,-1,-1,-1,-1,-1,-1,-1,-1],"loss_changes":[7.435327E-2,4.452151E-2,3.0903578E-2,3.4880996E-2,3.2196652E-2,1.5295982E-2,2.5146162E-2,5.203007E-4,1.2232438E-3,1.8050281E-2,3.4025073E-2,8.617606E-3,1.3993643E-2,2.0165542E-2,0E0,0E0,0E0,0E0,0E0,1.9581687E-2,1.4182975E-2,2.3250416E-2,4.260335E-3,9.424685E-3,4.407231E-3,9.06717E-3,8.237766E-3,1.4000637E-2,1.6536603E-2,2.0152573E-2,1.94532E-2,7.1543567E-3,1.209553E-2,6.1784685E-3,1.8863966E-3,5.281344E-4,5.1452075E-3,1.2606585E-3,8.21094E-3,2.877884E-4,3.7147664E-5,3.5560424E-3,9.235017E-3,1.5571743E-2,2.9885035E-3,1.1483681E-2,4.5871334E-3,2.2500837E-3,6.7775324E-3,0E0,0E0,0E0,0E0,0E0,0E0,0E0,0E0,0E0,0E0,0E0,0E0,0E0,0E0,0E0,0E0,0E0,0E0,0E0,0E0,0E0,0E0,0E0,0E0,0E0,0E0,0E0,0E0,0E0,0E0,0E0,0E0,0E0,0E0,0E0,0E0,0E0,0E0,0E0,0E0],"parents":[2147483647,0,0,1,1,2,2,3,3,4,4,5,5,6,6,7,7,8,8,9,9,10,10,11,11,12,12,13,13,19,19,20,20,21,21,22,22,23,23,24,24,25,25,26,26,27,27,28,28,29,29,30,30,31,31,32,32,33,33,34,34,35,35,36,36,37,37,38,38,39,39,40,40,41,41,42,42,43,43,44,44,45,45,46,46,47,47,48,48],"right_children":[2,4,6,8,10,12,14,16,18,20,22,24,26,28,-1,-1,-1,-1,-1,30,32,34,36,38,40,42,44,46,48,50,52,54,56,58,60,62,64,66,68,70,72,74,76,78,80,82,84,86,88,-1,-1,-1,-1,-1,-1,-1,-1,-1,-1,-1,-1,-1,-1,-1,-1,-1,-1,-1,-1,-1,-1,-1,-1,-1,-1,-1,-1,-1,-1,-1,-1,-1,-1,-1,-1,-1,-1,-1,-1],"split_conditions":[2.7801907E-1,-2.1006348E0,7.059316E-2,1.0271575E0,1.5819392E0,-2.6390174E-1,2.0360587E0,-1.3849685E0,-2.0707386E0,1.093954E0,1.9928813E-1,1.2773302E0,-1.602612E-1,2.3359425E0,-1.9510812E-3,-3.7543388E-4,2.6128627E-4,1.1046663E-3,4.3133446E-3,6.618083E-1,-2.4056926E-1,2.0992652E-1,-1.18503E0,-7.277901E-1,-4.484026E-1,-8.00521E-1,1.3875167E0,1.8093632E0,8.2162775E-2,-1.5829232E0,-4.197758E-1,4.715871E-2,-2.2634122E-1,4.4439065E-1,1.7008749E0,-7.241555E-2,-9.634068E-1,-8.7892246E-1,3.5967976E-1,1.2349898E-1,1.2738158E0,1.145733E0,-3.9789194E-1,1.0524096E0,-3.435927E-1,1.2485825E0,1.1498156E0,6.2497747E-1,1.7403252E0,-1.0467555E-3,6.1451305E-5,-3.7390325E-4,5.402596E-4,-5.2313134E-4,-1.5138824E-3,6.029509E-4,-3.421008E-4,1.5175379E-3,8.5505325E-4,-1.4235829E-4,5.252772E-4,7.470029E-4,1.2105801E-4,6.2726566E-4,-1.9272517E-4,-1.1252494E-4,6.6316884E-4,3.927961E-5,-4.694248E-4,1.1005785E-4,-2.8155503E-4,1.3114904E-3,5.0318846E-4,7.7970915E-5,-1.0931104E-3,-1.6355417E-3,-8.07792E-4,-3.5671328E-4,-1.3287594E-3,3.461209E-4,-2.5414152E-4,-2.4901803E-5,-5.5123656E-4,1.5596185E-3,-3.495201E-4,-4.4557298E-4,2.3030576E-4,1.5936405E-3,4.2733338E-4],"split_indices":[14,21,5,6,7,7,22,1,1,22,4,22,22,13,0,0,0,0,0,6,30,12,22,23,7,5,7,5,29,22,23,5,18,31,10,8,11,7,24,4,12,8,13,17,5,17,1,22,2,0,0,0,0,0,0,0,0,0,0,0,0,0,0,0,0,0,0,0,0,0,0,0,0,0,0,0,0,0,0,0,0,0,0,0,0,0,0,0,0],"split_type":[0,0,0,0,0,0,0,0,0,0,0,0,0,0,0,0,0,0,0,0,0,0,0,0,0,0,0,0,0,0,0,0,0,0,0,0,0,0,0,0,0,0,0,0,0,0,0,0,0,0,0,0,0,0,0,0,0,0,0,0,0,0,0,0,0,0,0,0,0,0,0,0,0,0,0,0,0,0,0,0,0,0,0,0,0,0,0,0,0],"sum_hessian":[2.043E3,1.38E3,6.63E2,7E0,1.373E3,3.72E2,2.91E2,3E0,4E0,1.228E3,1.45E2,1.8E2,1.92E2,2.86E2,5E0,2E0,1E0,1E0,3E0,1.136E3,9.2E1,8.1E1,6.4E1,1.7E2,1E1,7.2E1,1.2E2,2.49E2,3.7E1,9.76E2,1.6E2,4.1E1,5.1E1,6.2E1,1.9E1,8E0,5.6E1,1.1E1,1.59E2,5E0,5E0,1.2E1,6E1,9.2E1,2.8E1,2.43E2,6E0,1.6E1,2.1E1,1.4E1,9.62E2,2.4E1,1.36E2,3.3E1,8E0,1.8E1,3.3E1,3.2E1,3E1,1.5E1,4E0,6E0,2E0,7E0,4.9E1,2E0,9E0,3.7E1,1.22E2,3E0,2E0,3E0,2E0,1E1,2E0,2E1,4E1,7.4E1,1.8E1,1.3E1,1.5E1,1.98E2,4.5E1,5E0,1E0,7E0,9E0,1.3E1,8E0],"tree_param":{"num_deleted":"0","num_feature":"34","num_nodes":"89","size_leaf_vector":"1"}},{"base_weights":[4.3209534E-6,4.0629464E-3,-8.436893E-3,7.68847E-2,3.6359907E-3,-9.821305E-3,2.3359813E-2,-4.90868E-3,1.2694247E-1,3.1948365E-2,2.8285815E-3,-1.4418102E-2,-3.63943E-3,2.461546E-3,1.5689237E-2,-3.6792518E-4,2.5736698E-4,1.0880963E-3,4.2162943E-3,3.801752E-2,-2.9143829E-2,3.95955E-3,-1.0759526E-2,-7.939801E-3,-2.0542154E-2,-2.2876998E-3,-1.9023041E-3,3.243517E-2,3.1958304E-3,2.0307044E-2,5.186281E-2,-2.4365415E-4,-1.0033171E-3,2.8027473E-3,1.7061237E-2,-7.1977004E-3,-4.716107E-2,-9.634435E-3,1.8817747E-2,-2.4980359E-2,-4.128537E-3,1.3325063E-2,-5.754689E-3,8.167515E-3,1.2154381E-3,-1.6421841E-2,1.1103541E-2,8.529705E-4,2.0157717E-5,1.7306854E-3,4.677086E-4,-1.7927894E-4,1.2432935E-4,8.1473496E-4,1.3854977E-4,1.9132288E-4,-4.6766768E-4,-1.7704605E-3,-1.1342156E-4,5.1015086E-4,-3.4790125E-4,-6.6240944E-5,1.101217E-3,-5.8643415E-4,-1.3654716E-3,6.570119E-4,-2.2603135E-4,2.533774E-4,1.9831208E-3,-2.532442E-4,2.9178674E-4,5.1440333E-4,-1.6234955E-5,7.814451E-5,-6.5489125E-4,-1.9103902E-5,4.5263226E-4],"categories":[],"categories_nodes":[],"categories_segments":[],"categories_sizes":[],"default_left":[0,0,0,0,0,0,0,0,0,0,0,0,0,0,0,0,0,0,0,0,0,0,0,0,0,0,0,0,0,0,0,0,0,0,0,0,0,0,0,0,0,0,0,0,0,0,0,0,0,0,0,0,0,0,0,0,0,0,0,0,0,0,0,0,0,0,0,0,0,0,0,0,0,0,0,0,0],"id":2,"left_children":[1,3,5,7,9,11,13,15,17,19,21,23,25,-1,27,-1,-1,-1,-1,29,31,33,35,37,39,41,-1,43,45,47,49,-1,-1,51,53,55,57,59,61,63,65,67,69,71,-1,73,75,-1,-1,-1,-1,-1,-1,-1,-1,-1,-1,-1,-1,-1,-1,-1,-1,-1,-1,-1,-1,-1,-1,-1,-1,-1,-1,-1,-1,-1,-1],"loss_changes":[7.0061155E-2,4.265803E-2,2.9458549E-2,3.337827E-2,3.131882E-2,1.8049035E-2,1.1318255E-2,5.0204434E-4,1.0685623E-3,1.5197538E-2,2.0589251E-2,1.4317714E-2,2.1911666E-2,0E0,5.3359014E-3,0E0,0E0,0E0,0E0,7.5290576E-3,8.995994E-5,1.8669931E-2,1.3015111E-2,8.297922E-3,1.351925E-2,1.458333E-2,0E0,1.8258533E-3,2.6644345E-3,2.693099E-3,3.1162389E-3,0E0,0E0,1.34036755E-2,1.2437673E-2,1.0921051E-2,4.4050682E-3,9.031493E-3,4.218595E-3,1.5509509E-2,3.7996734E-3,1.2059998E-2,9.232756E-3,3.220693E-4,0E0,5.713308E-4,5.709183E-4,0E0,0E0,0E0,0E0,0E0,0E0,0E0,0E0,0E0,0E0,0E0,0E0,0E0,0E0,0E0,0E0,0E0,0E0,0E0,0E0,0E0,0E0,0E0,0E0,0E0,0E0,0E0,0E0,0E0,0E0],"parents":[2147483647,0,0,1,1,2,2,3,3,4,4,5,5,6,6,7,7,8,8,9,9,10,10,11,11,12,12,14,14,19,19,20,20,21,21,22,22,23,23,24,24,25,25,27,27,28,28,29,29,30,30,33,33,34,34,35,35,36,36,37,37,38,38,39,39,40,40,41,41,42,42,43,43,45,45,46,46],"right_children":[2,4,6,8,10,12,14,16,18,20,22,24,26,-1,28,-1,-1,-1,-1,30,32,34,36,38,40,42,-1,44,46,48,50,-1,-1,52,54,56,58,60,62,64,66,68,70,72,-1,74,76,-1,-1,-1,-1,-1,-1,-1,-1,-1,-1,-1,-1,-1,-1,-1,-1,-1,-1,-1,-1,-1,-1,-1,-1,-1,-1,-1,-1,-1,-1],"split_conditions":[2.7801907E-1,-2.1006348E0,1.6237806E0,1.0271575E0,-1.6194638E0,4.715871E-2,2.9495856E-1,-1.3849685E0,-2.0707386E0,-1.050631E-1,1.093954E0,-2.6390174E-1,2.0360587E0,2.461546E-3,1.2738158E0,-3.6792518E-4,2.5736698E-4,1.0880963E-3,4.2162943E-3,5.933905E-1,-9.849234E-1,1.6668423E0,9.1738826E-1,1.2773302E0,1.3875167E0,-4.289432E-1,-1.9023041E-3,3.9976755E-1,-3.4179327E-1,8.490528E-2,-3.6825904E-1,-2.4365415E-4,-1.0033171E-3,-6.38412E-1,1.9928813E-1,-2.6799244E-1,2.2352192E0,-7.277901E-1,-4.484026E-1,1.038579E0,-1.4634344E-1,1.2291138E0,1.6907837E0,9.7713387E-1,1.2154381E-3,1.3340656E0,9.2976624E-1,8.529705E-4,2.0157717E-5,1.7306854E-3,4.677086E-4,-1.7927894E-4,1.2432935E-4,8.1473496E-4,1.3854977E-4,1.9132288E-4,-4.6766768E-4,-1.7704605E-3,-1.1342156E-4,5.1015086E-4,-3.4790125E-4,-6.6240944E-5,1.101217E-3,-5.8643415E-4,-1.3654716E-3,6.570119E-4,-2.2603135E-4,2.533774E-4,1.9831208E-3,-2.532442E-4,2.9178674E-4,5.1440333E-4,-1.6234955E-5,7.814451E-5,-6.5489125E-4,-1.9103902E-5,4.5263226E-4],"split_indices":[14,21,5,6,4,5,14,1,1,14,22,7,22,0,12,0,0,0,0,7,0,7,5,22,7,22,0,7,22,23,15,0,0,7,4,18,23,23,7,17,12,10,3,1,0,3,6,0,0,0,0,0,0,0,0,0,0,0,0,0,0,0,0,0,0,0,0,0,0,0,0,0,0,0,0,0,0],"split_type":[0,0,0,0,0,0,0,0,0,0,0,0,0,0,0,0,0,0,0,0,0,0,0,0,0,0,0,0,0,0,0,0,0,0,0,0,0,0,0,0,0,0,0,0,0,0,0,0,0,0,0,0,0,0,0,0,0,0,0,0,0,0,0,0,0,0,0,0,0,0,0,0,0,0,0,0,0],"sum_hessian":[2.043E3,1.38E3,6.63E2,7E0,1.373E3,6.36E2,2.7E1,3E0,4E0,3.7E1,1.336E3,3.64E2,2.72E2,2E0,2.5E1,2E0,1E0,1E0,3E0,3.4E1,3E0,1.234E3,1.02E2,1.78E2,1.86E2,2.67E2,5E0,1E1,1.5E1,1.6E1,1.8E1,1E0,2E0,1.135E3,9.9E1,9.4E1,8E0,1.68E2,1E1,1.46E2,4E1,4.8E1,2.19E2,3E0,7E0,4E0,1.1E1,1.1E1,5E0,1.5E1,3E0,1.5E2,9.85E2,5.4E1,4.5E1,3.6E1,5.8E1,6E0,2E0,1.1E1,1.57E2,5E0,5E0,1.17E2,2.9E1,4E0,3.6E1,4.5E1,3E0,1.87E2,3.2E1,1E0,2E0,1E0,3E0,3E0,8E0],"tree_param":{"num_deleted":"0","num_feature":"34","num_nodes":"77","size_leaf_vector":"1"}},{"base_weights":[9.004224E-6,3.9452263E-3,-8.17764E-3,7.522739E-2,3.5273205E-3,-1.1720083E-2,3.7302598E-3,-4.789059E-3,1.2419507E-1,3.1037929E-2,2.7427801E-3,3.3383293E-3,-1.3107823E-2,2.9403336E-2,-5.3105587E-3,-3.6056666E-4,2.5350647E-4,1.0717749E-3,4.121428E-3,3.696475E-2,-2.8581258E-2,3.8414912E-3,-1.0457714E-2,-1.3730168E-2,1.0938995E-2,-1.4111109E-2,1.0121503E-2,4.1309226E-2,-1.6195755E-2,-2.1509572E-3,-1.8547468E-3,1.9749194E-2,5.042263E-2,-2.3999934E-4,-9.832508E-4,2.7186165E-3,1.6558932E-2,-2.1666834E-2,5.257365E-4,9.526978E-3,-3.23639E-2,-2.228447E-3,1.8292509E-2,-1.687485E-2,-6.9491966E-3,-9.86926E-3,2.7374785E-2,-1.121618E-2,4.7129653E-2,2.0140264E-2,-2.9454656E-2,-1.6208569E-2,6.563316E-3,2.1610124E-4,9.888845E-4,1.6820099E-3,4.5718515E-4,-1.7393619E-4,1.2060326E-4,7.907373E-4,1.3448363E-4,-4.603256E-4,-1.6119912E-3,5.838153E-4,-3.1883485E-4,-1.7139588E-4,9.525483E-4,-4.4716557E-4,-1.1957347E-3,2.8920724E-5,-5.601844E-4,8.5831975E-4,2.1748253E-4,-3.4793915E-4,-6.6833734E-4,-7.621756E-5,-7.450411E-4,-5.200649E-5,-6.491831E-4,1.3741014E-3,5.457084E-4,-4.3215672E-4,-2.473574E-5,1.9277547E-3,8.758895E-4,1.439727E-4,7.6233916E-4,-1.0565704E-3,7.697234E-5,-1.5645317E-4,-9.6205965E-4,4.0330528E-4,-4.4604173E-4],"categories":[],"categories_nodes":[],"categories_segments":[],"categories_sizes":[],"default_left":[0,0,0,0,0,0,0,0,0,0,0,0,0,0,0,0,0,0,0,0,0,0,0,0,0,0,0,0,0,0,0,0,0,0,0,0,0,0,0,0,0,0,0,0,0,0,0,0,0,0,0,0,0,0,0,0,0,0,0,0,0,0,0,0,0,0,0,0,0,0,0,0,0,0,0,0,0,0,0,0,0,0,0,0,0,0,0,0,0,0,0,0,0],"id":3,"left_children":[1,3,5,7,9,11,13,15,17,19,21,23,25,27,29,-1,-1,-1,-1,31,33,35,37,39,41,43,45,47,49,51,-1,53,55,-1,-1,57,59,61,63,65,67,69,71,73,75,77,79,81,83,85,87,89,91,-1,-1,-1,-1,-1,-1,-1,-1,-1,-1,-1,-1,-1,-1,-1,-1,-1,-1,-1,-1,-1,-1,-1,-1,-1,-1,-1,-1,-1,-1,-1,-1,-1,-1,-1,-1,-1,-1,-1,-1],"loss_changes":[6.589904E-2,4.0873572E-2,2.8053273E-2,3.1940535E-2,2.9570162E-2,1.0743104E-2,3.5668314E-2,4.8443308E-4,9.2466176E-4,1.4483888E-2,1.943139E-2,5.8584E-3,1.1073172E-2,2.2384945E-2,2.0223176E-2,0E0,0E0,0E0,0E0,7.113166E-3,8.305302E-5,1.7590895E-2,1.2692218E-2,6.375475E-3,3.0424006E-3,8.7898895E-3,7.1682944E-3,1.0311667E-2,4.929206E-3,1.34590855E-2,0E0,2.5807442E-3,2.9187128E-3,0E0,0E0,1.2614896E-2,1.1715226E-2,9.515421E-3,1.1399905E-2,2.5523542E-3,4.52552E-4,6.479791E-4,2.0714733E-3,8.979276E-3,9.950887E-3,9.200745E-4,1.028657E-3,1.2068031E-4,7.0320293E-3,1.2064073E-4,1.3824021E-3,7.155763E-3,1.0226615E-2,0E0,0E0,0E0,0E0,0E0,0E0,0E0,0E0,0E0,0E0,0E0,0E0,0E0,0E0,0E0,0E0,0E0,0E0,0E0,0E0,0E0,0E0,0E0,0E0,0E0,0E0,0E0,0E0,0E0,0E0,0E0,0E0,0E0,0E0,0E0,0E0,0E0,0E0,0E0,0E0],"parents":[2147483647,0,0,1,1,2,2,3,3,4,4,5,5,6,6,7,7,8,8,9,9,10,10,11,11,12,12,13,13,14,14,19,19,20,20,21,21,22,22,23,23,24,24,25,25,26,26,27,27,28,28,29,29,31,31,32,32,35,35,36,36,37,37,38,38,39,39,40,40,41,41,42,42,43,43,44,44,45,45,46,46,47,47,48,48,49,49,50,50,51,51,52,52],"right_children":[2,4,6,8,10,12,14,16,18,20,22,24,26,28,30,-1,-1,-1,-1,32,34,36,38,40,42,44,46,48,50,52,-1,54,56,-1,-1,58,60,62,64,66,68,70,72,74,76,78,80,82,84,86,88,90,92,-1,-1,-1,-1,-1,-1,-1,-1,-1,-1,-1,-1,-1,-1,-1,-1,-1,-1,-1,-1,-1,-1,-1,-1,-1,-1,-1,-1,-1,-1,-1,-1,-1,-1,-1,-1,-1,-1,-1,-1],"split_conditions":[2.7801907E-1,-2.1006348E0,5.8849543E-1,1.0271575E0,-1.6194638E0,-6.9484365E-1,-1.3784094E-1,-1.3849685E0,-2.0707386E0,-1.050631E-1,1.093954E0,3.5157007E-1,1.4585584E0,6.479995E-1,2.0360587E0,-3.6056666E-4,2.5350647E-4,1.0717749E-3,4.121428E-3,5.933905E-1,-9.849234E-1,1.6668423E0,-2.4056926E-1,2.4741769E-1,3.202739E-1,4.715871E-2,9.623096E-1,-1.2688054E-1,6.583317E-1,3.6013076E-1,-1.8547468E-3,1.32154E-1,-3.6825904E-1,-2.3999934E-4,-9.832508E-4,-6.38412E-1,1.9928813E-1,4.715871E-2,-2.2634122E-1,-1.6291994E-1,2.2753714E-1,1.510768E0,8.914859E-1,4.608415E-1,4.378832E-1,5.446626E-1,2.7637768E-1,2.8099206E-1,5.995423E-1,6.949171E-1,6.7161536E-1,3.9217677E-2,7.8998846E-1,2.1610124E-4,9.888845E-4,1.6820099E-3,4.5718515E-4,-1.7393619E-4,1.2060326E-4,7.907373E-4,1.3448363E-4,-4.603256E-4,-1.6119912E-3,5.838153E-4,-3.1883485E-4,-1.7139588E-4,9.525483E-4,-4.4716557E-4,-1.1957347E-3,2.8920724E-5,-5.601844E-4,8.5831975E-4,2.1748253E-4,-3.4793915E-4,-6.6833734E-4,-7.621756E-5,-7.450411E-4,-5.200649E-5,-6.491831E-4,1.3741014E-3,5.457084E-4,-4.3215672E-4,-2.473574E-5,1.9277547E-3,8.758895E-4,1.439727E-4,7.6233916E-4,-1.0565704E-3,7.697234E-5,-1.5645317E-4,-9.6205965E-4,4.0330528E-4,-4.4604173E-4],"split_indices":[14,21,5,6,4,23,22,1,1,14,22,0,22,30,22,0,0,0,0,7,0,7,30,11,30,5,13,7,1,8,0,31,15,0,0,7,4,5,18,0,29,4,4,12,5,10,2,2,31,0,7,18,14,0,0,0,0,0,0,0,0,0,0,0,0,0,0,0,0,0,0,0,0,0,0,0,0,0,0,0,0,0,0,0,0,0,0,0,0,0,0,0,0],"split_type":[0,0,0,0,0,0,0,0,0,0,0,0,0,0,0,0,0,0,0,0,0,0,0,0,0,0,0,0,0,0,0,0,0,0,0,0,0,0,0,0,0,0,0,0,0,0,0,0,0,0,0,0,0,0,0,0,0,0,0,0,0,0,0,0,0,0,0,0,0,0,0,0,0,0,0,0,0,0,0,0,0,0,0,0,0,0,0,0,0,0,0,0,0],"sum_hessian":[2.043E3,1.38E3,6.63E2,7E0,1.373E3,5.11E2,1.52E2,3E0,4E0,3.7E1,1.336E3,4.3E1,4.68E2,3.9E1,1.13E2,2E0,1E0,1E0,3E0,3.4E1,3E0,1.234E3,1.02E2,1.3E1,3E1,4.49E2,1.9E1,3.1E1,8E0,1.08E2,5E0,1.6E1,1.8E1,1E0,2E0,1.135E3,9.9E1,5E1,5.2E1,6E0,7E0,1.1E1,1.9E1,3.23E2,1.26E2,9E0,1E1,3E0,2.8E1,2E0,6E0,4.1E1,6.7E1,9E0,7E0,1.5E1,3E0,1.5E2,9.85E2,5.4E1,4.5E1,4.3E1,7E0,1.9E1,3.3E1,4E0,2E0,3E0,4E0,1E1,1E0,9E0,1E1,1.65E2,1.58E2,1.02E2,2.4E1,6E0,3E0,2E0,8E0,2E0,1E0,1.3E1,1.5E1,1E0,1E0,5E0,1E0,2.5E1,1.6E1,5.1E1,1.6E1],"tree_param":{"num_deleted":"0","num_feature":"34","num_nodes":"93","size_leaf_vector":"1"}},{"base_weights":[1.0981149E-5,3.8314108E-3,-7.9348385E-3,7.3606335E-2,3.4223637E-3,-9.249745E-3,2.226266E-2,-4.6721525E-3,1.2150786E-1,3.0162605E-2,2.6597972E-3,-1.3570939E-2,-3.438442E-3,2.37376E-3,1.48453275E-2,-3.5335534E-4,2.4970388E-4,1.0556983E-3,4.0286956E-3,3.5951357E-2,-2.8029632E-2,-1.2487258E-3,6.218337E-3,-7.308808E-3,-1.94926E-2,-2.153056E-3,-1.8083781E-3,3.0953122E-2,2.8433846E-3,1.92276E-2,4.902254E-2,-2.3639934E-4,-9.635857E-4,5.1058745E-3,-7.5795655E-3,9.115687E-3,-1.4950443E-3,-3.864047E-2,-5.809028E-3,-3.0004319E-2,-1.2800044E-2,1.2780405E-2,-5.4693585E-3,8.024432E-3,1.1564498E-3,-1.5812479E-2,1.0379713E-2,8.119793E-4,1.0387322E-5,1.6722663E-3,5.7177077E-4,-2.0532384E-4,2.1743205E-4,-5.002851E-4,1.3614746E-4,3.3911678E-4,1.5863927E-6,-1.4111989E-3,-7.714532E-7,-2.1365781E-4,-1.4387899E-3,-2.1924607E-4,5.762523E-4,-1.6271575E-4,-1.0449004E-3,4.0715284E-4,-4.5435215E-4,2.436237E-4,1.895126E-3,-1.9215465E-4,1.0815281E-3,5.090341E-4,-1.8378774E-5,7.581776E-5,-6.3087686E-4,-2.774843E-5,4.2752115E-4],"categories":[],"categories_nodes":[],"categories_segments":[],"categories_sizes":[],"default_left":[0,0,0,0,0,0,0,0,0,0,0,0,0,0,0,0,0,0,0,0,0,0,0,0,0,0,0,0,0,0,0,0,0,0,0,0,0,0,0,0,0,0,0,0,0,0,0,0,0,0,0,0,0,0,0,0,0,0,0,0,0,0,0,0,0,0,0,0,0,0,0,0,0,0,0,0,0],"id":4,"left_children":[1,3,5,7,9,11,13,15,17,19,21,23,25,-1,27,-1,-1,-1,-1,29,31,33,35,37,39,41,-1,43,45,47,49,-1,-1,51,53,55,57,59,61,63,65,67,69,71,-1,73,75,-1,-1,-1,-1,-1,-1,-1,-1,-1,-1,-1,-1,-1,-1,-1,-1,-1,-1,-1,-1,-1,-1,-1,-1,-1,-1,-1,-1,-1,-1],"loss_changes":[6.2078975E-2,3.9163545E-2,2.6571292E-2,3.0564975E-2,2.79373E-2,1.5949532E-2,1.0634902E-2,4.6744407E-4,7.909164E-4,1.3808399E-2,1.8603612E-2,1.3392538E-2,1.9816251E-2,0E0,4.9384334E-3,0E0,0E0,0E0,0E0,6.7083947E-3,7.653865E-5,2.5705412E-2,1.5657477E-2,8.1868535E-3,1.27714425E-2,1.3342299E-2,0E0,1.6062995E-3,2.4136761E-3,2.5066142E-3,2.7631596E-3,0E0,0E0,8.214487E-3,3.5349593E-2,1.00935325E-2,1.2847523E-2,2.0082537E-3,6.5913233E-3,8.351572E-3,7.3792897E-3,1.0992209E-2,8.778916E-3,3.1937257E-4,0E0,5.3151534E-4,5.3830433E-4,0E0,0E0,0E0,0E0,0E0,0E0,0E0,0E0,0E0,0E0,0E0,0E0,0E0,0E0,0E0,0E0,0E0,0E0,0E0,0E0,0E0,0E0,0E0,0E0,0E0,0E0,0E0,0E0,0E0,0E0],"parents":[2147483647,0,0,1,1,2,2,3,3,4,4,5,5,6,6,7,7,8,8,9,9,10,10,11,11,12,12,14,14,19,19,20,20,21,21,22,22,23,23,24,24,25,25,27,27,28,28,29,29,30,30,33,33,34,34,35,35,36,36,37,37,38,38,39,39,40,40,41,41,42,42,43,43,45,45,46,46],"right_children":[2,4,6,8,10,12,14,16,18,20,22,24,26,-1,28,-1,-1,-1,-1,30,32,34,36,38,40,42,-1,44,46,48,50,-1,-1,52,54,56,58,60,62,64,66,68,70,72,-1,74,76,-1,-1,-1,-1,-1,-1,-1,-1,-1,-1,-1,-1,-1,-1,-1,-1,-1,-1,-1,-1,-1,-1,-1,-1,-1,-1,-1,-1,-1,-1],"split_conditions":[2.7801907E-1,-2.1006348E0,1.6237806E0,1.0271575E0,-1.6194638E0,4.715871E-2,2.9495856E-1,-1.3849685E0,-2.0707386E0,-1.050631E-1,-9.118165E-2,-2.6390174E-1,2.0360587E0,2.37376E-3,1.2738158E0,-3.5335534E-4,2.4970388E-4,1.0556983E-3,4.0286956E-3,5.933905E-1,-9.849234E-1,-4.4176537E-1,4.2173408E-2,-9.170337E-1,-1.602612E-1,-4.289432E-1,-1.8083781E-3,3.9976755E-1,-3.4179327E-1,8.490528E-2,-4.3958643E-1,-2.3639934E-4,-9.635857E-4,-7.5408804E-1,-6.3123642E-3,7.378027E-1,-1.3344231E0,-3.417206E-3,1.5525086E0,-8.00521E-1,-8.762151E-1,1.2291138E0,1.3050084E0,9.7713387E-1,1.1564498E-3,1.3340656E0,9.2976624E-1,8.119793E-4,1.0387322E-5,1.6722663E-3,5.7177077E-4,-2.0532384E-4,2.1743205E-4,-5.002851E-4,1.3614746E-4,3.3911678E-4,1.5863927E-6,-1.4111989E-3,-7.714532E-7,-2.1365781E-4,-1.4387899E-3,-2.1924607E-4,5.762523E-4,-1.6271575E-4,-1.0449004E-3,4.0715284E-4,-4.5435215E-4,2.436237E-4,1.895126E-3,-1.9215465E-4,1.0815281E-3,5.090341E-4,-1.8378774E-5,7.581776E-5,-6.3087686E-4,-2.774843E-5,4.2752115E-4],"split_indices":[14,21,5,6,4,5,14,1,1,14,7,7,22,0,12,0,0,0,0,7,0,18,1,7,22,22,0,7,22,23,15,0,0,21,5,29,3,2,22,5,6,10,6,1,0,3,6,0,0,0,0,0,0,0,0,0,0,0,0,0,0,0,0,0,0,0,0,0,0,0,0,0,0,0,0,0,0],"split_type":[0,0,0,0,0,0,0,0,0,0,0,0,0,0,0,0,0,0,0,0,0,0,0,0,0,0,0,0,0,0,0,0,0,0,0,0,0,0,0,0,0,0,0,0,0,0,0,0,0,0,0,0,0,0,0,0,0,0,0,0,0,0,0,0,0,0,0,0,0,0,0,0,0,0,0,0,0],"sum_hessian":[2.043E3,1.38E3,6.63E2,7E0,1.373E3,6.36E2,2.7E1,3E0,4E0,3.7E1,1.336E3,3.64E2,2.72E2,2E0,2.5E1,2E0,1E0,1E0,3E0,3.4E1,3E0,6.37E2,6.99E2,1.78E2,1.86E2,2.67E2,5E0,1E1,1.5E1,1.6E1,1.8E1,1E0,2E0,3.18E2,3.19E2,5.08E2,1.91E2,7E0,1.71E2,7.1E1,1.15E2,4.8E1,2.19E2,3E0,7E0,4E0,1.1E1,1.1E1,5E0,1.4E1,4E0,4.8E1,2.7E2,1.82E2,1.37E2,4.09E2,9.9E1,5E0,1.86E2,2E0,5E0,1.62E2,9E0,1.2E1,5.9E1,9E0,1.06E2,4.5E1,3E0,2.15E2,4E0,1E0,2E0,1E0,3E0,3E0,8E0],"tree_param":{"num_deleted":"0","num_feature":"34","num_nodes":"77","size_leaf_vector":"1"}},{"base_weights":[1.4545553E-5,3.720396E-3,-7.6929755E-3,7.202074E-2,3.3200153E-3,-1.1056268E-2,3.6122436E-3,-4.557901E-3,1.18879505E-1,2.9306842E-2,2.5789386E-3,1.3065322E-2,-1.1860725E-2,2.8139213E-2,-5.025397E-3,-3.4628823E-4,2.459583E-4,1.0398627E-3,3.93805E-3,3.4960426E-2,-2.7488738E-2,3.6327061E-3,-1.008108E-2,2.63308E-2,-1.6518594E-3,-1.27444295E-2,9.808676E-3,3.9587844E-2,-1.5693614E-2,-2.020748E-3,-1.7631685E-3,1.8699145E-2,4.7669973E-2,-2.3285334E-4,-9.44314E-4,2.553957E-3,1.585097E-2,-2.096732E-2,5.8456766E-4,1.052387E-3,3.6947633E-4,-4.484875E-4,4.283145E-3,-7.981904E-3,-1.6304487E-2,-9.567076E-3,2.6531298E-2,-1.1176636E-2,4.5224745E-2,-1.0901422E-3,8.089567E-3,-1.5646415E-2,6.4248214E-3,1.9796214E-4,9.446178E-4,1.5897343E-3,4.3403363E-4,1.16838775E-4,-1.607784E-4,7.602298E-4,1.2478846E-4,-4.4323312E-4,-1.5722174E-3,5.606804E-4,-3.024749E-4,4.718352E-5,3.081797E-4,-3.547859E-4,5.390085E-5,-5.2685675E-4,1.9229462E-4,-4.8827194E-5,-6.320831E-4,1.3350942E-3,5.2778283E-4,-4.2838606E-4,-2.801906E-5,2.4546122E-3,1.0828986E-3,4.786653E-4,-3.5061306E-4,-1.5051891E-4,-9.2947E-4,3.1837806E-4,-7.893034E-4],"categories":[],"categories_nodes":[],"categories_segments":[],"categories_sizes":[],"default_left":[0,0,0,0,0,0,0,0,0,0,0,0,0,0,0,0,0,0,0,0,0,0,0,0,0,0,0,0,0,0,0,0,0,0,0,0,0,0,0,0,0,0,0,0,0,0,0,0,0,0,0,0,0,0,0,0,0,0,0,0,0,0,0,0,0,0,0,0,0,0,0,0,0,0,0,0,0,0,0,0,0,0,0,0,0],"id":5,"left_children":[1,3,5,7,9,11,13,15,17,19,21,23,25,27,29,-1,-1,-1,-1,31,33,35,37,39,41,43,45,47,49,51,-1,53,55,-1,-1,57,59,61,63,-1,-1,-1,65,67,69,71,73,75,77,-1,79,81,83,-1,-1,-1,-1,-1,-1,-1,-1,-1,-1,-1,-1,-1,-1,-1,-1,-1,-1,-1,-1,-1,-1,-1,-1,-1,-1,-1,-1,-1,-1,-1,-1],"loss_changes":[5.8411233E-2,3.7525915E-2,2.5287043E-2,2.9248886E-2,2.6385225E-2,1.009021E-2,3.255525E-2,4.5105512E-4,6.66745E-4,1.3162766E-2,1.7873159E-2,3.3624123E-3,9.623088E-3,2.0694315E-2,1.8291159E-2,0E0,0E0,0E0,0E0,6.342184E-3,7.039704E-5,1.6237365E-2,1.1971461E-2,6.7148404E-4,7.743297E-4,7.957332E-3,6.734095E-3,9.662397E-3,4.712877E-3,1.2643865E-2,0E0,2.4228273E-3,2.5901496E-3,0E0,0E0,1.2072733E-2,1.098972E-2,9.155605E-3,1.0424051E-2,0E0,0E0,0E0,9.74795E-5,7.76516E-3,7.881179E-3,8.7893824E-4,9.841281E-4,1.1379126E-4,6.733995E-3,0E0,9.642844E-4,6.69086E-3,9.601118E-3,0E0,0E0,0E0,0E0,0E0,0E0,0E0,0E0,0E0,0E0,0E0,0E0,0E0,0E0,0E0,0E0,0E0,0E0,0E0,0E0,0E0,0E0,0E0,0E0,0E0,0E0,0E0,0E0,0E0,0E0,0E0,0E0],"parents":[2147483647,0,0,1,1,2,2,3,3,4,4,5,5,6,6,7,7,8,8,9,9,10,10,11,11,12,12,13,13,14,14,19,19,20,20,21,21,22,22,23,23,24,24,25,25,26,26,27,27,28,28,29,29,31,31,32,32,35,35,36,36,37,37,38,38,42,42,43,43,44,44,45,45,46,46,47,47,48,48,50,50,51,51,52,52],"right_children":[2,4,6,8,10,12,14,16,18,20,22,24,26,28,30,-1,-1,-1,-1,32,34,36,38,40,42,44,46,48,50,52,-1,54,56,-1,-1,58,60,62,64,-1,-1,-1,66,68,70,72,74,76,78,-1,80,82,84,-1,-1,-1,-1,-1,-1,-1,-1,-1,-1,-1,-1,-1,-1,-1,-1,-1,-1,-1,-1,-1,-1,-1,-1,-1,-1,-1,-1,-1,-1,-1,-1],"split_conditions":[2.7801907E-1,-2.1006348E0,5.8849543E-1,1.0271575E0,-1.6194638E0,-8.1020564E-1,-1.3784094E-1,-1.3849685E0,-2.0707386E0,-1.050631E-1,1.093954E0,1.4079848E-1,1.4585584E0,6.479995E-1,2.0360587E0,-3.4628823E-4,2.459583E-4,1.0398627E-3,3.93805E-3,5.933905E-1,-9.849234E-1,1.6668423E0,-2.4056926E-1,3.0753922E-1,-1.4784439E-1,4.8290056E-1,9.623096E-1,-1.2688054E-1,-4.4176537E-1,3.6013076E-1,-1.7631685E-3,1.32154E-1,-3.6825904E-1,-2.3285334E-4,-9.44314E-4,2.2416604E-1,1.9928813E-1,4.715871E-2,-2.2634122E-1,1.052387E-3,3.6947633E-4,-4.484875E-4,2.1737075E0,-2.6249781E-2,1.9974586E0,5.446626E-1,2.7637768E-1,2.8099206E-1,3.5802898E-1,-1.0901422E-3,1.1386576E0,3.9217677E-2,9.140843E-1,1.9796214E-4,9.446178E-4,1.5897343E-3,4.3403363E-4,1.16838775E-4,-1.607784E-4,7.602298E-4,1.2478846E-4,-4.4323312E-4,-1.5722174E-3,5.606804E-4,-3.024749E-4,4.718352E-5,3.081797E-4,-3.547859E-4,5.390085E-5,-5.2685675E-4,1.9229462E-4,-4.8827194E-5,-6.320831E-4,1.3350942E-3,5.2778283E-4,-4.2838606E-4,-2.801906E-5,2.4546122E-3,1.0828986E-3,4.786653E-4,-3.5061306E-4,-1.5051891E-4,-9.2947E-4,3.1837806E-4,-7.893034E-4],"split_indices":[14,21,5,6,4,23,22,1,1,14,22,5,22,30,22,0,0,0,0,7,0,7,30,10,22,2,13,7,18,8,0,31,15,0,0,17,4,5,18,0,0,0,1,13,3,10,2,2,14,0,0,18,14,0,0,0,0,0,0,0,0,0,0,0,0,0,0,0,0,0,0,0,0,0,0,0,0,0,0,0,0,0,0,0,0],"split_type":[0,0,0,0,0,0,0,0,0,0,0,0,0,0,0,0,0,0,0,0,0,0,0,0,0,0,0,0,0,0,0,0,0,0,0,0,0,0,0,0,0,0,0,0,0,0,0,0,0,0,0,0,0,0,0,0,0,0,0,0,0,0,0,0,0,0,0,0,0,0,0,0,0,0,0,0,0,0,0,0,0,0,0,0,0],"sum_hessian":[2.043E3,1.38E3,6.63E2,7E0,1.373E3,5.11E2,1.52E2,3E0,4E0,3.7E1,1.336E3,1.6E1,4.95E2,3.9E1,1.13E2,2E0,1E0,1E0,3E0,3.4E1,3E0,1.234E3,1.02E2,8E0,8E0,4.76E2,1.9E1,3.1E1,8E0,1.08E2,5E0,1.6E1,1.8E1,1E0,2E0,1.135E3,9.9E1,5E1,5.2E1,4E0,4E0,2E0,6E0,2.05E2,2.71E2,9E0,1E1,3E0,2.8E1,4E0,4E0,4.1E1,6.7E1,9E0,7E0,1.5E1,3E0,9.71E2,1.64E2,5.4E1,4.5E1,4.3E1,7E0,1.9E1,3.3E1,5E0,1E0,1.47E2,5.8E1,2.57E2,1.4E1,6E0,3E0,2E0,8E0,2E0,1E0,4E0,2.4E1,3E0,1E0,2.5E1,1.6E1,6E1,7E0],"tree_param":{"num_deleted":"0","num_feature":"34","num_nodes":"85","size_leaf_vector":"1"}},{"base_weights":[1.735315E-5,3.7424562E-3,-7.202735E-3,7.046982E-2,3.3418888E-3,-9.127213E-3,1.2980393E-2,-4.4462467E-3,1.16308704E-1,2.8479984E-2,2.6073374E-3,-6.5730005E-3,-1.873771E-2,-8.328812E-3,3.0147374E-2,-3.3936245E-4,2.4226893E-4,1.0242648E-3,3.8494437E-3,3.400208E-2,-2.6958369E-2,3.6521787E-3,-9.751447E-3,-9.33012E-3,5.55199E-3,-5.4574762E-3,-2.6419543E-2,-2.78482E-2,5.9395093E-3,5.602077E-2,4.0365355E-3,4.4230996E-3,3.996935E-2,-2.2936055E-4,-9.254277E-4,-5.6352266E-3,4.9291467E-3,-2.0499168E-2,5.719024E-4,1.252906E-2,-1.0778328E-2,2.8079111E-2,-2.1410084E-3,5.6085265E-3,-1.8691849E-2,-1.9555299E-2,-4.0186454E-2,-1.3400422E-2,-1.0876108E-3,1.0516805E-2,-7.1493606E-3,2.145775E-3,7.0958113E-4,-1.5131783E-2,1.2572949E-2,-1.6379634E-4,5.826109E-4,4.9106544E-4,1.4020369E-3,2.060058E-5,-5.5670313E-4,-1.3583426E-5,2.1687131E-4,-4.3025994E-4,-1.5309468E-3,5.4470106E-4,-2.9366752E-4,-3.9991897E-5,6.835047E-4,-4.1627142E-4,-8.938852E-5,-6.4550515E-4,1.1722243E-3,3.0364718E-5,-1.6562871E-3,-5.0755386E-4,4.6395732E-4,5.689298E-5,-1.1316744E-3,-1.1767406E-3,-3.132899E-4,-5.68062E-4,-1.4928004E-3,-4.486608E-4,-8.4386054E-5,3.9052655E-4,-6.4746055E-5,1.3223164E-4,-3.3421683E-4,-4.9735536E-4,-1.1847207E-4,6.402475E-4,-1.717554E-4],"categories":[],"categories_nodes":[],"categories_segments":[],"categories_sizes":[],"default_left":[0,0,0,0,0,0,0,0,0,0,0,0,0,0,0,0,0,0,0,0,0,0,0,0,0,0,0,0,0,0,0,0,0,0,0,0,0,0,0,0,0,0,0,0,0,0,0,0,0,0,0,0,0,0,0,0,0,0,0,0,0,0,0,0,0,0,0,0,0,0,0,0,0,0,0,0,0,0,0,0,0,0,0,0,0,0,0,0,0,0,0,0,0],"id":6,"left_children":[1,3,5,7,9,11,13,15,17,19,21,23,25,27,29,-1,-1,-1,-1,31,33,35,37,39,41,43,45,47,49,51,53,55,57,-1,-1,59,61,63,65,67,69,71,73,75,77,79,81,83,-1,85,87,-1,-1,89,91,-1,-1,-1,-1,-1,-1,-1,-1,-1,-1,-1,-1,-1,-1,-1,-1,-1,-1,-1,-1,-1,-1,-1,-1,-1,-1,-1,-1,-1,-1,-1,-1,-1,-1,-1,-1,-1,-1],"loss_changes":[5.5001505E-2,3.582165E-2,2.7152501E-2,2.7989686E-2,2.4706073E-2,1.5488889E-2,2.2565793E-2,4.3524482E-4,5.515516E-4,1.254981E-2,1.6887035E-2,1.6900547E-2,1.3424017E-2,7.963655E-3,2.2743452E-2,0E0,0E0,0E0,0E0,6.000906E-3,6.4609805E-5,1.4306877E-2,1.1328877E-2,1.3145927E-2,1.6350422E-2,7.427414E-3,7.1520954E-3,9.7147375E-4,1.0936861E-3,6.8399906E-3,3.1355678E-3,1.1435562E-3,3.8652234E-3,0E0,0E0,1.1939319E-2,1.3111448E-2,8.667761E-3,9.83396E-3,3.726224E-3,9.282723E-3,1.3928173E-2,1.1936594E-2,6.478829E-3,9.08312E-3,9.985914E-3,4.550878E-3,5.6710443E-5,0E0,4.4015516E-4,2.797377E-4,0E0,0E0,3.160059E-5,2.2080292E-3,0E0,0E0,0E0,0E0,0E0,0E0,0E0,0E0,0E0,0E0,0E0,0E0,0E0,0E0,0E0,0E0,0E0,0E0,0E0,0E0,0E0,0E0,0E0,0E0,0E0,0E0,0E0,0E0,0E0,0E0,0E0,0E0,0E0,0E0,0E0,0E0,0E0,0E0],"parents":[2147483647,0,0,1,1,2,2,3,3,4,4,5,5,6,6,7,7,8,8,9,9,10,10,11,11,12,12,13,13,14,14,19,19,20,20,21,21,22,22,23,23,24,24,25,25,26,26,27,27,28,28,29,29,30,30,31,31,32,32,35,35,36,36,37,37,38,38,39,39,40,40,41,41,42,42,43,43,44,44,45,45,46,46,47,47,49,49,50,50,53,53,54,54],"right_children":[2,4,6,8,10,12,14,16,18,20,22,24,26,28,30,-1,-1,-1,-1,32,34,36,38,40,42,44,46,48,50,52,54,56,58,-1,-1,60,62,64,66,68,70,72,74,76,78,80,82,84,-1,86,88,-1,-1,90,92,-1,-1,-1,-1,-1,-1,-1,-1,-1,-1,-1,-1,-1,-1,-1,-1,-1,-1,-1,-1,-1,-1,-1,-1,-1,-1,-1,-1,-1,-1,-1,-1,-1,-1,-1,-1,-1,-1],"split_conditions":[2.5673455E-1,-2.1006348E0,2.305768E0,1.0271575E0,-1.6194638E0,1.038579E0,4.1714528E-1,-1.3849685E0,-2.0707386E0,-1.050631E-1,1.093954E0,5.6343955E-1,4.5771605E-1,3.7606627E-1,2.483971E0,-3.3936245E-4,2.4226893E-4,1.0242648E-3,3.8494437E-3,-5.5217702E-2,-9.849234E-1,-6.38412E-1,-2.4056926E-1,-7.277901E-1,-2.0442377E-1,5.4170865E-1,1.090454E0,8.679196E-2,1.7134261E0,1.260369E0,1.2806028E0,-7.531431E-1,-3.547173E-1,-2.2936055E-4,-9.254277E-4,-4.1545413E-2,-3.4156594E-1,3.2335795E-2,-2.2634122E-1,2.9599777E-1,4.5450243E-1,-1.2688054E-1,1.8790886E0,2.832868E-1,7.3535967E-1,-4.4176537E-1,4.8834702E-1,5.5557895E-1,-1.0876108E-3,7.348058E-1,1.3692752E-1,2.145775E-3,7.0958113E-4,1.251389E0,2.5453222E0,-1.6379634E-4,5.826109E-4,4.9106544E-4,1.4020369E-3,2.060058E-5,-5.5670313E-4,-1.3583426E-5,2.1687131E-4,-4.3025994E-4,-1.5309468E-3,5.4470106E-4,-2.9366752E-4,-3.9991897E-5,6.835047E-4,-4.1627142E-4,-8.938852E-5,-6.4550515E-4,1.1722243E-3,3.0364718E-5,-1.6562871E-3,-5.0755386E-4,4.6395732E-4,5.689298E-5,-1.1316744E-3,-1.1767406E-3,-3.132899E-4,-5.68062E-4,-1.4928004E-3,-4.486608E-4,-8.4386054E-5,3.9052655E-4,-6.4746055E-5,1.3223164E-4,-3.3421683E-4,-4.9735536E-4,-1.1847207E-4,6.402475E-4,-1.717554E-4],"split_indices":[14,21,13,6,4,17,7,1,1,14,22,5,30,22,3,0,0,0,0,7,0,7,30,23,22,4,11,22,11,8,24,3,5,0,0,18,23,5,18,30,22,7,12,0,2,18,18,0,0,28,0,0,0,0,2,0,0,0,0,0,0,0,0,0,0,0,0,0,0,0,0,0,0,0,0,0,0,0,0,0,0,0,0,0,0,0,0,0,0,0,0,0,0],"split_type":[0,0,0,0,0,0,0,0,0,0,0,0,0,0,0,0,0,0,0,0,0,0,0,0,0,0,0,0,0,0,0,0,0,0,0,0,0,0,0,0,0,0,0,0,0,0,0,0,0,0,0,0,0,0,0,0,0,0,0,0,0,0,0,0,0,0,0,0,0,0,0,0,0,0,0,0,0,0,0,0,0,0,0,0,0,0,0,0,0,0,0,0,0],"sum_hessian":[2.043E3,1.348E3,6.95E2,7E0,1.341E3,6.35E2,6E1,3E0,4E0,3.7E1,1.304E3,5.03E2,1.32E2,2.7E1,3.3E1,2E0,1E0,1E0,3E0,3.4E1,3E0,1.203E3,1.01E2,4.1E2,9.3E1,4.9E1,8.3E1,1.1E1,1.6E1,1.6E1,1.7E1,6E0,2.8E1,1E0,2E0,1.45E2,1.058E3,4.9E1,5.2E1,2.5E1,3.85E2,2.3E1,7E1,2.7E1,2.2E1,5.7E1,2.6E1,5E0,6E0,1.2E1,4E0,1E1,6E0,5E0,1.2E1,4E0,2E0,7E0,2.1E1,9.8E1,4.7E1,3.17E2,7.41E2,4.2E1,7E0,1.9E1,3.3E1,1.1E1,1.4E1,2.75E2,1.1E2,4E0,1.9E1,6.7E1,3E0,8E0,1.9E1,1.1E1,1.1E1,1.7E1,4E1,9E0,1.7E1,4E0,1E0,1E1,2E0,1E0,3E0,4E0,1E0,8E0,4E0],"tree_param":{"num_deleted":"0","num_feature":"34","num_nodes":"93","size_leaf_vector":"1"}},{"base_weights":[1.6573864E-5,3.5082286E-3,-7.245462E-3,6.89528E-2,3.1246298E-3,-8.467394E-3,2.0812266E-2,-4.337132E-3,1.13794185E-1,1.6873161E-3,1.5202259E-2,-1.2491019E-2,-3.0568063E-3,2.2440127E-3,1.3782392E-2,-3.3257523E-4,2.3863491E-4,1.0089008E-3,3.7628317E-3,3.1828387E-3,-5.5019725E-3,2.7033295E-2,4.30695E-5,-6.5185134E-3,-1.8203707E-2,-1.8564666E-3,-1.6848753E-3,2.9152296E-2,2.3541835E-3,2.2897644E-3,2.0071331E-2,-2.8956827E-2,-8.591528E-4,3.5839286E-2,-2.0572343E-3,1.9560246E-2,-3.0393456E-3,-3.694861E-2,-5.073662E-3,-2.2419652E-2,-2.7468405E-3,1.2396938E-2,-5.02265E-3,-9.2031005E-5,3.2681067E-2,-1.5375366E-2,9.545314E-3,9.7621625E-5,-4.7586008E-4,1.931873E-3,3.098204E-4,-2.2505443E-3,-6.6882785E-4,4.0477848E-5,-7.4841623E-4,1.3686775E-3,7.2806096E-4,-2.1544316E-4,4.4255E-4,7.103512E-4,1.0293594E-4,5.918513E-4,-1.9864182E-4,-1.9396353E-4,-1.3809626E-3,-2.1761753E-5,-3.8540305E-4,-5.2793964E-4,-1.2905675E-3,6.5653137E-4,-1.8003433E-4,2.4228888E-4,1.7695527E-3,-1.7771064E-4,1.0472016E-3,1.1019001E-3,3.2970597E-4,7.219986E-5,-6.1267614E-4,-3.763887E-5,3.9854093E-4],"categories":[],"categories_nodes":[],"categories_segments":[],"categories_sizes":[],"default_left":[0,0,0,0,0,0,0,0,0,0,0,0,0,0,0,0,0,0,0,0,0,0,0,0,0,0,0,0,0,0,0,0,0,0,0,0,0,0,0,0,0,0,0,0,0,0,0,0,0,0,0,0,0,0,0,0,0,0,0,0,0,0,0,0,0,0,0,0,0,0,0,0,0,0,0,0,0,0,0,0,0],"id":7,"left_children":[1,3,5,7,9,11,13,15,17,19,21,23,25,-1,27,-1,-1,-1,-1,29,31,33,35,37,39,41,-1,43,45,47,49,51,53,55,57,59,61,63,65,67,69,71,73,-1,75,77,79,-1,-1,-1,-1,-1,-1,-1,-1,-1,-1,-1,-1,-1,-1,-1,-1,-1,-1,-1,-1,-1,-1,-1,-1,-1,-1,-1,-1,-1,-1,-1,-1,-1,-1],"loss_changes":[5.1854145E-2,3.445381E-2,2.2941232E-2,2.678492E-2,2.3826085E-2,1.38294175E-2,9.595909E-3,4.1999275E-4,4.44822E-4,1.3231404E-2,2.6183777E-2,1.23347975E-2,1.7298091E-2,0E0,4.4982824E-3,0E0,0E0,0E0,0E0,1.5308209E-2,2.3061216E-2,2.1079745E-2,3.969853E-3,7.7265888E-3,1.2059156E-2,1.215681E-2,0E0,1.3509225E-3,2.186691E-3,1.6995067E-2,2.1361696E-2,9.068556E-3,9.502621E-3,6.024301E-3,1.8285831E-3,5.1654805E-4,4.77927E-3,1.917527E-3,5.8380067E-3,1.3744071E-2,3.4177883E-3,9.386865E-3,8.12191E-3,0E0,4.7458056E-4,4.9789494E-4,5.012888E-4,0E0,0E0,0E0,0E0,0E0,0E0,0E0,0E0,0E0,0E0,0E0,0E0,0E0,0E0,0E0,0E0,0E0,0E0,0E0,0E0,0E0,0E0,0E0,0E0,0E0,0E0,0E0,0E0,0E0,0E0,0E0,0E0,0E0,0E0],"parents":[2147483647,0,0,1,1,2,2,3,3,4,4,5,5,6,6,7,7,8,8,9,9,10,10,11,11,12,12,14,14,19,19,20,20,21,21,22,22,23,23,24,24,25,25,27,27,28,28,29,29,30,30,31,31,32,32,33,33,34,34,35,35,36,36,37,37,38,38,39,39,40,40,41,41,42,42,44,44,45,45,46,46],"right_children":[2,4,6,8,10,12,14,16,18,20,22,24,26,-1,28,-1,-1,-1,-1,30,32,34,36,38,40,42,-1,44,46,48,50,52,54,56,58,60,62,64,66,68,70,72,74,-1,76,78,80,-1,-1,-1,-1,-1,-1,-1,-1,-1,-1,-1,-1,-1,-1,-1,-1,-1,-1,-1,-1,-1,-1,-1,-1,-1,-1,-1,-1,-1,-1,-1,-1,-1,-1],"split_conditions":[2.7801907E-1,-2.1006348E0,1.6237806E0,1.0271575E0,1.5819392E0,4.715871E-2,2.9495856E-1,-1.3849685E0,-2.0707386E0,1.9722958E-1,1.9928813E-1,-2.6049778E-1,2.0360587E0,2.2440127E-3,1.2738158E0,-3.3257523E-4,2.3863491E-4,1.0089008E-3,3.7628317E-3,9.4025916E-1,-5.0838983E-1,2.0992652E-1,-1.18503E0,-9.170337E-1,1.3875167E0,-4.289432E-1,-1.6848753E-3,-5.628995E-1,-3.4179327E-1,1.093954E0,-3.106886E-1,-4.0202957E-1,1.2368932E0,4.4439065E-1,1.7008749E0,-7.241555E-2,-9.634068E-1,-3.417206E-3,2.700765E-1,1.0659978E0,-1.4634344E-1,1.2291138E0,1.3050084E0,-9.2031005E-5,1.226822E0,1.3340656E0,9.2976624E-1,9.7621625E-5,-4.7586008E-4,1.931873E-3,3.098204E-4,-2.2505443E-3,-6.6882785E-4,4.0477848E-5,-7.4841623E-4,1.3686775E-3,7.2806096E-4,-2.1544316E-4,4.4255E-4,7.103512E-4,1.0293594E-4,5.918513E-4,-1.9864182E-4,-1.9396353E-4,-1.3809626E-3,-2.1761753E-5,-3.8540305E-4,-5.2793964E-4,-1.2905675E-3,6.5653137E-4,-1.8003433E-4,2.4228888E-4,1.7695527E-3,-1.7771064E-4,1.0472016E-3,1.1019001E-3,3.2970597E-4,7.219986E-5,-6.1267614E-4,-3.763887E-5,3.9854093E-4],"split_indices":[14,21,5,6,7,5,14,1,1,17,4,7,22,0,12,0,0,0,0,13,22,12,22,7,7,22,0,13,22,22,23,13,18,31,10,8,11,2,11,17,12,10,6,0,31,3,6,0,0,0,0,0,0,0,0,0,0,0,0,0,0,0,0,0,0,0,0,0,0,0,0,0,0,0,0,0,0,0,0,0,0],"split_type":[0,0,0,0,0,0,0,0,0,0,0,0,0,0,0,0,0,0,0,0,0,0,0,0,0,0,0,0,0,0,0,0,0,0,0,0,0,0,0,0,0,0,0,0,0,0,0,0,0,0,0,0,0,0,0,0,0,0,0,0,0,0,0,0,0,0,0,0,0,0,0,0,0,0,0,0,0,0,0,0,0],"sum_hessian":[2.043E3,1.38E3,6.63E2,7E0,1.373E3,6.36E2,2.7E1,3E0,4E0,1.228E3,1.45E2,3.64E2,2.72E2,2E0,2.5E1,2E0,1E0,1E0,3E0,1.017E3,2.11E2,8.1E1,6.4E1,1.79E2,1.85E2,2.67E2,5E0,1E1,1.5E1,9.67E2,5E1,3.4E1,1.77E2,6.2E1,1.9E1,8E0,5.6E1,7E0,1.72E2,1.45E2,4E1,4.8E1,2.19E2,1E0,9E0,4E0,1.1E1,9.19E2,4.8E1,8E0,4.2E1,3E0,3.1E1,1.63E2,1.4E1,3.2E1,3E1,1.5E1,4E0,6E0,2E0,7E0,4.9E1,2E0,5E0,1.11E2,6.1E1,1.19E2,2.6E1,4E0,3.6E1,4.5E1,3E0,2.15E2,4E0,7E0,2E0,1E0,3E0,3E0,8E0],"tree_param":{"num_deleted":"0","num_feature":"34","num_nodes":"81","size_leaf_vector":"1"}},{"base_weights":[1.9853873E-5,3.5315063E-3,-6.7865243E-3,6.746894E-2,3.1477278E-3,-8.636809E-3,1.2616224E-2,-4.2305035E-3,1.1133471E-1,4.1933548E-2,2.7072646E-3,-6.185159E-3,-1.7862333E-2,-7.895332E-3,2.9137028E-2,-3.2592373E-4,2.3505538E-4,9.937674E-4,3.6781677E-3,5.1202405E-2,3.6435858E-3,-1.124616E-3,6.157018E-3,-8.813046E-3,5.3706556E-3,-5.104212E-3,-2.5243806E-2,-2.670757E-2,5.848325E-3,5.407564E-2,3.9651725E-3,1.6634304E-3,5.99521E-4,2.9420241E-4,-2.226885E-4,4.9712756E-3,-7.1976576E-3,8.729093E-3,-1.14309E-3,1.2318253E-2,-1.0213566E-2,2.695876E-2,-2.0023745E-3,5.5919965E-3,-1.7903762E-2,-1.8644249E-2,-3.8485676E-2,-1.2904544E-2,-1.041701E-3,1.033103E-2,-6.9763726E-3,2.0642886E-3,2.3197148E-2,-1.4630439E-2,1.2242748E-2,-2.0693528E-4,2.1870904E-4,-4.771662E-4,1.2887681E-4,3.2775363E-4,-6.1120127E-6,-1.3815715E-3,1.1313851E-5,-3.6018624E-5,6.69364E-4,-3.967894E-4,-7.891181E-5,-6.3330797E-4,1.1288422E-3,3.0950025E-5,-1.5924148E-3,-4.8254555E-4,4.5200935E-4,5.6102388E-5,-1.0855687E-3,-1.125507E-3,-2.971187E-4,-5.4787734E-4,-1.4274791E-3,-4.3238176E-4,-8.045461E-5,3.053529E-6,4.0168874E-4,1.2427007E-4,-3.23749E-4,2.0789454E-4,7.42602E-4,-4.81098E-4,-1.13994465E-4,6.2367105E-4,-1.6767342E-4],"categories":[],"categories_nodes":[],"categories_segments":[],"categories_sizes":[],"default_left":[0,0,0,0,0,0,0,0,0,0,0,0,0,0,0,0,0,0,0,0,0,0,0,0,0,0,0,0,0,0,0,0,0,0,0,0,0,0,0,0,0,0,0,0,0,0,0,0,0,0,0,0,0,0,0,0,0,0,0,0,0,0,0,0,0,0,0,0,0,0,0,0,0,0,0,0,0,0,0,0,0,0,0,0,0,0,0,0,0,0,0],"id":8,"left_children":[1,3,5,7,9,11,13,15,17,19,21,23,25,27,29,-1,-1,-1,-1,31,33,35,37,39,41,43,45,47,49,51,53,-1,-1,-1,-1,55,57,59,61,63,65,67,69,71,73,75,77,79,-1,81,83,-1,85,87,89,-1,-1,-1,-1,-1,-1,-1,-1,-1,-1,-1,-1,-1,-1,-1,-1,-1,-1,-1,-1,-1,-1,-1,-1,-1,-1,-1,-1,-1,-1,-1,-1,-1,-1,-1,-1],"loss_changes":[4.887891E-2,3.288915E-2,2.509579E-2,2.5632214E-2,2.2812832E-2,1.4274407E-2,2.090096E-2,4.0527902E-4,3.4604967E-4,5.137004E-3,1.756181E-2,1.5352486E-2,1.2396257E-2,7.3955636E-3,2.1129118E-2,0E0,0E0,0E0,0E0,4.8229843E-4,3.456144E-4,2.3358764E-2,1.3134701E-2,1.2289282E-2,1.5015938E-2,6.945451E-3,6.6232607E-3,8.7961834E-4,1.0493918E-3,6.138187E-3,2.9497957E-3,0E0,0E0,0E0,0E0,8.720597E-3,3.169503E-2,1.0144085E-2,1.2511131E-2,3.539545E-3,8.783836E-3,1.310307E-2,1.1057856E-2,5.993207E-3,8.382231E-3,9.195678E-3,4.098177E-3,5.3853844E-5,0E0,4.0536968E-4,2.5680644E-4,0E0,5.6757126E-6,3.0441443E-5,2.0973426E-3,0E0,0E0,0E0,0E0,0E0,0E0,0E0,0E0,0E0,0E0,0E0,0E0,0E0,0E0,0E0,0E0,0E0,0E0,0E0,0E0,0E0,0E0,0E0,0E0,0E0,0E0,0E0,0E0,0E0,0E0,0E0,0E0,0E0,0E0,0E0,0E0],"parents":[2147483647,0,0,1,1,2,2,3,3,4,4,5,5,6,6,7,7,8,8,9,9,10,10,11,11,12,12,13,13,14,14,19,19,20,20,21,21,22,22,23,23,24,24,25,25,26,26,27,27,28,28,29,29,30,30,35,35,36,36,37,37,38,38,39,39,40,40,41,41,42,42,43,43,44,44,45,45,46,46,47,47,49,49,50,50,52,52,53,53,54,54],"right_children":[2,4,6,8,10,12,14,16,18,20,22,24,26,28,30,-1,-1,-1,-1,32,34,36,38,40,42,44,46,48,50,52,54,-1,-1,-1,-1,56,58,60,62,64,66,68,70,72,74,76,78,80,-1,82,84,-1,86,88,90,-1,-1,-1,-1,-1,-1,-1,-1,-1,-1,-1,-1,-1,-1,-1,-1,-1,-1,-1,-1,-1,-1,-1,-1,-1,-1,-1,-1,-1,-1,-1,-1,-1,-1,-1,-1],"split_conditions":[2.5673455E-1,-2.1006348E0,2.305768E0,1.0271575E0,-1.8203365E0,1.038579E0,4.1714528E-1,-1.3849685E0,-2.0707386E0,-8.362795E-2,-9.118165E-2,5.6343955E-1,4.5771605E-1,3.7606627E-1,2.483971E0,-3.2592373E-4,2.3505538E-4,9.937674E-4,3.6781677E-3,-1.2829621E-1,-3.9642945E-1,-4.4176537E-1,4.2173408E-2,-7.277901E-1,-2.0442377E-1,5.4170865E-1,1.090454E0,8.679196E-2,1.7134261E0,1.260369E0,1.2806028E0,1.6634304E-3,5.99521E-4,2.9420241E-4,-2.226885E-4,-7.5408804E-1,-6.3123642E-3,7.378027E-1,-1.3344231E0,2.9599777E-1,4.5450243E-1,-1.2688054E-1,1.8790886E0,2.832868E-1,7.3535967E-1,-4.4176537E-1,4.8834702E-1,5.5557895E-1,-1.041701E-3,-3.5305122E-1,1.3692752E-1,2.0642886E-3,1.0266066E0,1.251389E0,2.5453222E0,-2.0693528E-4,2.1870904E-4,-4.771662E-4,1.2887681E-4,3.2775363E-4,-6.1120127E-6,-1.3815715E-3,1.1313851E-5,-3.6018624E-5,6.69364E-4,-3.967894E-4,-7.891181E-5,-6.3330797E-4,1.1288422E-3,3.0950025E-5,-1.5924148E-3,-4.8254555E-4,4.5200935E-4,5.6102388E-5,-1.0855687E-3,-1.125507E-3,-2.971187E-4,-5.4787734E-4,-1.4274791E-3,-4.3238176E-4,-8.045461E-5,3.053529E-6,4.0168874E-4,1.2427007E-4,-3.23749E-4,2.0789454E-4,7.42602E-4,-4.81098E-4,-1.13994465E-4,6.2367105E-4,-1.6767342E-4],"split_indices":[14,21,13,6,4,17,7,1,1,12,7,5,30,22,3,0,0,0,0,0,1,18,1,23,22,4,11,22,11,8,24,0,0,0,0,21,5,29,3,30,22,7,12,0,2,18,18,0,0,31,0,0,2,0,2,0,0,0,0,0,0,0,0,0,0,0,0,0,0,0,0,0,0,0,0,0,0,0,0,0,0,0,0,0,0,0,0,0,0,0,0],"split_type":[0,0,0,0,0,0,0,0,0,0,0,0,0,0,0,0,0,0,0,0,0,0,0,0,0,0,0,0,0,0,0,0,0,0,0,0,0,0,0,0,0,0,0,0,0,0,0,0,0,0,0,0,0,0,0,0,0,0,0,0,0,0,0,0,0,0,0,0,0,0,0,0,0,0,0,0,0,0,0,0,0,0,0,0,0,0,0,0,0,0,0],"sum_hessian":[2.043E3,1.348E3,6.95E2,7E0,1.341E3,6.35E2,6E1,3E0,4E0,1.4E1,1.327E3,5.03E2,1.32E2,2.7E1,3.3E1,2E0,1E0,1E0,3E0,1.1E1,3E0,6.29E2,6.98E2,4.1E2,9.3E1,4.9E1,8.3E1,1.1E1,1.6E1,1.6E1,1.7E1,9E0,2E0,2E0,1E0,3.14E2,3.15E2,5.16E2,1.82E2,2.5E1,3.85E2,2.3E1,7E1,2.7E1,2.2E1,5.7E1,2.6E1,5E0,6E0,1.2E1,4E0,1E1,6E0,5E0,1.2E1,5.1E1,2.63E2,1.79E2,1.36E2,4.14E2,1.02E2,5E0,1.77E2,1.1E1,1.4E1,2.75E2,1.1E2,4E0,1.9E1,6.7E1,3E0,8E0,1.9E1,1.1E1,1.1E1,1.7E1,4E1,9E0,1.7E1,4E0,1E0,3E0,9E0,1E0,3E0,1E0,5E0,4E0,1E0,8E0,4E0],"tree_param":{"num_deleted":"0","num_feature":"34","num_nodes":"91","size_leaf_vector":"1"}},{"base_weights":[2.0085274E-5,3.4296608E-3,-6.5884455E-3,6.60175E-2,3.0540032E-3,-8.386143E-3,1.2262761E-2,-4.1263057E-3,1.0892905E-1,2.6720736E-2,2.3625167E-3,-6.0014063E-3,-1.7359981E-2,-7.706661E-3,2.8347496E-2,-3.1940523E-4,2.3152953E-4,9.788608E-4,3.595409E-3,3.2031592E-2,-2.6429432E-2,3.3401572E-3,-9.200635E-3,-8.517648E-3,5.359564E-3,-4.9722856E-3,-2.4526944E-2,-2.6035886E-2,5.6849495E-3,5.263071E-2,3.8384895E-3,4.4574854E-3,3.7582874E-2,-2.1934818E-4,-9.109452E-4,2.5471149E-3,1.7662605E-2,-5.9583434E-3,-4.204228E-2,1.0141453E-2,-9.797436E-3,8.249294E-3,-4.657159E-2,5.4231463E-3,-1.7411407E-2,-1.810945E-2,-3.7404265E-2,-1.260288E-2,-1.0149144E-3,1.0052233E-2,-6.806977E-3,2.0079897E-3,2.2637019E-2,-1.4290707E-2,1.1910543E-2,-1.529138E-4,5.668803E-4,4.6138733E-4,1.3184545E-3,5.6772237E-4,5.574195E-5,7.228937E-5,1.0992823E-3,1.8854678E-4,-3.998341E-4,-1.5988977E-3,-5.3044107E-5,-1.18826996E-4,6.5062183E-4,-3.220168E-4,3.7762555E-4,8.4596954E-4,4.7265752E-5,-3.7969847E-4,-1.5565853E-3,-4.6967765E-4,4.391271E-4,5.455958E-5,-1.0557155E-3,-1.0936178E-3,-2.8842254E-4,-5.330847E-4,-1.3870338E-3,-1.448678E-4,-4.5847875E-4,3.7288154E-4,-6.0442057E-5,1.2240601E-4,-3.1646463E-4,2.0477612E-4,7.2403695E-4,-4.6955163E-4,-1.1228455E-4,6.070398E-4,-1.6364928E-4],"categories":[],"categories_nodes":[],"categories_segments":[],"categories_sizes":[],"default_left":[0,0,0,0,0,0,0,0,0,0,0,0,0,0,0,0,0,0,0,0,0,0,0,0,0,0,0,0,0,0,0,0,0,0,0,0,0,0,0,0,0,0,0,0,0,0,0,0,0,0,0,0,0,0,0,0,0,0,0,0,0,0,0,0,0,0,0,0,0,0,0,0,0,0,0,0,0,0,0,0,0,0,0,0,0,0,0,0,0,0,0,0,0,0,0],"id":9,"left_children":[1,3,5,7,9,11,13,15,17,19,21,23,25,27,29,-1,-1,-1,-1,31,33,35,37,39,41,43,45,47,49,51,53,55,57,-1,-1,59,61,63,65,67,69,71,73,75,77,79,81,83,-1,85,87,-1,89,91,93,-1,-1,-1,-1,-1,-1,-1,-1,-1,-1,-1,-1,-1,-1,-1,-1,-1,-1,-1,-1,-1,-1,-1,-1,-1,-1,-1,-1,-1,-1,-1,-1,-1,-1,-1,-1,-1,-1,-1,-1],"loss_changes":[4.607859E-2,3.1515524E-2,2.3689408E-2,2.4529312E-2,2.1899004E-2,1.3506368E-2,1.9811839E-2,3.910844E-4,2.5475398E-4,1.1572946E-2,1.4783241E-2,1.4453476E-2,1.1686068E-2,7.0208325E-3,2.0033328E-2,0E0,0E0,0E0,0E0,5.1899813E-3,7.892982E-5,1.3630412E-2,1.0610682E-2,9.961676E-3,1.4190346E-2,6.5599275E-3,6.2644035E-3,8.300962E-4,9.958737E-4,5.777467E-3,2.804327E-3,1.0619968E-3,3.4228787E-3,0E0,0E0,1.2851784E-2,1.8150412E-2,8.565011E-3,3.9850846E-3,4.482175E-3,8.247614E-3,1.1671858E-2,2.445178E-4,5.667645E-3,7.927546E-3,8.68842E-3,3.859669E-3,5.1194627E-5,0E0,3.9794715E-4,2.467319E-4,0E0,1.0060612E-6,2.7553411E-5,1.9895637E-3,0E0,0E0,0E0,0E0,0E0,0E0,0E0,0E0,0E0,0E0,0E0,0E0,0E0,0E0,0E0,0E0,0E0,0E0,0E0,0E0,0E0,0E0,0E0,0E0,0E0,0E0,0E0,0E0,0E0,0E0,0E0,0E0,0E0,0E0,0E0,0E0,0E0,0E0,0E0,0E0],"parents":[2147483647,0,0,1,1,2,2,3,3,4,4,5,5,6,6,7,7,8,8,9,9,10,10,11,11,12,12,13,13,14,14,19,19,20,20,21,21,22,22,23,23,24,24,25,25,26,26,27,27,28,28,29,29,30,30,31,31,32,32,35,35,36,36,37,37,38,38,39,39,40,40,41,41,42,42,43,43,44,44,45,45,46,46,47,47,49,49,50,50,52,52,53,53,54,54],"right_children":[2,4,6,8,10,12,14,16,18,20,22,24,26,28,30,-1,-1,-1,-1,32,34,36,38,40,42,44,46,48,50,52,54,56,58,-1,-1,60,62,64,66,68,70,72,74,76,78,80,82,84,-1,86,88,-1,90,92,94,-1,-1,-1,-1,-1,-1,-1,-1,-1,-1,-1,-1,-1,-1,-1,-1,-1,-1,-1,-1,-1,-1,-1,-1,-1,-1,-1,-1,-1,-1,-1,-1,-1,-1,-1,-1,-1,-1,-1,-1],"split_conditions":[2.5673455E-1,-2.1006348E0,2.305768E0,1.0271575E0,-1.6194638E0,1.038579E0,4.1714528E-1,-1.3849685E0,-2.0707386E0,-1.050631E-1,1.093954E0,5.755499E-1,4.5771605E-1,3.7606627E-1,2.483971E0,-3.1940523E-4,2.3152953E-4,9.788608E-4,3.595409E-3,-5.5217702E-2,-9.849234E-1,9.474735E-1,9.1738826E-1,-7.277901E-1,1.8790886E0,5.4170865E-1,1.090454E0,8.679196E-2,1.7134261E0,1.260369E0,1.2806028E0,-7.531431E-1,-3.547173E-1,-2.1934818E-4,-9.109452E-4,-1.3982031E0,-1.0611308E-1,-2.6799244E-1,2.2352192E0,2.9599777E-1,1.2773302E0,-2.0442377E-1,-3.6536342E-1,2.832868E-1,7.3535967E-1,-4.4176537E-1,4.8834702E-1,2.3980147E-1,-1.0149144E-3,7.348058E-1,1.3692752E-1,2.0079897E-3,1.0266066E0,1.251389E0,2.5453222E0,-1.529138E-4,5.668803E-4,4.6138733E-4,1.3184545E-3,5.6772237E-4,5.574195E-5,7.228937E-5,1.0992823E-3,1.8854678E-4,-3.998341E-4,-1.5988977E-3,-5.3044107E-5,-1.18826996E-4,6.5062183E-4,-3.220168E-4,3.7762555E-4,8.4596954E-4,4.7265752E-5,-3.7969847E-4,-1.5565853E-3,-4.6967765E-4,4.391271E-4,5.455958E-5,-1.0557155E-3,-1.0936178E-3,-2.8842254E-4,-5.330847E-4,-1.3870338E-3,-1.448678E-4,-4.5847875E-4,3.7288154E-4,-6.0442057E-5,1.2240601E-4,-3.1646463E-4,2.0477612E-4,7.2403695E-4,-4.6955163E-4,-1.1228455E-4,6.070398E-4,-1.6364928E-4],"split_indices":[14,21,13,6,4,17,7,1,1,14,22,5,30,22,3,0,0,0,0,7,0,6,5,23,12,4,11,22,11,8,24,3,5,0,0,10,4,18,23,30,22,22,0,0,2,18,18,4,0,28,0,0,2,0,2,0,0,0,0,0,0,0,0,0,0,0,0,0,0,0,0,0,0,0,0,0,0,0,0,0,0,0,0,0,0,0,0,0,0,0,0,0,0,0,0],"split_type":[0,0,0,0,0,0,0,0,0,0,0,0,0,0,0,0,0,0,0,0,0,0,0,0,0,0,0,0,0,0,0,0,0,0,0,0,0,0,0,0,0,0,0,0,0,0,0,0,0,0,0,0,0,0,0,0,0,0,0,0,0,0,0,0,0,0,0,0,0,0,0,0,0,0,0,0,0,0,0,0,0,0,0,0,0,0,0,0,0,0,0,0,0,0,0],"sum_hessian":[2.043E3,1.348E3,6.95E2,7E0,1.341E3,6.35E2,6E1,3E0,4E0,3.7E1,1.304E3,5.03E2,1.32E2,2.7E1,3.3E1,2E0,1E0,1E0,3E0,3.4E1,3E0,1.203E3,1.01E2,4.12E2,9.1E1,4.9E1,8.3E1,1.1E1,1.6E1,1.6E1,1.7E1,6E0,2.8E1,1E0,2E0,1.141E3,6.2E1,9.3E1,8E0,2.6E1,3.86E2,8.7E1,4E0,2.7E1,2.2E1,5.7E1,2.6E1,5E0,6E0,1.2E1,4E0,1E1,6E0,5E0,1.2E1,4E0,2E0,7E0,2.1E1,4.5E1,1.096E3,3.5E1,2.7E1,3.5E1,5.8E1,6E0,2E0,1.2E1,1.4E1,3.71E2,1.5E1,2.1E1,6.6E1,1E0,3E0,8E0,1.9E1,1.1E1,1.1E1,1.7E1,4E1,9E0,1.7E1,2E0,3E0,1E1,2E0,1E0,3E0,1E0,5E0,4E0,1E0,8E0,4E0],"tree_param":{"num_deleted":"0","num_feature":"34","num_nodes":"95","size_leaf_vector":"1"}},{"base_weights":[2.0456666E-5,5.1472355E-3,-4.155589E-3,2.7709869E-3,1.6473033E-2,6.087017E-2,-4.6748705E-3,-3.9945405E-2,3.3937993E-3,2.2515758E-4,2.157381E-2,1.0649519E-1,3.0711184E-3,-5.541763E-3,1.2196313E-2,-1.6804832E-3,2.1823589E-3,3.790023E-3,-4.6369594E-2,2.9236773E-2,-3.1852163E-2,8.438236E-3,3.2034747E-2,3.5145122E-3,9.5811475E-4,-1.7505376E-4,2.0269382E-4,-2.751316E-3,-9.592501E-3,-1.0645868E-3,3.3717036E-2,-8.288975E-3,5.039454E-4,-8.294857E-3,5.3177266E-3,-1.6268127E-4,-1.6042328E-3,3.8375046E-2,-7.6807174E-3,-4.91171E-2,-1.9732323E-3,1.7666353E-2,-1.984885E-2,6.503104E-3,3.5386443E-2,-8.037656E-3,1.0628996E-3,-1.0812819E-2,1.4921966E-2,1.8091297E-2,-2.0161327E-2,8.161572E-2,1.3647712E-2,-1.8684693E-6,-3.711354E-4,-4.4117412E-5,-9.017704E-4,3.1698606E-4,6.383423E-5,5.7162426E-4,1.4154458E-3,-4.3842127E-4,-6.881626E-5,-1.5282755E-4,-1.5796819E-3,3.7909354E-4,-2.6847605E-4,-2.587906E-5,7.532011E-4,-1.5499541E-5,-9.159466E-4,-2.6253067E-4,6.1369827E-4,1.1048483E-3,-1.1411938E-4,-1.0151502E-4,-6.001146E-4,-4.733094E-4,9.493932E-5,-2.1977689E-4,-6.2626554E-4,1.751886E-3,3.772992E-5,8.0057746E-4,-1.0636776E-4,2.6216466E-4,-7.2960067E-4,2.7969352E-4,2.8262886E-3,-1.4338447E-4,7.554593E-4],"categories":[],"categories_nodes":[],"categories_segments":[],"categories_sizes":[],"default_left":[0,0,0,0,0,0,0,0,0,0,0,0,0,0,0,0,0,0,0,0,0,0,0,0,0,0,0,0,0,0,0,0,0,0,0,0,0,0,0,0,0,0,0,0,0,0,0,0,0,0,0,0,0,0,0,0,0,0,0,0,0,0,0,0,0,0,0,0,0,0,0,0,0,0,0,0,0,0,0,0,0,0,0,0,0,0,0,0,0,0,0],"id":10,"left_children":[1,3,5,7,9,11,13,15,17,19,21,23,25,27,29,-1,31,33,35,37,39,41,43,-1,-1,-1,-1,45,47,49,51,53,-1,55,57,-1,-1,59,61,63,65,67,69,71,73,75,77,79,81,83,85,87,89,-1,-1,-1,-1,-1,-1,-1,-1,-1,-1,-1,-1,-1,-1,-1,-1,-1,-1,-1,-1,-1,-1,-1,-1,-1,-1,-1,-1,-1,-1,-1,-1,-1,-1,-1,-1,-1,-1],"loss_changes":[4.378274E-2,2.4660401E-2,3.8339622E-2,2.0354833E-2,1.3172552E-2,2.340668E-2,1.643352E-2,7.5694993E-3,1.4963816E-2,3.722523E-2,1.6356345E-2,2.3071468E-4,2.035376E-4,1.2011703E-2,1.573202E-2,0E0,7.514282E-4,1.3798386E-2,1.4555473E-3,7.379351E-3,9.704383E-3,1.4707668E-2,5.5033565E-3,0E0,0E0,0E0,0E0,1.275171E-2,1.3144642E-2,1.3168268E-2,1.9073313E-2,9.997864E-5,0E0,1.24318665E-2,1.1060862E-2,0E0,0E0,1.9935332E-3,1.5322087E-4,1.6012974E-3,9.2841993E-4,5.811871E-3,2.8755073E-3,2.0946534E-3,3.4739599E-3,1.4689738E-2,1.3074598E-2,1.437344E-2,1.24015035E-2,3.4419117E-3,2.375892E-3,4.5843422E-3,3.5210634E-3,0E0,0E0,0E0,0E0,0E0,0E0,0E0,0E0,0E0,0E0,0E0,0E0,0E0,0E0,0E0,0E0,0E0,0E0,0E0,0E0,0E0,0E0,0E0,0E0,0E0,0E0,0E0,0E0,0E0,0E0,0E0,0E0,0E0,0E0,0E0,0E0,0E0,0E0],"parents":[2147483647,0,0,1,1,2,2,3,3,4,4,5,5,6,6,7,7,8,8,9,9,10,10,11,11,12,12,13,13,14,14,16,16,17,17,18,18,19,19,20,20,21,21,22,22,27,27,28,28,29,29,30,30,31,31,33,33,34,34,37,37,38,38,39,39,40,40,41,41,42,42,43,43,44,44,45,45,46,46,47,47,48,48,49,49,50,50,51,51,52,52],"right_children":[2,4,6,8,10,12,14,16,18,20,22,24,26,28,30,-1,32,34,36,38,40,42,44,-1,-1,-1,-1,46,48,50,52,54,-1,56,58,-1,-1,60,62,64,66,68,70,72,74,76,78,80,82,84,86,88,90,-1,-1,-1,-1,-1,-1,-1,-1,-1,-1,-1,-1,-1,-1,-1,-1,-1,-1,-1,-1,-1,-1,-1,-1,-1,-1,-1,-1,-1,-1,-1,-1,-1,-1,-1,-1,-1,-1],"split_conditions":[-1.0254815E-1,6.460436E-1,-1.7512568E0,-1.5829232E0,-3.9631945E-1,-1.0018157E-1,1.5116518E0,-1.0227201E0,1.5206155E0,-2.6799244E-1,-7.0287675E-1,-6.8493146E-1,-1.3849685E0,3.6395043E-1,2.02509E-1,-1.6804832E-3,-1.9061837E0,-6.313832E-1,-2.0339462E-1,3.1696114E-1,9.8976E-1,1.1334283E0,-9.521893E-1,3.5145122E-3,9.5811475E-4,-1.7505376E-4,2.0269382E-4,4.0413804E-2,2.584846E0,-2.8019324E-1,3.511155E-1,-1.9732368E0,5.039454E-4,-2.0823734E-1,-3.4179327E-1,-1.6268127E-4,-1.6042328E-3,7.787689E-1,-9.6404034E-1,-1.647301E0,-6.297373E-1,-1.53049E0,-4.4176537E-1,-9.066892E-2,8.417074E-1,2.0040631E-1,-1.2610935E-1,1.038579E0,-1.3784094E-1,5.62468E-1,-8.4664506E-1,-3.4201744E-1,-3.112405E-1,-1.8684693E-6,-3.711354E-4,-4.4117412E-5,-9.017704E-4,3.1698606E-4,6.383423E-5,5.7162426E-4,1.4154458E-3,-4.3842127E-4,-6.881626E-5,-1.5282755E-4,-1.5796819E-3,3.7909354E-4,-2.6847605E-4,-2.587906E-5,7.532011E-4,-1.5499541E-5,-9.159466E-4,-2.6253067E-4,6.1369827E-4,1.1048483E-3,-1.1411938E-4,-1.0151502E-4,-6.001146E-4,-4.733094E-4,9.493932E-5,-2.1977689E-4,-6.2626554E-4,1.751886E-3,3.772992E-5,8.0057746E-4,-1.0636776E-4,2.6216466E-4,-7.2960067E-4,2.7969352E-4,2.8262886E-3,-1.4338447E-4,7.554593E-4],"split_indices":[24,6,21,22,23,22,5,12,25,18,30,1,1,30,7,0,0,7,0,11,5,6,10,0,0,0,0,13,13,7,25,0,0,11,22,0,0,6,0,2,17,30,18,29,2,18,26,17,22,28,29,4,22,0,0,0,0,0,0,0,0,0,0,0,0,0,0,0,0,0,0,0,0,0,0,0,0,0,0,0,0,0,0,0,0,0,0,0,0,0,0],"split_type":[0,0,0,0,0,0,0,0,0,0,0,0,0,0,0,0,0,0,0,0,0,0,0,0,0,0,0,0,0,0,0,0,0,0,0,0,0,0,0,0,0,0,0,0,0,0,0,0,0,0,0,0,0,0,0,0,0,0,0,0,0,0,0,0,0,0,0,0,0,0,0,0,0,0,0,0,0,0,0,0,0,0,0,0,0,0,0,0,0,0,0],"sum_hessian":[2.043E3,9.17E2,1.126E3,7.59E2,1.58E2,8E0,1.118E3,1E1,7.49E2,3.8E1,1.2E2,4E0,4E0,1.064E3,5.4E1,7E0,3E0,7.44E2,5E0,2E1,1.8E1,5.4E1,6.6E1,3E0,1E0,1E0,3E0,6.31E2,4.33E2,3.4E1,2E1,2E0,1E0,8.3E1,6.61E2,1E0,4E0,1.6E1,4E0,1.1E1,7E0,4.1E1,1.3E1,8E0,5.8E1,2.64E2,3.67E2,4.13E2,2E1,1.7E1,1.7E1,5E0,1.5E1,1E0,1E0,6.4E1,1.9E1,2.49E2,4.12E2,6E0,1E1,1E0,3E0,1E0,1E1,2E0,5E0,1.2E1,2.9E1,5E0,8E0,4E0,4E0,5.6E1,2E0,1.91E2,7.3E1,4E1,3.27E2,3.08E2,1.05E2,4E0,1.6E1,1.2E1,5E0,2E0,1.5E1,1E0,4E0,6E0,9E0],"tree_param":{"num_deleted":"0","num_feature":"34","num_nodes":"91","size_leaf_vector":"1"}},{"base_weights":[2.2495957E-5,3.1414486E-3,-6.4643957E-3,6.314151E-2,2.789817E-3,-1.1200384E-2,-3.925191E-4,-4.0249256E-3,1.04246356E-1,1.4566988E-3,1.3992642E-2,-5.4213596E-3,-1.6562058E-2,6.9220003E-4,-5.221283E-2,-3.110078E-4,2.2501618E-4,9.476052E-4,3.4354357E-3,2.859657E-3,-5.287018E-3,2.5173848E-2,-3.2815262E-4,-3.519778E-2,-4.0211715E-3,-2.6474802E-2,-1.0444766E-2,-1.8584948E-3,1.7454872E-2,-1.6972322E-3,-4.5607402E-4,2.007145E-3,1.8984593E-2,-2.7764006E-2,-6.8555743E-4,3.3547137E-2,-2.460699E-3,1.869572E-2,-3.3261648E-3,-5.6230607E-3,-1.3235653E-3,1.8344054E-4,-1.1619559E-2,-3.2592008E-3,-3.0988375E-2,-2.1793758E-2,-5.759024E-3,2.0652378E-3,-1.2390621E-2,-3.0345751E-3,3.249422E-2,8.709429E-5,-4.456991E-4,1.8483782E-3,2.8862845E-4,-2.2014081E-3,-6.418028E-4,5.495584E-4,-9.669449E-5,1.291577E-3,6.703885E-4,-2.0331508E-4,4.9498427E-4,6.815091E-4,9.242672E-5,5.599842E-4,-2.033523E-4,4.1393487E-5,-2.9443123E-4,-2.9691937E-5,1.3058896E-3,-1.0345232E-3,-1.9678121E-4,1.5602511E-4,-9.957881E-4,-1.4575241E-3,-6.366029E-4,-8.9689036E-4,2.7868545E-4,-3.1701114E-5,-3.8145413E-4,-1.19311635E-5,6.325207E-4,-1.5621823E-4,-1.0090305E-3,9.5881274E-5,-5.5881793E-4,1.1825054E-3,3.221806E-5],"categories":[],"categories_nodes":[],"categories_segments":[],"categories_sizes":[],"default_left":[0,0,0,0,0,0,0,0,0,0,0,0,0,0,0,0,0,0,0,0,0,0,0,0,0,0,0,0,0,0,0,0,0,0,0,0,0,0,0,0,0,0,0,0,0,0,0,0,0,0,0,0,0,0,0,0,0,0,0,0,0,0,0,0,0,0,0,0,0,0,0,0,0,0,0,0,0,0,0,0,0,0,0,0,0,0,0,0,0],"id":11,"left_children":[1,3,5,7,9,11,13,15,17,19,21,23,25,27,29,-1,-1,-1,-1,31,33,35,37,39,41,43,45,47,49,-1,-1,51,53,55,57,59,61,63,65,67,-1,69,71,73,75,77,79,81,83,85,87,-1,-1,-1,-1,-1,-1,-1,-1,-1,-1,-1,-1,-1,-1,-1,-1,-1,-1,-1,-1,-1,-1,-1,-1,-1,-1,-1,-1,-1,-1,-1,-1,-1,-1,-1,-1,-1,-1],"loss_changes":[4.1375145E-2,2.8960073E-2,1.908981E-2,2.2506513E-2,2.0499881E-2,1.146771E-2,1.6449602E-2,3.7013562E-4,1.13248825E-4,1.1642875E-2,2.3386331E-2,7.404822E-3,1.1426829E-2,1.2303543E-2,1.0847114E-4,0E0,0E0,0E0,0E0,1.3956034E-2,2.1907486E-2,1.90567E-2,3.7693821E-3,1.86262E-3,5.561131E-3,7.548332E-3,6.309082E-3,1.0356901E-2,1.18082315E-2,0E0,0E0,1.4669527E-2,1.9764064E-2,8.891819E-3,8.594839E-3,5.7454705E-3,1.7486406E-3,4.9513206E-4,4.4541284E-3,1.0159505E-4,0E0,5.7894206E-3,6.9471328E-3,3.4647586E-3,9.4537325E-3,9.092646E-3,2.8323226E-3,8.580506E-3,1.0201728E-2,1.7111192E-3,4.7429036E-3,0E0,0E0,0E0,0E0,0E0,0E0,0E0,0E0,0E0,0E0,0E0,0E0,0E0,0E0,0E0,0E0,0E0,0E0,0E0,0E0,0E0,0E0,0E0,0E0,0E0,0E0,0E0,0E0,0E0,0E0,0E0,0E0,0E0,0E0,0E0,0E0,0E0,0E0],"parents":[2147483647,0,0,1,1,2,2,3,3,4,4,5,5,6,6,7,7,8,8,9,9,10,10,11,11,12,12,13,13,14,14,19,19,20,20,21,21,22,22,23,23,24,24,25,25,26,26,27,27,28,28,31,31,32,32,33,33,34,34,35,35,36,36,37,37,38,38,39,39,41,41,42,42,43,43,44,44,45,45,46,46,47,47,48,48,49,49,50,50],"right_children":[2,4,6,8,10,12,14,16,18,20,22,24,26,28,30,-1,-1,-1,-1,32,34,36,38,40,42,44,46,48,50,-1,-1,52,54,56,58,60,62,64,66,68,-1,70,72,74,76,78,80,82,84,86,88,-1,-1,-1,-1,-1,-1,-1,-1,-1,-1,-1,-1,-1,-1,-1,-1,-1,-1,-1,-1,-1,-1,-1,-1,-1,-1,-1,-1,-1,-1,-1,-1,-1,-1,-1,-1,-1,-1],"split_conditions":[2.7801907E-1,-2.1006348E0,7.059316E-2,1.0271575E0,1.5819392E0,-2.6390174E-1,2.0360587E0,-1.3849685E0,-2.0707386E0,1.9722958E-1,1.9928813E-1,-9.170337E-1,-1.602612E-1,2.3359425E0,1.1755071E0,-3.110078E-4,2.2501618E-4,9.476052E-4,3.4354357E-3,9.4025916E-1,-4.8235053E-1,2.0992652E-1,-1.18503E0,-3.417206E-3,2.700765E-1,-8.00521E-1,-7.784396E-1,1.0659978E0,8.2162775E-2,-1.6972322E-3,-4.5607402E-4,1.093954E0,-3.106886E-1,-4.0202957E-1,-1.0323619E0,4.4439065E-1,-4.9139252E-1,-7.241555E-2,-9.634068E-1,4.0539265E-1,-1.3235653E-3,1.5525086E0,3.090253E-1,1.145733E0,-3.9789194E-1,1.9523121E0,4.7118503E-1,8.776409E-1,9.583385E-1,-1.4302787E-1,2.3120413E0,8.709429E-5,-4.456991E-4,1.8483782E-3,2.8862845E-4,-2.2014081E-3,-6.418028E-4,5.495584E-4,-9.669449E-5,1.291577E-3,6.703885E-4,-2.0331508E-4,4.9498427E-4,6.815091E-4,9.242672E-5,5.599842E-4,-2.033523E-4,4.1393487E-5,-2.9443123E-4,-2.9691937E-5,1.3058896E-3,-1.0345232E-3,-1.9678121E-4,1.5602511E-4,-9.957881E-4,-1.4575241E-3,-6.366029E-4,-8.9689036E-4,2.7868545E-4,-3.1701114E-5,-3.8145413E-4,-1.19311635E-5,6.325207E-4,-1.5621823E-4,-1.0090305E-3,9.5881274E-5,-5.5881793E-4,1.1825054E-3,3.221806E-5],"split_indices":[14,21,5,6,7,7,22,1,1,17,4,7,22,13,0,0,0,0,0,13,22,12,22,2,11,5,27,17,29,0,0,22,23,13,21,31,4,8,11,0,0,22,26,8,13,12,18,6,4,29,4,0,0,0,0,0,0,0,0,0,0,0,0,0,0,0,0,0,0,0,0,0,0,0,0,0,0,0,0,0,0,0,0,0,0,0,0,0,0],"split_type":[0,0,0,0,0,0,0,0,0,0,0,0,0,0,0,0,0,0,0,0,0,0,0,0,0,0,0,0,0,0,0,0,0,0,0,0,0,0,0,0,0,0,0,0,0,0,0,0,0,0,0,0,0,0,0,0,0,0,0,0,0,0,0,0,0,0,0,0,0,0,0,0,0,0,0,0,0,0,0,0,0,0,0,0,0,0,0,0,0],"sum_hessian":[2.043E3,1.38E3,6.63E2,7E0,1.373E3,3.72E2,2.91E2,3E0,4E0,1.228E3,1.45E2,1.8E2,1.92E2,2.86E2,5E0,2E0,1E0,1E0,3E0,1.017E3,2.11E2,8.1E1,6.4E1,7E0,1.73E2,7.2E1,1.2E2,2.49E2,3.7E1,4E0,1E0,9.67E2,5E1,3.5E1,1.76E2,6.2E1,1.9E1,8E0,5.6E1,2E0,5E0,1.12E2,6.1E1,1.2E1,6E1,3.4E1,8.6E1,1.82E2,6.7E1,1.6E1,2.1E1,9.19E2,4.8E1,8E0,4.2E1,3E0,3.2E1,2E1,1.56E2,3.2E1,3E1,1.6E1,3E0,6E0,2E0,7E0,4.9E1,1E0,1E0,1.1E2,2E0,1E1,5.1E1,1E1,2E0,2E1,4E1,2.7E1,7E0,5.2E1,3.4E1,1.62E2,2E1,5.1E1,1.6E1,1.2E1,4E0,1.7E1,4E0],"tree_param":{"num_deleted":"0","num_feature":"34","num_nodes":"89","size_leaf_vector":"1"}},{"base_weights":[2.16382E-5,4.882536E-3,-3.9378344E-3,2.604608E-3,1.5740039E-2,5.835938E-2,-4.4353656E-3,-3.8967088E-2,3.2108533E-3,2.9549981E-5,2.0673666E-2,1.0202369E-1,3.0231979E-3,-5.262029E-3,1.1652486E-2,-1.6386568E-3,2.084303E-3,3.595149E-3,-4.5041E-2,2.8119335E-2,-3.101861E-2,8.023041E-3,3.0749945E-2,3.3581383E-3,9.354997E-4,-1.6776283E-4,1.9725134E-4,-2.6295823E-3,-9.083329E-3,-1.1589458E-3,3.2449994E-2,-8.222703E-3,4.950798E-4,-8.097541E-3,5.073383E-3,-1.6154746E-4,-1.5568569E-3,3.690891E-2,-7.389084E-3,-4.78678E-2,-1.867498E-3,1.6907198E-2,-1.9202508E-2,6.0145785E-3,3.400195E-2,-7.745039E-3,1.0612481E-3,-1.0242248E-2,1.4196468E-2,1.5534394E-2,-2.1953188E-2,7.886128E-2,1.3017635E-2,-3.1468562E-6,-3.6687474E-4,-4.3611657E-5,-8.785522E-4,3.041564E-4,5.9850558E-5,5.546858E-4,1.3582493E-3,-4.2879523E-4,-6.269302E-5,-1.5184155E-4,-1.5389749E-3,3.697698E-4,-2.5958483E-4,-3.461933E-5,7.2510407E-4,-5.7146067E-6,-8.923072E-4,-2.6181998E-4,5.866072E-4,1.061675E-3,-1.1067479E-4,-9.731407E-5,-5.795778E-4,-4.583867E-4,9.301839E-5,-2.1194818E-4,-6.124606E-4,1.6814605E-3,3.155714E-5,1.0137998E-3,1.5885987E-4,2.5055485E-4,-8.0637104E-4,2.740599E-4,2.7293821E-3,-1.404345E-4,7.2315056E-4],"categories":[],"categories_nodes":[],"categories_segments":[],"categories_sizes":[],"default_left":[0,0,0,0,0,0,0,0,0,0,0,0,0,0,0,0,0,0,0,0,0,0,0,0,0,0,0,0,0,0,0,0,0,0,0,0,0,0,0,0,0,0,0,0,0,0,0,0,0,0,0,0,0,0,0,0,0,0,0,0,0,0,0,0,0,0,0,0,0,0,0,0,0,0,0,0,0,0,0,0,0,0,0,0,0,0,0,0,0,0,0],"id":12,"left_children":[1,3,5,7,9,11,13,15,17,19,21,23,25,27,29,-1,31,33,35,37,39,41,43,-1,-1,-1,-1,45,47,49,51,53,-1,55,57,-1,-1,59,61,63,65,67,69,71,73,75,77,79,81,83,85,87,89,-1,-1,-1,-1,-1,-1,-1,-1,-1,-1,-1,-1,-1,-1,-1,-1,-1,-1,-1,-1,-1,-1,-1,-1,-1,-1,-1,-1,-1,-1,-1,-1,-1,-1,-1,-1,-1,-1],"loss_changes":[3.935926E-2,2.266354E-2,3.518997E-2,1.927913E-2,1.2323432E-2,2.1437509E-2,1.4943162E-2,7.183017E-3,1.4069164E-2,3.4885533E-2,1.5177317E-2,2.1051615E-5,1.8976926E-4,1.0689342E-2,1.469213E-2,0E0,7.301368E-4,1.2918055E-2,1.3514198E-3,6.8269037E-3,9.242887E-3,1.3627844E-2,5.184941E-3,0E0,0E0,0E0,0E0,1.1940558E-2,1.1854462E-2,1.2490417E-2,1.7912911E-2,9.628813E-5,0E0,1.1781781E-2,1.0301955E-2,0E0,0E0,1.7825514E-3,1.530654E-4,1.5029702E-3,8.7709393E-4,5.537333E-3,2.800033E-3,1.9669665E-3,3.2154098E-3,1.3743389E-2,1.2310926E-2,1.3237525E-2,1.1493754E-2,3.5601417E-3,2.6129344E-3,4.238557E-3,3.2525712E-3,0E0,0E0,0E0,0E0,0E0,0E0,0E0,0E0,0E0,0E0,0E0,0E0,0E0,0E0,0E0,0E0,0E0,0E0,0E0,0E0,0E0,0E0,0E0,0E0,0E0,0E0,0E0,0E0,0E0,0E0,0E0,0E0,0E0,0E0,0E0,0E0,0E0,0E0],"parents":[2147483647,0,0,1,1,2,2,3,3,4,4,5,5,6,6,7,7,8,8,9,9,10,10,11,11,12,12,13,13,14,14,16,16,17,17,18,18,19,19,20,20,21,21,22,22,27,27,28,28,29,29,30,30,31,31,33,33,34,34,37,37,38,38,39,39,40,40,41,41,42,42,43,43,44,44,45,45,46,46,47,47,48,48,49,49,50,50,51,51,52,52],"right_children":[2,4,6,8,10,12,14,16,18,20,22,24,26,28,30,-1,32,34,36,38,40,42,44,-1,-1,-1,-1,46,48,50,52,54,-1,56,58,-1,-1,60,62,64,66,68,70,72,74,76,78,80,82,84,86,88,90,-1,-1,-1,-1,-1,-1,-1,-1,-1,-1,-1,-1,-1,-1,-1,-1,-1,-1,-1,-1,-1,-1,-1,-1,-1,-1,-1,-1,-1,-1,-1,-1,-1,-1,-1,-1,-1,-1],"split_conditions":[-1.0254815E-1,6.460436E-1,-1.7512568E0,-1.5829232E0,-3.9631945E-1,-1.0018157E-1,1.5116518E0,-1.0227201E0,1.5206155E0,-2.6799244E-1,-7.0287675E-1,-6.8493146E-1,-1.3849685E0,3.6395043E-1,2.02509E-1,-1.6386568E-3,-1.9061837E0,-6.313832E-1,-2.0339462E-1,3.1696114E-1,9.8976E-1,1.1334283E0,-9.521893E-1,3.3581383E-3,9.354997E-4,-1.6776283E-4,1.9725134E-4,4.0413804E-2,2.584846E0,-2.3105817E-1,3.511155E-1,-1.9732368E0,4.950798E-4,-2.0823734E-1,-3.4179327E-1,-1.6154746E-4,-1.5568569E-3,7.787689E-1,-9.6404034E-1,-1.647301E0,-6.297373E-1,-1.53049E0,-4.4176537E-1,-9.066892E-2,8.417074E-1,2.0040631E-1,-1.2610935E-1,1.0659978E0,-1.3784094E-1,-9.31679E-2,-8.4664506E-1,-3.4201744E-1,-3.112405E-1,-3.1468562E-6,-3.6687474E-4,-4.3611657E-5,-8.785522E-4,3.041564E-4,5.9850558E-5,5.546858E-4,1.3582493E-3,-4.2879523E-4,-6.269302E-5,-1.5184155E-4,-1.5389749E-3,3.697698E-4,-2.5958483E-4,-3.461933E-5,7.2510407E-4,-5.7146067E-6,-8.923072E-4,-2.6181998E-4,5.866072E-4,1.061675E-3,-1.1067479E-4,-9.731407E-5,-5.795778E-4,-4.583867E-4,9.301839E-5,-2.1194818E-4,-6.124606E-4,1.6814605E-3,3.155714E-5,1.0137998E-3,1.5885987E-4,2.5055485E-4,-8.0637104E-4,2.740599E-4,2.7293821E-3,-1.404345E-4,7.2315056E-4],"split_indices":[24,6,21,22,23,22,5,12,25,18,30,1,1,30,7,0,0,7,0,11,5,6,10,0,0,0,0,13,13,7,25,0,0,11,22,0,0,6,0,2,17,30,18,29,2,18,26,17,22,25,29,4,22,0,0,0,0,0,0,0,0,0,0,0,0,0,0,0,0,0,0,0,0,0,0,0,0,0,0,0,0,0,0,0,0,0,0,0,0,0,0],"split_type":[0,0,0,0,0,0,0,0,0,0,0,0,0,0,0,0,0,0,0,0,0,0,0,0,0,0,0,0,0,0,0,0,0,0,0,0,0,0,0,0,0,0,0,0,0,0,0,0,0,0,0,0,0,0,0,0,0,0,0,0,0,0,0,0,0,0,0,0,0,0,0,0,0,0,0,0,0,0,0,0,0,0,0,0,0,0,0,0,0,0,0],"sum_hessian":[2.043E3,9.17E2,1.126E3,7.59E2,1.58E2,8E0,1.118E3,1E1,7.49E2,3.8E1,1.2E2,4E0,4E0,1.064E3,5.4E1,7E0,3E0,7.44E2,5E0,2E1,1.8E1,5.4E1,6.6E1,3E0,1E0,1E0,3E0,6.31E2,4.33E2,3.4E1,2E1,2E0,1E0,8.3E1,6.61E2,1E0,4E0,1.6E1,4E0,1.1E1,7E0,4.1E1,1.3E1,8E0,5.8E1,2.64E2,3.67E2,4.13E2,2E1,1.9E1,1.5E1,5E0,1.5E1,1E0,1E0,6.4E1,1.9E1,2.49E2,4.12E2,6E0,1E1,1E0,3E0,1E0,1E1,2E0,5E0,1.2E1,2.9E1,5E0,8E0,4E0,4E0,5.6E1,2E0,1.91E2,7.3E1,4E1,3.27E2,3.16E2,9.7E1,4E0,1.6E1,6E0,1.3E1,2E0,1.3E1,1E0,4E0,6E0,9E0],"tree_param":{"num_deleted":"0","num_feature":"34","num_nodes":"91","size_leaf_vector":"1"}},{"base_weights":[2.3675635E-5,3.0878277E-3,-5.915354E-3,6.0393024E-2,2.7439161E-3,-7.556718E-3,1.1294851E-2,-3.924393E-3,2.9930505E-3,3.8043108E-2,2.3431391E-3,-7.0082108E-3,-4.119244E-2,-7.3532183E-3,2.6319884E-2,-3.0276383E-4,2.1868217E-4,4.65894E-2,2.8934542E-3,-1.1954635E-3,5.529085E-3,-8.957831E-3,4.5737056E-3,-1.6187527E-3,-8.55385E-3,-2.4568249E-2,5.23111E-3,4.908097E-2,3.3610829E-3,1.5111269E-3,5.5363827E-4,2.6395507E-4,-2.2232535E-4,4.6041156E-3,-6.972906E-3,8.008531E-3,-1.1553715E-3,-6.599011E-3,-1.8054351E-2,1.0766076E-2,-1.9458756E-2,-3.6045123E-4,-1.018532E-4,-1.2062398E-2,-9.53334E-4,1.19824E-2,-2.1014148E-3,1.8545886E-3,6.615457E-4,-1.3857078E-2,1.1049381E-2,-1.9937017E-4,2.040763E-4,-4.5679384E-4,1.17662334E-4,3.0431448E-4,-1.896174E-5,-1.3274631E-3,7.454925E-6,-1.7478704E-4,-9.246068E-4,-1.8929826E-3,-4.8605067E-4,-2.0489782E-4,5.2604836E-4,1.5788646E-4,-8.5991493E-4,-4.1027347E-4,-5.9932096E-5,3.9813604E-4,2.5079788E-5,2.2358503E-4,-2.4362035E-4,-4.5252685E-4,-1.1581987E-4,5.692678E-4,-1.6283024E-4],"categories":[],"categories_nodes":[],"categories_segments":[],"categories_sizes":[],"default_left":[0,0,0,0,0,0,0,0,0,0,0,0,0,0,0,0,0,0,0,0,0,0,0,0,0,0,0,0,0,0,0,0,0,0,0,0,0,0,0,0,0,0,0,0,0,0,0,0,0,0,0,0,0,0,0,0,0,0,0,0,0,0,0,0,0,0,0,0,0,0,0,0,0,0,0,0,0],"id":13,"left_children":[1,3,5,7,9,11,13,15,-1,17,19,21,23,25,27,-1,-1,29,31,33,35,37,39,-1,41,43,45,47,49,-1,-1,-1,-1,51,53,55,57,59,61,63,65,-1,-1,67,-1,69,71,-1,-1,73,75,-1,-1,-1,-1,-1,-1,-1,-1,-1,-1,-1,-1,-1,-1,-1,-1,-1,-1,-1,-1,-1,-1,-1,-1,-1,-1],"loss_changes":[3.7215162E-2,2.6420277E-2,1.9746099E-2,2.0651689E-2,1.8896272E-2,1.1445157E-2,1.7284993E-2,3.502206E-4,0E0,4.371183E-3,1.4978213E-2,1.41988415E-2,3.7050862E-3,6.1944276E-3,1.7602324E-2,0E0,0E0,3.4712814E-4,3.085939E-4,2.1141348E-2,1.1594309E-2,1.14033E-2,1.3751923E-2,0E0,3.062922E-5,6.9862185E-4,8.6674804E-4,4.4902004E-3,2.5359227E-3,0E0,0E0,0E0,0E0,7.835738E-3,2.8475186E-2,9.415973E-3,1.1505517E-2,7.831557E-3,8.157536E-3,8.814428E-3,4.474581E-3,0E0,0E0,7.010845E-5,0E0,1.1819496E-4,5.78108E-4,0E0,0E0,1.5367521E-5,1.8008014E-3,0E0,0E0,0E0,0E0,0E0,0E0,0E0,0E0,0E0,0E0,0E0,0E0,0E0,0E0,0E0,0E0,0E0,0E0,0E0,0E0,0E0,0E0,0E0,0E0,0E0,0E0],"parents":[2147483647,0,0,1,1,2,2,3,3,4,4,5,5,6,6,7,7,9,9,10,10,11,11,12,12,13,13,14,14,17,17,18,18,19,19,20,20,21,21,22,22,24,24,25,25,26,26,27,27,28,28,33,33,34,34,35,35,36,36,37,37,38,38,39,39,40,40,43,43,45,45,46,46,49,49,50,50],"right_children":[2,4,6,8,10,12,14,16,-1,18,20,22,24,26,28,-1,-1,30,32,34,36,38,40,-1,42,44,46,48,50,-1,-1,-1,-1,52,54,56,58,60,62,64,66,-1,-1,68,-1,70,72,-1,-1,74,76,-1,-1,-1,-1,-1,-1,-1,-1,-1,-1,-1,-1,-1,-1,-1,-1,-1,-1,-1,-1,-1,-1,-1,-1,-1,-1],"split_conditions":[2.5673455E-1,-2.1006348E0,2.305768E0,1.0271575E0,-1.8203365E0,1.8790886E0,4.1714528E-1,-1.3849685E0,2.9930505E-3,-8.362795E-2,-9.118165E-2,7.25949E-1,1.8620574E-1,3.7606627E-1,2.483971E0,-3.0276383E-4,2.1868217E-4,-1.2829621E-1,-3.9642945E-1,-4.4176537E-1,2.9126383E-2,7.371968E-1,1.7681551E0,-1.6187527E-3,-3.6536342E-1,8.679196E-2,1.9974586E0,1.260369E0,1.2806028E0,1.5111269E-3,5.5363827E-4,2.6395507E-4,-2.2232535E-4,-7.5408804E-1,-6.3123642E-3,7.378027E-1,-1.3344231E0,1.6463505E0,2.8102988E-1,1.7666487E-1,4.173773E-1,-3.6045123E-4,-1.018532E-4,5.5557895E-1,-9.53334E-4,2.6556444E0,6.235311E-2,1.8545886E-3,6.615457E-4,1.251389E0,2.5453222E0,-1.9937017E-4,2.040763E-4,-4.5679384E-4,1.17662334E-4,3.0431448E-4,-1.896174E-5,-1.3274631E-3,7.454925E-6,-1.7478704E-4,-9.246068E-4,-1.8929826E-3,-4.8605067E-4,-2.0489782E-4,5.2604836E-4,1.5788646E-4,-8.5991493E-4,-4.1027347E-4,-5.9932096E-5,3.9813604E-4,2.5079788E-5,2.2358503E-4,-2.4362035E-4,-4.5252685E-4,-1.1581987E-4,5.692678E-4,-1.6283024E-4],"split_indices":[14,21,13,6,4,12,7,1,0,12,7,5,7,22,3,0,0,0,1,18,1,10,31,0,0,22,3,8,24,0,0,0,0,21,5,29,3,25,16,8,14,0,0,0,0,4,1,0,0,0,2,0,0,0,0,0,0,0,0,0,0,0,0,0,0,0,0,0,0,0,0,0,0,0,0,0,0],"split_type":[0,0,0,0,0,0,0,0,0,0,0,0,0,0,0,0,0,0,0,0,0,0,0,0,0,0,0,0,0,0,0,0,0,0,0,0,0,0,0,0,0,0,0,0,0,0,0,0,0,0,0,0,0,0,0,0,0,0,0,0,0,0,0,0,0,0,0,0,0,0,0,0,0,0,0,0,0],"sum_hessian":[2.043E3,1.348E3,6.95E2,7E0,1.341E3,6.35E2,6E1,3E0,4E0,1.4E1,1.327E3,6.26E2,9E0,2.7E1,3.3E1,2E0,1E0,1.1E1,3E0,6.29E2,6.98E2,5.36E2,9E1,6E0,3E0,1.1E1,1.6E1,1.6E1,1.7E1,9E0,2E0,2E0,1E0,3.14E2,3.15E2,5.09E2,1.89E2,4.27E2,1.09E2,7.2E1,1.8E1,1E0,2E0,5E0,6E0,8E0,8E0,1E1,6E0,5E0,1.2E1,5.1E1,2.63E2,1.79E2,1.36E2,4.08E2,1.01E2,5E0,1.84E2,4.15E2,1.2E1,3E0,1.06E2,2E1,5.2E1,5E0,1.3E1,4E0,1E0,7E0,1E0,3E0,5E0,4E0,1E0,8E0,4E0],"tree_param":{"num_deleted":"0","num_feature":"34","num_nodes":"77","size_leaf_vector":"1"}},{"base_weights":[2.2495573E-5,4.628553E-3,-3.7293974E-3,2.4446833E-3,1.5038067E-2,5.6008138E-2,-4.2065275E-3,-3.7960157E-2,3.034028E-3,-2.5393523E-4,1.9842612E-2,2.9389502E-3,2.849636E-3,-4.998683E-3,1.1208968E-2,-1.597706E-3,2.1233077E-3,3.401274E-3,-4.3071378E-2,2.6966402E-2,-3.0326206E-2,7.6101692E-3,2.9588012E-2,-1.6070493E-4,6.2404606E-3,-2.5014346E-3,-8.623712E-3,3.961594E-2,2.3601395E-3,-8.072127E-3,4.9064413E-4,-7.862797E-3,4.825414E-3,-1.4525515E-4,-1.4924676E-3,3.5520013E-2,-7.5091603E-3,-4.666745E-2,-2.0235658E-3,1.6239105E-2,-1.8820219E-2,5.687247E-3,3.27324E-2,5.505723E-5,2.1291361E-4,-7.421495E-3,1.0483412E-3,9.720445E-3,-9.961245E-3,7.51145E-2,-1.5420379E-3,2.1104675E-2,-7.416694E-3,-4.8645875E-6,-3.5838108E-4,-4.3266362E-5,-8.500967E-4,2.921019E-4,5.5223354E-5,5.347451E-4,1.3065446E-3,-1.8237637E-5,-3.572204E-4,-1.492795E-4,-1.5001566E-3,3.5628813E-4,-2.590867E-4,-3.652601E-5,6.9787033E-4,-7.1403692E-6,-8.7351655E-4,-2.5749637E-4,5.6460773E-4,1.6592199E-3,8.7399635E-4,-9.3194685E-5,-5.5550685E-4,-4.457713E-4,9.1007045E-5,6.490297E-4,-2.2570264E-4,-3.301561E-4,4.8323465E-4,3.625401E-4,2.508161E-3,-5.2179507E-4,4.4083808E-4,8.139297E-4,-6.751325E-5,-4.486103E-4,3.2981037E-4],"categories":[],"categories_nodes":[],"categories_segments":[],"categories_sizes":[],"default_left":[0,0,0,0,0,0,0,0,0,0,0,0,0,0,0,0,0,0,0,0,0,0,0,0,0,0,0,0,0,0,0,0,0,0,0,0,0,0,0,0,0,0,0,0,0,0,0,0,0,0,0,0,0,0,0,0,0,0,0,0,0,0,0,0,0,0,0,0,0,0,0,0,0,0,0,0,0,0,0,0,0,0,0,0,0,0,0,0,0,0,0],"id":14,"left_children":[1,3,5,7,9,11,13,15,17,19,21,-1,23,25,27,-1,29,31,33,35,37,39,41,-1,43,45,47,49,51,53,-1,55,57,-1,-1,59,61,63,65,67,69,71,73,-1,-1,75,77,79,81,83,85,87,89,-1,-1,-1,-1,-1,-1,-1,-1,-1,-1,-1,-1,-1,-1,-1,-1,-1,-1,-1,-1,-1,-1,-1,-1,-1,-1,-1,-1,-1,-1,-1,-1,-1,-1,-1,-1,-1,-1],"loss_changes":[3.5340514E-2,2.083215E-2,3.2358E-2,1.8212581E-2,1.1686947E-2,1.9794116E-2,1.3720665E-2,6.8576783E-3,1.2845524E-2,3.2742307E-2,1.4199246E-2,0E0,1.7256255E-4,9.619443E-3,1.3731764E-2,0E0,7.1240327E-4,1.1988943E-2,1.2908E-3,6.459429E-3,8.693071E-3,1.2849258E-2,4.8491135E-3,0E0,2.07017E-6,1.1045731E-2,1.0745417E-2,1.9109469E-2,8.036802E-3,8.9990484E-5,0E0,1.1001227E-2,9.685998E-3,0E0,0E0,1.6397126E-3,1.4452593E-4,1.421053E-3,8.37885E-4,5.1776115E-3,2.6718443E-3,1.8482651E-3,3.1825453E-3,0E0,0E0,1.2629806E-2,1.166643E-2,6.326004E-3,1.1199351E-2,2.735898E-3,2.0571698E-3,2.1722368E-3,4.188398E-3,0E0,0E0,0E0,0E0,0E0,0E0,0E0,0E0,0E0,0E0,0E0,0E0,0E0,0E0,0E0,0E0,0E0,0E0,0E0,0E0,0E0,0E0,0E0,0E0,0E0,0E0,0E0,0E0,0E0,0E0,0E0,0E0,0E0,0E0,0E0,0E0,0E0,0E0],"parents":[2147483647,0,0,1,1,2,2,3,3,4,4,5,5,6,6,7,7,8,8,9,9,10,10,12,12,13,13,14,14,16,16,17,17,18,18,19,19,20,20,21,21,22,22,24,24,25,25,26,26,27,27,28,28,29,29,31,31,32,32,35,35,36,36,37,37,38,38,39,39,40,40,41,41,42,42,45,45,46,46,47,47,48,48,49,49,50,50,51,51,52,52],"right_children":[2,4,6,8,10,12,14,16,18,20,22,-1,24,26,28,-1,30,32,34,36,38,40,42,-1,44,46,48,50,52,54,-1,56,58,-1,-1,60,62,64,66,68,70,72,74,-1,-1,76,78,80,82,84,86,88,90,-1,-1,-1,-1,-1,-1,-1,-1,-1,-1,-1,-1,-1,-1,-1,-1,-1,-1,-1,-1,-1,-1,-1,-1,-1,-1,-1,-1,-1,-1,-1,-1,-1,-1,-1,-1,-1,-1],"split_conditions":[-1.0254815E-1,6.460436E-1,-1.7512568E0,-1.5829232E0,-3.9631945E-1,-1.0018157E-1,1.5116518E0,-1.0227201E0,1.5206155E0,-2.6799244E-1,-7.0287675E-1,2.9389502E-3,-1.3849685E0,3.6395043E-1,-9.825728E-2,-1.597706E-3,-1.9061837E0,-6.313832E-1,-2.0339462E-1,3.1696114E-1,9.8976E-1,1.1334283E0,-9.521893E-1,-1.6070493E-4,9.615302E-1,4.0413804E-2,-6.9484365E-1,1.7198032E0,-5.09602E-2,-1.9732368E0,4.9064413E-4,-2.0823734E-1,-3.4179327E-1,-1.4525515E-4,-1.4924676E-3,7.787689E-1,4.1605797E-1,-1.647301E0,-6.297373E-1,-1.53049E0,-4.4176537E-1,-9.066892E-2,-1.2368025E0,5.505723E-5,2.1291361E-4,2.0040631E-1,-1.2610935E-1,5.1604867E-1,2.584846E0,-5.65428E-1,-3.4179327E-1,3.9749283E-1,4.363839E-1,-4.8645875E-6,-3.5838108E-4,-4.3266362E-5,-8.500967E-4,2.921019E-4,5.5223354E-5,5.347451E-4,1.3065446E-3,-1.8237637E-5,-3.572204E-4,-1.492795E-4,-1.5001566E-3,3.5628813E-4,-2.590867E-4,-3.652601E-5,6.9787033E-4,-7.1403692E-6,-8.7351655E-4,-2.5749637E-4,5.6460773E-4,1.6592199E-3,8.7399635E-4,-9.3194685E-5,-5.5550685E-4,-4.457713E-4,9.1007045E-5,6.490297E-4,-2.2570264E-4,-3.301561E-4,4.8323465E-4,3.625401E-4,2.508161E-3,-5.2179507E-4,4.4083808E-4,8.139297E-4,-6.751325E-5,-4.486103E-4,3.2981037E-4],"split_indices":[24,6,21,22,23,22,5,12,25,18,30,0,1,30,23,0,0,7,0,11,5,6,10,0,2,13,23,15,31,0,0,11,22,0,0,6,28,2,17,30,18,29,2,0,0,18,26,10,13,3,22,26,14,0,0,0,0,0,0,0,0,0,0,0,0,0,0,0,0,0,0,0,0,0,0,0,0,0,0,0,0,0,0,0,0,0,0,0,0,0,0],"split_type":[0,0,0,0,0,0,0,0,0,0,0,0,0,0,0,0,0,0,0,0,0,0,0,0,0,0,0,0,0,0,0,0,0,0,0,0,0,0,0,0,0,0,0,0,0,0,0,0,0,0,0,0,0,0,0,0,0,0,0,0,0,0,0,0,0,0,0,0,0,0,0,0,0,0,0,0,0,0,0,0,0,0,0,0,0,0,0,0,0,0,0],"sum_hessian":[2.043E3,9.17E2,1.126E3,7.59E2,1.58E2,8E0,1.118E3,1E1,7.49E2,3.8E1,1.2E2,4E0,4E0,1.064E3,5.4E1,7E0,3E0,7.44E2,5E0,2E1,1.8E1,5.4E1,6.6E1,1E0,3E0,6.31E2,4.33E2,1.2E1,4.2E1,2E0,1E0,8.3E1,6.61E2,1E0,4E0,1.6E1,4E0,1.1E1,7E0,4.1E1,1.3E1,8E0,5.8E1,1E0,2E0,2.64E2,3.67E2,2.9E1,4.04E2,6E0,6E0,1.4E1,2.8E1,1E0,1E0,6.4E1,1.9E1,2.49E2,4.12E2,6E0,1E1,2E0,2E0,1E0,1E1,2E0,5E0,1.2E1,2.9E1,5E0,8E0,4E0,4E0,6E0,5.2E1,1.91E2,7.3E1,4E1,3.27E2,1.7E1,1.2E1,3.89E2,1.5E1,1E0,5E0,3E0,3E0,1.1E1,3E0,2E1,8E0],"tree_param":{"num_deleted":"0","num_feature":"34","num_nodes":"91","size_leaf_vector":"1"}},{"base_weights":[2.422635E-5,2.8328453E-3,-5.81723E-3,5.773154E-2,2.5111404E-3,-1.0265394E-2,-1.1523591E-4,-3.8316022E-3,9.5435746E-2,1.2761201E-3,1.2890106E-2,-4.6656677E-3,-1.5463762E-2,9.112774E-4,-4.9197584E-2,-2.9473624E-4,2.1220824E-4,8.5946027E-4,3.1491101E-3,2.5889056E-3,-5.033746E-3,2.3421286E-2,-5.936928E-4,-3.372542E-2,-3.3027728E-3,-2.5045604E-2,-9.5551815E-3,-3.262649E-4,2.9298812E-2,-1.602235E-3,-4.2219492E-4,1.7765404E-3,1.7957151E-2,-2.6856886E-2,-5.66702E-4,3.136172E-2,-2.7621512E-3,1.562188E-2,-3.8260128E-3,-4.9803257E-3,-1.2743119E-3,-4.6580336E-3,1.9389305E-2,-2.8066435E-3,-2.937447E-2,-2.0649388E-2,-4.9821655E-3,1.09844785E-2,-3.3203145E-3,3.3450708E-2,5.6928927E-3,7.86763E-5,-4.2431557E-4,1.7561034E-3,2.7138396E-4,-2.1520788E-3,-6.180946E-4,4.4787277E-5,-6.873009E-4,1.2166539E-3,6.169056E-4,-2.2857447E-4,3.9998014E-4,6.789538E-4,-6.910243E-5,5.3269864E-4,-2.2030232E-4,4.6252022E-5,-2.7036667E-4,-1.42217605E-5,-3.905209E-4,-9.517444E-5,1.0487774E-3,1.6078724E-4,-9.544169E-4,-1.3920661E-3,-5.980949E-4,-8.476946E-4,2.5669878E-4,-1.2806754E-5,-3.521341E-4,-3.8548122E-4,5.6580023E-4,-1.9608962E-4,2.9984646E-4,4.985564E-5,1.1039445E-3,2.1793305E-5,2.3438687E-4],"categories":[],"categories_nodes":[],"categories_segments":[],"categories_sizes":[],"default_left":[0,0,0,0,0,0,0,0,0,0,0,0,0,0,0,0,0,0,0,0,0,0,0,0,0,0,0,0,0,0,0,0,0,0,0,0,0,0,0,0,0,0,0,0,0,0,0,0,0,0,0,0,0,0,0,0,0,0,0,0,0,0,0,0,0,0,0,0,0,0,0,0,0,0,0,0,0,0,0,0,0,0,0,0,0,0,0,0,0],"id":15,"left_children":[1,3,5,7,9,11,13,15,17,19,21,23,25,27,29,-1,-1,-1,-1,31,33,35,37,39,41,43,45,47,49,-1,-1,51,53,55,57,59,61,63,65,67,-1,69,71,73,75,77,79,81,83,85,87,-1,-1,-1,-1,-1,-1,-1,-1,-1,-1,-1,-1,-1,-1,-1,-1,-1,-1,-1,-1,-1,-1,-1,-1,-1,-1,-1,-1,-1,-1,-1,-1,-1,-1,-1,-1,-1,-1],"loss_changes":[3.3551212E-2,2.424511E-2,1.6840117E-2,1.8935189E-2,1.7595803E-2,1.0785673E-2,1.47568695E-2,3.3091204E-4,1.7667562E-4,1.0193454E-2,2.074595E-2,7.0571867E-3,1.0687396E-2,1.0092092E-2,1.356788E-4,0E0,0E0,0E0,0E0,1.2677448E-2,2.0651586E-2,1.7135072E-2,3.4666744E-3,1.8009851E-3,5.441456E-3,6.9452263E-3,6.035936E-3,9.383192E-3,9.856801E-4,0E0,0E0,1.3074793E-2,1.7912364E-2,8.625835E-3,8.1794895E-3,5.420197E-3,1.6650341E-3,1.4343329E-3,4.305703E-3,9.278326E-5,0E0,5.7647424E-3,3.623764E-3,3.2499433E-3,8.878052E-3,8.017835E-3,2.6723086E-3,1.1129184E-2,9.443294E-3,1.0029608E-3,2.5911031E-5,0E0,0E0,0E0,0E0,0E0,0E0,0E0,0E0,0E0,0E0,0E0,0E0,0E0,0E0,0E0,0E0,0E0,0E0,0E0,0E0,0E0,0E0,0E0,0E0,0E0,0E0,0E0,0E0,0E0,0E0,0E0,0E0,0E0,0E0,0E0,0E0,0E0,0E0],"parents":[2147483647,0,0,1,1,2,2,3,3,4,4,5,5,6,6,7,7,8,8,9,9,10,10,11,11,12,12,13,13,14,14,19,19,20,20,21,21,22,22,23,23,24,24,25,25,26,26,27,27,28,28,31,31,32,32,33,33,34,34,35,35,36,36,37,37,38,38,39,39,41,41,42,42,43,43,44,44,45,45,46,46,47,47,48,48,49,49,50,50],"right_children":[2,4,6,8,10,12,14,16,18,20,22,24,26,28,30,-1,-1,-1,-1,32,34,36,38,40,42,44,46,48,50,-1,-1,52,54,56,58,60,62,64,66,68,-1,70,72,74,76,78,80,82,84,86,88,-1,-1,-1,-1,-1,-1,-1,-1,-1,-1,-1,-1,-1,-1,-1,-1,-1,-1,-1,-1,-1,-1,-1,-1,-1,-1,-1,-1,-1,-1,-1,-1,-1,-1,-1,-1,-1,-1],"split_conditions":[2.7801907E-1,-2.1006348E0,7.059316E-2,1.0271575E0,1.5819392E0,-2.6390174E-1,2.0360587E0,-1.3849685E0,-2.0707386E0,1.9722958E-1,1.9928813E-1,-9.170337E-1,-1.602612E-1,1.2964734E0,1.1755071E0,-2.9473624E-4,2.1220824E-4,8.5946027E-4,3.1491101E-3,9.4025916E-1,-4.8235053E-1,2.0992652E-1,-1.0747489E0,-3.417206E-3,1.5525086E0,-8.00521E-1,-7.784396E-1,-3.589946E-1,1.9904184E0,-1.602235E-3,-4.2219492E-4,1.093954E0,-3.106886E-1,-4.0202957E-1,1.2368932E0,4.4439065E-1,1.7008749E0,-7.241555E-2,-9.634068E-1,4.0539265E-1,-1.2743119E-3,2.700765E-1,-4.484026E-1,1.145733E0,-3.9789194E-1,1.9523121E0,4.7118503E-1,-1.7405923E-1,1.6147925E0,1.4079848E-1,7.198115E-1,7.86763E-5,-4.2431557E-4,1.7561034E-3,2.7138396E-4,-2.1520788E-3,-6.180946E-4,4.4787277E-5,-6.873009E-4,1.2166539E-3,6.169056E-4,-2.2857447E-4,3.9998014E-4,6.789538E-4,-6.910243E-5,5.3269864E-4,-2.2030232E-4,4.6252022E-5,-2.7036667E-4,-1.42217605E-5,-3.905209E-4,-9.517444E-5,1.0487774E-3,1.6078724E-4,-9.544169E-4,-1.3920661E-3,-5.980949E-4,-8.476946E-4,2.5669878E-4,-1.2806754E-5,-3.521341E-4,-3.8548122E-4,5.6580023E-4,-1.9608962E-4,2.9984646E-4,4.985564E-5,1.1039445E-3,2.1793305E-5,2.3438687E-4],"split_indices":[14,21,5,6,7,7,22,1,1,17,4,7,22,6,0,0,0,0,0,13,22,12,22,2,22,5,27,22,2,0,0,22,23,13,18,31,10,8,11,0,0,11,7,8,13,12,18,7,3,5,0,0,0,0,0,0,0,0,0,0,0,0,0,0,0,0,0,0,0,0,0,0,0,0,0,0,0,0,0,0,0,0,0,0,0,0,0,0,0],"split_type":[0,0,0,0,0,0,0,0,0,0,0,0,0,0,0,0,0,0,0,0,0,0,0,0,0,0,0,0,0,0,0,0,0,0,0,0,0,0,0,0,0,0,0,0,0,0,0,0,0,0,0,0,0,0,0,0,0,0,0,0,0,0,0,0,0,0,0,0,0,0,0,0,0,0,0,0,0,0,0,0,0,0,0,0,0,0,0,0,0],"sum_hessian":[2.043E3,1.38E3,6.63E2,7E0,1.373E3,3.72E2,2.91E2,3E0,4E0,1.228E3,1.45E2,1.8E2,1.92E2,2.86E2,5E0,2E0,1E0,1E0,3E0,1.017E3,2.11E2,8.1E1,6.4E1,7E0,1.73E2,7.2E1,1.2E2,2.75E2,1.1E1,4E0,1E0,9.67E2,5E1,3.5E1,1.76E2,6.2E1,1.9E1,1E1,5.4E1,2E0,5E0,1.64E2,9E0,1.2E1,6E1,3.4E1,8.6E1,5.7E1,2.18E2,9E0,2E0,9.19E2,4.8E1,8E0,4.2E1,3E0,3.2E1,1.62E2,1.4E1,3.2E1,3E1,1.5E1,4E0,7E0,3E0,7E0,4.7E1,1E0,1E0,1.1E2,5.4E1,4E0,5E0,1E1,2E0,2E1,4E1,2.7E1,7E0,5.2E1,3.4E1,1.4E1,4.3E1,1.76E2,4.2E1,1E0,8E0,1E0,1E0],"tree_param":{"num_deleted":"0","num_feature":"34","num_nodes":"89","size_leaf_vector":"1"}},{"base_weights":[2.3549836E-5,4.390369E-3,-3.533472E-3,2.2948803E-3,1.437893E-2,5.354309E-2,-3.989375E-3,-3.702654E-2,2.8685345E-3,-4.1363196E-4,1.9027947E-2,2.8114629E-3,2.6621404E-3,-4.748688E-3,1.0786216E-2,-1.5578315E-3,2.0324509E-3,3.2246015E-3,-4.1821185E-2,2.3421096E-2,-3.2636285E-2,7.231897E-3,2.8427273E-2,-1.5387332E-4,5.892231E-3,-8.943036E-3,-2.6830027E-3,3.81946E-2,2.249117E-3,-8.003495E-3,4.821043E-4,-7.6722656E-3,4.6024146E-3,-1.4425647E-4,-1.44786E-3,3.1651307E-2,-1.2537931E-2,-1.6017895E-3,-1.2767298E-2,1.5541967E-2,-1.8214878E-2,5.3319386E-3,3.146847E-2,4.8231675E-5,2.0353479E-4,-1.0121754E-2,3.2263424E-2,8.973325E-4,-7.1556144E-3,7.27241E-2,-1.7912673E-3,2.0396916E-2,-7.2152317E-3,-5.9717636E-6,-3.541855E-4,-4.2644395E-5,-8.281112E-4,6.069929E-5,2.9865428E-4,4.2904008E-4,1.2174104E-3,-6.135951E-4,-1.33013955E-5,-7.5215293E-4,-1.9671633E-4,-4.41858E-5,6.719098E-4,1.3005181E-6,-8.5089466E-4,-2.5643405E-4,5.443588E-4,1.6027287E-3,8.39247E-4,-1.4683694E-4,-4.832151E-4,-2.7997253E-4,1.3148681E-3,3.2063376E-4,-2.8231476E-5,-4.8655047E-4,-1.2427948E-4,3.6004337E-4,2.4253288E-3,-5.207905E-4,4.2674903E-4,7.878102E-4,-6.877758E-5,-4.3546164E-4,3.1860478E-4],"categories":[],"categories_nodes":[],"categories_segments":[],"categories_sizes":[],"default_left":[0,0,0,0,0,0,0,0,0,0,0,0,0,0,0,0,0,0,0,0,0,0,0,0,0,0,0,0,0,0,0,0,0,0,0,0,0,0,0,0,0,0,0,0,0,0,0,0,0,0,0,0,0,0,0,0,0,0,0,0,0,0,0,0,0,0,0,0,0,0,0,0,0,0,0,0,0,0,0,0,0,0,0,0,0,0,0,0,0],"id":16,"left_children":[1,3,5,7,9,11,13,15,17,19,21,-1,23,25,27,-1,29,31,33,35,37,39,41,-1,43,45,47,49,51,53,-1,55,57,-1,-1,59,61,-1,63,65,67,69,71,-1,-1,73,75,77,79,81,83,85,87,-1,-1,-1,-1,-1,-1,-1,-1,-1,-1,-1,-1,-1,-1,-1,-1,-1,-1,-1,-1,-1,-1,-1,-1,-1,-1,-1,-1,-1,-1,-1,-1,-1,-1,-1,-1],"loss_changes":[3.1764705E-2,1.9181587E-2,2.9539704E-2,1.724946E-2,1.09424405E-2,1.8146576E-2,1.2605611E-2,6.507816E-3,1.2069251E-2,3.0717086E-2,1.3210282E-2,0E0,1.5605414E-4,9.203384E-3,1.2783442E-2,0E0,6.921434E-4,1.12206265E-2,1.1982797E-3,7.203703E-3,6.329365E-3,1.1913642E-2,4.5381263E-3,0E0,4.3840264E-6,1.7374912E-2,1.1456037E-2,1.8079259E-2,7.5327232E-3,8.6683416E-5,0E0,1.0426085E-2,9.118931E-3,0E0,0E0,2.3630988E-3,4.6958786E-4,0E0,5.9971726E-4,4.931746E-3,2.595283E-3,1.7557166E-3,3.0310117E-3,0E0,0E0,1.0621287E-2,5.2198023E-3,7.1735014E-3,8.6160265E-3,2.4813153E-3,1.992373E-3,2.0557768E-3,3.929989E-3,0E0,0E0,0E0,0E0,0E0,0E0,0E0,0E0,0E0,0E0,0E0,0E0,0E0,0E0,0E0,0E0,0E0,0E0,0E0,0E0,0E0,0E0,0E0,0E0,0E0,0E0,0E0,0E0,0E0,0E0,0E0,0E0,0E0,0E0,0E0,0E0],"parents":[2147483647,0,0,1,1,2,2,3,3,4,4,5,5,6,6,7,7,8,8,9,9,10,10,12,12,13,13,14,14,16,16,17,17,18,18,19,19,20,20,21,21,22,22,24,24,25,25,26,26,27,27,28,28,29,29,31,31,32,32,35,35,36,36,38,38,39,39,40,40,41,41,42,42,45,45,46,46,47,47,48,48,49,49,50,50,51,51,52,52],"right_children":[2,4,6,8,10,12,14,16,18,20,22,-1,24,26,28,-1,30,32,34,36,38,40,42,-1,44,46,48,50,52,54,-1,56,58,-1,-1,60,62,-1,64,66,68,70,72,-1,-1,74,76,78,80,82,84,86,88,-1,-1,-1,-1,-1,-1,-1,-1,-1,-1,-1,-1,-1,-1,-1,-1,-1,-1,-1,-1,-1,-1,-1,-1,-1,-1,-1,-1,-1,-1,-1,-1,-1,-1,-1,-1],"split_conditions":[-1.0254815E-1,6.460436E-1,-1.7512568E0,-1.5829232E0,-3.9631945E-1,-1.0018157E-1,1.5116518E0,-1.0227201E0,1.5206155E0,-2.3955448E-1,-7.0287675E-1,2.8114629E-3,-1.3849685E0,-1.7143057E-1,-9.825728E-2,-1.5578315E-3,-1.9061837E0,-6.313832E-1,-2.0339462E-1,-3.2573193E-1,1.5866636E-1,1.1334283E0,-9.521893E-1,-1.5387332E-4,9.615302E-1,2.20879E0,3.8998818E-1,1.7198032E0,-5.09602E-2,-1.9732368E0,4.821043E-4,-2.0823734E-1,-6.553375E-2,-1.4425647E-4,-1.44786E-3,7.787689E-1,-9.6404034E-1,-1.6017895E-3,-7.2555786E-1,-1.53049E0,-4.4176537E-1,-9.066892E-2,-1.2368025E0,4.8231675E-5,2.0353479E-4,1.5532039E-1,-3.550767E-1,-4.126051E-1,3.5922548E-1,-5.65428E-1,-3.4179327E-1,3.9749283E-1,4.363839E-1,-5.9717636E-6,-3.541855E-4,-4.2644395E-5,-8.281112E-4,6.069929E-5,2.9865428E-4,4.2904008E-4,1.2174104E-3,-6.135951E-4,-1.33013955E-5,-7.5215293E-4,-1.9671633E-4,-4.41858E-5,6.719098E-4,1.3005181E-6,-8.5089466E-4,-2.5643405E-4,5.443588E-4,1.6027287E-3,8.39247E-4,-1.4683694E-4,-4.832151E-4,-2.7997253E-4,1.3148681E-3,3.2063376E-4,-2.8231476E-5,-4.8655047E-4,-1.2427948E-4,3.6004337E-4,2.4253288E-3,-5.207905E-4,4.2674903E-4,7.878102E-4,-6.877758E-5,-4.3546164E-4,3.1860478E-4],"split_indices":[24,6,21,22,23,22,5,12,25,18,30,0,1,22,23,0,0,7,0,30,13,6,10,0,2,13,14,15,31,0,0,11,13,0,0,6,0,0,10,30,18,29,2,0,0,18,7,23,0,3,22,26,14,0,0,0,0,0,0,0,0,0,0,0,0,0,0,0,0,0,0,0,0,0,0,0,0,0,0,0,0,0,0,0,0,0,0,0,0],"split_type":[0,0,0,0,0,0,0,0,0,0,0,0,0,0,0,0,0,0,0,0,0,0,0,0,0,0,0,0,0,0,0,0,0,0,0,0,0,0,0,0,0,0,0,0,0,0,0,0,0,0,0,0,0,0,0,0,0,0,0,0,0,0,0,0,0,0,0,0,0,0,0,0,0,0,0,0,0,0,0,0,0,0,0,0,0,0,0,0,0],"sum_hessian":[2.043E3,9.17E2,1.126E3,7.59E2,1.58E2,8E0,1.118E3,1E1,7.49E2,3.8E1,1.2E2,4E0,4E0,1.064E3,5.4E1,7E0,3E0,7.44E2,5E0,2.2E1,1.6E1,5.4E1,6.6E1,1E0,3E0,3.5E2,7.14E2,1.2E1,4.2E1,2E0,1E0,8.3E1,6.61E2,1E0,4E0,1.8E1,4E0,7E0,9E0,4.1E1,1.3E1,8E0,5.8E1,1E0,2E0,3.41E2,9E0,3.97E2,3.17E2,6E0,6E0,1.4E1,2.8E1,1E0,1E0,6.4E1,1.9E1,4.47E2,2.14E2,7E0,1.1E1,2E0,2E0,2E0,7E0,1.2E1,2.9E1,5E0,8E0,4E0,4E0,6E0,5.2E1,1.83E2,1.58E2,2E0,7E0,6.2E1,3.35E2,7.8E1,2.39E2,1E0,5E0,3E0,3E0,1.1E1,3E0,2E1,8E0],"tree_param":{"num_deleted":"0","num_feature":"34","num_nodes":"89","size_leaf_vector":"1"}},{"base_weights":[2.466659E-5,2.774567E-3,-5.3052767E-3,5.533046E-2,2.4592008E-3,-6.8113897E-3,1.0484776E-2,-3.7386555E-3,9.151966E-2,3.520875E-2,2.0874368E-3,-5.6294296E-3,-2.1173125E-2,-7.1587563E-3,2.470637E-2,-2.8686094E-4,2.0597209E-4,8.339797E-4,3.0149973E-3,4.3153826E-2,2.5713372E-3,-1.1745588E-3,5.0244466E-3,-5.043749E-3,-3.9035942E-2,-1.0901387E-2,-3.9262686E-2,-2.3394141E-2,4.722619E-3,4.6193466E-2,3.0404213E-3,1.3963743E-3,5.2387774E-4,2.5246895E-4,-2.244232E-4,4.3482217E-3,-6.6761454E-3,7.185883E-3,-1.7965417E-3,-7.419696E-3,4.524002E-3,-1.536358E-3,-7.96897E-3,3.6692729E-3,-2.397369E-2,-1.8923964E-3,-2.0536954E-2,-1.1703668E-2,-9.021758E-4,8.602012E-3,-6.3083256E-3,1.6827689E-3,5.6090666E-4,-4.0499607E-4,1.0440523E-2,-1.9021628E-4,1.9311342E-4,-4.362637E-4,1.1122345E-4,3.851629E-4,1.2677563E-4,-1.2731579E-3,-8.960481E-6,-2.486562E-4,4.3851222E-4,2.1607534E-4,-9.7608566E-4,-3.5027036E-4,-8.5245185E-5,5.8313727E-4,-9.620295E-5,-1.0382102E-3,3.8656803E-5,-2.7698145E-4,-1.1403358E-3,-3.986463E-4,-5.6714274E-5,-1.5574846E-5,3.417084E-4,1.0991895E-4,-2.915217E-4,5.4470776E-4,-1.6611321E-4],"categories":[],"categories_nodes":[],"categories_segments":[],"categories_sizes":[],"default_left":[0,0,0,0,0,0,0,0,0,0,0,0,0,0,0,0,0,0,0,0,0,0,0,0,0,0,0,0,0,0,0,0,0,0,0,0,0,0,0,0,0,0,0,0,0,0,0,0,0,0,0,0,0,0,0,0,0,0,0,0,0,0,0,0,0,0,0,0,0,0,0,0,0,0,0,0,0,0,0,0,0,0,0],"id":17,"left_children":[1,3,5,7,9,11,13,15,17,19,21,23,25,27,29,-1,-1,-1,-1,31,33,35,37,39,41,43,45,47,49,51,53,-1,-1,-1,-1,55,57,59,61,63,65,-1,67,69,71,-1,73,75,-1,77,79,-1,-1,-1,81,-1,-1,-1,-1,-1,-1,-1,-1,-1,-1,-1,-1,-1,-1,-1,-1,-1,-1,-1,-1,-1,-1,-1,-1,-1,-1,-1,-1],"loss_changes":[2.997325E-2,2.2222746E-2,1.6623413E-2,1.744347E-2,1.626549E-2,1.0676915E-2,1.54829305E-2,3.1266385E-4,6.7293644E-5,3.7786402E-3,1.27288215E-2,1.1327213E-2,8.490922E-3,5.5116448E-3,1.5687857E-2,0E0,0E0,0E0,0E0,2.3292005E-4,2.9794543E-4,1.9170985E-2,1.0318359E-2,1.3218397E-2,3.3746045E-3,6.183073E-3,6.2864367E-3,5.849232E-4,7.817515E-4,3.5783798E-3,2.3441424E-3,0E0,0E0,0E0,0E0,7.0740334E-3,2.586389E-2,8.8308025E-3,1.027538E-2,9.024285E-3,1.1749205E-2,0E0,4.284756E-5,1.7971445E-3,4.6111597E-3,0E0,1.8219166E-3,6.817549E-5,0E0,3.36533E-4,2.0558506E-4,0E0,0E0,0E0,1.7033047E-3,0E0,0E0,0E0,0E0,0E0,0E0,0E0,0E0,0E0,0E0,0E0,0E0,0E0,0E0,0E0,0E0,0E0,0E0,0E0,0E0,0E0,0E0,0E0,0E0,0E0,0E0,0E0,0E0],"parents":[2147483647,0,0,1,1,2,2,3,3,4,4,5,5,6,6,7,7,8,8,9,9,10,10,11,11,12,12,13,13,14,14,19,19,20,20,21,21,22,22,23,23,24,24,25,25,26,26,27,27,28,28,29,29,30,30,35,35,36,36,37,37,38,38,39,39,40,40,42,42,43,43,44,44,46,46,47,47,49,49,50,50,54,54],"right_children":[2,4,6,8,10,12,14,16,18,20,22,24,26,28,30,-1,-1,-1,-1,32,34,36,38,40,42,44,46,48,50,52,54,-1,-1,-1,-1,56,58,60,62,64,66,-1,68,70,72,-1,74,76,-1,78,80,-1,-1,-1,82,-1,-1,-1,-1,-1,-1,-1,-1,-1,-1,-1,-1,-1,-1,-1,-1,-1,-1,-1,-1,-1,-1,-1,-1,-1,-1,-1,-1],"split_conditions":[2.5673455E-1,-2.1006348E0,2.305768E0,1.0271575E0,-1.8203365E0,1.2515578E0,4.1714528E-1,-1.3849685E0,-2.0707386E0,-8.362795E-2,-9.118165E-2,1.8790886E0,1.0165167E0,3.7606627E-1,2.483971E0,-2.8686094E-4,2.0597209E-4,8.339797E-4,3.0149973E-3,-1.2829621E-1,-3.9642945E-1,-4.4176537E-1,6.936049E-2,5.755499E-1,1.8620574E-1,5.0894696E-1,8.7785494E-1,8.679196E-2,1.7134261E0,3.5986286E-2,1.2806028E0,1.3963743E-3,5.2387774E-4,2.5246895E-4,-2.244232E-4,-7.5408804E-1,-6.3123642E-3,2.3045118E-1,-1.3344231E0,1.2773302E0,1.130798E0,-1.536358E-3,-3.6536342E-1,-2.431453E-1,1.6147925E0,-1.8923964E-3,1.0763787E0,5.5557895E-1,-9.021758E-4,-3.5305122E-1,1.3692752E-1,1.6827689E-3,5.6090666E-4,-4.0499607E-4,2.5453222E0,-1.9021628E-4,1.9311342E-4,-4.362637E-4,1.1122345E-4,3.851629E-4,1.2677563E-4,-1.2731579E-3,-8.960481E-6,-2.486562E-4,4.3851222E-4,2.1607534E-4,-9.7608566E-4,-3.5027036E-4,-8.5245185E-5,5.8313727E-4,-9.620295E-5,-1.0382102E-3,3.8656803E-5,-2.7698145E-4,-1.1403358E-3,-3.986463E-4,-5.6714274E-5,-1.5574846E-5,3.417084E-4,1.0991895E-4,-2.915217E-4,5.4470776E-4,-1.6611321E-4],"split_indices":[14,21,13,6,4,11,7,1,1,12,7,12,18,22,3,0,0,0,0,0,1,18,1,5,7,24,3,22,11,22,24,0,0,0,0,21,5,7,3,22,14,0,0,12,3,0,2,0,0,31,0,0,0,0,2,0,0,0,0,0,0,0,0,0,0,0,0,0,0,0,0,0,0,0,0,0,0,0,0,0,0,0,0],"split_type":[0,0,0,0,0,0,0,0,0,0,0,0,0,0,0,0,0,0,0,0,0,0,0,0,0,0,0,0,0,0,0,0,0,0,0,0,0,0,0,0,0,0,0,0,0,0,0,0,0,0,0,0,0,0,0,0,0,0,0,0,0,0,0,0,0,0,0,0,0,0,0,0,0,0,0,0,0,0,0,0,0,0,0],"sum_hessian":[2.043E3,1.348E3,6.95E2,7E0,1.341E3,6.35E2,6E1,3E0,4E0,1.4E1,1.327E3,5.88E2,4.7E1,2.7E1,3.3E1,2E0,1E0,1E0,3E0,1.1E1,3E0,6.29E2,6.98E2,5.79E2,9E0,3.1E1,1.6E1,1.1E1,1.6E1,1.6E1,1.7E1,9E0,2E0,2E0,1E0,3.14E2,3.15E2,5.3E2,1.68E2,4.64E2,1.15E2,6E0,3E0,1.5E1,1.6E1,6E0,1E1,5E0,6E0,1.2E1,4E0,1.1E1,5E0,5E0,1.2E1,5.1E1,2.63E2,1.79E2,1.36E2,1.81E2,3.49E2,5E0,1.63E2,4.47E2,1.7E1,1.08E2,7E0,1E0,2E0,4E0,1.1E1,1.1E1,5E0,7E0,3E0,4E0,1E0,3E0,9E0,1E0,3E0,8E0,4E0],"tree_param":{"num_deleted":"0","num_feature":"34","num_nodes":"83","size_leaf_vector":"1"}},{"base_weights":[2.3566487E-5,4.163354E-3,-3.3485263E-3,2.175327E-3,1.3860159E-2,5.1197913E-2,-3.7842453E-3,-3.614239E-2,2.7321922E-3,-6.6424196E-4,1.8543137E-2,2.688957E-3,2.5243359E-3,-4.511242E-3,1.0361853E-2,-1.5219126E-3,2.0692665E-3,3.0735827E-3,-4.0283192E-2,2.4957867E-2,-2.8948456E-2,7.5130723E-3,2.7421296E-2,-1.4726231E-4,5.6097917E-3,-8.5511515E-3,-2.5217037E-3,2.599327E-3,7.3446934E-3,-7.857112E-3,4.77726E-4,-7.44777E-3,4.397974E-3,-1.3836278E-4,-1.3948499E-3,3.2958824E-2,-7.2369613E-3,-4.448639E-2,-2.0230012E-3,1.5975185E-2,-1.7805476E-2,8.3632795E-3,3.1148609E-2,4.5606575E-5,1.9398729E-4,-9.675929E-3,3.0771364E-2,8.849102E-4,-6.7773974E-3,-1.2261521E-2,1.51999425E-2,-7.550537E-6,-3.460195E-4,-3.9068086E-4,4.115132E-4,2.7220533E-4,4.5694003E-5,5.032575E-4,1.2078361E-3,-1.557088E-5,-3.4627717E-4,-1.4717133E-4,-1.4291598E-3,3.3484638E-4,-2.4834325E-4,-2.43733E-4,5.8644096E-4,6.051542E-7,-8.313256E-4,-1.545546E-4,5.625869E-4,1.6951992E-3,8.2223566E-4,-1.3974855E-4,-4.626497E-4,-2.6602397E-4,1.253685E-3,-1.4843699E-4,1.17945405E-4,-4.6574423E-4,-1.1609406E-4,-1.170143E-3,-1.6965005E-4,1.038691E-3,1.8998714E-4],"categories":[],"categories_nodes":[],"categories_segments":[],"categories_sizes":[],"default_left":[0,0,0,0,0,0,0,0,0,0,0,0,0,0,0,0,0,0,0,0,0,0,0,0,0,0,0,0,0,0,0,0,0,0,0,0,0,0,0,0,0,0,0,0,0,0,0,0,0,0,0,0,0,0,0,0,0,0,0,0,0,0,0,0,0,0,0,0,0,0,0,0,0,0,0,0,0,0,0,0,0,0,0,0,0],"id":18,"left_children":[1,3,5,7,9,11,13,15,17,19,21,-1,23,25,27,-1,29,31,33,35,37,39,41,-1,43,45,47,-1,49,51,-1,53,55,-1,-1,57,59,61,63,65,67,69,71,-1,-1,73,75,77,79,81,83,-1,-1,-1,-1,-1,-1,-1,-1,-1,-1,-1,-1,-1,-1,-1,-1,-1,-1,-1,-1,-1,-1,-1,-1,-1,-1,-1,-1,-1,-1,-1,-1,-1,-1],"loss_changes":[2.8547669E-2,1.7666606E-2,2.6979053E-2,1.6379496E-2,1.062304E-2,1.661022E-2,1.1554722E-2,6.236735E-3,1.1181653E-2,2.898584E-2,1.1349328E-2,0E0,1.4220923E-4,8.538434E-3,1.2022211E-2,0E0,6.752355E-4,1.0455675E-2,1.1150511E-3,5.6478996E-3,7.858956E-3,1.1853859E-2,4.3567866E-3,0E0,4.179965E-6,1.5822152E-2,1.0371715E-2,0E0,8.503007E-3,8.09896E-5,0E0,1.0090014E-2,8.924727E-3,0E0,0E0,1.3336446E-3,1.386331E-4,1.2635253E-3,7.5216254E-4,3.6890907E-3,2.4725357E-3,1.7816122E-3,3.5736114E-3,0E0,0E0,9.788025E-3,4.738028E-3,7.0920154E-3,8.027911E-3,2.6063046E-3,6.497523E-3,0E0,0E0,0E0,0E0,0E0,0E0,0E0,0E0,0E0,0E0,0E0,0E0,0E0,0E0,0E0,0E0,0E0,0E0,0E0,0E0,0E0,0E0,0E0,0E0,0E0,0E0,0E0,0E0,0E0,0E0,0E0,0E0,0E0,0E0],"parents":[2147483647,0,0,1,1,2,2,3,3,4,4,5,5,6,6,7,7,8,8,9,9,10,10,12,12,13,13,14,14,16,16,17,17,18,18,19,19,20,20,21,21,22,22,24,24,25,25,26,26,28,28,29,29,31,31,32,32,35,35,36,36,37,37,38,38,39,39,40,40,41,41,42,42,45,45,46,46,47,47,48,48,49,49,50,50],"right_children":[2,4,6,8,10,12,14,16,18,20,22,-1,24,26,28,-1,30,32,34,36,38,40,42,-1,44,46,48,-1,50,52,-1,54,56,-1,-1,58,60,62,64,66,68,70,72,-1,-1,74,76,78,80,82,84,-1,-1,-1,-1,-1,-1,-1,-1,-1,-1,-1,-1,-1,-1,-1,-1,-1,-1,-1,-1,-1,-1,-1,-1,-1,-1,-1,-1,-1,-1,-1,-1,-1,-1],"split_conditions":[-1.0254815E-1,6.54478E-1,-1.7512568E0,-1.5829232E0,-3.9631945E-1,-1.0018157E-1,1.5116518E0,-1.0227201E0,1.5206155E0,-2.6799244E-1,-7.0287675E-1,2.688957E-3,-1.3849685E0,-1.7143057E-1,-6.170665E-1,-1.5219126E-3,-1.9061837E0,-6.313832E-1,-2.0339462E-1,3.1696114E-1,9.8976E-1,1.1334283E0,-9.0220433E-1,-1.4726231E-4,9.615302E-1,2.20879E0,3.8998818E-1,2.599327E-3,1.1135821E-1,-1.9732368E0,4.77726E-4,-2.5258532E-1,-3.4179327E-1,-1.3836278E-4,-1.3948499E-3,7.787689E-1,4.1605797E-1,-1.647301E0,-6.297373E-1,-1.9249322E0,-4.4176537E-1,-9.066892E-2,-1.2368025E0,4.5606575E-5,1.9398729E-4,1.5532039E-1,-3.550767E-1,-8.6152755E-2,3.5922548E-1,-9.1060346E-1,2.3930746E-1,-7.550537E-6,-3.460195E-4,-3.9068086E-4,4.115132E-4,2.7220533E-4,4.5694003E-5,5.032575E-4,1.2078361E-3,-1.557088E-5,-3.4627717E-4,-1.4717133E-4,-1.4291598E-3,3.3484638E-4,-2.4834325E-4,-2.43733E-4,5.8644096E-4,6.051542E-7,-8.313256E-4,-1.545546E-4,5.625869E-4,1.6951992E-3,8.2223566E-4,-1.3974855E-4,-4.626497E-4,-2.6602397E-4,1.253685E-3,-1.4843699E-4,1.17945405E-4,-4.6574423E-4,-1.1609406E-4,-1.170143E-3,-1.6965005E-4,1.038691E-3,1.8998714E-4],"split_indices":[24,6,21,22,23,22,5,12,25,18,30,0,1,22,15,0,0,7,0,11,5,6,10,0,2,13,14,0,11,0,0,12,22,0,0,6,28,2,17,14,18,29,2,0,0,18,7,30,0,0,8,0,0,0,0,0,0,0,0,0,0,0,0,0,0,0,0,0,0,0,0,0,0,0,0,0,0,0,0,0,0,0,0,0,0],"split_type":[0,0,0,0,0,0,0,0,0,0,0,0,0,0,0,0,0,0,0,0,0,0,0,0,0,0,0,0,0,0,0,0,0,0,0,0,0,0,0,0,0,0,0,0,0,0,0,0,0,0,0,0,0,0,0,0,0,0,0,0,0,0,0,0,0,0,0,0,0,0,0,0,0,0,0,0,0,0,0,0,0,0,0,0,0],"sum_hessian":[2.043E3,9.17E2,1.126E3,7.62E2,1.55E2,8E0,1.118E3,1E1,7.52E2,3.8E1,1.17E2,4E0,4E0,1.064E3,5.4E1,7E0,3E0,7.47E2,5E0,2E1,1.8E1,5.3E1,6.4E1,1E0,3E0,3.5E2,7.14E2,1E0,5.3E1,2E0,1E0,8.3E1,6.64E2,1E0,4E0,1.6E1,4E0,1.1E1,7E0,4E1,1.3E1,1.1E1,5.3E1,1E0,2E0,3.41E2,9E0,3.97E2,3.17E2,1.5E1,3.8E1,1E0,1E0,6.6E1,1.7E1,2.52E2,4.12E2,6E0,1E1,2E0,2E0,1E0,1E1,2E0,5E0,5E0,3.5E1,5E0,8E0,5E0,6E0,5E0,4.8E1,1.83E2,1.58E2,2E0,7E0,1.36E2,2.61E2,7.8E1,2.39E2,2E0,1.3E1,1.1E1,2.7E1],"tree_param":{"num_deleted":"0","num_feature":"34","num_nodes":"85","size_leaf_vector":"1"}},{"base_weights":[2.5181951E-5,4.038132E-3,-3.2435963E-3,6.996957E-4,9.504249E-3,4.9971007E-2,-3.6686973E-3,-1.1566647E-2,3.0189005E-3,1.68723E-2,3.4298317E-3,8.748074E-2,2.467072E-3,-4.3761176E-3,1.0096237E-2,-2.489137E-3,-2.1641795E-2,3.6182236E-3,-4.5030538E-2,6.756506E-3,2.3761056E-2,-1.4738309E-2,7.4327122E-3,2.8866583E-3,7.877385E-4,-1.4505337E-4,5.5013965E-3,-8.29352E-3,-2.446909E-3,3.6423538E-2,1.9020252E-3,-1.0228367E-2,9.244164E-3,-4.052468E-2,-1.2108389E-2,4.7696815E-3,-1.5706753E-2,-2.2364906E-3,-1.163354E-2,-2.396051E-3,2.7469562E-2,6.1259465E-4,3.0504182E-2,-2.2105837E-2,5.3669343E-4,-2.465607E-3,1.3518066E-2,4.4922475E-5,1.9010754E-4,-9.387413E-3,2.9946988E-2,8.5828616E-4,-6.575905E-3,2.4479732E-3,7.278936E-3,1.9126106E-2,-7.0725693E-3,-4.9619505E-4,5.332243E-4,5.3657644E-4,-2.8079597E-4,-1.357211E-3,-2.4461097E-4,-5.0512725E-4,4.4715154E-4,9.833745E-5,6.2571926E-4,1.4979467E-4,-1.0585425E-3,-8.545352E-5,-4.0837255E-4,-4.0929575E-4,3.4929233E-4,1.0771208E-3,5.415402E-5,1.103187E-3,-4.5737473E-4,1.2064171E-3,2.8227476E-4,3.50043E-4,-8.8884734E-4,2.452757E-4,-9.1467454E-4,5.1844376E-4,-3.089004E-4,1.2164826E-4,-3.4470382E-4,-2.607035E-4,1.2207759E-3,2.645066E-4,-3.8001963E-5,-2.3693946E-4,3.4713146E-4,-3.9492277E-4,7.8798534E-4,9.999098E-4,2.6072888E-4,-5.3815276E-4,1.2794376E-4],"categories":[],"categories_nodes":[],"categories_segments":[],"categories_sizes":[],"default_left":[0,0,0,0,0,0,0,0,0,0,0,0,0,0,0,0,0,0,0,0,0,0,0,0,0,0,0,0,0,0,0,0,0,0,0,0,0,0,0,0,0,0,0,0,0,0,0,0,0,0,0,0,0,0,0,0,0,0,0,0,0,0,0,0,0,0,0,0,0,0,0,0,0,0,0,0,0,0,0,0,0,0,0,0,0,0,0,0,0,0,0,0,0,0,0,0,0,0,0],"id":19,"left_children":[1,3,5,7,9,11,13,15,17,19,21,23,25,27,29,31,33,35,37,39,41,43,45,-1,-1,-1,47,49,51,53,55,57,59,61,63,65,67,-1,69,71,73,75,77,79,-1,81,83,-1,-1,85,87,89,