{"learner":{"attributes":{"scikit_learn":"{\"_estimator_type\": \"regressor\"}"},"feature_names":[],"feature_types":[],"gradient_booster":{"model":{"gbtree_model_param":{"num_parallel_tree":"1","num_trees":"150"},"iteration_indptr":[0,1,2,3,4,5,6,7,8,9,10,11,12,13,14,15,16,17,18,19,20,21,22,23,24,25,26,27,28,29,30,31,32,33,34,35,36,37,38,39,40,41,42,43,44,45,46,47,48,49,50,51,52,53,54,55,56,57,58,59,60,61,62,63,64,65,66,67,68,69,70,71,72,73,74,75,76,77,78,79,80,81,82,83,84,85,86,87,88,89,90,91,92,93,94,95,96,97,98,99,100,101,102,103,104,105,106,107,108,109,110,111,112,113,114,115,116,117,118,119,120,121,122,123,124,125,126,127,128,129,130,131,132,133,134,135,136,137,138,139,140,141,142,143,144,145,146,147,148,149,150],"tree_info":[0,0,0,0,0,0,0,0,0,0,0,0,0,0,0,0,0,0,0,0,0,0,0,0,0,0,0,0,0,0,0,0,0,0,0,0,0,0,0,0,0,0,0,0,0,0,0,0,0,0,0,0,0,0,0,0,0,0,0,0,0,0,0,0,0,0,0,0,0,0,0,0,0,0,0,0,0,0,0,0,0,0,0,0,0,0,0,0,0,0,0,0,0,0,0,0,0,0,0,0,0,0,0,0,0,0,0,0,0,0,0,0,0,0,0,0,0,0,0,0,0,0,0,0,0,0,0,0,0,0,0,0,0,0,0,0,0,0,0,0,0,0,0,0,0,0,0,0,0,0],"trees":[{"base_weights":[-1.2865065E-9,-3.3846182E-1,1.773125E-1,-2.536849E0,-2.8601253E-1,6.2274474E-1,2.2970833E-2,-2.8091567E0,2.7301103E-2,-2.0913216E-1,-1.3807882E0,-1.8919464E0,8.6470646E-1,-1.6605895E-2,2.4125197E0,-3.9819977E0,-1.7072523E0,-3.9013124E-1,4.1383263E-1,-2.7908978E0,-4.0930995E-1,5.43488E-1,-2.259276E0,5.229041E-3,1.1397183E0,6.5813917E-1,-1.4004417E-1,1.4785005E-1,9.5356846E-1,-3.2566473E-2,-1.2851442E-1,-5.350708E-2,-1.5305984E-2,7.9026705E-1,-4.9239028E-1,-1.4159612E-1,1.0840092E0,-1.6710297E0,-1.0895029E-1,9.2359245E-2,-7.817005E-1,2.9113028E-2,5.8242856E-3,-2.7112165E-1,-2.401783E0,-4.3214035E-1,1.6772163E0,1.5770208E0,6.0419065E-1,-8.065759E-1,8.391725E-1,-3.1042337E-1,2.065451E-1,5.9221838E-2,3.9406407E-1,3.990805E-2,-5.111311E-3,-2.4900656E-2,-3.2328474E-3,6.712179E-3,-4.480768E-2,-1.37683E-2,4.4553153E-2,-1.1010133E-2,-5.8534812E-2,-6.3452356E-2,-6.2779244E-3,-1.3196149E-2,9.956744E-4,-4.054737E-2,-8.380358E-2,-3.2703888E-3,-6.5953195E-2,-9.382033E-3,6.3779175E-2,3.490789E-2,9.038345E-2,-3.0090498E-2,2.74797E-2,-2.8591633E-2,2.5253395E-2,3.899108E-2,4.4936757E-3,2.5702193E-2,-1.22187445E-2,1.112746E-2,-2.9625542E-2,-6.8543945E-3,1.8137211E-2],"categories":[],"categories_nodes":[],"categories_segments":[],"categories_sizes":[],"default_left":[0,0,0,0,0,0,0,0,0,0,0,0,0,0,0,0,0,0,0,0,0,0,0,0,0,0,0,0,0,0,0,0,0,0,0,0,0,0,0,0,0,0,0,0,0,0,0,0,0,0,0,0,0,0,0,0,0,0,0,0,0,0,0,0,0,0,0,0,0,0,0,0,0,0,0,0,0,0,0,0,0,0,0,0,0,0,0,0,0],"id":0,"left_children":[1,3,5,7,9,11,13,15,-1,17,19,21,23,25,27,29,31,33,35,37,39,41,43,45,47,49,51,-1,53,-1,-1,-1,-1,55,57,59,61,63,-1,-1,65,-1,-1,67,69,71,73,75,77,79,81,83,85,-1,87,-1,-1,-1,-1,-1,-1,-1,-1,-1,-1,-1,-1,-1,-1,-1,-1,-1,-1,-1,-1,-1,-1,-1,-1,-1,-1,-1,-1,-1,-1,-1,-1,-1,-1],"loss_changes":[1.2830888E2,8.402277E1,9.64402E1,1.851287E1,6.0227123E1,2.2128969E2,9.8677124E1,1.3879463E1,0E0,7.6046265E1,6.324254E1,2.9855309E1,7.7994995E1,8.563034E1,5.769819E1,1.4690857E0,3.578186E-3,6.3397858E1,5.6733265E1,1.1820999E1,4.00741E1,5.5735517E-1,7.281967E0,5.9958157E1,5.7594086E1,4.2837654E1,5.1379963E1,0E0,6.073735E0,0E0,0E0,0E0,0E0,2.2014114E1,6.2374565E1,4.1824383E1,4.338376E1,2.9368935E0,0E0,0E0,2.0165796E1,0E0,0E0,1.686563E-1,6.9190826E0,3.685842E1,1.5845905E1,7.781464E1,5.804715E1,5.1483393E0,4.4887733E1,6.626345E1,5.6695324E1,0E0,1.3175964E0,0E0,0E0,0E0,0E0,0E0,0E0,0E0,0E0,0E0,0E0,0E0,0E0,0E0,0E0,0E0,0E0,0E0,0E0,0E0,0E0,0E0,0E0,0E0,0E0,0E0,0E0,0E0,0E0,0E0,0E0,0E0,0E0,0E0,0E0],"parents":[2147483647,0,0,1,1,2,2,3,3,4,4,5,5,6,6,7,7,9,9,10,10,11,11,12,12,13,13,14,14,15,15,16,16,17,17,18,18,19,19,20,20,21,21,22,22,23,23,24,24,25,25,26,26,28,28,33,33,34,34,35,35,36,36,37,37,40,40,43,43,44,44,45,45,46,46,47,47,48,48,49,49,50,50,51,51,52,52,54,54],"right_children":[2,4,6,8,10,12,14,16,-1,18,20,22,24,26,28,30,32,34,36,38,40,42,44,46,48,50,52,-1,54,-1,-1,-1,-1,56,58,60,62,64,-1,-1,66,-1,-1,68,70,72,74,76,78,80,82,84,86,-1,88,-1,-1,-1,-1,-1,-1,-1,-1,-1,-1,-1,-1,-1,-1,-1,-1,-1,-1,-1,-1,-1,-1,-1,-1,-1,-1,-1,-1,-1,-1,-1,-1,-1,-1],"split_conditions":[-2.8877136E-1,-1.0354908E0,-5.8529264E-1,3.5721767E-1,8.037574E-1,-1.3113873E0,1.9590887E0,4.3092266E-1,2.7301103E-2,4.0014973E-1,-6.7480616E-2,-1.4958562E0,-7.6238024E-1,-5.5662113E-1,2.0560713E0,-7.4591523E-1,1.0252804E0,-9.0856177E-1,-8.3332665E-2,-2.6913214E-1,-5.0623363E-1,-1.9342085E0,-1.3220456E0,6.2963945E-1,2.8610015E-1,-1.0803777E0,5.7460123E-1,1.4785005E-1,1.5299535E-1,-3.2566473E-2,-1.2851442E-1,-5.350708E-2,-1.5305984E-2,-5.657084E-1,-1.458995E-1,4.8690224E-1,-3.7108287E-1,-7.328299E-1,-1.0895029E-1,9.2359245E-2,9.991432E-1,2.9113028E-2,5.8242856E-3,-1.3787303E0,-4.176739E-1,-7.753315E-1,-1.6607579E0,3.75165E-1,-2.0131128E-1,-1.306274E-1,-4.151297E-1,-8.855923E-1,4.185389E-1,5.9221838E-2,1.1825455E0,3.990805E-2,-5.111311E-3,-2.4900656E-2,-3.2328474E-3,6.712179E-3,-4.480768E-2,-1.37683E-2,4.4553153E-2,-1.1010133E-2,-5.8534812E-2,-6.3452356E-2,-6.2779244E-3,-1.3196149E-2,9.956744E-4,-4.054737E-2,-8.380358E-2,-3.2703888E-3,-6.5953195E-2,-9.382033E-3,6.3779175E-2,3.490789E-2,9.038345E-2,-3.0090498E-2,2.74797E-2,-2.8591633E-2,2.5253395E-2,3.899108E-2,4.4936757E-3,2.5702193E-2,-1.22187445E-2,1.112746E-2,-2.9625542E-2,-6.8543945E-3,1.8137211E-2],"split_indices":[29,30,18,4,17,4,11,6,0,4,22,1,10,17,13,13,3,24,23,21,23,10,2,29,16,8,24,0,29,0,0,0,0,14,30,2,2,0,0,0,10,0,0,0,0,17,0,22,25,4,2,15,7,0,5,0,0,0,0,0,0,0,0,0,0,0,0,0,0,0,0,0,0,0,0,0,0,0,0,0,0,0,0,0,0,0,0,0,0],"split_type":[0,0,0,0,0,0,0,0,0,0,0,0,0,0,0,0,0,0,0,0,0,0,0,0,0,0,0,0,0,0,0,0,0,0,0,0,0,0,0,0,0,0,0,0,0,0,0,0,0,0,0,0,0,0,0,0,0,0,0,0,0,0,0,0,0,0,0,0,0,0,0,0,0,0,0,0,0,0,0,0,0,0,0,0,0,0,0,0,0],"sum_hessian":[2.136E3,7.34E2,1.402E3,1.6E1,7.18E2,3.6E2,1.042E3,1.5E1,1E0,6.72E2,4.6E1,3.1E1,3.29E2,1.026E3,1.6E1,6E0,9E0,5.21E2,1.51E2,1.8E1,2.8E1,4E0,2.7E1,8E1,2.49E2,1.58E2,8.68E2,5E0,1.1E1,1E0,5E0,8E0,1E0,4.1E1,4.8E2,8.3E1,6.8E1,9E0,9E0,2E0,2.6E1,1E0,3E0,2E0,2.5E1,6.4E1,1.6E1,1.36E2,1.13E2,1.7E1,1.41E2,5.82E2,2.86E2,3E0,8E0,2.6E1,1.5E1,2.55E2,2.25E2,6.6E1,1.7E1,1.4E1,5.4E1,2E0,7E0,7E0,1.9E1,1E0,1E0,8E0,1.7E1,5.5E1,9E0,3E0,1.3E1,1.07E2,2.9E1,1.8E1,9.5E1,1.6E1,1E0,8.4E1,5.7E1,4.4E1,5.38E2,2.52E2,3.4E1,2E0,6E0],"tree_param":{"num_deleted":"0","num_feature":"34","num_nodes":"89","size_leaf_vector":"1"}},{"base_weights":[-4.6515186E-5,-3.2879654E-1,1.7217824E-1,-2.4726608E0,-2.7764982E-1,6.0407966E-1,2.2524735E-2,-2.7392504E0,2.6891587E-2,-2.0285918E-1,-1.3426809E0,-1.8383635E0,8.390921E-1,-1.607352E-2,2.3529885E0,-3.8855495E0,-4.9887482E-2,-3.7841457E-1,4.0136957E-1,-2.7165654E0,-3.9625037E-1,5.3417087E-1,-2.1963744E0,4.8891255E-3,1.1060175E0,6.386475E-1,-1.3584863E-1,1.4415382E-1,9.308368E-1,-3.2077976E-2,-1.2530157E-1,-5.10771E-1,4.8352647E-1,-1.3780177E-1,1.0519351E0,-1.6278533E0,-1.0600863E-1,9.051206E-2,-7.608321E-1,2.8676335E-2,5.6932387E-3,-2.6705486E-1,-2.3345122E0,-4.2024115E-1,1.6300995E0,1.5306247E0,5.86042E-1,-7.4167866E-1,8.2011944E-1,-2.0218493E-1,7.1604425E-1,5.7889342E-2,3.834958E-1,2.2349248E-2,-1.7952487E-2,4.272654E-2,2.3629656E-3,6.513819E-3,-4.353813E-2,4.805042E-2,-1.3672301E-3,-1.0789929E-2,-5.699827E-2,-6.1786737E-2,-6.099004E-3,-1.29982075E-2,9.807394E-4,-3.946611E-2,-8.1429146E-2,-3.1740295E-3,-6.4172454E-2,-9.1709355E-3,6.2002465E-2,1.4981098E-2,6.190861E-2,-2.9235292E-2,2.6663896E-2,-5.087538E-3,-3.7188143E-2,3.8287573E-2,4.3611894E-3,-4.344295E-3,-4.507097E-2,-2.35574E-3,6.031472E-2,-6.7173066E-3,1.7670825E-2],"categories":[],"categories_nodes":[],"categories_segments":[],"categories_sizes":[],"default_left":[0,0,0,0,0,0,0,0,0,0,0,0,0,0,0,0,0,0,0,0,0,0,0,0,0,0,0,0,0,0,0,0,0,0,0,0,0,0,0,0,0,0,0,0,0,0,0,0,0,0,0,0,0,0,0,0,0,0,0,0,0,0,0,0,0,0,0,0,0,0,0,0,0,0,0,0,0,0,0,0,0,0,0,0,0,0,0],"id":1,"left_children":[1,3,5,7,9,11,13,15,-1,17,19,21,23,25,27,29,-1,31,33,35,37,39,41,43,45,47,49,-1,51,-1,-1,53,55,57,59,61,-1,-1,63,-1,-1,65,67,69,71,73,75,77,79,81,83,-1,85,-1,-1,-1,-1,-1,-1,-1,-1,-1,-1,-1,-1,-1,-1,-1,-1,-1,-1,-1,-1,-1,-1,-1,-1,-1,-1,-1,-1,-1,-1,-1,-1,-1,-1],"loss_changes":[1.2105118E2,7.990741E1,9.067008E1,1.7724022E1,5.699912E1,2.087582E2,9.3857574E1,1.3279472E1,0E0,7.1540764E1,6.003701E1,2.8353828E1,7.347565E1,8.062335E1,5.4811546E1,1.2740936E0,0E0,5.9798523E1,5.3461433E1,1.1149017E1,3.838406E1,5.4477E-1,6.8388977E0,5.6650055E1,5.4299316E1,4.0436264E1,4.9253204E1,0E0,5.8202524E0,0E0,0E0,5.0303085E1,2.654068E1,3.9474937E1,4.170421E1,2.7672615E0,0E0,0E0,1.9131481E1,0E0,0E0,1.6363455E-1,6.491226E0,3.4904396E1,1.5001301E1,7.4272156E1,5.4727062E1,5.202133E0,4.3210632E1,5.9983032E1,6.495506E1,0E0,1.2554603E0,0E0,0E0,0E0,0E0,0E0,0E0,0E0,0E0,0E0,0E0,0E0,0E0,0E0,0E0,0E0,0E0,0E0,0E0,0E0,0E0,0E0,0E0,0E0,0E0,0E0,0E0,0E0,0E0,0E0,0E0,0E0,0E0,0E0,0E0],"parents":[2147483647,0,0,1,1,2,2,3,3,4,4,5,5,6,6,7,7,9,9,10,10,11,11,12,12,13,13,14,14,15,15,17,17,18,18,19,19,20,20,21,21,22,22,23,23,24,24,25,25,26,26,28,28,31,31,32,32,33,33,34,34,35,35,38,38,41,41,42,42,43,43,44,44,45,45,46,46,47,47,48,48,49,49,50,50,52,52],"right_children":[2,4,6,8,10,12,14,16,-1,18,20,22,24,26,28,30,-1,32,34,36,38,40,42,44,46,48,50,-1,52,-1,-1,54,56,58,60,62,-1,-1,64,-1,-1,66,68,70,72,74,76,78,80,82,84,-1,86,-1,-1,-1,-1,-1,-1,-1,-1,-1,-1,-1,-1,-1,-1,-1,-1,-1,-1,-1,-1,-1,-1,-1,-1,-1,-1,-1,-1,-1,-1,-1,-1,-1,-1],"split_conditions":[-2.8877136E-1,-1.0354908E0,-5.8529264E-1,3.5721767E-1,8.037574E-1,-1.3113873E0,1.9590887E0,4.3092266E-1,2.6891587E-2,4.0014973E-1,-6.7480616E-2,-1.4958562E0,-7.6238024E-1,-5.5662113E-1,2.0560713E0,-7.4591523E-1,-4.9887482E-2,7.7313834E-1,-8.3332665E-2,-2.6913214E-1,-5.0623363E-1,-1.9342085E0,-1.3220456E0,6.2963945E-1,2.8610015E-1,-1.0573807E0,1.204587E0,1.4415382E-1,1.5299535E-1,-3.2077976E-2,-1.2530157E-1,-1.0032306E0,-4.091392E-1,4.8690224E-1,5.599506E-1,-7.328299E-1,-1.0600863E-1,9.051206E-2,9.991432E-1,2.8676335E-2,5.6932387E-3,-1.3787303E0,-4.176739E-1,-7.753315E-1,-1.6607579E0,-4.475647E-1,-2.0131128E-1,-8.20938E-1,-4.151297E-1,1.3577617E0,4.6363896E-1,5.7889342E-2,1.1825455E0,2.2349248E-2,-1.7952487E-2,4.272654E-2,2.3629656E-3,6.513819E-3,-4.353813E-2,4.805042E-2,-1.3672301E-3,-1.0789929E-2,-5.699827E-2,-6.1786737E-2,-6.099004E-3,-1.29982075E-2,9.807394E-4,-3.946611E-2,-8.1429146E-2,-3.1740295E-3,-6.4172454E-2,-9.1709355E-3,6.2002465E-2,1.4981098E-2,6.190861E-2,-2.9235292E-2,2.6663896E-2,-5.087538E-3,-3.7188143E-2,3.8287573E-2,4.3611894E-3,-4.344295E-3,-4.507097E-2,-2.35574E-3,6.031472E-2,-6.7173066E-3,1.7670825E-2],"split_indices":[29,30,18,4,17,4,11,6,0,4,22,1,10,17,13,13,0,6,23,21,23,10,2,29,16,8,30,0,29,0,0,23,14,2,11,0,0,0,10,0,0,0,0,17,0,22,25,26,2,25,28,0,5,0,0,0,0,0,0,0,0,0,0,0,0,0,0,0,0,0,0,0,0,0,0,0,0,0,0,0,0,0,0,0,0,0,0],"split_type":[0,0,0,0,0,0,0,0,0,0,0,0,0,0,0,0,0,0,0,0,0,0,0,0,0,0,0,0,0,0,0,0,0,0,0,0,0,0,0,0,0,0,0,0,0,0,0,0,0,0,0,0,0,0,0,0,0,0,0,0,0,0,0,0,0,0,0,0,0,0,0,0,0,0,0,0,0,0,0,0,0,0,0,0,0,0,0],"sum_hessian":[2.136E3,7.34E2,1.402E3,1.6E1,7.18E2,3.6E2,1.042E3,1.5E1,1E0,6.72E2,4.6E1,3.1E1,3.29E2,1.026E3,1.6E1,6E0,9E0,5.21E2,1.51E2,1.8E1,2.8E1,4E0,2.7E1,8E1,2.49E2,1.58E2,8.68E2,5E0,1.1E1,1E0,5E0,4.52E2,6.9E1,8.3E1,6.8E1,9E0,9E0,2E0,2.6E1,1E0,3E0,2E0,2.5E1,6.4E1,1.6E1,1.36E2,1.13E2,1.8E1,1.4E2,8.06E2,6.2E1,3E0,8E0,2.9E1,4.23E2,2E1,4.9E1,6.6E1,1.7E1,4.5E1,2.3E1,2E0,7E0,7E0,1.9E1,1E0,1E0,8E0,1.7E1,5.5E1,9E0,3E0,1.3E1,4.7E1,8.9E1,1.8E1,9.5E1,9E0,9E0,8.3E1,5.7E1,7.73E2,3.3E1,3.9E1,2.3E1,2E0,6E0],"tree_param":{"num_deleted":"0","num_feature":"34","num_nodes":"87","size_leaf_vector":"1"}},{"base_weights":[-8.686147E-5,-3.1930327E-1,1.6714346E-1,-2.4090915E0,-2.694483E-1,5.8585E-1,2.206178E-2,-2.6700273E0,2.6488213E-2,-1.9668551E-1,-1.3056169E0,-1.7862921E0,8.1410056E-1,-1.5582609E-2,2.2949278E0,-3.791466E0,-1.6180173E0,-3.6696732E-1,3.8939202E-1,-2.6442156E0,-3.8358262E-1,5.2501965E-1,-2.13523E0,1.299881E0,3.7641007E-1,6.194904E-1,-1.3176331E-1,1.4054996E-1,9.086486E-1,-3.1596806E-2,-1.2216904E-1,-5.074989E-2,-1.4328081E-2,7.757605E-1,-4.6598518E-1,-1.3410847E-1,1.0210537E0,-1.5857965E0,-1.031464E-1,8.8701814E-2,-7.4052143E-1,2.8246189E-2,5.565141E-3,-2.63049E-1,-2.269127E0,1.086422E0,3.7708533E0,2.7485052E-1,3.774465E0,-4.119207E-1,8.52743E-1,-2.9644343E-1,2.0322022E-1,5.6586836E-2,3.73208E-1,3.8869254E-2,-4.5007328E-3,-2.3800056E-2,-2.7935903E-3,6.3213212E-3,-4.2304546E-2,-1.44316945E-2,4.236466E-2,-1.0574131E-2,-5.550207E-2,-6.0164835E-2,-5.9251823E-3,-1.2803234E-2,9.660282E-4,-3.8413677E-2,-7.912199E-2,3.4315453E-3,4.405587E-2,-1.8483967E-2,1.4129591E-1,3.7977766E-2,-1.7291536E-3,1.318468E-1,1.939125E-2,3.8225725E-2,-2.6596196E-2,3.3752505E-2,-1.606025E-2,2.5075696E-2,-1.1712804E-2,1.0847568E-2,-2.8420242E-2,-6.582961E-3,1.7216435E-2],"categories":[],"categories_nodes":[],"categories_segments":[],"categories_sizes":[],"default_left":[0,0,0,0,0,0,0,0,0,0,0,0,0,0,0,0,0,0,0,0,0,0,0,0,0,0,0,0,0,0,0,0,0,0,0,0,0,0,0,0,0,0,0,0,0,0,0,0,0,0,0,0,0,0,0,0,0,0,0,0,0,0,0,0,0,0,0,0,0,0,0,0,0,0,0,0,0,0,0,0,0,0,0,0,0,0,0,0,0],"id":2,"left_children":[1,3,5,7,9,11,13,15,-1,17,19,21,23,25,27,29,31,33,35,37,39,41,43,45,47,49,51,-1,53,-1,-1,-1,-1,55,57,59,61,63,-1,-1,65,-1,-1,67,69,71,73,75,77,79,81,83,85,-1,87,-1,-1,-1,-1,-1,-1,-1,-1,-1,-1,-1,-1,-1,-1,-1,-1,-1,-1,-1,-1,-1,-1,-1,-1,-1,-1,-1,-1,-1,-1,-1,-1,-1,-1],"loss_changes":[1.14132126E2,7.5927765E1,8.5214615E1,1.6960625E1,5.3951874E1,1.9691508E2,8.927552E1,1.2741585E1,0E0,6.7307175E1,5.6994728E1,2.69292E1,6.967581E1,7.5856995E1,5.2069183E1,1.0939026E0,3.19252E-2,5.9426056E1,5.0399567E1,1.0514954E1,3.676582E1,5.324137E-1,6.422104E0,7.818564E1,5.9355957E1,3.8603382E1,4.7998737E1,0E0,5.5772724E0,0E0,0E0,0E0,0E0,2.0408909E1,5.8635803E1,3.725749E1,4.12153E1,2.6072445E0,0E0,0E0,1.8150198E1,0E0,0E0,1.5876232E-1,6.0895386E0,5.3688263E1,5.2335007E1,5.642114E1,6.863037E0,2.5137447E1,4.974642E1,6.236769E1,5.2636555E1,0E0,1.1962701E0,0E0,0E0,0E0,0E0,0E0,0E0,0E0,0E0,0E0,0E0,0E0,0E0,0E0,0E0,0E0,0E0,0E0,0E0,0E0,0E0,0E0,0E0,0E0,0E0,0E0,0E0,0E0,0E0,0E0,0E0,0E0,0E0,0E0,0E0],"parents":[2147483647,0,0,1,1,2,2,3,3,4,4,5,5,6,6,7,7,9,9,10,10,11,11,12,12,13,13,14,14,15,15,16,16,17,17,18,18,19,19,20,20,21,21,22,22,23,23,24,24,25,25,26,26,28,28,33,33,34,34,35,35,36,36,37,37,40,40,43,43,44,44,45,45,46,46,47,47,48,48,49,49,50,50,51,51,52,52,54,54],"right_children":[2,4,6,8,10,12,14,16,-1,18,20,22,24,26,28,30,32,34,36,38,40,42,44,46,48,50,52,-1,54,-1,-1,-1,-1,56,58,60,62,64,-1,-1,66,-1,-1,68,70,72,74,76,78,80,82,84,86,-1,88,-1,-1,-1,-1,-1,-1,-1,-1,-1,-1,-1,-1,-1,-1,-1,-1,-1,-1,-1,-1,-1,-1,-1,-1,-1,-1,-1,-1,-1,-1,-1,-1,-1,-1],"split_conditions":[-2.8877136E-1,-1.0354908E0,-5.8529264E-1,3.5721767E-1,8.037574E-1,-1.3113873E0,1.9590887E0,4.3092266E-1,2.6488213E-2,4.0014973E-1,-6.7480616E-2,-1.4958562E0,-7.679115E-3,-5.5662113E-1,2.0560713E0,-7.4591523E-1,1.0252804E0,-9.0856177E-1,-8.3332665E-2,-2.6913214E-1,-5.0623363E-1,-1.9342085E0,-1.3220456E0,4.3233594E-1,1.970111E0,-8.526507E-1,5.7460123E-1,1.4054996E-1,1.5299535E-1,-3.1596806E-2,-1.2216904E-1,-5.074989E-2,-1.4328081E-2,-5.657084E-1,-1.458995E-1,4.8690224E-1,-3.7108287E-1,-7.328299E-1,-1.031464E-1,8.8701814E-2,9.991432E-1,2.8246189E-2,5.565141E-3,-1.3787303E0,-4.176739E-1,-4.475647E-1,-6.3859713E-1,-7.902579E-1,1.1585898E0,-1.854486E-1,5.863964E-1,-8.855923E-1,4.185389E-1,5.6586836E-2,1.1825455E0,3.8869254E-2,-4.5007328E-3,-2.3800056E-2,-2.7935903E-3,6.3213212E-3,-4.2304546E-2,-1.44316945E-2,4.236466E-2,-1.0574131E-2,-5.550207E-2,-6.0164835E-2,-5.9251823E-3,-1.2803234E-2,9.660282E-4,-3.8413677E-2,-7.912199E-2,3.4315453E-3,4.405587E-2,-1.8483967E-2,1.4129591E-1,3.7977766E-2,-1.7291536E-3,1.318468E-1,1.939125E-2,3.8225725E-2,-2.6596196E-2,3.3752505E-2,-1.606025E-2,2.5075696E-2,-1.1712804E-2,1.0847568E-2,-2.8420242E-2,-6.582961E-3,1.7216435E-2],"split_indices":[29,30,18,4,17,4,11,6,0,4,22,1,13,17,13,13,3,24,23,21,23,10,2,11,12,14,24,0,29,0,0,0,0,14,30,2,2,0,0,0,10,0,0,0,0,22,13,25,0,6,22,15,7,0,5,0,0,0,0,0,0,0,0,0,0,0,0,0,0,0,0,0,0,0,0,0,0,0,0,0,0,0,0,0,0,0,0,0,0],"split_type":[0,0,0,0,0,0,0,0,0,0,0,0,0,0,0,0,0,0,0,0,0,0,0,0,0,0,0,0,0,0,0,0,0,0,0,0,0,0,0,0,0,0,0,0,0,0,0,0,0,0,0,0,0,0,0,0,0,0,0,0,0,0,0,0,0,0,0,0,0,0,0,0,0,0,0,0,0,0,0,0,0,0,0,0,0,0,0,0,0],"sum_hessian":[2.136E3,7.34E2,1.402E3,1.6E1,7.18E2,3.6E2,1.042E3,1.5E1,1E0,6.72E2,4.6E1,3.1E1,3.29E2,1.026E3,1.6E1,6E0,9E0,5.21E2,1.51E2,1.8E1,2.8E1,4E0,2.7E1,1.55E2,1.74E2,1.58E2,8.68E2,5E0,1.1E1,1E0,5E0,8E0,1E0,4.1E1,4.8E2,8.3E1,6.8E1,9E0,9E0,2E0,2.6E1,1E0,3E0,2E0,2.5E1,1.44E2,1.1E1,1.7E2,4E0,2.9E1,1.29E2,5.82E2,2.86E2,3E0,8E0,2.6E1,1.5E1,2.55E2,2.25E2,6.6E1,1.7E1,1.4E1,5.4E1,2E0,7E0,7E0,1.9E1,1E0,1E0,8E0,1.7E1,4.1E1,1.03E2,2E0,9E0,4.2E1,1.28E2,3E0,1E0,6E0,2.3E1,1.08E2,2.1E1,4.4E1,5.38E2,2.52E2,3.4E1,2E0,6E0],"tree_param":{"num_deleted":"0","num_feature":"34","num_nodes":"89","size_leaf_vector":"1"}},{"base_weights":[-1.1325408E-5,-3.1018573E-1,1.6248204E-1,-2.3481336E0,-2.6156917E-1,5.6900084E-1,2.1623196E-2,-2.603604E0,2.609089E-2,-1.9078536E-1,-1.2695677E0,-1.7356896E0,7.9076177E-1,-1.5090689E-2,2.2383018E0,-3.6996884E0,-1.5759846E0,-3.559434E-1,3.776573E-1,-2.5737956E0,-3.7129545E-1,5.160313E-1,-2.0757937E0,-5.6974976E-3,1.0456516E0,5.200609E-1,-1.4756136E-1,1.370362E-1,8.869908E-1,-3.1122854E-2,-1.1911481E-1,-4.939656E-2,-1.4113161E-2,7.533059E-1,-4.5206094E-1,-1.3051358E-1,9.908268E-1,-1.1467728E-1,-1.8547614E0,8.692777E-2,-7.2075355E-1,2.7822496E-2,5.439925E-3,-2.5910327E-1,-2.2055736E0,-4.1733956E-1,1.5685632E0,1.4548831E0,5.446833E-1,8.109186E-2,1.0642632E0,-4.4364354E-1,9.709842E-2,5.531363E-2,3.6319324E-1,3.7746366E-2,-4.3741497E-3,-2.9477788E-2,-6.9409707E-3,6.134513E-3,-4.1105922E-2,4.580438E-2,-2.3329202E-3,-2.795757E-2,-7.29121E-2,-5.858551E-2,-5.7563144E-3,-1.2611185E-2,9.5153775E-4,-1.0824506E-2,-7.032808E-2,-3.3907322E-3,-6.2393114E-2,-9.566873E-3,5.9873905E-2,3.1804644E-2,8.482227E-2,-1.0652936E-2,3.1647127E-2,3.7682142E-2,-5.4679876E-3,6.1025355E-2,9.914143E-3,-4.5975495E-2,-6.6492436E-3,-7.979535E-3,1.8391503E-2,-6.4513013E-3,1.6773727E-2],"categories":[],"categories_nodes":[],"categories_segments":[],"categories_sizes":[],"default_left":[0,0,0,0,0,0,0,0,0,0,0,0,0,0,0,0,0,0,0,0,0,0,0,0,0,0,0,0,0,0,0,0,0,0,0,0,0,0,0,0,0,0,0,0,0,0,0,0,0,0,0,0,0,0,0,0,0,0,0,0,0,0,0,0,0,0,0,0,0,0,0,0,0,0,0,0,0,0,0,0,0,0,0,0,0,0,0,0,0],"id":3,"left_children":[1,3,5,7,9,11,13,15,-1,17,19,21,23,25,27,29,31,33,35,37,39,41,43,45,47,49,51,-1,53,-1,-1,-1,-1,55,57,59,61,-1,63,-1,65,-1,-1,67,69,71,73,75,77,79,81,83,85,-1,87,-1,-1,-1,-1,-1,-1,-1,-1,-1,-1,-1,-1,-1,-1,-1,-1,-1,-1,-1,-1,-1,-1,-1,-1,-1,-1,-1,-1,-1,-1,-1,-1,-1,-1],"loss_changes":[1.0775794E2,7.220814E1,8.0325966E1,1.6239365E1,5.1058414E1,1.8587607E2,8.491612E1,1.2191071E1,0E0,6.33176E1,5.4107292E1,2.55774E1,6.699902E1,7.288271E1,4.9463936E1,9.275818E-1,5.554199E-3,5.5995293E1,4.749174E1,9.970421E0,3.5216293E1,5.202849E-1,6.0300827E0,5.3145206E1,5.046054E1,4.8646835E1,5.9733147E1,0E0,5.344363E0,0E0,0E0,0E0,0E0,1.925006E1,5.6090973E1,3.5164604E1,3.963846E1,0E0,5.1722374E0,0E0,1.721922E1,0E0,0E0,1.540352E-1,5.8065033E0,3.264863E1,1.4345013E1,7.122568E1,5.271053E1,3.5505146E1,6.409391E1,8.98264E1,8.483768E1,0E0,1.139886E0,0E0,0E0,0E0,0E0,0E0,0E0,0E0,0E0,0E0,0E0,0E0,0E0,0E0,0E0,0E0,0E0,0E0,0E0,0E0,0E0,0E0,0E0,0E0,0E0,0E0,0E0,0E0,0E0,0E0,0E0,0E0,0E0,0E0,0E0],"parents":[2147483647,0,0,1,1,2,2,3,3,4,4,5,5,6,6,7,7,9,9,10,10,11,11,12,12,13,13,14,14,15,15,16,16,17,17,18,18,19,19,20,20,21,21,22,22,23,23,24,24,25,25,26,26,28,28,33,33,34,34,35,35,36,36,38,38,40,40,43,43,44,44,45,45,46,46,47,47,48,48,49,49,50,50,51,51,52,52,54,54],"right_children":[2,4,6,8,10,12,14,16,-1,18,20,22,24,26,28,30,32,34,36,38,40,42,44,46,48,50,52,-1,54,-1,-1,-1,-1,56,58,60,62,-1,64,-1,66,-1,-1,68,70,72,74,76,78,80,82,84,86,-1,88,-1,-1,-1,-1,-1,-1,-1,-1,-1,-1,-1,-1,-1,-1,-1,-1,-1,-1,-1,-1,-1,-1,-1,-1,-1,-1,-1,-1,-1,-1,-1,-1,-1,-1],"split_conditions":[-2.8877136E-1,-1.0354908E0,-5.8529264E-1,3.5721767E-1,8.037574E-1,-1.3113873E0,1.9590887E0,4.3092266E-1,2.609089E-2,4.0014973E-1,-6.7480616E-2,-1.4958562E0,-7.6238024E-1,-5.033117E-1,2.0560713E0,-7.4591523E-1,1.0252804E0,-9.0856177E-1,-8.3332665E-2,1.0952252E0,-5.0623363E-1,-1.9342085E0,-1.3220456E0,6.2963945E-1,2.8610015E-1,4.784805E-1,2.4924116E-2,1.370362E-1,1.5299535E-1,-3.1122854E-2,-1.1911481E-1,-4.939656E-2,-1.4113161E-2,-5.657084E-1,-4.7506744E-1,4.8690224E-1,5.599506E-1,-1.1467728E-1,1.1796219E0,8.692777E-2,9.991432E-1,2.7822496E-2,5.439925E-3,-1.3787303E0,-7.692051E-1,-7.753315E-1,-1.6607579E0,3.75165E-1,4.5581737E-1,-8.0568486E-1,-3.8024572E-1,-7.5855327E-1,3.4792984E-1,5.531363E-2,1.1825455E0,3.7746366E-2,-4.3741497E-3,-2.9477788E-2,-6.9409707E-3,6.134513E-3,-4.1105922E-2,4.580438E-2,-2.3329202E-3,-2.795757E-2,-7.29121E-2,-5.858551E-2,-5.7563144E-3,-1.2611185E-2,9.5153775E-4,-1.0824506E-2,-7.032808E-2,-3.3907322E-3,-6.2393114E-2,-9.566873E-3,5.9873905E-2,3.1804644E-2,8.482227E-2,-1.0652936E-2,3.1647127E-2,3.7682142E-2,-5.4679876E-3,6.1025355E-2,9.914143E-3,-4.5975495E-2,-6.6492436E-3,-7.979535E-3,1.8391503E-2,-6.4513013E-3,1.6773727E-2],"split_indices":[29,30,18,4,17,4,11,6,0,4,22,1,10,2,13,13,3,24,23,10,23,10,2,29,16,27,22,0,29,0,0,0,0,14,4,2,11,0,3,0,10,0,0,0,28,17,0,22,1,28,22,28,18,0,5,0,0,0,0,0,0,0,0,0,0,0,0,0,0,0,0,0,0,0,0,0,0,0,0,0,0,0,0,0,0,0,0,0,0],"split_type":[0,0,0,0,0,0,0,0,0,0,0,0,0,0,0,0,0,0,0,0,0,0,0,0,0,0,0,0,0,0,0,0,0,0,0,0,0,0,0,0,0,0,0,0,0,0,0,0,0,0,0,0,0,0,0,0,0,0,0,0,0,0,0,0,0,0,0,0,0,0,0,0,0,0,0,0,0,0,0,0,0,0,0,0,0,0,0,0,0],"sum_hessian":[2.136E3,7.34E2,1.402E3,1.6E1,7.18E2,3.6E2,1.042E3,1.5E1,1E0,6.72E2,4.6E1,3.1E1,3.29E2,1.026E3,1.6E1,6E0,9E0,5.21E2,1.51E2,1.8E1,2.8E1,4E0,2.7E1,8E1,2.49E2,2.03E2,8.23E2,5E0,1.1E1,1E0,5E0,8E0,1E0,4.1E1,4.8E2,8.3E1,6.8E1,5E0,1.3E1,2E0,2.6E1,1E0,3E0,2E0,2.5E1,6.4E1,1.6E1,1.36E2,1.13E2,1.13E2,9E1,3.72E2,4.51E2,3E0,8E0,2.6E1,1.5E1,1.4E2,3.4E2,6.6E1,1.7E1,4.5E1,2.3E1,6E0,7E0,7E0,1.9E1,1E0,1E0,2E0,2.3E1,5.5E1,9E0,3E0,1.3E1,1.07E2,2.9E1,4.1E1,7.2E1,2E1,9.3E1,3.8E1,5.2E1,6.2E1,3.1E2,2.65E2,1.86E2,2E0,6E0],"tree_param":{"num_deleted":"0","num_feature":"34","num_nodes":"89","size_leaf_vector":"1"}},{"base_weights":[-3.388485E-5,-3.0139056E-1,1.5784009E-1,-2.2887282E0,-2.5398287E-1,5.5210423E-1,2.1227246E-2,-2.538855E0,2.5699528E-2,7.54969E-1,-3.2087004E-1,-1.6854799E0,7.67409E-1,-1.457863E-2,2.1830747E0,-3.6101604E0,-4.6051677E-2,2.320671E0,1.8016335E-1,-5.375114E-1,3.136624E-2,5.0720286E-1,-2.0168345E0,1.2322438E0,3.4865683E-1,5.9062004E-1,-1.252944E-1,1.3361031E-1,8.6585075E-1,-3.065601E-2,-1.1613694E-1,1.2616817E0,1.0652759E-1,1.9304317E0,-3.451074E-1,1.0714097E0,-6.2960154E-1,2.2987962E0,-4.1027404E-2,2.740516E-2,5.3175273E-3,-2.5521675E-1,-2.1425276E0,1.0257504E0,3.6246865E0,2.4961485E-1,3.6661613E0,-7.636587E-1,7.581299E-1,-2.4655508E-2,-6.722892E-1,5.406907E-2,3.5344437E-1,4.6200745E-2,8.533036E-3,1.6046692E-2,6.9193915E-2,-3.0811869E-2,1.4049311E-2,6.379189E-2,7.2395555E-3,1.7801885E-2,-2.2832232E-2,1.1442046E-1,1.8805843E-2,-1.0993363E-2,1.6662717E-2,-1.2422018E-2,9.372647E-4,-3.591059E-2,-7.4887566E-2,2.6324464E-3,4.1840874E-2,-1.8325804E-2,1.3598645E-1,3.6269482E-2,-2.1632845E-3,1.2816821E-1,1.8625673E-2,-2.497334E-4,-3.4218963E-2,3.5332434E-2,3.9030395E-3,-9.189103E-3,7.897506E-3,3.6600664E-2,-2.403289E-2,-6.3222754E-3,1.63424E-2],"categories":[],"categories_nodes":[],"categories_segments":[],"categories_sizes":[],"default_left":[0,0,0,0,0,0,0,0,0,0,0,0,0,0,0,0,0,0,0,0,0,0,0,0,0,0,0,0,0,0,0,0,0,0,0,0,0,0,0,0,0,0,0,0,0,0,0,0,0,0,0,0,0,0,0,0,0,0,0,0,0,0,0,0,0,0,0,0,0,0,0,0,0,0,0,0,0,0,0,0,0,0,0,0,0,0,0,0,0],"id":4,"left_children":[1,3,5,7,9,11,13,15,-1,17,19,21,23,25,27,29,-1,31,33,35,37,39,41,43,45,47,49,-1,51,-1,-1,53,-1,55,57,59,61,63,65,-1,-1,67,69,71,73,75,77,79,81,83,85,-1,87,-1,-1,-1,-1,-1,-1,-1,-1,-1,-1,-1,-1,-1,-1,-1,-1,-1,-1,-1,-1,-1,-1,-1,-1,-1,-1,-1,-1,-1,-1,-1,-1,-1,-1,-1,-1],"loss_changes":[1.0171829E2,6.86668E1,7.555603E1,1.5549561E1,4.8764645E1,1.7520976E2,8.0767166E1,1.16642E1,0E0,4.0080746E1,5.1525406E1,2.4272736E1,6.3805054E1,6.888818E1,4.6988953E1,7.742233E-1,0E0,1.1153709E1,3.192461E1,6.260782E1,4.2444374E1,5.083817E-1,5.6530304E0,7.334967E1,5.6585007E1,3.664889E1,4.782097E1,0E0,5.121113E0,0E0,0E0,1.7380447E0,0E0,2.964445E0,1.5458269E1,1.9628769E1,6.412488E1,1.787592E1,4.8921635E1,0E0,0E0,1.494488E-1,5.7076263E0,5.005803E1,4.8929398E1,5.286668E1,6.5765305E0,5.115842E0,3.7268333E1,5.9680347E1,3.3882698E1,0E0,1.0861737E0,0E0,0E0,0E0,0E0,0E0,0E0,0E0,0E0,0E0,0E0,0E0,0E0,0E0,0E0,0E0,0E0,0E0,0E0,0E0,0E0,0E0,0E0,0E0,0E0,0E0,0E0,0E0,0E0,0E0,0E0,0E0,0E0,0E0,0E0,0E0,0E0],"parents":[2147483647,0,0,1,1,2,2,3,3,4,4,5,5,6,6,7,7,9,9,10,10,11,11,12,12,13,13,14,14,15,15,17,17,18,18,19,19,20,20,21,21,22,22,23,23,24,24,25,25,26,26,28,28,31,31,33,33,34,34,35,35,36,36,37,37,38,38,41,41,42,42,43,43,44,44,45,45,46,46,47,47,48,48,49,49,50,50,52,52],"right_children":[2,4,6,8,10,12,14,16,-1,18,20,22,24,26,28,30,-1,32,34,36,38,40,42,44,46,48,50,-1,52,-1,-1,54,-1,56,58,60,62,64,66,-1,-1,68,70,72,74,76,78,80,82,84,86,-1,88,-1,-1,-1,-1,-1,-1,-1,-1,-1,-1,-1,-1,-1,-1,-1,-1,-1,-1,-1,-1,-1,-1,-1,-1,-1,-1,-1,-1,-1,-1,-1,-1,-1,-1,-1,-1],"split_conditions":[-2.8877136E-1,-1.0354908E0,-5.8529264E-1,3.5721767E-1,-1.0032306E0,-1.3113873E0,1.9590887E0,4.3092266E-1,2.5699528E-2,-9.988066E-1,3.3464883E-2,-1.4958562E0,-7.679115E-3,-5.5662113E-1,2.0560713E0,-7.4591523E-1,-4.6051677E-2,3.8239896E-1,-2.955467E-1,-2.0258164E0,-9.4216865E-1,-1.9342085E0,-1.3220456E0,4.3233594E-1,1.970111E0,-1.0803777E0,8.324474E-1,1.3361031E-1,1.5299535E-1,-3.065601E-2,-1.1613694E-1,6.464437E-1,1.0652759E-1,-8.5595644E-1,2.4199848E-1,-5.3490204E-1,-9.398916E-1,-8.00401E-1,3.6881447E-2,2.740516E-2,5.3175273E-3,-1.3787303E0,-4.176739E-1,-4.475647E-1,-6.3859713E-1,-7.902579E-1,1.1585898E0,-1.2386945E0,-4.151297E-1,2.4924116E-2,-1.1642793E0,5.406907E-2,1.1825455E0,4.6200745E-2,8.533036E-3,1.6046692E-2,6.9193915E-2,-3.0811869E-2,1.4049311E-2,6.379189E-2,7.2395555E-3,1.7801885E-2,-2.2832232E-2,1.1442046E-1,1.8805843E-2,-1.0993363E-2,1.6662717E-2,-1.2422018E-2,9.372647E-4,-3.591059E-2,-7.4887566E-2,2.6324464E-3,4.1840874E-2,-1.8325804E-2,1.3598645E-1,3.6269482E-2,-2.1632845E-3,1.2816821E-1,1.8625673E-2,-2.497334E-4,-3.4218963E-2,3.5332434E-2,3.9030395E-3,-9.189103E-3,7.897506E-3,3.6600664E-2,-2.403289E-2,-6.3222754E-3,1.63424E-2],"split_indices":[29,30,18,4,23,4,11,6,0,29,30,1,13,17,13,13,0,10,3,18,8,10,2,11,12,8,23,0,29,0,0,8,0,29,4,21,7,14,18,0,0,0,0,22,13,25,0,17,2,22,6,0,5,0,0,0,0,0,0,0,0,0,0,0,0,0,0,0,0,0,0,0,0,0,0,0,0,0,0,0,0,0,0,0,0,0,0,0,0],"split_type":[0,0,0,0,0,0,0,0,0,0,0,0,0,0,0,0,0,0,0,0,0,0,0,0,0,0,0,0,0,0,0,0,0,0,0,0,0,0,0,0,0,0,0,0,0,0,0,0,0,0,0,0,0,0,0,0,0,0,0,0,0,0,0,0,0,0,0,0,0,0,0,0,0,0,0,0,0,0,0,0,0,0,0,0,0,0,0,0,0],"sum_hessian":[2.136E3,7.34E2,1.402E3,1.6E1,7.18E2,3.6E2,1.042E3,1.5E1,1E0,4.4E1,6.74E2,3.1E1,3.29E2,1.026E3,1.6E1,6E0,9E0,1.1E1,3.3E1,4.17E2,2.57E2,4E0,2.7E1,1.55E2,1.74E2,1.58E2,8.68E2,5E0,1.1E1,1E0,5E0,7E0,4E0,7E0,2.6E1,2.2E1,3.95E2,7E0,2.5E2,1E0,3E0,2E0,2.5E1,1.44E2,1.1E1,1.7E2,4E0,1.7E1,1.41E2,7.34E2,1.34E2,3E0,8E0,5E0,2E0,2E0,5E0,1.4E1,1.2E1,9E0,1.3E1,3.8E1,3.57E2,3E0,4E0,1.62E2,8.8E1,1E0,1E0,8E0,1.7E1,4.1E1,1.03E2,2E0,9E0,4.2E1,1.28E2,3E0,1E0,6E0,1.1E1,8.4E1,5.7E1,3.71E2,3.63E2,8E0,1.26E2,2E0,6E0],"tree_param":{"num_deleted":"0","num_feature":"34","num_nodes":"89","size_leaf_vector":"1"}},{"base_weights":[3.1092705E-4,-2.9198492E-1,1.534379E-1,-2.2298985E0,-2.4575889E-1,5.3624326E-1,2.0795356E-2,-2.4747422E0,2.5314033E-2,-1.766724E-1,-1.2297897E0,-1.6377141E0,7.4542624E-1,-1.4125653E-2,2.129212E0,-3.522826E0,-1.4936094E0,-3.347427E-1,3.6733657E-1,-2.497306E0,-3.5694146E-1,4.985313E-1,-1.9606968E0,-1.5134014E-2,9.888661E-1,4.9619153E-1,-1.4044917E-1,1.3027005E-1,8.45216E-1,-3.019617E-2,-1.13233514E-1,-4.6851274E-2,-1.3210688E-2,-4.6254003E-1,4.9707076E-1,-1.2510836E-1,9.615111E-1,-1.1149622E-1,-1.7963979E0,8.485597E-2,-6.9766295E-1,2.6994081E-2,5.1978827E-3,-2.513885E-1,-2.0825133E0,-4.1371408E-1,1.5097388E0,1.383338E0,5.0613344E-1,3.114064E-1,1.6960272E0,-4.219803E-1,9.2187025E-2,5.2852515E-2,3.4395438E-1,-1.039596E-2,-4.1104846E-2,4.188102E-2,3.2869428E-3,6.0200705E-3,-3.992321E-2,-1.4721641E-2,4.020277E-2,-2.6871549E-2,-7.0798285E-2,-5.672959E-2,-5.5635143E-3,-1.2235687E-2,9.232057E-4,-3.4952972E-2,-7.276575E-2,-3.5757413E-3,-6.0650095E-2,-9.921222E-3,5.7832263E-2,3.0067801E-2,8.127321E-2,-2.9782273E-2,2.3925412E-2,1.7289855E-2,-1.3840017E-2,7.848942E-2,1.9637857E-2,-4.4391297E-2,-6.1907E-3,4.5426983E-2,-1.0354384E-3,-6.1958297E-3,1.5922168E-2],"categories":[],"categories_nodes":[],"categories_segments":[],"categories_sizes":[],"default_left":[0,0,0,0,0,0,0,0,0,0,0,0,0,0,0,0,0,0,0,0,0,0,0,0,0,0,0,0,0,0,0,0,0,0,0,0,0,0,0,0,0,0,0,0,0,0,0,0,0,0,0,0,0,0,0,0,0,0,0,0,0,0,0,0,0,0,0,0,0,0,0,0,0,0,0,0,0,0,0,0,0,0,0,0,0,0,0,0,0],"id":5,"left_children":[1,3,5,7,9,11,13,15,-1,17,19,21,23,25,27,29,31,33,35,37,39,41,43,45,47,49,51,-1,53,-1,-1,-1,-1,55,57,59,61,-1,63,-1,65,-1,-1,67,69,71,73,75,77,79,81,83,85,-1,87,-1,-1,-1,-1,-1,-1,-1,-1,-1,-1,-1,-1,-1,-1,-1,-1,-1,-1,-1,-1,-1,-1,-1,-1,-1,-1,-1,-1,-1,-1,-1,-1,-1,-1],"loss_changes":[9.569346E1,6.5294785E1,7.122795E1,1.4881989E1,4.8662678E1,1.6538733E2,7.682411E1,1.1191223E1,0E0,5.7995354E1,5.1107033E1,2.305651E1,6.1114685E1,6.6275314E1,4.4637688E1,6.32988E-1,2.955246E-2,5.572037E1,4.4595215E1,9.560471E0,3.3448784E1,4.9670255E-1,5.306694E0,4.98551E1,4.690593E1,4.4701046E1,5.4006233E1,0E0,4.9071207E0,0E0,0E0,0E0,0E0,4.722219E1,2.42318E1,3.3260437E1,3.8593002E1,0E0,4.9921837E0,0E0,1.6152664E1,0E0,0E0,1.4499898E-1,5.3558044E0,3.0541697E1,1.3715832E1,6.650009E1,5.0580418E1,3.670533E1,2.416462E1,8.476532E1,8.149161E1,0E0,1.035006E0,0E0,0E0,0E0,0E0,0E0,0E0,0E0,0E0,0E0,0E0,0E0,0E0,0E0,0E0,0E0,0E0,0E0,0E0,0E0,0E0,0E0,0E0,0E0,0E0,0E0,0E0,0E0,0E0,0E0,0E0,0E0,0E0,0E0,0E0],"parents":[2147483647,0,0,1,1,2,2,3,3,4,4,5,5,6,6,7,7,9,9,10,10,11,11,12,12,13,13,14,14,15,15,16,16,17,17,18,18,19,19,20,20,21,21,22,22,23,23,24,24,25,25,26,26,28,28,33,33,34,34,35,35,36,36,38,38,40,40,43,43,44,44,45,45,46,46,47,47,48,48,49,49,50,50,51,51,52,52,54,54],"right_children":[2,4,6,8,10,12,14,16,-1,18,20,22,24,26,28,30,32,34,36,38,40,42,44,46,48,50,52,-1,54,-1,-1,-1,-1,56,58,60,62,-1,64,-1,66,-1,-1,68,70,72,74,76,78,80,82,84,86,-1,88,-1,-1,-1,-1,-1,-1,-1,-1,-1,-1,-1,-1,-1,-1,-1,-1,-1,-1,-1,-1,-1,-1,-1,-1,-1,-1,-1,-1,-1,-1,-1,-1,-1,-1],"split_conditions":[-2.8877136E-1,-1.0354908E0,-5.8529264E-1,3.5721767E-1,8.037574E-1,-1.3113873E0,1.9590887E0,4.3092266E-1,2.5314033E-2,4.0014973E-1,-6.7480616E-2,-1.4958562E0,-7.6238024E-1,-5.033117E-1,2.0560713E0,-7.4591523E-1,1.0252804E0,7.7313834E-1,-8.3332665E-2,1.0952252E0,-5.0623363E-1,-1.9342085E0,-1.3220456E0,6.2963945E-1,2.8610015E-1,1.4134333E-1,2.4924116E-2,1.3027005E-1,1.5299535E-1,-3.019617E-2,-1.13233514E-1,-4.6851274E-2,-1.3210688E-2,6.175712E-1,-4.091392E-1,4.8690224E-1,-3.7108287E-1,-1.1149622E-1,1.1796219E0,8.485597E-2,9.991432E-1,2.6994081E-2,5.1978827E-3,-1.3787303E0,-4.176739E-1,-7.753315E-1,-1.6607579E0,3.75165E-1,-2.0131128E-1,5.548336E-1,1.1850752E-2,-7.5855327E-1,-8.233527E-1,5.2852515E-2,1.1825455E0,-1.039596E-2,-4.1104846E-2,4.188102E-2,3.2869428E-3,6.0200705E-3,-3.992321E-2,-1.4721641E-2,4.020277E-2,-2.6871549E-2,-7.0798285E-2,-5.672959E-2,-5.5635143E-3,-1.2235687E-2,9.232057E-4,-3.4952972E-2,-7.276575E-2,-3.5757413E-3,-6.0650095E-2,-9.921222E-3,5.7832263E-2,3.0067801E-2,8.127321E-2,-2.9782273E-2,2.3925412E-2,1.7289855E-2,-1.3840017E-2,7.848942E-2,1.9637857E-2,-4.4391297E-2,-6.1907E-3,4.5426983E-2,-1.0354384E-3,-6.1958297E-3,1.5922168E-2],"split_indices":[29,30,18,4,17,4,11,6,0,4,22,1,10,2,13,13,3,6,23,10,23,10,2,29,16,25,22,0,29,0,0,0,0,7,14,2,2,0,3,0,10,0,0,0,0,17,0,22,25,7,22,28,28,0,5,0,0,0,0,0,0,0,0,0,0,0,0,0,0,0,0,0,0,0,0,0,0,0,0,0,0,0,0,0,0,0,0,0,0],"split_type":[0,0,0,0,0,0,0,0,0,0,0,0,0,0,0,0,0,0,0,0,0,0,0,0,0,0,0,0,0,0,0,0,0,0,0,0,0,0,0,0,0,0,0,0,0,0,0,0,0,0,0,0,0,0,0,0,0,0,0,0,0,0,0,0,0,0,0,0,0,0,0,0,0,0,0,0,0,0,0,0,0,0,0,0,0,0,0,0,0],"sum_hessian":[2.136E3,7.34E2,1.402E3,1.6E1,7.18E2,3.6E2,1.042E3,1.5E1,1E0,6.72E2,4.6E1,3.1E1,3.29E2,1.026E3,1.6E1,6E0,9E0,5.21E2,1.51E2,1.8E1,2.8E1,4E0,2.7E1,8E1,2.49E2,2.03E2,8.23E2,5E0,1.1E1,1E0,5E0,8E0,1E0,4.52E2,6.9E1,8.3E1,6.8E1,5E0,1.3E1,2E0,2.6E1,1E0,3E0,2E0,2.5E1,6.4E1,1.6E1,1.36E2,1.13E2,1.77E2,2.6E1,3.72E2,4.51E2,3E0,8E0,4.02E2,5E1,2E1,4.9E1,6.6E1,1.7E1,1.4E1,5.4E1,6E0,7E0,7E0,1.9E1,1E0,1E0,8E0,1.7E1,5.5E1,9E0,3E0,1.3E1,1.07E2,2.9E1,1.8E1,9.5E1,1.32E2,4.5E1,1.3E1,1.3E1,6.2E1,3.1E2,3.6E1,4.15E2,2E0,6E0],"tree_param":{"num_deleted":"0","num_feature":"34","num_nodes":"89","size_leaf_vector":"1"}},{"base_weights":[2.5996866E-4,-2.8374174E-1,1.4904186E-1,-2.1734824E0,-2.3866618E-1,5.201624E-1,2.0447852E-2,-2.4132183E0,2.4934324E-2,7.465496E-1,-3.0399364E-1,-1.5912964E0,7.2333366E-1,-1.3609001E-2,2.0766797E0,-3.4376311E0,-1.4548074E0,2.2685468E0,1.8741673E-1,-5.119502E-1,3.4106478E-2,4.9001375E-1,-1.906127E0,1.1672766E0,3.2345694E-1,5.655452E-1,-1.1956057E-1,1.270133E-1,8.2507443E-1,-2.9743228E-2,-1.1040267E-1,-4.5601904E-2,-1.30125275E-2,1.2336134E0,1.0412194E-1,1.8902183E0,-3.240584E-1,1.0476471E0,-6.012401E-1,2.563324E-1,-6.725486E-1,2.658917E-2,5.0809304E-3,-2.4761766E-1,-2.024181E0,9.676512E-1,3.4821439E0,2.2674266E-1,3.5663948E0,-4.1517764E-1,7.875155E-1,-1.8359081E-1,7.025342E-1,5.1663335E-2,3.3471647E-1,4.5141466E-2,8.406135E-3,1.5933676E-2,6.764189E-2,-2.9475829E-2,1.3819238E-2,9.144691E-2,1.7854447E-2,1.7395794E-2,-2.1846836E-2,-4.7123567E-3,3.1824525E-2,-3.741749E-2,2.0954201E-3,-1.2052152E-2,9.0935756E-4,-9.190745E-3,-6.463703E-2,1.799351E-3,3.9747212E-2,-1.849922E-2,1.3090694E-1,3.4724563E-2,-2.5578798E-3,1.2474609E-1,1.7987408E-2,3.619166E-2,-2.6125062E-2,3.14428E-2,-1.6179744E-2,-3.8549937E-3,-4.296966E-2,3.7395917E-2,-3.36407E-2,-6.0719135E-3,1.5512741E-2],"categories":[],"categories_nodes":[],"categories_segments":[],"categories_sizes":[],"default_left":[0,0,0,0,0,0,0,0,0,0,0,0,0,0,0,0,0,0,0,0,0,0,0,0,0,0,0,0,0,0,0,0,0,0,0,0,0,0,0,0,0,0,0,0,0,0,0,0,0,0,0,0,0,0,0,0,0,0,0,0,0,0,0,0,0,0,0,0,0,0,0,0,0,0,0,0,0,0,0,0,0,0,0,0,0,0,0,0,0,0,0],"id":6,"left_children":[1,3,5,7,9,11,13,15,-1,17,19,21,23,25,27,29,31,33,35,37,39,41,43,45,47,49,51,-1,53,-1,-1,-1,-1,55,-1,57,59,61,63,65,67,-1,-1,69,71,73,75,77,79,81,83,85,87,-1,89,-1,-1,-1,-1,-1,-1,-1,-1,-1,-1,-1,-1,-1,-1,-1,-1,-1,-1,-1,-1,-1,-1,-1,-1,-1,-1,-1,-1,-1,-1,-1,-1,-1,-1,-1,-1],"loss_changes":[9.033976E1,6.20894E1,6.694597E1,1.4251106E1,4.650298E1,1.5601562E2,7.306828E1,1.0707832E1,0E0,3.786978E1,4.7476795E1,2.1902351E1,5.820485E1,6.3086697E1,4.2404E1,5.0310516E-1,6.9732666E-3,1.0648628E1,3.0224525E1,5.8839005E1,4.0687965E1,4.8524523E-1,4.980995E0,6.8719055E1,5.407807E1,3.4939888E1,4.5872208E1,0E0,4.702011E0,0E0,0E0,0E0,0E0,1.646142E0,0E0,2.7657108E0,1.4403508E1,1.9006868E1,5.9816498E1,6.5685486E1,2.6539774E1,0E0,0E0,1.406816E-1,5.1634445E0,4.693988E1,4.6043793E1,4.9756527E1,6.285759E0,2.3216946E1,4.5512115E1,5.5332603E1,6.3905792E1,0E0,9.862621E-1,0E0,0E0,0E0,0E0,0E0,0E0,0E0,0E0,0E0,0E0,0E0,0E0,0E0,0E0,0E0,0E0,0E0,0E0,0E0,0E0,0E0,0E0,0E0,0E0,0E0,0E0,0E0,0E0,0E0,0E0,0E0,0E0,0E0,0E0,0E0,0E0],"parents":[2147483647,0,0,1,1,2,2,3,3,4,4,5,5,6,6,7,7,9,9,10,10,11,11,12,12,13,13,14,14,15,15,16,16,17,17,18,18,19,19,20,20,21,21,22,22,23,23,24,24,25,25,26,26,28,28,33,33,35,35,36,36,37,37,38,38,39,39,40,40,43,43,44,44,45,45,46,46,47,47,48,48,49,49,50,50,51,51,52,52,54,54],"right_children":[2,4,6,8,10,12,14,16,-1,18,20,22,24,26,28,30,32,34,36,38,40,42,44,46,48,50,52,-1,54,-1,-1,-1,-1,56,-1,58,60,62,64,66,68,-1,-1,70,72,74,76,78,80,82,84,86,88,-1,90,-1,-1,-1,-1,-1,-1,-1,-1,-1,-1,-1,-1,-1,-1,-1,-1,-1,-1,-1,-1,-1,-1,-1,-1,-1,-1,-1,-1,-1,-1,-1,-1,-1,-1,-1,-1],"split_conditions":[-2.8877136E-1,-1.0354908E0,-5.8529264E-1,3.5721767E-1,-1.0032306E0,-1.3113873E0,1.9590887E0,4.3092266E-1,2.4934324E-2,-9.988066E-1,3.3464883E-2,-1.4958562E0,-7.679115E-3,-5.5662113E-1,2.0560713E0,-7.4591523E-1,1.0252804E0,3.8239896E-1,-2.955467E-1,-2.0258164E0,3.8178253E-1,-1.9342085E0,-1.3220456E0,4.3233594E-1,1.970111E0,-8.526507E-1,1.204587E0,1.270133E-1,1.5299535E-1,-2.9743228E-2,-1.1040267E-1,-4.5601904E-2,-1.30125275E-2,6.464437E-1,1.0412194E-1,-8.5595644E-1,2.4199848E-1,4.277873E-2,-9.398916E-1,3.6881447E-2,5.7780117E-1,2.658917E-2,5.0809304E-3,-1.3787303E0,-7.692051E-1,-4.475647E-1,-6.3859713E-1,-7.902579E-1,1.1585898E0,-1.854486E-1,5.863964E-1,1.3577617E0,1.072368E0,5.1663335E-2,1.1825455E0,4.5141466E-2,8.406135E-3,1.5933676E-2,6.764189E-2,-2.9475829E-2,1.3819238E-2,9.144691E-2,1.7854447E-2,1.7395794E-2,-2.1846836E-2,-4.7123567E-3,3.1824525E-2,-3.741749E-2,2.0954201E-3,-1.2052152E-2,9.0935756E-4,-9.190745E-3,-6.463703E-2,1.799351E-3,3.9747212E-2,-1.849922E-2,1.3090694E-1,3.4724563E-2,-2.5578798E-3,1.2474609E-1,1.7987408E-2,3.619166E-2,-2.6125062E-2,3.14428E-2,-1.6179744E-2,-3.8549937E-3,-4.296966E-2,3.7395917E-2,-3.36407E-2,-6.0719135E-3,1.5512741E-2],"split_indices":[29,30,18,4,23,4,11,6,0,29,30,1,13,17,13,13,3,10,3,18,1,10,2,11,12,14,30,0,29,0,0,0,0,8,0,29,4,6,7,18,0,0,0,0,28,22,13,25,0,6,22,25,26,0,5,0,0,0,0,0,0,0,0,0,0,0,0,0,0,0,0,0,0,0,0,0,0,0,0,0,0,0,0,0,0,0,0,0,0,0,0],"split_type":[0,0,0,0,0,0,0,0,0,0,0,0,0,0,0,0,0,0,0,0,0,0,0,0,0,0,0,0,0,0,0,0,0,0,0,0,0,0,0,0,0,0,0,0,0,0,0,0,0,0,0,0,0,0,0,0,0,0,0,0,0,0,0,0,0,0,0,0,0,0,0,0,0,0,0,0,0,0,0,0,0,0,0,0,0,0,0,0,0,0,0],"sum_hessian":[2.136E3,7.34E2,1.402E3,1.6E1,7.18E2,3.6E2,1.042E3,1.5E1,1E0,4.4E1,6.74E2,3.1E1,3.29E2,1.026E3,1.6E1,6E0,9E0,1.1E1,3.3E1,4.17E2,2.57E2,4E0,2.7E1,1.55E2,1.74E2,1.58E2,8.68E2,5E0,1.1E1,1E0,5E0,8E0,1E0,7E0,4E0,7E0,2.6E1,2.2E1,3.95E2,1.96E2,6.1E1,1E0,3E0,2E0,2.5E1,1.44E2,1.1E1,1.7E2,4E0,2.9E1,1.29E2,8.06E2,6.2E1,3E0,8E0,5E0,2E0,2E0,5E0,1.4E1,1.2E1,3E0,1.9E1,3.8E1,3.57E2,1.3E2,6.6E1,3.4E1,2.7E1,1E0,1E0,2E0,2.3E1,4.1E1,1.03E2,2E0,9E0,4.2E1,1.28E2,3E0,1E0,6E0,2.3E1,1.08E2,2.1E1,7.73E2,3.3E1,4.8E1,1.4E1,2E0,6E0],"tree_param":{"num_deleted":"0","num_feature":"34","num_nodes":"91","size_leaf_vector":"1"}},{"base_weights":[5.3028046E-4,-2.750276E-1,1.4488845E-1,-2.118503E0,-2.3105803E-1,5.0532085E-1,1.9997759E-2,-2.3532443E0,2.4560308E-2,-1.6385345E-1,-1.1884544E0,-1.5452232E0,7.026302E-1,-1.3218014E-2,2.025445E0,-3.354523E0,-4.2510737E-2,-3.147197E-1,3.5533103E-1,-2.4213767E0,-3.396964E-1,4.8164737E-1,-1.8519778E0,-2.3520486E-2,9.350925E-1,4.7630805E-1,-1.3439532E-1,1.2383796E-1,8.0541426E-1,-2.929708E-2,-1.0764261E-1,7.6369095E-1,-4.0823016E-1,-1.2005881E-1,9.2891675E-1,-1.0851666E-1,-1.735916E0,8.2819656E-2,-6.7159855E-1,2.6190333E-2,4.9666096E-3,-1.0591489E0,-2.1717837E0,-4.0944937E-1,1.4534734E0,1.5115571E0,6.181356E-1,6.452142E-2,9.869385E-1,-4.088221E-1,9.23648E-2,5.0500914E-2,3.2572395E-1,3.7405565E-2,-2.9812325E-3,-2.7570078E-2,-5.8750147E-3,5.8636586E-3,-3.8634073E-2,4.37459E-2,-3.7272414E-3,-2.5922244E-2,-6.8453625E-2,-5.480133E-2,-5.279209E-3,-3.6340483E-2,-9.0069305E-3,8.957172E-4,-6.8872675E-2,-3.7319914E-3,-5.8943473E-2,-1.0237349E-2,5.587292E-2,3.290232E-2,9.538493E-2,1.0945196E-2,4.2423934E-2,3.597504E-2,-5.6894957E-3,5.724834E-2,8.7105045E-3,-4.2874053E-2,-6.02461E-3,-7.736698E-3,1.7702825E-2,-5.950475E-3,1.5113842E-2],"categories":[],"categories_nodes":[],"categories_segments":[],"categories_sizes":[],"default_left":[0,0,0,0,0,0,0,0,0,0,0,0,0,0,0,0,0,0,0,0,0,0,0,0,0,0,0,0,0,0,0,0,0,0,0,0,0,0,0,0,0,0,0,0,0,0,0,0,0,0,0,0,0,0,0,0,0,0,0,0,0,0,0,0,0,0,0,0,0,0,0,0,0,0,0,0,0,0,0,0,0,0,0,0,0,0,0],"id":7,"left_children":[1,3,5,7,9,11,13,15,-1,17,19,21,23,25,27,29,-1,31,33,35,37,39,41,43,45,47,49,-1,51,-1,-1,53,55,57,59,-1,61,-1,63,-1,-1,65,67,69,71,73,75,77,79,81,83,-1,85,-1,-1,-1,-1,-1,-1,-1,-1,-1,-1,-1,-1,-1,-1,-1,-1,-1,-1,-1,-1,-1,-1,-1,-1,-1,-1,-1,-1,-1,-1,-1,-1,-1,-1],"loss_changes":[8.504763E1,5.9087254E1,6.314544E1,1.3647652E1,4.6066746E1,1.4714328E2,6.9503586E1,1.0245232E1,0E0,5.2826187E1,4.836075E1,2.0788063E1,5.5726883E1,6.098509E1,4.0281975E1,3.8381958E-1,0E0,5.295163E1,4.1558403E1,9.295197E0,3.1695438E1,4.7400784E-1,4.7991867E0,4.6766308E1,4.4744247E1,4.2831566E1,5.13145E1,0E0,4.5054145E0,0E0,0E0,1.7637896E1,5.2001892E1,3.1200634E1,3.864283E1,0E0,4.6911507E0,0E0,1.5136115E1,0E0,0E0,7.913933E-1,5.254448E0,2.8573147E1,1.3112915E1,5.739868E1,3.23485E1,3.3104404E1,5.784922E1,7.887363E1,7.895028E1,0E0,9.398263E-1,0E0,0E0,0E0,0E0,0E0,0E0,0E0,0E0,0E0,0E0,0E0,0E0,0E0,0E0,0E0,0E0,0E0,0E0,0E0,0E0,0E0,0E0,0E0,0E0,0E0,0E0,0E0,0E0,0E0,0E0,0E0,0E0,0E0,0E0],"parents":[2147483647,0,0,1,1,2,2,3,3,4,4,5,5,6,6,7,7,9,9,10,10,11,11,12,12,13,13,14,14,15,15,17,17,18,18,19,19,20,20,21,21,22,22,23,23,24,24,25,25,26,26,28,28,31,31,32,32,33,33,34,34,36,36,38,38,41,41,42,42,43,43,44,44,45,45,46,46,47,47,48,48,49,49,50,50,52,52],"right_children":[2,4,6,8,10,12,14,16,-1,18,20,22,24,26,28,30,-1,32,34,36,38,40,42,44,46,48,50,-1,52,-1,-1,54,56,58,60,-1,62,-1,64,-1,-1,66,68,70,72,74,76,78,80,82,84,-1,86,-1,-1,-1,-1,-1,-1,-1,-1,-1,-1,-1,-1,-1,-1,-1,-1,-1,-1,-1,-1,-1,-1,-1,-1,-1,-1,-1,-1,-1,-1,-1,-1,-1,-1],"split_conditions":[-2.8877136E-1,-1.0354908E0,-5.8529264E-1,3.5721767E-1,8.037574E-1,-1.3113873E0,1.9590887E0,4.3092266E-1,2.4560308E-2,4.0014973E-1,-6.7480616E-2,-1.4958562E0,-7.6238024E-1,-5.033117E-1,2.0560713E0,-7.4591523E-1,-4.2510737E-2,-9.0856177E-1,-8.3332665E-2,1.0952252E0,-5.0623363E-1,-1.9342085E0,-4.176739E-1,6.2963945E-1,-2.1966165E-1,4.784805E-1,2.4924116E-2,1.2383796E-1,1.5299535E-1,-2.929708E-2,-1.0764261E-1,-5.657084E-1,-4.7506744E-1,4.8690224E-1,5.599506E-1,-1.0851666E-1,1.1796219E0,8.2819656E-2,9.991432E-1,2.6190333E-2,4.9666096E-3,-5.158245E-1,-1.3220456E0,-7.753315E-1,-1.6607579E0,-3.4473577E-1,8.433061E-1,-8.0568486E-1,-3.8024572E-1,-7.5855327E-1,3.4792984E-1,5.0500914E-2,1.1825455E0,3.7405565E-2,-2.9812325E-3,-2.7570078E-2,-5.8750147E-3,5.8636586E-3,-3.8634073E-2,4.37459E-2,-3.7272414E-3,-2.5922244E-2,-6.8453625E-2,-5.480133E-2,-5.279209E-3,-3.6340483E-2,-9.0069305E-3,8.957172E-4,-6.8872675E-2,-3.7319914E-3,-5.8943473E-2,-1.0237349E-2,5.587292E-2,3.290232E-2,9.538493E-2,1.0945196E-2,4.2423934E-2,3.597504E-2,-5.6894957E-3,5.724834E-2,8.7105045E-3,-4.2874053E-2,-6.02461E-3,-7.736698E-3,1.7702825E-2,-5.950475E-3,1.5113842E-2],"split_indices":[29,30,18,4,17,4,11,6,0,4,22,1,10,2,13,13,0,24,23,10,23,10,0,29,0,27,22,0,29,0,0,14,4,2,11,0,3,0,10,0,0,0,2,17,0,0,23,28,22,28,18,0,5,0,0,0,0,0,0,0,0,0,0,0,0,0,0,0,0,0,0,0,0,0,0,0,0,0,0,0,0,0,0,0,0,0,0],"split_type":[0,0,0,0,0,0,0,0,0,0,0,0,0,0,0,0,0,0,0,0,0,0,0,0,0,0,0,0,0,0,0,0,0,0,0,0,0,0,0,0,0,0,0,0,0,0,0,0,0,0,0,0,0,0,0,0,0,0,0,0,0,0,0,0,0,0,0,0,0,0,0,0,0,0,0,0,0,0,0,0,0,0,0,0,0,0,0],"sum_hessian":[2.136E3,7.34E2,1.402E3,1.6E1,7.18E2,3.6E2,1.042E3,1.5E1,1E0,6.72E2,4.6E1,3.1E1,3.29E2,1.026E3,1.6E1,6E0,9E0,5.21E2,1.51E2,1.8E1,2.8E1,4E0,2.7E1,8E1,2.49E2,2.03E2,8.23E2,5E0,1.1E1,1E0,5E0,4.1E1,4.8E2,8.3E1,6.8E1,5E0,1.3E1,2E0,2.6E1,1E0,3E0,9E0,1.8E1,6.4E1,1.6E1,8.7E1,1.62E2,1.13E2,9E1,3.72E2,4.51E2,3E0,8E0,2.6E1,1.5E1,1.4E2,3.4E2,6.6E1,1.7E1,4.5E1,2.3E1,6E0,7E0,7E0,1.9E1,7E0,2E0,1E0,1.7E1,5.5E1,9E0,3E0,1.3E1,7.1E1,1.6E1,1.24E2,3.8E1,2E1,9.3E1,3.8E1,5.2E1,6.2E1,3.1E2,2.65E2,1.86E2,2E0,6E0],"tree_param":{"num_deleted":"0","num_feature":"34","num_nodes":"87","size_leaf_vector":"1"}},{"base_weights":[5.127054E-4,-2.6722142E-1,1.407722E-1,-2.0640593E0,-2.2436541E-1,4.903896E-1,1.9628711E-2,-2.2938626E0,2.4191905E-2,7.370375E-1,-2.8812656E-1,-1.5014342E0,6.820501E-1,-1.2765669E-2,1.9754758E0,-3.2734501E0,-1.378765E0,2.2151022E0,1.9369003E-1,-4.8926374E-1,3.8863648E-2,4.7342935E-1,-1.8004658E0,8.603666E-2,9.5594114E-1,5.236873E-1,-1.1904101E-1,1.20742E-1,7.862238E-1,-2.8857624E-2,-1.04951546E-1,-4.3252237E-2,-1.2179678E-2,1.2040371E0,1.0169358E-1,1.8503438E0,-3.0434406E-1,1.03013E0,-5.762758E-1,2.2381568E0,-3.138818E-2,2.5797479E-2,4.8548607E-3,-1.0319092E0,-2.1102078E0,1.2499957E0,-3.128612E-1,3.6298249E0,8.283154E-1,8.2282585E-1,-2.766715E-1,-2.775214E-1,2.0736721E-1,1.645488E0,3.1697038E-1,4.404242E-2,8.238126E-3,1.5949456E-2,6.6039026E-2,-2.8187286E-2,1.3560816E-2,8.984696E-2,1.7570091E-2,1.7131371E-2,-2.098961E-2,1.11601435E-1,1.815037E-2,-9.830385E-3,1.53483115E-2,-3.5386547E-2,-8.826792E-3,-7.5204074E-2,-3.21665E-2,1.8371306E-2,8.952844E-2,-3.542578E-2,7.279961E-3,1.8375225E-2,1.1691078E-1,8.728493E-2,1.9106021E-2,3.737367E-2,7.5441035E-3,-3.704546E-2,1.634205E-2,-9.958719E-5,-2.4607629E-2,1.0930891E-2,-2.831634E-2,2.301552E-2,6.4206004E-2,-5.8314656E-3,1.47252E-2],"categories":[],"categories_nodes":[],"categories_segments":[],"categories_sizes":[],"default_left":[0,0,0,0,0,0,0,0,0,0,0,0,0,0,0,0,0,0,0,0,0,0,0,0,0,0,0,0,0,0,0,0,0,0,0,0,0,0,0,0,0,0,0,0,0,0,0,0,0,0,0,0,0,0,0,0,0,0,0,0,0,0,0,0,0,0,0,0,0,0,0,0,0,0,0,0,0,0,0,0,0,0,0,0,0,0,0,0,0,0,0,0,0],"id":8,"left_children":[1,3,5,7,9,11,13,15,-1,17,19,21,23,25,27,29,31,33,35,37,39,41,43,45,47,49,51,-1,53,-1,-1,-1,-1,55,-1,57,59,61,63,65,67,-1,-1,69,71,73,75,77,79,81,83,85,87,89,91,-1,-1,-1,-1,-1,-1,-1,-1,-1,-1,-1,-1,-1,-1,-1,-1,-1,-1,-1,-1,-1,-1,-1,-1,-1,-1,-1,-1,-1,-1,-1,-1,-1,-1,-1,-1,-1,-1],"loss_changes":[8.028677E1,5.613578E1,5.9412857E1,1.3063652E1,4.4287163E1,1.3883725E2,6.610809E1,9.829361E0,0E0,3.571058E1,4.4413692E1,1.9749878E1,5.378784E1,5.8613384E1,3.8266083E1,2.7444458E-1,2.7284622E-2,1.0170757E1,2.8615524E1,5.5855606E1,3.9932377E1,4.6298826E-1,4.4879837E0,4.914266E1,7.411726E1,4.092875E1,4.444129E1,0E0,4.316982E0,0E0,0E0,0E0,0E0,1.5601444E0,0E0,2.5321255E0,1.339744E1,1.8330997E1,5.6454926E1,1.7110466E1,4.0549973E1,0E0,0E0,7.420769E-1,5.1337433E0,2.8029457E1,3.8380035E1,5.6753693E0,8.460814E1,2.9652855E1,3.7664154E1,8.60143E1,5.1132053E1,9.6102715E-2,8.9558864E-1,0E0,0E0,0E0,0E0,0E0,0E0,0E0,0E0,0E0,0E0,0E0,0E0,0E0,0E0,0E0,0E0,0E0,0E0,0E0,0E0,0E0,0E0,0E0,0E0,0E0,0E0,0E0,0E0,0E0,0E0,0E0,0E0,0E0,0E0,0E0,0E0,0E0,0E0],"parents":[2147483647,0,0,1,1,2,2,3,3,4,4,5,5,6,6,7,7,9,9,10,10,11,11,12,12,13,13,14,14,15,15,16,16,17,17,18,18,19,19,20,20,21,21,22,22,23,23,24,24,25,25,26,26,28,28,33,33,35,35,36,36,37,37,38,38,39,39,40,40,43,43,44,44,45,45,46,46,47,47,48,48,49,49,50,50,51,51,52,52,53,53,54,54],"right_children":[2,4,6,8,10,12,14,16,-1,18,20,22,24,26,28,30,32,34,36,38,40,42,44,46,48,50,52,-1,54,-1,-1,-1,-1,56,-1,58,60,62,64,66,68,-1,-1,70,72,74,76,78,80,82,84,86,88,90,92,-1,-1,-1,-1,-1,-1,-1,-1,-1,-1,-1,-1,-1,-1,-1,-1,-1,-1,-1,-1,-1,-1,-1,-1,-1,-1,-1,-1,-1,-1,-1,-1,-1,-1,-1,-1,-1,-1],"split_conditions":[-2.8877136E-1,-1.0354908E0,-5.8529264E-1,3.5721767E-1,-1.0032306E0,-1.3113873E0,1.9590887E0,4.3092266E-1,2.4191905E-2,-9.988066E-1,3.3464883E-2,-1.4958562E0,-4.3435475E-1,-5.939196E-1,2.0560713E0,-7.4591523E-1,1.0252804E0,3.8239896E-1,-2.955467E-1,-2.0258164E0,-9.4216865E-1,-1.9342085E0,-4.176739E-1,-9.327107E-1,-3.6857525E-1,5.3643495E-1,5.7460123E-1,1.20742E-1,1.5299535E-1,-2.8857624E-2,-1.04951546E-1,-4.3252237E-2,-1.2179678E-2,6.464437E-1,1.0169358E-1,-8.5595644E-1,2.4199848E-1,4.277873E-2,-9.398916E-1,-8.00401E-1,3.6881447E-2,2.5797479E-2,4.8548607E-3,-5.158245E-1,-4.1350377E-1,3.0208275E-1,-6.1551433E-2,-5.2629236E-2,-7.2702307E-1,5.7889223E-2,6.9089794E-1,2.3631175E-1,4.185389E-1,-8.939568E-1,1.1825455E0,4.404242E-2,8.238126E-3,1.5949456E-2,6.6039026E-2,-2.8187286E-2,1.3560816E-2,8.984696E-2,1.7570091E-2,1.7131371E-2,-2.098961E-2,1.11601435E-1,1.815037E-2,-9.830385E-3,1.53483115E-2,-3.5386547E-2,-8.826792E-3,-7.5204074E-2,-3.21665E-2,1.8371306E-2,8.952844E-2,-3.542578E-2,7.279961E-3,1.8375225E-2,1.1691078E-1,8.728493E-2,1.9106021E-2,3.737367E-2,7.5441035E-3,-3.704546E-2,1.634205E-2,-9.958719E-5,-2.4607629E-2,1.0930891E-2,-2.831634E-2,2.301552E-2,6.4206004E-2,-5.8314656E-3,1.47252E-2],"split_indices":[29,30,18,4,23,4,11,6,0,29,30,1,22,15,13,13,3,10,3,18,8,10,0,0,22,7,24,0,29,0,0,0,0,8,0,29,4,6,7,14,18,0,0,0,28,4,21,2,5,23,7,11,7,1,5,0,0,0,0,0,0,0,0,0,0,0,0,0,0,0,0,0,0,0,0,0,0,0,0,0,0,0,0,0,0,0,0,0,0,0,0,0,0],"split_type":[0,0,0,0,0,0,0,0,0,0,0,0,0,0,0,0,0,0,0,0,0,0,0,0,0,0,0,0,0,0,0,0,0,0,0,0,0,0,0,0,0,0,0,0,0,0,0,0,0,0,0,0,0,0,0,0,0,0,0,0,0,0,0,0,0,0,0,0,0,0,0,0,0,0,0,0,0,0,0,0,0,0,0,0,0,0,0,0,0,0,0,0,0],"sum_hessian":[2.136E3,7.34E2,1.402E3,1.6E1,7.18E2,3.6E2,1.042E3,1.5E1,1E0,4.4E1,6.74E2,3.1E1,3.29E2,1.026E3,1.6E1,6E0,9E0,1.1E1,3.3E1,4.17E2,2.57E2,4E0,2.7E1,1.04E2,2.25E2,1.69E2,8.57E2,5E0,1.1E1,1E0,5E0,8E0,1E0,7E0,4E0,7E0,2.6E1,2.2E1,3.95E2,7E0,2.5E2,1E0,3E0,9E0,1.8E1,2.6E1,7.8E1,9E0,2.16E2,1.23E2,4.6E1,5.77E2,2.8E2,3E0,8E0,5E0,2E0,2E0,5E0,1.4E1,1.2E1,3E0,1.9E1,3.8E1,3.57E2,3E0,4E0,1.62E2,8.8E1,7E0,2E0,1.2E1,6E0,2E1,6E0,3E1,4.8E1,1E0,8E0,1.7E1,1.99E2,7E1,5.3E1,2.1E1,2.5E1,3.84E2,1.93E2,2.47E2,3.3E1,2E0,1E0,2E0,6E0],"tree_param":{"num_deleted":"0","num_feature":"34","num_nodes":"93","size_leaf_vector":"1"}},{"base_weights":[8.223605E-4,-1.1928241E0,3.0577295E-2,-1.4559222E0,1.0669152E0,-2.1499656E-2,6.840459E-1,-2.179061E0,-8.395578E-1,5.4190103E-2,-2.7461877E-1,-2.1893612E-1,1.8903783E-1,1.2535888E0,3.491497E-2,-2.6438172E0,-3.2800652E-2,-1.474978E0,-2.328899E-1,5.890656E-4,-1.294691E-2,1.8185216E-1,-5.717609E-1,-1.8562207E-1,3.8489383E-1,8.5463923E-1,2.8458407E0,-3.4788838E-1,1.420395E0,-1.7063506E-2,-2.9422576E0,-5.455027E-1,-1.8274666E0,3.3698303E-1,-5.515247E-1,3.064739E-1,-9.9640274E-1,-6.927273E-1,2.0902108E-1,4.2925516E-1,-4.6452737E-1,1.4561818E0,2.791795E-1,2.306074E0,3.9160854E-1,3.5720892E0,-2.2592668E-1,-6.826146E-1,1.1443614E0,2.3240068E0,-7.339267E-2,-9.297605E-2,-1.8238101E-2,-2.120695E-3,-2.515444E-2,-1.2483244E-2,-5.8556188E-2,-8.3156076E-4,2.132773E-2,-4.906333E-3,-2.3487622E-2,1.0856906E-2,-7.862272E-2,-3.7539944E-2,8.969131E-2,2.9230487E-2,-2.3845298E-2,3.3355128E-2,-2.674908E-2,-1.5406231E-2,3.4981117E-2,-7.83344E-3,-4.7448006E-2,3.337395E-2,1.22333765E-1,3.567807E-2,5.0343885E-3,-1.3218927E-2,7.555689E-2,2.1513572E-2,-3.7298653E-2,1.1541825E-1,4.1171346E-2,-2.3950024E-2,6.929615E-3,2.4111057E-3,-4.1633263E-2,1.1920118E-1,-1.23956865E-2,-2.3708523E-4,8.723916E-2,1.6212225E-2,-1.2809828E-2],"categories":[],"categories_nodes":[],"categories_segments":[],"categories_sizes":[],"default_left":[0,0,0,0,0,0,0,0,0,0,0,0,0,0,0,0,0,0,0,0,0,0,0,0,0,0,0,0,0,0,0,0,0,0,0,0,0,0,0,0,0,0,0,0,0,0,0,0,0,0,0,0,0,0,0,0,0,0,0,0,0,0,0,0,0,0,0,0,0,0,0,0,0,0,0,0,0,0,0,0,0,0,0,0,0,0,0,0,0,0,0,0,0],"id":9,"left_children":[1,3,5,7,9,11,13,15,17,-1,19,21,23,25,27,29,-1,31,33,-1,-1,35,37,39,41,43,45,47,49,-1,51,53,55,57,59,61,63,65,67,69,71,73,75,77,79,81,83,85,87,89,91,-1,-1,-1,-1,-1,-1,-1,-1,-1,-1,-1,-1,-1,-1,-1,-1,-1,-1,-1,-1,-1,-1,-1,-1,-1,-1,-1,-1,-1,-1,-1,-1,-1,-1,-1,-1,-1,-1,-1,-1,-1,-1],"loss_changes":[7.5936035E1,3.246907E1,7.1002655E1,1.9119247E1,6.44781E0,8.039189E1,5.6891243E1,7.7057266E0,1.0064695E1,0E0,1.470191E-1,1.4122919E2,6.875455E1,4.965654E1,3.9210888E1,6.9963303E0,0E0,3.2622967E0,2.9095745E0,0E0,0E0,6.90247E1,5.029689E1,5.541999E1,6.9242516E1,4.4124866E1,3.65009E1,2.9751877E1,2.1767433E1,0E0,2.5121765E0,6.362779E-1,7.680454E-1,8.3796805E-1,7.6972866E-1,6.9736435E1,4.9468987E1,7.908264E1,7.253714E1,7.075697E1,5.003138E1,4.502365E1,5.6659763E1,1.0448067E1,2.8564753E1,2.5893707E0,1.2305685E0,2.5936832E1,5.0111378E1,1.3640526E1,1.7500361E0,0E0,0E0,0E0,0E0,0E0,0E0,0E0,0E0,0E0,0E0,0E0,0E0,0E0,0E0,0E0,0E0,0E0,0E0,0E0,0E0,0E0,0E0,0E0,0E0,0E0,0E0,0E0,0E0,0E0,0E0,0E0,0E0,0E0,0E0,0E0,0E0,0E0,0E0,0E0,0E0,0E0,0E0],"parents":[2147483647,0,0,1,1,2,2,3,3,4,4,5,5,6,6,7,7,8,8,10,10,11,11,12,12,13,13,14,14,15,15,17,17,18,18,21,21,22,22,23,23,24,24,25,25,26,26,27,27,28,28,30,30,31,31,32,32,33,33,34,34,35,35,36,36,37,37,38,38,39,39,40,40,41,41,42,42,43,43,44,44,45,45,46,46,47,47,48,48,49,49,50,50],"right_children":[2,4,6,8,10,12,14,16,18,-1,20,22,24,26,28,30,-1,32,34,-1,-1,36,38,40,42,44,46,48,50,-1,52,54,56,58,60,62,64,66,68,70,72,74,76,78,80,82,84,86,88,90,92,-1,-1,-1,-1,-1,-1,-1,-1,-1,-1,-1,-1,-1,-1,-1,-1,-1,-1,-1,-1,-1,-1,-1,-1,-1,-1,-1,-1,-1,-1,-1,-1,-1,-1,-1,-1,-1,-1,-1,-1,-1,-1],"split_conditions":[-1.0354908E0,5.850966E-1,1.0580533E0,-2.675898E-2,-1.3694345E0,3.442161E-3,5.2311873E-1,7.2656137E-1,-4.1350377E-1,5.4190103E-2,-8.1042296E-1,-1.8368909E-1,-1.7944594E-1,7.5724554E-1,6.5111357E-1,-1.4651588E0,-3.2800652E-2,-6.0241324E-1,-6.2779003E-1,5.890656E-4,-1.294691E-2,5.717144E-1,8.397295E-1,-4.8191565E-1,-8.149283E-1,-4.3435475E-1,9.921978E-1,8.805983E-1,1.1191126E0,-1.7063506E-2,6.860005E-1,-9.133875E-1,-1.6607579E0,-1.7384605E-1,2.2560124E-1,6.050297E-1,8.789637E-1,-1.119468E0,1.1814779E0,-8.3661586E-1,4.7588106E-2,7.6957965E-1,-4.8101807E-1,-4.3407986E-1,1.8030505E-1,2.5043187E0,9.339775E-1,5.2971905E-1,1.6426826E0,-1.6607579E0,9.009422E-1,-9.297605E-2,-1.8238101E-2,-2.120695E-3,-2.515444E-2,-1.2483244E-2,-5.8556188E-2,-8.3156076E-4,2.132773E-2,-4.906333E-3,-2.3487622E-2,1.0856906E-2,-7.862272E-2,-3.7539944E-2,8.969131E-2,2.9230487E-2,-2.3845298E-2,3.3355128E-2,-2.674908E-2,-1.5406231E-2,3.4981117E-2,-7.83344E-3,-4.7448006E-2,3.337395E-2,1.22333765E-1,3.567807E-2,5.0343885E-3,-1.3218927E-2,7.555689E-2,2.1513572E-2,-3.7298653E-2,1.1541825E-1,4.1171346E-2,-2.3950024E-2,6.929615E-3,2.4111057E-3,-4.1633263E-2,1.1920118E-1,-1.23956865E-2,-2.3708523E-4,8.723916E-2,1.6212225E-2,-1.2809828E-2],"split_indices":[30,4,29,29,2,22,5,6,28,0,0,16,8,13,23,21,0,13,26,0,0,25,6,18,28,22,4,26,12,0,7,0,0,18,28,17,7,23,13,10,14,10,15,6,7,18,0,26,1,0,17,0,0,0,0,0,0,0,0,0,0,0,0,0,0,0,0,0,0,0,0,0,0,0,0,0,0,0,0,0,0,0,0,0,0,0,0,0,0,0,0,0,0],"split_type":[0,0,0,0,0,0,0,0,0,0,0,0,0,0,0,0,0,0,0,0,0,0,0,0,0,0,0,0,0,0,0,0,0,0,0,0,0,0,0,0,0,0,0,0,0,0,0,0,0,0,0,0,0,0,0,0,0,0,0,0,0,0,0,0,0,0,0,0,0,0,0,0,0,0,0,0,0,0,0,0,0,0,0,0,0,0,0,0,0,0,0,0,0],"sum_hessian":[2.136E3,5.1E1,2.085E3,4.6E1,5E0,1.932E3,1.53E2,2E1,2.6E1,3E0,2E0,9.97E2,9.35E2,8.1E1,7.2E1,1.3E1,7E0,1.2E1,1.4E1,1E0,1E0,4.67E2,5.3E2,3.21E2,6.14E2,6.6E1,1.5E1,5.7E1,1.5E1,2E0,1.1E1,4E0,8E0,5E0,9E0,4.23E2,4.4E1,4.59E2,7.1E1,1E2,2.21E2,5.4E1,5.6E2,1.5E1,5.1E1,1.2E1,3E0,4.7E1,1E1,9E0,6E0,1E1,1E0,2E0,2E0,1E0,7E0,3E0,2E0,4E0,5E0,4.16E2,7E0,4.2E1,2E0,2.6E1,4.33E2,3.9E1,3.2E1,4.4E1,5.6E1,1.88E2,3.3E1,4.9E1,5E0,6E1,5E2,1E0,1.4E1,4.3E1,8E0,1E1,2E0,1E0,2E0,2.3E1,2.4E1,3E0,7E0,2E0,7E0,2E0,4E0],"tree_param":{"num_deleted":"0","num_feature":"34","num_nodes":"93","size_leaf_vector":"1"}},{"base_weights":[9.267232E-4,-2.5587898E-1,1.3546076E-1,9.927584E-2,-4.4933355E-1,1.1343835E-1,1.9242623E0,-8.705683E-1,4.5419633E-1,-9.9483454E-1,-1.9282436E-1,4.7105137E-1,-1.2376383E-2,1.1702677E-1,7.755921E-1,2.839772E0,-1.1384642E0,2.6908119E0,3.2880977E-1,-1.5211446E0,-6.5425396E-2,-1.6736947E-2,-1.1843221E0,-1.4558394E0,6.5647393E-1,7.635865E-2,-6.146053E-1,1.474552E0,2.4179314E-1,7.9496537E-4,1.06093965E-1,1.4480672E0,-1.4212518E0,9.891168E-2,1.7722313E-1,7.557179E-1,-1.5652618E-1,8.913262E-1,-1.7186848E0,-2.1305156E-1,7.840961E-2,-3.0630225E-1,7.817504E-1,-2.3884573E0,-3.4208786E-1,4.6192402E-1,-1.7463028E0,1.0793154E0,2.757897E-1,5.723325E-1,-5.7037935E-2,1.1776973E0,-7.3973525E-1,2.3473626E-2,6.364415E-2,7.823837E-3,1.887402E-2,6.892622E-2,7.0972955E-3,-5.7097144E-2,-8.430169E-3,6.7027507E-4,7.3047653E-3,8.1586065E-3,4.703626E-2,-1.1875345E-2,4.5335338E-2,5.688455E-2,-1.7626116E-2,-7.847794E-2,-2.7436234E-2,1.5619802E-2,-2.4521288E-2,-2.9452011E-2,4.121315E-3,5.1020212E-2,-2.5959478E-3,-8.154148E-2,-2.568216E-2,-3.9683104E-2,4.1677183E-4,2.5247661E-2,4.6983194E-3,-6.24163E-3,-5.5698827E-2,2.6690101E-2,9.84276E-2,5.5147903E-3,1.0097337E-1,5.4506816E-2,3.0787087E-3,-1.1601723E-2,7.32867E-3,5.662422E-2,-5.441768E-3,-4.5334242E-2,-1.3990532E-2,-6.286231E-3,8.851072E-3],"categories":[],"categories_nodes":[],"categories_segments":[],"categories_sizes":[],"default_left":[0,0,0,0,0,0,0,0,0,0,0,0,0,0,0,0,0,0,0,0,0,0,0,0,0,0,0,0,0,0,0,0,0,0,0,0,0,0,0,0,0,0,0,0,0,0,0,0,0,0,0,0,0,0,0,0,0,0,0,0,0,0,0,0,0,0,0,0,0,0,0,0,0,0,0,0,0,0,0,0,0,0,0,0,0,0,0,0,0,0,0,0,0,0,0,0,0,0,0],"id":10,"left_children":[1,3,5,7,9,11,13,15,17,19,21,23,25,-1,27,29,31,33,35,37,39,41,43,45,47,49,51,53,55,-1,-1,57,59,-1,61,63,65,67,69,71,-1,73,75,77,79,81,83,85,87,89,91,93,95,-1,-1,97,-1,-1,-1,-1,-1,-1,-1,-1,-1,-1,-1,-1,-1,-1,-1,-1,-1,-1,-1,-1,-1,-1,-1,-1,-1,-1,-1,-1,-1,-1,-1,-1,-1,-1,-1,-1,-1,-1,-1,-1,-1,-1,-1],"loss_changes":[7.3866104E1,5.0543755E1,5.5051117E1,8.9891975E1,6.641295E1,6.24111E1,3.5572926E1,7.281194E1,5.2679558E1,7.4252396E1,5.6722015E1,1.2993709E2,5.492858E1,0E0,4.1207123E0,9.70623E0,5.033303E1,1.4654175E1,3.7827568E1,4.775824E1,2.2704966E1,6.42858E1,4.8876976E1,1.8631943E1,5.2822113E1,5.9313087E1,3.047493E1,5.787039E-1,7.200848E-1,0E0,0E0,6.6603622E0,3.244017E1,0E0,2.5351167E-2,3.768421E1,3.4921886E1,1.3002056E1,6.2544006E1,2.4369179E1,0E0,6.1268574E1,5.919063E1,7.7743835E0,1.0491483E1,4.477818E-1,4.365509E0,6.2214813E1,4.9110294E1,1.1088405E2,7.033021E1,9.024225E0,2.5445671E1,0E0,0E0,4.364007E-1,0E0,0E0,0E0,0E0,0E0,0E0,0E0,0E0,0E0,0E0,0E0,0E0,0E0,0E0,0E0,0E0,0E0,0E0,0E0,0E0,0E0,0E0,0E0,0E0,0E0,0E0,0E0,0E0,0E0,0E0,0E0,0E0,0E0,0E0,0E0,0E0,0E0,0E0,0E0,0E0,0E0,0E0,0E0],"parents":[2147483647,0,0,1,1,2,2,3,3,4,4,5,5,6,6,7,7,8,8,9,9,10,10,11,11,12,12,14,14,15,15,16,16,17,17,18,18,19,19,20,20,21,21,22,22,23,23,24,24,25,25,26,26,27,27,28,28,31,31,32,32,34,34,35,35,36,36,37,37,38,38,39,39,41,41,42,42,43,43,44,44,45,45,46,46,47,47,48,48,49,49,50,50,51,51,52,52,55,55],"right_children":[2,4,6,8,10,12,14,16,18,20,22,24,26,-1,28,30,32,34,36,38,40,42,44,46,48,50,52,54,56,-1,-1,58,60,-1,62,64,66,68,70,72,-1,74,76,78,80,82,84,86,88,90,92,94,96,-1,-1,98,-1,-1,-1,-1,-1,-1,-1,-1,-1,-1,-1,-1,-1,-1,-1,-1,-1,-1,-1,-1,-1,-1,-1,-1,-1,-1,-1,-1,-1,-1,-1,-1,-1,-1,-1,-1,-1,-1,-1,-1,-1,-1,-1],"split_conditions":[-2.8877136E-1,-5.0070864E-1,1.9590887E0,-2.3593482E-1,-4.8344344E-2,-5.8529264E-1,2.0560713E0,-8.2607156E-1,-5.8594066E-1,2.1709329E-1,6.323037E-1,-1.3113873E0,9.9701357E-1,1.1702677E-1,1.8261744E0,-5.8594066E-1,-7.545768E-1,-5.849397E-1,2.2073708E-1,-1.0449455E0,1.5178185E0,-8.211267E-2,-6.7480616E-2,-1.4958562E0,-7.679115E-3,-3.5045555E-1,-1.1642793E0,-2.2886898E-1,6.108907E-1,7.9496537E-4,1.06093965E-1,-7.6526815E-1,-7.670447E-2,9.891168E-2,-4.2864898E-1,8.7937385E-2,6.5070784E-1,1.964746E-1,-2.637834E-1,-6.547299E-1,7.840961E-2,-7.773139E-2,2.6476246E-1,3.4611945E0,4.189641E-3,-1.9342085E0,-1.3220456E0,4.3233594E-1,1.970111E0,-1.15061834E-1,3.6881447E-2,4.390363E-1,-5.93723E-1,2.3473626E-2,6.364415E-2,5.7780117E-1,1.887402E-2,6.892622E-2,7.0972955E-3,-5.7097144E-2,-8.430169E-3,6.7027507E-4,7.3047653E-3,8.1586065E-3,4.703626E-2,-1.1875345E-2,4.5335338E-2,5.688455E-2,-1.7626116E-2,-7.847794E-2,-2.7436234E-2,1.5619802E-2,-2.4521288E-2,-2.9452011E-2,4.121315E-3,5.1020212E-2,-2.5959478E-3,-8.154148E-2,-2.568216E-2,-3.9683104E-2,4.1677183E-4,2.5247661E-2,4.6983194E-3,-6.24163E-3,-5.5698827E-2,2.6690101E-2,9.84276E-2,5.5147903E-3,1.0097337E-1,5.4506816E-2,3.0787087E-3,-1.1601723E-2,7.32867E-3,5.662422E-2,-5.441768E-3,-4.5334242E-2,-1.3990532E-2,-6.286231E-3,8.851072E-3],"split_indices":[29,6,11,3,13,18,13,24,1,30,17,4,23,0,16,1,30,7,14,23,4,24,22,1,13,3,6,1,22,0,0,30,0,0,0,21,3,21,5,29,0,23,10,4,28,10,2,11,12,6,18,8,7,0,0,0,0,0,0,0,0,0,0,0,0,0,0,0,0,0,0,0,0,0,0,0,0,0,0,0,0,0,0,0,0,0,0,0,0,0,0,0,0,0,0,0,0,0,0],"split_type":[0,0,0,0,0,0,0,0,0,0,0,0,0,0,0,0,0,0,0,0,0,0,0,0,0,0,0,0,0,0,0,0,0,0,0,0,0,0,0,0,0,0,0,0,0,0,0,0,0,0,0,0,0,0,0,0,0,0,0,0,0,0,0,0,0,0,0,0,0,0,0,0,0,0,0,0,0,0,0,0,0,0,0,0,0,0,0,0,0,0,0,0,0,0,0,0,0,0,0],"sum_hessian":[2.136E3,7.34E2,1.402E3,2.59E2,4.75E2,1.386E3,1.6E1,6.9E1,1.9E2,1.51E2,3.24E2,3.6E2,1.026E3,5E0,1.1E1,4E0,6.5E1,9E0,1.81E2,9.6E1,5.5E1,2.76E2,4.8E1,3.1E1,3.29E2,8.95E2,1.31E2,4E0,7E0,1E0,3E0,6E0,5.9E1,7E0,2E0,9.6E1,8.5E1,7E0,8.9E1,5.3E1,2E0,2.03E2,7.3E1,1.9E1,2.9E1,4E0,2.7E1,1.55E2,1.74E2,1.89E2,7.06E2,8E0,1.23E2,3E0,1E0,5E0,2E0,3E0,3E0,4.1E1,1.8E1,1E0,1E0,6.1E1,3.5E1,7.5E1,1E1,4E0,3E0,4.1E1,4.8E1,2.4E1,2.9E1,8E1,1.23E2,3.5E1,3.8E1,1.5E1,4E0,7E0,2.2E1,1E0,3E0,2E0,2.5E1,1.44E2,1.1E1,1.7E2,4E0,5.1E1,1.38E2,3.37E2,3.69E2,5E0,3E0,3.1E1,9.2E1,3E0,2E0],"tree_param":{"num_deleted":"0","num_feature":"34","num_nodes":"99","size_leaf_vector":"1"}},{"base_weights":[1.2090539E-3,-1.1564578E0,3.00669E-2,-1.4130249E0,1.0460604E0,-2.00525E-2,6.589678E-1,-2.1015775E0,-8.2514966E-1,5.3095385E-2,-2.6767424E-1,-2.1081878E-1,1.8337142E-1,1.2107999E0,3.0074582E-2,-2.5516438E0,-3.1537928E-2,-1.4363736E0,-2.404122E-1,7.900876E-4,-1.2835428E-2,1.7372675E-1,-5.493432E-1,-1.7752276E-1,3.7202924E-1,8.245483E-1,2.7525535E0,-3.4172913E-1,1.3759834E0,-1.7019926E-2,-2.8350852E0,-5.35428E-1,-1.7773019E0,3.183406E-1,-5.516227E-1,2.9355285E-1,-9.591618E-1,-6.675175E-1,2.1328853E-1,4.1003746E-1,-4.4403654E-1,1.4083078E0,2.6977018E-1,1.1627965E0,-1.0031517E0,3.4581892E0,-2.2890046E-1,2.1809343E-1,-1.2031153E0,2.2505014E0,-6.989706E-2,-8.9598656E-2,-1.752275E-2,-2.2052766E-3,-2.4566121E-2,-1.2121969E-2,-5.6953445E-2,-9.186626E-4,2.032532E-2,-4.6093897E-3,-2.3739973E-2,1.0403946E-2,-7.555668E-2,-3.6230557E-2,8.768181E-2,2.845972E-2,-2.2995746E-2,3.2643087E-2,-2.5606677E-2,-1.4874713E-2,3.353992E-2,-7.4564302E-3,-4.5529943E-2,6.543327E-2,1.18110515E-2,3.4432612E-2,4.8699444E-3,6.699821E-2,2.1819303E-2,6.4917826E-3,-5.192842E-2,1.1175051E-1,3.9812718E-2,-2.3700701E-2,6.6444487E-3,1.085678E-1,-2.651838E-3,-3.8874014E-3,-5.6519683E-2,-1.4758616E-4,8.444914E-2,-1.5522433E-2,1.1852839E-2],"categories":[],"categories_nodes":[],"categories_segments":[],"categories_sizes":[],"default_left":[0,0,0,0,0,0,0,0,0,0,0,0,0,0,0,0,0,0,0,0,0,0,0,0,0,0,0,0,0,0,0,0,0,0,0,0,0,0,0,0,0,0,0,0,0,0,0,0,0,0,0,0,0,0,0,0,0,0,0,0,0,0,0,0,0,0,0,0,0,0,0,0,0,0,0,0,0,0,0,0,0,0,0,0,0,0,0,0,0,0,0,0,0],"id":11,"left_children":[1,3,5,7,9,11,13,15,17,-1,19,21,23,25,27,29,-1,31,33,-1,-1,35,37,39,41,43,45,47,49,-1,51,53,55,57,59,61,63,65,67,69,71,73,75,77,79,81,83,85,87,89,91,-1,-1,-1,-1,-1,-1,-1,-1,-1,-1,-1,-1,-1,-1,-1,-1,-1,-1,-1,-1,-1,-1,-1,-1,-1,-1,-1,-1,-1,-1,-1,-1,-1,-1,-1,-1,-1,-1,-1,-1,-1,-1],"loss_changes":[7.1427185E1,3.0862976E1,6.576422E1,1.7290688E1,6.1789174E0,7.5051476E1,5.340828E1,7.2444763E0,9.304626E0,0E0,1.5254585E-1,1.3001314E2,6.3794083E1,4.6561775E1,3.7000427E1,6.265671E0,0E0,3.0414371E0,2.7839499E0,0E0,0E0,6.3812378E1,4.7997925E1,5.060499E1,6.479096E1,4.2586956E1,3.4452705E1,2.823135E1,2.0388477E1,0E0,2.3488464E0,5.944431E-1,7.301655E-1,7.727683E-1,8.324032E-1,6.43597E1,4.694303E1,7.433325E1,6.812571E1,6.532699E1,4.6216675E1,4.2266174E1,5.2732464E1,2.4947868E1,1.0137937E1,2.4488373E0,1.1858544E0,3.784322E1,1.656755E1,1.2745026E1,1.6610708E0,0E0,0E0,0E0,0E0,0E0,0E0,0E0,0E0,0E0,0E0,0E0,0E0,0E0,0E0,0E0,0E0,0E0,0E0,0E0,0E0,0E0,0E0,0E0,0E0,0E0,0E0,0E0,0E0,0E0,0E0,0E0,0E0,0E0,0E0,0E0,0E0,0E0,0E0,0E0,0E0,0E0,0E0],"parents":[2147483647,0,0,1,1,2,2,3,3,4,4,5,5,6,6,7,7,8,8,10,10,11,11,12,12,13,13,14,14,15,15,17,17,18,18,21,21,22,22,23,23,24,24,25,25,26,26,27,27,28,28,30,30,31,31,32,32,33,33,34,34,35,35,36,36,37,37,38,38,39,39,40,40,41,41,42,42,43,43,44,44,45,45,46,46,47,47,48,48,49,49,50,50],"right_children":[2,4,6,8,10,12,14,16,18,-1,20,22,24,26,28,30,-1,32,34,-1,-1,36,38,40,42,44,46,48,50,-1,52,54,56,58,60,62,64,66,68,70,72,74,76,78,80,82,84,86,88,90,92,-1,-1,-1,-1,-1,-1,-1,-1,-1,-1,-1,-1,-1,-1,-1,-1,-1,-1,-1,-1,-1,-1,-1,-1,-1,-1,-1,-1,-1,-1,-1,-1,-1,-1,-1,-1,-1,-1,-1,-1,-1,-1],"split_conditions":[-1.0354908E0,5.850966E-1,1.0580533E0,-2.675898E-2,-1.3694345E0,3.442161E-3,5.2311873E-1,7.2656137E-1,-4.1350377E-1,5.3095385E-2,-8.1042296E-1,-1.8368909E-1,-1.7944594E-1,7.5724554E-1,6.5111357E-1,-1.4651588E0,-3.1537928E-2,-6.0241324E-1,-6.2779003E-1,7.900876E-4,-1.2835428E-2,5.717144E-1,8.397295E-1,-4.8191565E-1,-8.149283E-1,1.2500556E0,9.921978E-1,-2.2214377E-1,1.1191126E0,-1.7019926E-2,6.860005E-1,-9.133875E-1,-1.6607579E0,-1.7384605E-1,2.2560124E-1,6.050297E-1,8.789637E-1,-1.119468E0,1.1814779E0,-8.3661586E-1,4.7588106E-2,-3.7734354E-1,-4.8101807E-1,-4.3435475E-1,7.0117474E-1,2.0312316E0,9.339775E-1,-4.045053E-1,5.2701414E-1,-1.6607579E0,1.0962741E0,-8.9598656E-2,-1.752275E-2,-2.2052766E-3,-2.4566121E-2,-1.2121969E-2,-5.6953445E-2,-9.186626E-4,2.032532E-2,-4.6093897E-3,-2.3739973E-2,1.0403946E-2,-7.555668E-2,-3.6230557E-2,8.768181E-2,2.845972E-2,-2.2995746E-2,3.2643087E-2,-2.5606677E-2,-1.4874713E-2,3.353992E-2,-7.4564302E-3,-4.5529943E-2,6.543327E-2,1.18110515E-2,3.4432612E-2,4.8699444E-3,6.699821E-2,2.1819303E-2,6.4917826E-3,-5.192842E-2,1.1175051E-1,3.9812718E-2,-2.3700701E-2,6.6444487E-3,1.085678E-1,-2.651838E-3,-3.8874014E-3,-5.6519683E-2,-1.4758616E-4,8.444914E-2,-1.5522433E-2,1.1852839E-2],"split_indices":[30,4,29,29,2,22,5,6,28,0,0,16,8,13,23,21,0,13,26,0,0,25,6,18,28,8,4,23,12,0,7,0,0,18,28,17,7,23,13,10,14,23,15,22,2,0,0,22,0,0,3,0,0,0,0,0,0,0,0,0,0,0,0,0,0,0,0,0,0,0,0,0,0,0,0,0,0,0,0,0,0,0,0,0,0,0,0,0,0,0,0,0,0],"split_type":[0,0,0,0,0,0,0,0,0,0,0,0,0,0,0,0,0,0,0,0,0,0,0,0,0,0,0,0,0,0,0,0,0,0,0,0,0,0,0,0,0,0,0,0,0,0,0,0,0,0,0,0,0,0,0,0,0,0,0,0,0,0,0,0,0,0,0,0,0,0,0,0,0,0,0,0,0,0,0,0,0,0,0,0,0,0,0,0,0,0,0,0,0],"sum_hessian":[2.136E3,5.1E1,2.085E3,4.6E1,5E0,1.932E3,1.53E2,2E1,2.6E1,3E0,2E0,9.97E2,9.35E2,8.1E1,7.2E1,1.3E1,7E0,1.2E1,1.4E1,1E0,1E0,4.67E2,5.3E2,3.21E2,6.14E2,6.6E1,1.5E1,5.7E1,1.5E1,2E0,1.1E1,4E0,8E0,5E0,9E0,4.23E2,4.4E1,4.59E2,7.1E1,1E2,2.21E2,5.4E1,5.6E2,5.6E1,1E1,1.2E1,3E0,3.5E1,2.2E1,9E0,6E0,1E1,1E0,2E0,2E0,1E0,7E0,3E0,2E0,4E0,5E0,4.16E2,7E0,4.2E1,2E0,2.6E1,4.33E2,3.9E1,3.2E1,4.4E1,5.6E1,1.88E2,3.3E1,3E1,2.4E1,6E1,5E2,1.5E1,4.1E1,4E0,6E0,1E1,2E0,1E0,2E0,2E0,3.3E1,9E0,1.3E1,2E0,7E0,3E0,3E0],"tree_param":{"num_deleted":"0","num_feature":"34","num_nodes":"93","size_leaf_vector":"1"}},{"base_weights":[1.2502895E-3,-2.4519889E-1,1.3035856E-1,1.0049911E-1,-4.3351042E-1,1.0882442E-1,1.8796228E0,-8.416852E-1,4.4527608E-1,-9.6315783E-1,-1.8446453E-1,4.561937E-1,-1.0657591E-2,3.212087E0,3.383117E-1,2.7630062E0,-1.102015E0,2.6191359E0,3.2338667E-1,-1.4723313E0,-6.399736E-2,-1.4060169E-2,-1.1440063E0,-3.6600316E-1,8.775964E-1,5.1231396E-1,-1.05676815E-1,1.900485E-2,1.1574984E-1,-5.2197445E-3,5.0953996E-1,2.7994215E-4,1.03472754E-1,1.4107006E0,-1.3767983E0,9.618577E-2,1.8060671E-1,7.3479605E-1,-1.4440519E-1,8.573378E-1,-1.6630538E0,-2.0624311E-1,7.553276E-2,-2.934865E-1,7.564403E-1,-2.2945087E0,-3.3887103E-1,-5.4641515E-1,2.2506177E0,1.5205395E0,5.03125E-1,-4.3102783E-1,7.2606736E-1,-1.7314768E-1,5.5784184E-1,2.1877702E-2,-2.6501352E-2,-2.0022404E-3,6.0450766E-2,-5.5393595E-2,-7.9845255E-3,1.0051571E-3,7.1221446E-3,7.954322E-3,4.5696903E-2,-1.128747E-2,4.411658E-2,5.5339776E-2,-1.7734457E-2,-7.591087E-2,-2.6571186E-2,1.5071166E-2,-2.3696432E-2,-2.8443214E-2,4.0948614E-3,4.9249973E-2,-2.4026046E-3,-7.8377716E-2,-2.453236E-2,-3.8806923E-2,2.3788959E-4,2.0415388E-2,-2.6961122E-2,2.3442917E-2,7.830325E-2,6.3054025E-2,1.0963746E-2,5.533282E-2,9.876153E-3,3.242201E-2,-2.5619963E-2,2.9109368E-2,-1.5511747E-2,-1.1038413E-2,4.130985E-3,9.1717176E-2,8.402948E-3,-4.2611263E-3,3.0685654E-3],"categories":[],"categories_nodes":[],"categories_segments":[],"categories_sizes":[],"default_left":[0,0,0,0,0,0,0,0,0,0,0,0,0,0,0,0,0,0,0,0,0,0,0,0,0,0,0,0,0,0,0,0,0,0,0,0,0,0,0,0,0,0,0,0,0,0,0,0,0,0,0,0,0,0,0,0,0,0,0,0,0,0,0,0,0,0,0,0,0,0,0,0,0,0,0,0,0,0,0,0,0,0,0,0,0,0,0,0,0,0,0,0,0,0,0,0,0,0,0],"id":12,"left_children":[1,3,5,7,9,11,13,15,17,19,21,23,25,27,29,31,33,35,37,39,41,43,45,47,49,51,53,-1,-1,-1,55,-1,-1,57,59,-1,61,63,65,67,69,71,-1,73,75,77,79,81,83,85,87,89,91,93,95,-1,97,-1,-1,-1,-1,-1,-1,-1,-1,-1,-1,-1,-1,-1,-1,-1,-1,-1,-1,-1,-1,-1,-1,-1,-1,-1,-1,-1,-1,-1,-1,-1,-1,-1,-1,-1,-1,-1,-1,-1,-1,-1,-1],"loss_changes":[6.802837E1,4.789127E1,5.264492E1,8.483408E1,6.2609818E1,5.7571434E1,3.3826916E1,6.873349E1,4.9762375E1,6.949573E1,5.3124687E1,1.2332016E2,5.1386345E1,1.2553299E1,8.781427E-1,9.414101E0,4.7512093E1,1.3736481E1,3.513273E1,4.4524857E1,2.1084925E1,5.9859585E1,4.461164E1,5.8350212E1,5.581447E1,3.237411E1,3.9268738E1,0E0,0E0,0E0,8.437673E-1,0E0,0E0,6.384471E0,3.0805824E1,0E0,1.7110951E-2,3.551423E1,3.275324E1,1.2531441E1,5.843689E1,2.2729855E1,0E0,5.7550316E1,5.4929596E1,7.2582016E0,9.9429035E0,4.9886166E1,2.1856537E0,5.697264E1,3.4384674E1,2.0105883E1,3.997323E1,4.81902E1,5.5373184E1,0E0,5.9167013E-2,0E0,0E0,0E0,0E0,0E0,0E0,0E0,0E0,0E0,0E0,0E0,0E0,0E0,0E0,0E0,0E0,0E0,0E0,0E0,0E0,0E0,0E0,0E0,0E0,0E0,0E0,0E0,0E0,0E0,0E0,0E0,0E0,0E0,0E0,0E0,0E0,0E0,0E0,0E0,0E0,0E0,0E0],"parents":[2147483647,0,0,1,1,2,2,3,3,4,4,5,5,6,6,7,7,8,8,9,9,10,10,11,11,12,12,13,13,14,14,15,15,16,16,17,17,18,18,19,19,20,20,21,21,22,22,23,23,24,24,25,25,26,26,30,30,33,33,34,34,36,36,37,37,38,38,39,39,40,40,41,41,43,43,44,44,45,45,46,46,47,47,48,48,49,49,50,50,51,51,52,52,53,53,54,54,56,56],"right_children":[2,4,6,8,10,12,14,16,18,20,22,24,26,28,30,32,34,36,38,40,42,44,46,48,50,52,54,-1,-1,-1,56,-1,-1,58,60,-1,62,64,66,68,70,72,-1,74,76,78,80,82,84,86,88,90,92,94,96,-1,98,-1,-1,-1,-1,-1,-1,-1,-1,-1,-1,-1,-1,-1,-1,-1,-1,-1,-1,-1,-1,-1,-1,-1,-1,-1,-1,-1,-1,-1,-1,-1,-1,-1,-1,-1,-1,-1,-1,-1,-1,-1,-1],"split_conditions":[-2.8877136E-1,-5.0070864E-1,1.9590887E0,-2.3593482E-1,-4.8344344E-2,-5.931305E-1,-5.3412914E-1,-8.2607156E-1,-5.8594066E-1,2.1709329E-1,6.323037E-1,-7.9904616E-1,-5.5662113E-1,-1.8989909E0,1.1825455E0,-5.8594066E-1,-7.545768E-1,-5.849397E-1,2.2073708E-1,-1.0449455E0,1.5178185E0,-8.211267E-2,-6.7480616E-2,-1.27105E-1,-2.1966165E-1,-8.526507E-1,1.1580219E0,1.900485E-2,1.1574984E-1,-5.2197445E-3,1.3728867E0,2.7994215E-4,1.03472754E-1,-4.3992233E-1,-7.670447E-2,9.618577E-2,-4.2864898E-1,8.7937385E-2,6.5070784E-1,1.964746E-1,-2.637834E-1,-6.547299E-1,7.553276E-2,-7.773139E-2,2.6476246E-1,3.4611945E0,4.189641E-3,-9.2020655E-1,3.2493487E-2,6.0776144E-1,-7.964107E-1,-1.2803947E0,5.863964E-1,4.970759E-1,-3.7141156E-1,2.1877702E-2,-3.2913588E-2,-2.0022404E-3,6.0450766E-2,-5.5393595E-2,-7.9845255E-3,1.0051571E-3,7.1221446E-3,7.954322E-3,4.5696903E-2,-1.128747E-2,4.411658E-2,5.5339776E-2,-1.7734457E-2,-7.591087E-2,-2.6571186E-2,1.5071166E-2,-2.3696432E-2,-2.8443214E-2,4.0948614E-3,4.9249973E-2,-2.4026046E-3,-7.8377716E-2,-2.453236E-2,-3.8806923E-2,2.3788959E-4,2.0415388E-2,-2.6961122E-2,2.3442917E-2,7.830325E-2,6.3054025E-2,1.0963746E-2,5.533282E-2,9.876153E-3,3.242201E-2,-2.5619963E-2,2.9109368E-2,-1.5511747E-2,-1.1038413E-2,4.130985E-3,9.1717176E-2,8.402948E-3,-4.2611263E-3,3.0685654E-3],"split_indices":[29,6,11,3,13,18,23,24,1,30,17,11,17,1,5,1,30,7,14,23,4,24,22,24,0,14,29,0,0,0,8,0,0,12,0,0,0,21,3,21,5,29,0,23,10,4,28,24,5,29,5,4,22,11,4,0,0,0,0,0,0,0,0,0,0,0,0,0,0,0,0,0,0,0,0,0,0,0,0,0,0,0,0,0,0,0,0,0,0,0,0,0,0,0,0,0,0,0,0],"split_type":[0,0,0,0,0,0,0,0,0,0,0,0,0,0,0,0,0,0,0,0,0,0,0,0,0,0,0,0,0,0,0,0,0,0,0,0,0,0,0,0,0,0,0,0,0,0,0,0,0,0,0,0,0,0,0,0,0,0,0,0,0,0,0,0,0,0,0,0,0,0,0,0,0,0,0,0,0,0,0,0,0,0,0,0,0,0,0,0,0,0,0,0,0,0,0,0,0,0,0],"sum_hessian":[2.136E3,7.34E2,1.402E3,2.59E2,4.75E2,1.386E3,1.6E1,6.9E1,1.9E2,1.51E2,3.24E2,3.54E2,1.032E3,8E0,8E0,4E0,6.5E1,9E0,1.81E2,9.6E1,5.5E1,2.76E2,4.8E1,1.2E2,2.34E2,1.58E2,8.74E2,2E0,6E0,2E0,6E0,1E0,3E0,6E0,5.9E1,7E0,2E0,9.6E1,8.5E1,7E0,8.9E1,5.3E1,2E0,2.03E2,7.3E1,1.9E1,2.9E1,1.13E2,7E0,8.5E1,1.49E2,2.9E1,1.29E2,7.94E2,8E1,4E0,2E0,2E0,4E0,4.1E1,1.8E1,1E0,1E0,6.1E1,3.5E1,7.5E1,1E1,4E0,3E0,4.1E1,4.8E1,2.4E1,2.9E1,8E1,1.23E2,3.5E1,3.8E1,1.5E1,4E0,7E0,2.2E1,2.5E1,8.8E1,2E0,5E0,5.6E1,2.9E1,1.6E1,1.33E2,6E0,2.3E1,1.08E2,2.1E1,4.88E2,3.06E2,7E0,7.3E1,1E0,1E0],"tree_param":{"num_deleted":"0","num_feature":"34","num_nodes":"99","size_leaf_vector":"1"}},{"base_weights":[1.5267365E-3,-1.1220464E0,2.9534537E-2,-1.3695661E0,1.0038658E0,-1.8298352E-2,6.297387E-1,-2.026735E0,-8.077099E-1,1.7203393E0,-2.8605413E-1,-2.0275171E-1,1.7839262E-1,1.1700683E0,2.978689E-2,-2.4612753E0,-3.0388433E-2,-1.39799E0,-2.4228638E-1,1.5829306E-2,5.82607E-2,7.162715E-4,-1.3588707E-2,1.6634737E-1,-5.2767754E-1,-1.6696559E-1,3.5892424E-1,7.902793E-1,2.6635683E0,-3.225815E-1,1.3272836E0,-1.7053865E-2,-2.7293725E0,-5.2742267E-1,-1.7263063E0,3.089081E-1,-5.487744E-1,2.8136802E-1,-9.210993E-1,-6.425625E-1,2.1363842E-1,1.678614E-1,-6.089886E-1,1.3626622E0,2.5987875E-1,2.2475467E0,3.547161E-1,3.349807E0,-2.3259974E-1,-6.28267E-1,1.068434E0,2.1775901E0,-7.705203E-2,-4.8303556E-2,-9.8964676E-2,-1.6353603E-3,-2.4735771E-2,-1.155584E-2,-5.5373874E-2,-1.4225438E-3,2.0431211E-2,-4.5657456E-3,-2.3633935E-2,9.976425E-3,-7.264605E-2,-3.4898706E-2,8.57201E-2,2.3094768E-2,-2.2498807E-2,3.1817514E-2,-2.458308E-2,3.5629436E-2,-4.546811E-3,-4.4363726E-2,-6.5138373E-3,3.105646E-2,1.1592827E-1,3.3106476E-2,4.699131E-3,-1.426159E-2,7.427994E-2,-2.7205963E-2,2.2675864E-2,3.7935615E-2,1.08419806E-1,-2.3471236E-2,6.3435016E-3,3.0017432E-3,-3.994384E-2,1.1173247E-1,-1.1793336E-2,-6.3988206E-4,8.189958E-2,1.552704E-2,-1.25524085E-2],"categories":[],"categories_nodes":[],"categories_segments":[],"categories_sizes":[],"default_left":[0,0,0,0,0,0,0,0,0,0,0,0,0,0,0,0,0,0,0,0,0,0,0,0,0,0,0,0,0,0,0,0,0,0,0,0,0,0,0,0,0,0,0,0,0,0,0,0,0,0,0,0,0,0,0,0,0,0,0,0,0,0,0,0,0,0,0,0,0,0,0,0,0,0,0,0,0,0,0,0,0,0,0,0,0,0,0,0,0,0,0,0,0,0,0],"id":13,"left_children":[1,3,5,7,9,11,13,15,17,19,21,23,25,27,29,31,-1,33,35,-1,-1,-1,-1,37,39,41,43,45,47,49,51,-1,53,55,57,59,61,63,65,67,69,71,73,75,77,79,81,83,85,87,89,91,93,-1,-1,-1,-1,-1,-1,-1,-1,-1,-1,-1,-1,-1,-1,-1,-1,-1,-1,-1,-1,-1,-1,-1,-1,-1,-1,-1,-1,-1,-1,-1,-1,-1,-1,-1,-1,-1,-1,-1,-1,-1,-1],"loss_changes":[6.728199E1,2.8737526E1,5.989954E1,1.57170105E1,6.03727E0,7.016601E1,4.9887592E1,6.7580185E0,8.67276E0,3.2910347E-2,1.6599911E-1,1.1977775E2,5.8417725E1,4.383943E1,3.426072E1,5.552849E0,0E0,2.8051853E0,2.7035387E0,0E0,0E0,0E0,0E0,5.8796055E1,4.536046E1,4.775863E1,6.0786545E1,4.1095078E1,3.2578583E1,2.575884E1,1.927364E1,0E0,2.3368149E0,6.5756965E-1,7.3124886E-1,8.2789654E-1,8.280299E-1,5.9458572E1,4.450354E1,7.0353516E1,6.3866035E1,6.0116528E1,4.705586E1,4.1052643E1,4.8691048E1,1.0507927E1,2.7001547E1,2.5917969E0,1.1419427E0,2.5228777E1,4.416432E1,1.2204975E1,1.6374208E0,0E0,0E0,0E0,0E0,0E0,0E0,0E0,0E0,0E0,0E0,0E0,0E0,0E0,0E0,0E0,0E0,0E0,0E0,0E0,0E0,0E0,0E0,0E0,0E0,0E0,0E0,0E0,0E0,0E0,0E0,0E0,0E0,0E0,0E0,0E0,0E0,0E0,0E0,0E0,0E0,0E0,0E0],"parents":[2147483647,0,0,1,1,2,2,3,3,4,4,5,5,6,6,7,7,8,8,9,9,10,10,11,11,12,12,13,13,14,14,15,15,17,17,18,18,23,23,24,24,25,25,26,26,27,27,28,28,29,29,30,30,32,32,33,33,34,34,35,35,36,36,37,37,38,38,39,39,40,40,41,41,42,42,43,43,44,44,45,45,46,46,47,47,48,48,49,49,50,50,51,51,52,52],"right_children":[2,4,6,8,10,12,14,16,18,20,22,24,26,28,30,32,-1,34,36,-1,-1,-1,-1,38,40,42,44,46,48,50,52,-1,54,56,58,60,62,64,66,68,70,72,74,76,78,80,82,84,86,88,90,92,94,-1,-1,-1,-1,-1,-1,-1,-1,-1,-1,-1,-1,-1,-1,-1,-1,-1,-1,-1,-1,-1,-1,-1,-1,-1,-1,-1,-1,-1,-1,-1,-1,-1,-1,-1,-1,-1,-1,-1,-1,-1,-1],"split_conditions":[-1.0354908E0,5.850966E-1,1.0580533E0,-2.675898E-2,-1.3694345E0,3.442161E-3,5.16617E-1,7.2656137E-1,-4.1350377E-1,-1.6169437E0,-8.1042296E-1,-1.8368909E-1,-1.7944594E-1,7.5724554E-1,6.5111357E-1,-1.4651588E0,-3.0388433E-2,-6.0241324E-1,-6.2779003E-1,1.5829306E-2,5.82607E-2,7.162715E-4,-1.3588707E-2,5.717144E-1,8.397295E-1,-4.5085862E-1,-8.149283E-1,-4.3435475E-1,9.921978E-1,8.805983E-1,1.1191126E0,-1.7053865E-2,-1.2340528E0,-9.133875E-1,-1.6607579E0,-1.7384605E-1,2.2560124E-1,6.050297E-1,8.789637E-1,-1.0449455E0,1.1814779E0,-8.3033556E-1,-1.854486E-1,7.6957965E-1,-4.8101807E-1,-4.3407986E-1,6.500796E-2,8.395874E-1,9.339775E-1,5.2971905E-1,1.6426826E0,-1.6607579E0,9.009422E-1,-4.8303556E-2,-9.8964676E-2,-1.6353603E-3,-2.4735771E-2,-1.155584E-2,-5.5373874E-2,-1.4225438E-3,2.0431211E-2,-4.5657456E-3,-2.3633935E-2,9.976425E-3,-7.264605E-2,-3.4898706E-2,8.57201E-2,2.3094768E-2,-2.2498807E-2,3.1817514E-2,-2.458308E-2,3.5629436E-2,-4.546811E-3,-4.4363726E-2,-6.5138373E-3,3.105646E-2,1.1592827E-1,3.3106476E-2,4.699131E-3,-1.426159E-2,7.427994E-2,-2.7205963E-2,2.2675864E-2,3.7935615E-2,1.08419806E-1,-2.3471236E-2,6.3435016E-3,3.0017432E-3,-3.994384E-2,1.1173247E-1,-1.1793336E-2,-6.3988206E-4,8.189958E-2,1.552704E-2,-1.25524085E-2],"split_indices":[30,4,29,29,2,22,5,6,28,0,0,16,8,13,23,21,0,13,26,0,0,0,0,25,6,8,28,22,4,26,12,0,26,0,0,18,28,17,7,23,13,18,6,10,15,6,17,13,0,26,1,0,17,0,0,0,0,0,0,0,0,0,0,0,0,0,0,0,0,0,0,0,0,0,0,0,0,0,0,0,0,0,0,0,0,0,0,0,0,0,0,0,0,0,0],"split_type":[0,0,0,0,0,0,0,0,0,0,0,0,0,0,0,0,0,0,0,0,0,0,0,0,0,0,0,0,0,0,0,0,0,0,0,0,0,0,0,0,0,0,0,0,0,0,0,0,0,0,0,0,0,0,0,0,0,0,0,0,0,0,0,0,0,0,0,0,0,0,0,0,0,0,0,0,0,0,0,0,0,0,0,0,0,0,0,0,0,0,0,0,0,0,0],"sum_hessian":[2.136E3,5.1E1,2.085E3,4.6E1,5E0,1.932E3,1.53E2,2E1,2.6E1,3E0,2E0,9.97E2,9.35E2,8E1,7.3E1,1.3E1,7E0,1.2E1,1.4E1,1E0,2E0,1E0,1E0,4.67E2,5.3E2,3.21E2,6.14E2,6.5E1,1.5E1,5.8E1,1.5E1,2E0,1.1E1,4E0,8E0,5E0,9E0,4.23E2,4.4E1,4.59E2,7.1E1,1.83E2,1.38E2,5.4E1,5.6E2,1.4E1,5.1E1,1.2E1,3E0,4.8E1,1E1,9E0,6E0,5E0,6E0,2E0,2E0,1E0,7E0,3E0,2E0,4E0,5E0,4.16E2,7E0,4.2E1,2E0,3.2E1,4.27E2,3.9E1,3.2E1,4.3E1,1.4E2,4.2E1,9.6E1,4.9E1,5E0,6E1,5E2,1E0,1.3E1,1.2E1,3.9E1,2E0,1E1,1E0,2E0,2.4E1,2.4E1,3E0,7E0,2E0,7E0,2E0,4E0],"tree_param":{"num_deleted":"0","num_feature":"34","num_nodes":"95","size_leaf_vector":"1"}},{"base_weights":[1.6011688E-3,-1.0929232E0,2.8884804E-2,-1.3348025E0,9.8395276E-1,-1.7666122E-2,6.1300206E-1,-1.9752051E0,-7.8727454E-1,1.6872517E0,-2.8176332E-1,-1.9667318E-1,1.7321712E-1,-1.0298489E0,7.976971E-1,-2.3991745E0,-2.9590737E-2,-1.3632274E0,-2.3563051E-1,1.5591866E-2,5.7095487E-2,7.0552743E-4,-1.3384876E-2,1.6133164E-1,-5.118325E-1,-1.620181E-1,3.48457E-1,-1.3640915E0,8.7323254E-1,1.328749E0,1.16733514E-1,-1.6712788E-2,-2.6597636E0,-5.168742E-1,-1.6819538E0,3.0280897E-1,-5.3513116E-1,5.0035006E-1,-1.9165419E-1,-6.2328434E-1,2.0732976E-1,1.6299447E-1,-5.9108496E-1,1.3244548E0,2.521498E-1,-1.7223182E0,1.5705371E-2,3.7616517E-2,1.6789465E-3,9.750155E-1,3.022415E0,-1.7066935E0,3.7983683E-1,-4.7095966E-2,-9.641987E-2,-1.6026534E-3,-2.4241054E-2,-1.13825025E-2,-5.3920314E-2,-1.3905367E-3,2.0022588E-2,-4.4561676E-3,-2.3043085E-2,-9.435431E-3,2.3075756E-2,-2.4840813E-2,8.612324E-3,2.7081413E-2,-2.1503504E-2,3.0886851E-2,-2.3867935E-2,3.4584846E-2,-4.411374E-3,-4.3063767E-2,-6.320437E-3,3.01434E-2,1.1303006E-1,3.0871527E-2,4.233077E-3,-5.6166127E-2,-1.1035614E-3,3.829276E-2,-2.521566E-2,1.16672434E-1,2.5737984E-2,-1.1107058E-2,-6.271421E-2,8.6576186E-2,4.223975E-4],"categories":[],"categories_nodes":[],"categories_segments":[],"categories_sizes":[],"default_left":[0,0,0,0,0,0,0,0,0,0,0,0,0,0,0,0,0,0,0,0,0,0,0,0,0,0,0,0,0,0,0,0,0,0,0,0,0,0,0,0,0,0,0,0,0,0,0,0,0,0,0,0,0,0,0,0,0,0,0,0,0,0,0,0,0,0,0,0,0,0,0,0,0,0,0,0,0,0,0,0,0,0,0,0,0,0,0,0,0],"id":14,"left_children":[1,3,5,7,9,11,13,15,17,19,21,23,25,27,29,31,-1,33,35,-1,-1,-1,-1,37,39,41,43,45,47,49,51,-1,53,55,57,59,61,63,65,67,69,71,73,75,77,79,-1,-1,-1,81,83,85,87,-1,-1,-1,-1,-1,-1,-1,-1,-1,-1,-1,-1,-1,-1,-1,-1,-1,-1,-1,-1,-1,-1,-1,-1,-1,-1,-1,-1,-1,-1,-1,-1,-1,-1,-1,-1],"loss_changes":[6.384795E1,2.7435757E1,5.673167E1,1.492498E1,5.816466E0,6.608361E1,4.754918E1,6.4376144E0,8.257248E0,1.9280434E-2,1.6105649E-1,1.1268547E2,5.504325E1,1.1368624E1,5.011103E1,5.23864E0,0E0,2.637457E0,2.5809872E0,0E0,0E0,0E0,0E0,5.610085E1,4.2689926E1,4.4999928E1,5.7473343E1,1.0368315E1,8.631089E-1,4.3783386E1,3.0392746E1,0E0,2.2031326E0,6.3152957E-1,6.707573E-1,7.947809E-1,7.8655744E-1,5.2599552E1,7.030764E1,6.627968E1,6.0193142E1,5.663697E1,4.434479E1,3.917119E1,4.825378E1,2.9627838E0,0E0,0E0,0E0,3.718944E1,2.1049911E1,3.3292809E0,5.0372364E1,0E0,0E0,0E0,0E0,0E0,0E0,0E0,0E0,0E0,0E0,0E0,0E0,0E0,0E0,0E0,0E0,0E0,0E0,0E0,0E0,0E0,0E0,0E0,0E0,0E0,0E0,0E0,0E0,0E0,0E0,0E0,0E0,0E0,0E0,0E0,0E0],"parents":[2147483647,0,0,1,1,2,2,3,3,4,4,5,5,6,6,7,7,8,8,9,9,10,10,11,11,12,12,13,13,14,14,15,15,17,17,18,18,23,23,24,24,25,25,26,26,27,27,28,28,29,29,30,30,32,32,33,33,34,34,35,35,36,36,37,37,38,38,39,39,40,40,41,41,42,42,43,43,44,44,45,45,49,49,50,50,51,51,52,52],"right_children":[2,4,6,8,10,12,14,16,18,20,22,24,26,28,30,32,-1,34,36,-1,-1,-1,-1,38,40,42,44,46,48,50,52,-1,54,56,58,60,62,64,66,68,70,72,74,76,78,80,-1,-1,-1,82,84,86,88,-1,-1,-1,-1,-1,-1,-1,-1,-1,-1,-1,-1,-1,-1,-1,-1,-1,-1,-1,-1,-1,-1,-1,-1,-1,-1,-1,-1,-1,-1,-1,-1,-1,-1,-1,-1],"split_conditions":[-1.0354908E0,5.850966E-1,1.0580533E0,-2.675898E-2,-1.3694345E0,3.442161E-3,-6.143598E-1,7.2656137E-1,-4.1350377E-1,-1.6169437E0,-8.1042296E-1,-1.8368909E-1,-1.7944594E-1,3.1042424E-1,5.750765E-1,-1.4651588E0,-2.9590737E-2,-6.0241324E-1,-6.2779003E-1,1.5591866E-2,5.7095487E-2,7.0552743E-4,-1.3384876E-2,1.0903759E-1,8.397295E-1,-4.5085862E-1,-8.149283E-1,2.0178173E0,-4.9858806E-1,8.395874E-1,3.723834E-1,-1.6712788E-2,-1.2340528E0,-9.133875E-1,-1.6607579E0,-1.7384605E-1,2.2560124E-1,-7.15686E-1,5.441958E-1,-1.119468E0,1.1814779E0,-8.3033556E-1,-1.854486E-1,7.6957965E-1,-4.6180663E-1,7.6992136E-1,1.5705371E-2,3.7616517E-2,1.6789465E-3,1.2500556E0,1.8601309E0,5.207169E-1,5.772253E-1,-4.7095966E-2,-9.641987E-2,-1.6026534E-3,-2.4241054E-2,-1.13825025E-2,-5.3920314E-2,-1.3905367E-3,2.0022588E-2,-4.4561676E-3,-2.3043085E-2,-9.435431E-3,2.3075756E-2,-2.4840813E-2,8.612324E-3,2.7081413E-2,-2.1503504E-2,3.0886851E-2,-2.3867935E-2,3.4584846E-2,-4.411374E-3,-4.3063767E-2,-6.320437E-3,3.01434E-2,1.1303006E-1,3.0871527E-2,4.233077E-3,-5.6166127E-2,-1.1035614E-3,3.829276E-2,-2.521566E-2,1.16672434E-1,2.5737984E-2,-1.1107058E-2,-6.271421E-2,8.6576186E-2,4.223975E-4],"split_indices":[30,4,29,29,2,22,23,6,28,0,0,16,8,22,5,21,0,13,26,0,0,0,0,6,6,8,28,1,0,13,6,0,26,0,0,18,28,29,6,23,13,18,6,10,24,7,0,0,0,8,1,0,6,0,0,0,0,0,0,0,0,0,0,0,0,0,0,0,0,0,0,0,0,0,0,0,0,0,0,0,0,0,0,0,0,0,0,0,0],"split_type":[0,0,0,0,0,0,0,0,0,0,0,0,0,0,0,0,0,0,0,0,0,0,0,0,0,0,0,0,0,0,0,0,0,0,0,0,0,0,0,0,0,0,0,0,0,0,0,0,0,0,0,0,0,0,0,0,0,0,0,0,0,0,0,0,0,0,0,0,0,0,0,0,0,0,0,0,0,0,0,0,0,0,0,0,0,0,0,0,0],"sum_hessian":[2.136E3,5.1E1,2.085E3,4.6E1,5E0,1.932E3,1.53E2,2E1,2.6E1,3E0,2E0,9.97E2,9.35E2,1.5E1,1.38E2,1.3E1,7E0,1.2E1,1.4E1,1E0,2E0,1E0,1E0,4.67E2,5.3E2,3.21E2,6.14E2,1.3E1,2E0,7.7E1,6.1E1,2E0,1.1E1,4E0,8E0,5E0,9E0,2.38E2,2.29E2,4.59E2,7.1E1,1.83E2,1.38E2,5.4E1,5.6E2,1.1E1,2E0,1E0,1E0,6.5E1,1.2E1,7E0,5.4E1,5E0,6E0,2E0,2E0,1E0,7E0,3E0,2E0,4E0,5E0,5.9E1,1.79E2,9.8E1,1.31E2,2.6E1,4.33E2,3.9E1,3.2E1,4.3E1,1.4E2,4.2E1,9.6E1,4.9E1,5E0,6.9E1,4.91E2,1E1,1E0,5.6E1,9E0,8E0,4E0,2E0,5E0,6E0,4.8E1],"tree_param":{"num_deleted":"0","num_feature":"34","num_nodes":"89","size_leaf_vector":"1"}},{"base_weights":[1.6025691E-3,-2.310091E-1,1.2346142E-1,1.07818455E-1,-4.1559765E-1,1.0246307E-1,1.8294173E0,-8.08862E-1,4.4321012E-1,-9.271192E-1,-1.750842E-1,4.300579E-1,-1.0217114E-2,3.1208837E0,3.3468255E-1,2.6669922E0,-1.0599288E0,2.5423377E0,3.2543823E-1,-1.4173616E0,-6.1393507E-2,-1.0384568E-2,-1.1025681E0,-3.6329073E-1,8.36718E-1,4.8733768E-1,-1.0061825E-1,1.8735869E-2,1.1234728E-1,-4.7646486E-3,4.9837255E-1,-7.774711E-4,1.0040095E-1,5.5715173E-1,-1.4670835E0,9.3204804E-2,1.8958765E-1,7.230653E-1,-1.2683232E-1,1.7361039E-1,-1.6878101E0,-1.9226538E-1,6.9442935E-2,-2.8033647E-1,7.3394746E-1,-2.1905973E0,-3.4046322E-1,-5.383008E-1,2.1760137E0,1.4571497E0,4.754257E-1,-4.2659613E-1,6.944967E-1,-5.506378E-3,-5.2561504E-1,2.1386882E-2,-2.5290921E-2,-3.7527688E-2,4.2164218E-2,-5.9339095E-2,-1.091418E-2,1.6501145E-3,6.8813297E-3,1.5789393E-2,7.7651575E-2,-1.0549078E-2,4.3136593E-2,-4.987011E-2,3.7734535E-2,-3.1755347E-2,-7.215528E-2,1.4783341E-2,-2.2701781E-2,-2.7247183E-2,3.9626025E-3,4.747199E-2,-2.0417487E-3,-7.483252E-2,-2.340758E-2,-3.817662E-2,-4.365128E-5,1.8822206E-2,-2.6183888E-2,2.3303213E-2,7.5388946E-2,6.0546897E-2,1.0275775E-2,2.4524841E-2,-4.981491E-3,4.1429985E-2,-2.2734094E-2,2.7851826E-2,-1.4877812E-2,-9.075001E-3,1.05216205E-2,-6.912844E-2,-7.65182E-3,-4.331192E-3,3.1931007E-3],"categories":[],"categories_nodes":[],"categories_segments":[],"categories_sizes":[],"default_left":[0,0,0,0,0,0,0,0,0,0,0,0,0,0,0,0,0,0,0,0,0,0,0,0,0,0,0,0,0,0,0,0,0,0,0,0,0,0,0,0,0,0,0,0,0,0,0,0,0,0,0,0,0,0,0,0,0,0,0,0,0,0,0,0,0,0,0,0,0,0,0,0,0,0,0,0,0,0,0,0,0,0,0,0,0,0,0,0,0,0,0,0,0,0,0,0,0,0,0],"id":15,"left_children":[1,3,5,7,9,11,13,15,17,19,21,23,25,27,29,31,33,35,37,39,41,43,45,47,49,51,53,-1,-1,-1,55,-1,-1,57,59,-1,61,63,65,67,69,71,-1,73,75,77,79,81,83,85,87,89,91,93,95,-1,97,-1,-1,-1,-1,-1,-1,-1,-1,-1,-1,-1,-1,-1,-1,-1,-1,-1,-1,-1,-1,-1,-1,-1,-1,-1,-1,-1,-1,-1,-1,-1,-1,-1,-1,-1,-1,-1,-1,-1,-1,-1,-1],"loss_changes":[6.0603474E1,4.6014416E1,5.0071186E1,8.029471E1,5.839892E1,5.1203346E1,3.177229E1,6.3913834E1,4.639131E1,6.442413E1,4.963434E1,1.14835236E2,4.651288E1,1.1681305E1,8.0618775E-1,9.238659E0,4.427192E1,1.2692001E1,3.2821686E1,4.202977E1,1.7859495E1,5.586443E1,3.98846E1,5.4944218E1,5.1984177E1,3.0399681E1,3.536656E1,0E0,0E0,0E0,8.0439675E-1,0E0,0E0,2.3231758E1,2.9153831E1,0E0,3.448628E-3,3.4237278E1,3.0756493E1,3.1949137E1,3.49234E1,2.1253622E1,0E0,5.2948166E1,5.0461994E1,6.6235504E0,9.477739E0,4.499893E1,1.8197975E0,5.309253E1,3.3050076E1,1.9007177E1,3.665724E1,7.585689E1,7.64084E1,0E0,6.242581E-2,0E0,0E0,0E0,0E0,0E0,0E0,0E0,0E0,0E0,0E0,0E0,0E0,0E0,0E0,0E0,0E0,0E0,0E0,0E0,0E0,0E0,0E0,0E0,0E0,0E0,0E0,0E0,0E0,0E0,0E0,0E0,0E0,0E0,0E0,0E0,0E0,0E0,0E0,0E0,0E0,0E0,0E0],"parents":[2147483647,0,0,1,1,2,2,3,3,4,4,5,5,6,6,7,7,8,8,9,9,10,10,11,11,12,12,13,13,14,14,15,15,16,16,17,17,18,18,19,19,20,20,21,21,22,22,23,23,24,24,25,25,26,26,30,30,33,33,34,34,36,36,37,37,38,38,39,39,40,40,41,41,43,43,44,44,45,45,46,46,47,47,48,48,49,49,50,50,51,51,52,52,53,53,54,54,56,56],"right_children":[2,4,6,8,10,12,14,16,18,20,22,24,26,28,30,32,34,36,38,40,42,44,46,48,50,52,54,-1,-1,-1,56,-1,-1,58,60,-1,62,64,66,68,70,72,-1,74,76,78,80,82,84,86,88,90,92,94,96,-1,98,-1,-1,-1,-1,-1,-1,-1,-1,-1,-1,-1,-1,-1,-1,-1,-1,-1,-1,-1,-1,-1,-1,-1,-1,-1,-1,-1,-1,-1,-1,-1,-1,-1,-1,-1,-1,-1,-1,-1,-1,-1,-1],"split_conditions":[-2.8877136E-1,-5.0070864E-1,1.9590887E0,-2.3593482E-1,-4.8344344E-2,-5.931305E-1,-5.3412914E-1,-8.2607156E-1,-5.8594066E-1,2.1709329E-1,6.323037E-1,-7.9904616E-1,-5.5662113E-1,-1.8989909E0,1.1825455E0,-5.8594066E-1,-6.24887E-1,-5.849397E-1,2.2073708E-1,-5.8163315E-1,1.5178185E0,-8.211267E-2,-6.7480616E-2,-1.27105E-1,-2.1966165E-1,-8.526507E-1,4.185389E-1,1.8735869E-2,1.1234728E-1,-4.7646486E-3,1.3728867E0,-7.774711E-4,1.0040095E-1,-7.218446E-1,-7.670447E-2,9.3204804E-2,-4.2864898E-1,4.397118E-1,6.5070784E-1,-7.5580704E-1,-2.1372156E-1,-6.547299E-1,6.9442935E-2,-7.773139E-2,2.6476246E-1,3.4611945E0,4.189641E-3,-9.2020655E-1,3.2493487E-2,6.0776144E-1,5.312902E-2,-2.6648977E-1,5.863964E-1,-2.5770062E-1,4.5269248E-1,2.1386882E-2,-3.2913588E-2,-3.7527688E-2,4.2164218E-2,-5.9339095E-2,-1.091418E-2,1.6501145E-3,6.8813297E-3,1.5789393E-2,7.7651575E-2,-1.0549078E-2,4.3136593E-2,-4.987011E-2,3.7734535E-2,-3.1755347E-2,-7.215528E-2,1.4783341E-2,-2.2701781E-2,-2.7247183E-2,3.9626025E-3,4.747199E-2,-2.0417487E-3,-7.483252E-2,-2.340758E-2,-3.817662E-2,-4.365128E-5,1.8822206E-2,-2.6183888E-2,2.3303213E-2,7.5388946E-2,6.0546897E-2,1.0275775E-2,2.4524841E-2,-4.981491E-3,4.1429985E-2,-2.2734094E-2,2.7851826E-2,-1.4877812E-2,-9.075001E-3,1.05216205E-2,-6.912844E-2,-7.65182E-3,-4.331192E-3,3.1931007E-3],"split_indices":[29,6,11,3,13,18,23,24,1,30,17,11,17,1,5,1,30,7,14,15,4,24,22,24,0,14,7,0,0,0,8,0,0,24,0,0,0,24,3,1,10,29,0,23,10,4,28,24,5,29,13,6,22,7,6,0,0,0,0,0,0,0,0,0,0,0,0,0,0,0,0,0,0,0,0,0,0,0,0,0,0,0,0,0,0,0,0,0,0,0,0,0,0,0,0,0,0,0,0],"split_type":[0,0,0,0,0,0,0,0,0,0,0,0,0,0,0,0,0,0,0,0,0,0,0,0,0,0,0,0,0,0,0,0,0,0,0,0,0,0,0,0,0,0,0,0,0,0,0,0,0,0,0,0,0,0,0,0,0,0,0,0,0,0,0,0,0,0,0,0,0,0,0,0,0,0,0,0,0,0,0,0,0,0,0,0,0,0,0,0,0,0,0,0,0,0,0,0,0,0,0],"sum_hessian":[2.136E3,7.34E2,1.402E3,2.59E2,4.75E2,1.386E3,1.6E1,6.9E1,1.9E2,1.51E2,3.24E2,3.54E2,1.032E3,8E0,8E0,4E0,6.5E1,9E0,1.81E2,9.6E1,5.5E1,2.76E2,4.8E1,1.2E2,2.34E2,1.58E2,8.74E2,2E0,6E0,2E0,6E0,1E0,3E0,1.3E1,5.2E1,7E0,2E0,9.6E1,8.5E1,1.4E1,8.2E1,5.3E1,2E0,2.03E2,7.3E1,1.9E1,2.9E1,1.13E2,7E0,8.5E1,1.49E2,2.9E1,1.29E2,7.15E2,1.59E2,4E0,2E0,4E0,9E0,3.5E1,1.7E1,1E0,1E0,8.8E1,8E0,7.5E1,1E1,5E0,9E0,4.5E1,3.7E1,2.4E1,2.9E1,8E1,1.23E2,3.5E1,3.8E1,1.5E1,4E0,7E0,2.2E1,2.5E1,8.8E1,2E0,5E0,5.6E1,2.9E1,9.7E1,5.2E1,4E0,2.5E1,1.08E2,2.1E1,3.9E2,3.25E2,2E1,1.39E2,1E0,1E0],"tree_param":{"num_deleted":"0","num_feature":"34","num_nodes":"99","size_leaf_vector":"1"}},{"base_weights":[1.7311611E-3,-1.0593837E0,2.8181903E-2,-1.2927592E0,9.452872E-1,-1.6696952E-2,5.91316E-1,-1.9045538E0,-7.69039E-1,1.6438506E0,-3.0122638E-1,-1.8863845E-1,1.6665167E-1,-9.983948E-1,7.7005017E-1,-2.314673E0,-2.8463278E-2,-1.3186235E0,-2.4146302E-1,1.5200164E-2,5.562058E-2,5.3712016E-4,-1.4092307E-2,1.5473396E-1,-4.9091652E-1,-1.5497996E-1,3.347797E-1,-1.3252337E0,8.5965186E-1,1.2837183E0,1.1140226E-1,-1.6756661E-2,-2.560813E0,-4.903913E-1,-1.6322389E0,2.8279802E-1,-5.3187335E-1,2.648525E-1,-8.8626593E-1,-5.994796E-1,2.0949936E-1,1.5609963E-1,-5.656538E-1,1.2799078E0,2.4152333E-1,-1.6741273E0,1.5362566E-2,3.6894444E-2,1.7898874E-3,9.384288E-1,2.9379795E0,-1.6678319E0,3.6817446E-1,-8.108232E-2,-1.49935605E-2,-1.0814205E-3,-2.3438144E-2,-1.0870753E-2,-5.2370373E-2,-1.8504711E-3,1.9435177E-2,-4.479099E-3,-2.2861084E-2,9.4148945E-3,-6.96359E-2,-3.365936E-2,8.3631195E-2,2.2034392E-2,-2.1027928E-2,3.011156E-2,-2.278618E-2,3.3201136E-2,-4.2495043E-3,-4.1355167E-2,-5.9845787E-3,6.0302373E-2,9.698969E-3,1.147355E-2,-1.0192793E-2,-5.4612853E-2,-9.7223057E-4,3.6946364E-2,-2.478536E-2,1.1349702E-1,2.4867753E-2,4.2200065E-4,-5.7303376E-2,8.433709E-2,3.4955534E-4],"categories":[],"categories_nodes":[],"categories_segments":[],"categories_sizes":[],"default_left":[0,0,0,0,0,0,0,0,0,0,0,0,0,0,0,0,0,0,0,0,0,0,0,0,0,0,0,0,0,0,0,0,0,0,0,0,0,0,0,0,0,0,0,0,0,0,0,0,0,0,0,0,0,0,0,0,0,0,0,0,0,0,0,0,0,0,0,0,0,0,0,0,0,0,0,0,0,0,0,0,0,0,0,0,0,0,0,0,0],"id":16,"left_children":[1,3,5,7,9,11,13,15,17,19,21,23,25,27,29,31,-1,33,35,-1,-1,-1,-1,37,39,41,43,45,47,49,51,-1,53,55,57,59,61,63,65,67,69,71,73,75,77,79,-1,-1,-1,81,83,85,87,-1,-1,-1,-1,-1,-1,-1,-1,-1,-1,-1,-1,-1,-1,-1,-1,-1,-1,-1,-1,-1,-1,-1,-1,-1,-1,-1,-1,-1,-1,-1,-1,-1,-1,-1,-1],"loss_changes":[6.000963E1,2.5549744E1,5.2728962E1,1.3594551E1,5.7197833E0,6.0969715E1,4.4525715E1,6.0355377E0,7.5101852E0,1.6617775E-2,1.6974714E-1,1.0366234E2,5.066635E1,1.0855752E1,4.688437E1,4.621155E0,0E0,2.5762672E0,2.434175E0,0E0,0E0,0E0,0E0,5.388316E1,4.0502457E1,4.122453E1,5.38965E1,9.831699E0,8.150046E-1,4.1796448E1,2.893924E1,0E0,2.1595001E0,6.326356E-1,6.639385E-1,7.9445744E-1,7.667594E-1,5.443135E1,4.2097862E1,6.2767532E1,5.6175674E1,5.2236572E1,4.1096996E1,3.7767E1,4.608665E1,2.8232307E0,0E0,0E0,0E0,3.5155037E1,2.003891E1,3.2868023E0,4.787262E1,0E0,0E0,0E0,0E0,0E0,0E0,0E0,0E0,0E0,0E0,0E0,0E0,0E0,0E0,0E0,0E0,0E0,0E0,0E0,0E0,0E0,0E0,0E0,0E0,0E0,0E0,0E0,0E0,0E0,0E0,0E0,0E0,0E0,0E0,0E0,0E0],"parents":[2147483647,0,0,1,1,2,2,3,3,4,4,5,5,6,6,7,7,8,8,9,9,10,10,11,11,12,12,13,13,14,14,15,15,17,17,18,18,23,23,24,24,25,25,26,26,27,27,28,28,29,29,30,30,32,32,33,33,34,34,35,35,36,36,37,37,38,38,39,39,40,40,41,41,42,42,43,43,44,44,45,45,49,49,50,50,51,51,52,52],"right_children":[2,4,6,8,10,12,14,16,18,20,22,24,26,28,30,32,-1,34,36,-1,-1,-1,-1,38,40,42,44,46,48,50,52,-1,54,56,58,60,62,64,66,68,70,72,74,76,78,80,-1,-1,-1,82,84,86,88,-1,-1,-1,-1,-1,-1,-1,-1,-1,-1,-1,-1,-1,-1,-1,-1,-1,-1,-1,-1,-1,-1,-1,-1,-1,-1,-1,-1,-1,-1,-1,-1,-1,-1,-1,-1],"split_conditions":[-1.0354908E0,5.850966E-1,1.0580533E0,-2.675898E-2,-1.3694345E0,3.442161E-3,-6.143598E-1,7.2656137E-1,-4.1350377E-1,-1.6169437E0,-8.1042296E-1,-1.8368909E-1,-1.7944594E-1,3.1042424E-1,5.750765E-1,-1.4651588E0,-2.8463278E-2,-6.0241324E-1,-6.2779003E-1,1.5200164E-2,5.562058E-2,5.3712016E-4,-1.4092307E-2,5.717144E-1,8.397295E-1,-4.5085862E-1,-8.149283E-1,2.0178173E0,-4.9858806E-1,8.395874E-1,3.723834E-1,-1.6756661E-2,6.860005E-1,-9.133875E-1,-1.6607579E0,-1.7384605E-1,2.2560124E-1,6.050297E-1,8.789637E-1,-1.0449455E0,1.1814779E0,-8.3033556E-1,-1.854486E-1,-3.7734354E-1,6.2963945E-1,7.6992136E-1,1.5362566E-2,3.6894444E-2,1.7898874E-3,1.2500556E0,1.8601309E0,-1.2589116E0,5.772253E-1,-8.108232E-2,-1.49935605E-2,-1.0814205E-3,-2.3438144E-2,-1.0870753E-2,-5.2370373E-2,-1.8504711E-3,1.9435177E-2,-4.479099E-3,-2.2861084E-2,9.4148945E-3,-6.96359E-2,-3.365936E-2,8.3631195E-2,2.2034392E-2,-2.1027928E-2,3.011156E-2,-2.278618E-2,3.3201136E-2,-4.2495043E-3,-4.1355167E-2,-5.9845787E-3,6.0302373E-2,9.698969E-3,1.147355E-2,-1.0192793E-2,-5.4612853E-2,-9.7223057E-4,3.6946364E-2,-2.478536E-2,1.1349702E-1,2.4867753E-2,4.2200065E-4,-5.7303376E-2,8.433709E-2,3.4955534E-4],"split_indices":[30,4,29,29,2,22,23,6,28,0,0,16,8,22,5,21,0,13,26,0,0,0,0,25,6,8,28,1,0,13,6,0,7,0,0,18,28,17,7,23,13,18,6,23,29,7,0,0,0,8,1,0,6,0,0,0,0,0,0,0,0,0,0,0,0,0,0,0,0,0,0,0,0,0,0,0,0,0,0,0,0,0,0,0,0,0,0,0,0],"split_type":[0,0,0,0,0,0,0,0,0,0,0,0,0,0,0,0,0,0,0,0,0,0,0,0,0,0,0,0,0,0,0,0,0,0,0,0,0,0,0,0,0,0,0,0,0,0,0,0,0,0,0,0,0,0,0,0,0,0,0,0,0,0,0,0,0,0,0,0,0,0,0,0,0,0,0,0,0,0,0,0,0,0,0,0,0,0,0,0,0],"sum_hessian":[2.136E3,5.1E1,2.085E3,4.6E1,5E0,1.932E3,1.53E2,2E1,2.6E1,3E0,2E0,9.97E2,9.35E2,1.5E1,1.38E2,1.3E1,7E0,1.2E1,1.4E1,1E0,2E0,1E0,1E0,4.67E2,5.3E2,3.21E2,6.14E2,1.3E1,2E0,7.7E1,6.1E1,2E0,1.1E1,4E0,8E0,5E0,9E0,4.23E2,4.4E1,4.59E2,7.1E1,1.83E2,1.38E2,5.4E1,5.6E2,1.1E1,2E0,1E0,1E0,6.5E1,1.2E1,7E0,5.4E1,1E1,1E0,2E0,2E0,1E0,7E0,3E0,2E0,4E0,5E0,4.16E2,7E0,4.2E1,2E0,3.2E1,4.27E2,3.9E1,3.2E1,4.3E1,1.4E2,4.2E1,9.6E1,3E1,2.4E1,4.51E2,1.09E2,1E1,1E0,5.6E1,9E0,8E0,4E0,1E0,6E0,6E0,4.8E1],"tree_param":{"num_deleted":"0","num_feature":"34","num_nodes":"89","size_leaf_vector":"1"}},{"base_weights":[1.700858E-3,-1.0310936E0,2.7445637E-2,-1.2590575E0,9.2647284E-1,-1.8678783E-1,1.4002343E-1,-1.8541455E0,-7.495795E-1,1.6122403E0,-2.96708E-1,-1.2761684E-1,-1.0916243E0,1.19271286E-1,1.7821922E0,-2.253292E0,-2.7716117E-2,-1.2858157E0,-2.348695E-1,1.49721615E-2,5.450817E-2,5.2906334E-4,-1.3880922E-2,-2.978989E-1,2.6782936E-1,-2.1563134E0,-3.4140098E-1,4.4901773E-1,7.1699973E-3,3.0404725E0,3.2589048E-1,-1.6421527E-2,-2.4919949E0,-4.805835E-1,-1.5902984E0,2.7724487E-1,-5.186511E-1,-4.8823988E-1,2.854313E-1,5.383862E-1,-6.4740074E-1,-2.15146E-1,-2.3855126E0,6.684803E-2,-6.361052E-1,-3.8620245E-1,8.1911993E-1,5.584956E-1,-8.5894406E-2,1.8474277E-2,1.0935782E-1,-4.3571484E-3,4.81247E-1,-4.3606274E-2,-9.0782925E-2,-1.059792E-3,-2.2969382E-2,-1.0707693E-2,-5.0995648E-2,-1.8088354E-3,1.9046472E-2,-4.3716007E-3,-2.2289557E-2,-1.0652228E-2,-6.308005E-2,-4.5112707E-2,1.1870746E-2,5.02847E-3,3.872893E-2,-4.081545E-2,2.7806554E-3,-9.088598E-3,-5.9297204E-4,-8.227087E-2,-4.001109E-2,-6.0979526E-2,-5.5600866E-3,1.5956236E-2,-2.8520145E-2,3.281518E-2,2.5983327E-3,-3.0528923E-2,2.1217065E-2,4.9927927E-5,-1.6535453E-2,2.0731721E-2,-8.655777E-4],"categories":[],"categories_nodes":[],"categories_segments":[],"categories_sizes":[],"default_left":[0,0,0,0,0,0,0,0,0,0,0,0,0,0,0,0,0,0,0,0,0,0,0,0,0,0,0,0,0,0,0,0,0,0,0,0,0,0,0,0,0,0,0,0,0,0,0,0,0,0,0,0,0,0,0,0,0,0,0,0,0,0,0,0,0,0,0,0,0,0,0,0,0,0,0,0,0,0,0,0,0,0,0,0,0,0,0],"id":17,"left_children":[1,3,5,7,9,11,13,15,17,19,21,23,25,27,29,31,-1,33,35,-1,-1,-1,-1,37,39,41,43,45,47,49,51,-1,53,55,57,59,61,63,65,67,69,71,73,-1,75,77,79,81,83,-1,-1,-1,85,-1,-1,-1,-1,-1,-1,-1,-1,-1,-1,-1,-1,-1,-1,-1,-1,-1,-1,-1,-1,-1,-1,-1,-1,-1,-1,-1,-1,-1,-1,-1,-1,-1,-1],"loss_changes":[5.6849125E1,2.4371716E1,5.0336155E1,1.2859825E1,5.51127E0,3.8356E1,4.6406845E1,5.715889E0,7.1501675E0,4.673004E-3,1.6469294E-1,4.559986E1,3.4409027E1,4.997347E1,3.0160553E1,4.3367844E0,0E0,2.4230595E0,2.3237233E0,0E0,0E0,0E0,0E0,5.265733E1,5.08634E1,7.495224E0,2.1864302E1,1.0634342E2,5.186985E1,1.09528885E1,7.286319E-1,0E0,2.2571259E0,6.0758317E-1,6.094017E-1,7.625805E-1,7.283437E-1,7.6003494E1,2.367635E1,4.3870956E1,2.493121E1,4.5479327E-2,2.347908E0,0E0,1.5361263E1,5.543759E1,4.7799072E1,3.4946907E1,3.524097E1,0E0,0E0,0E0,7.691083E-1,0E0,0E0,0E0,0E0,0E0,0E0,0E0,0E0,0E0,0E0,0E0,0E0,0E0,0E0,0E0,0E0,0E0,0E0,0E0,0E0,0E0,0E0,0E0,0E0,0E0,0E0,0E0,0E0,0E0,0E0,0E0,0E0,0E0,0E0],"parents":[2147483647,0,0,1,1,2,2,3,3,4,4,5,5,6,6,7,7,8,8,9,9,10,10,11,11,12,12,13,13,14,14,15,15,17,17,18,18,23,23,24,24,25,25,26,26,27,27,28,28,29,29,30,30,32,32,33,33,34,34,35,35,36,36,37,37,38,38,39,39,40,40,41,41,42,42,44,44,45,45,46,46,47,47,48,48,52,52],"right_children":[2,4,6,8,10,12,14,16,18,20,22,24,26,28,30,32,-1,34,36,-1,-1,-1,-1,38,40,42,44,46,48,50,52,-1,54,56,58,60,62,64,66,68,70,72,74,-1,76,78,80,82,84,-1,-1,-1,86,-1,-1,-1,-1,-1,-1,-1,-1,-1,-1,-1,-1,-1,-1,-1,-1,-1,-1,-1,-1,-1,-1,-1,-1,-1,-1,-1,-1,-1,-1,-1,-1,-1,-1],"split_conditions":[-1.0354908E0,5.850966E-1,-2.8877136E-1,-2.675898E-2,-1.3694345E0,8.2573164E-1,1.9590887E0,7.2656137E-1,-4.1350377E-1,-1.6169437E0,-8.1042296E-1,1.8169786E-1,-6.7480616E-2,-5.931305E-1,-5.3412914E-1,-1.4651588E0,-2.7716117E-2,-6.0241324E-1,-6.2779003E-1,1.49721615E-2,5.450817E-2,5.2906334E-4,-1.3880922E-2,5.441958E-1,4.1556892E-1,-2.0851888E-1,-5.0623363E-1,-7.2678643E-1,-5.5662113E-1,-1.8989909E0,1.1825455E0,-1.6421527E-2,-1.2340528E0,-9.133875E-1,-1.6607579E0,-1.7384605E-1,2.2560124E-1,6.175712E-1,-7.145442E-2,9.8127864E-2,5.7780117E-1,-1.4256371E0,7.23854E-1,6.684803E-2,9.991432E-1,-4.871077E-1,7.3053086E-1,-1.0803777E0,8.324474E-1,1.8474277E-2,1.0935782E-1,-4.3571484E-3,1.3728867E0,-4.3606274E-2,-9.0782925E-2,-1.059792E-3,-2.2969382E-2,-1.0707693E-2,-5.0995648E-2,-1.8088354E-3,1.9046472E-2,-4.3716007E-3,-2.2289557E-2,-1.0652228E-2,-6.308005E-2,-4.5112707E-2,1.1870746E-2,5.02847E-3,3.872893E-2,-4.081545E-2,2.7806554E-3,-9.088598E-3,-5.9297204E-4,-8.227087E-2,-4.001109E-2,-6.0979526E-2,-5.5600866E-3,1.5956236E-2,-2.8520145E-2,3.281518E-2,2.5983327E-3,-3.0528923E-2,2.1217065E-2,4.9927927E-5,-1.6535453E-2,2.0731721E-2,-8.655777E-4],"split_indices":[30,4,29,29,2,17,11,6,28,0,0,30,22,18,23,21,0,13,26,0,0,0,0,6,1,30,23,10,17,1,5,0,26,0,0,18,28,7,13,18,0,0,31,0,10,25,12,8,23,0,0,0,8,0,0,0,0,0,0,0,0,0,0,0,0,0,0,0,0,0,0,0,0,0,0,0,0,0,0,0,0,0,0,0,0,0,0],"split_type":[0,0,0,0,0,0,0,0,0,0,0,0,0,0,0,0,0,0,0,0,0,0,0,0,0,0,0,0,0,0,0,0,0,0,0,0,0,0,0,0,0,0,0,0,0,0,0,0,0,0,0,0,0,0,0,0,0,0,0,0,0,0,0,0,0,0,0,0,0,0,0,0,0,0,0,0,0,0,0,0,0,0,0,0,0,0,0],"sum_hessian":[2.136E3,5.1E1,2.085E3,4.6E1,5E0,7.18E2,1.367E3,2E1,2.6E1,3E0,2E0,6.75E2,4.3E1,1.351E3,1.6E1,1.3E1,7E0,1.2E1,1.4E1,1E0,2E0,1E0,1E0,4.72E2,2.03E2,1.7E1,2.6E1,3.42E2,1.009E3,8E0,8E0,2E0,1.1E1,4E0,8E0,5E0,9E0,3.56E2,1.16E2,1.57E2,4.6E1,2E0,1.5E1,2E0,2.4E1,1.05E2,2.37E2,1.45E2,8.64E2,2E0,6E0,2E0,6E0,5E0,6E0,2E0,2E0,1E0,7E0,3E0,2E0,4E0,5E0,3.3E2,2.6E1,6E0,1.1E2,1.06E2,5.1E1,2.3E1,2.3E1,1E0,1E0,1E1,5E0,5E0,1.9E1,4E1,6.5E1,1.72E2,6.5E1,1.2E1,1.33E2,7.28E2,1.36E2,4E0,2E0],"tree_param":{"num_deleted":"0","num_feature":"34","num_nodes":"87","size_leaf_vector":"1"}},{"base_weights":[1.5047324E-3,-1.0043445E0,2.6577912E-2,-1.2271088E0,9.080334E-1,-1.6766595E-2,5.7046336E-1,-1.8070225E0,-7.306164E-1,4.743729E-2,-2.9225737E-1,-1.8393572E-1,1.6149361E-1,1.0648723E0,2.157699E-2,-2.1964657E0,-2.698857E-2,-1.253836E0,-2.2845164E-1,5.2112737E-4,-1.36727085E-2,1.4737743E-1,-4.7559413E-1,-1.4678493E-1,3.2263866E-1,7.1277094E-1,2.450736E0,-3.1284282E-1,1.2534014E0,-1.6093098E-2,-2.4284341E0,-4.709718E-1,-1.5494455E0,2.7180046E-1,-5.0575775E-1,4.7103873E-1,-1.8958965E-1,-8.214177E-1,-2.641557E-1,1.8452492E-1,-5.0941205E-1,1.073525E0,2.0996414E-1,2.101264E0,2.9853693E-1,3.0887337E0,-2.3544046E-1,2.1152498E-1,-1.0863594E0,2.052576E0,-6.733401E-2,-4.2516116E-2,-8.844851E-2,-1.0385962E-3,-2.2509994E-2,-1.0547077E-2,-4.9657013E-2,-1.7681369E-3,1.8665545E-2,-4.2666825E-3,-2.1732317E-2,2.6296063E-3,3.0369425E-2,-2.3842398E-2,7.971431E-3,-1.6693931E-2,-5.5254288E-2,-1.2786615E-2,1.9655189E-2,-5.5379015E-3,3.1265717E-2,1.0185144E-1,-1.8284038E-2,-6.97214E-2,3.571313E-2,-2.5676864E-3,2.0972269E-2,-1.5040876E-2,6.9689326E-2,1.8359037E-2,-3.8008895E-2,3.5075717E-2,9.994355E-2,-2.1616057E-2,4.9930853E-3,9.982744E-2,-2.0892748E-3,-3.3355562E-3,-5.3249113E-2,-1.4809967E-3,7.752697E-2,-1.4659841E-2,1.1124805E-2],"categories":[],"categories_nodes":[],"categories_segments":[],"categories_sizes":[],"default_left":[0,0,0,0,0,0,0,0,0,0,0,0,0,0,0,0,0,0,0,0,0,0,0,0,0,0,0,0,0,0,0,0,0,0,0,0,0,0,0,0,0,0,0,0,0,0,0,0,0,0,0,0,0,0,0,0,0,0,0,0,0,0,0,0,0,0,0,0,0,0,0,0,0,0,0,0,0,0,0,0,0,0,0,0,0,0,0,0,0,0,0,0,0],"id":18,"left_children":[1,3,5,7,9,11,13,15,17,-1,19,21,23,25,27,29,-1,31,33,-1,-1,35,37,39,41,43,45,47,49,-1,51,53,55,57,59,61,63,65,67,69,71,73,75,77,79,81,83,85,87,89,91,-1,-1,-1,-1,-1,-1,-1,-1,-1,-1,-1,-1,-1,-1,-1,-1,-1,-1,-1,-1,-1,-1,-1,-1,-1,-1,-1,-1,-1,-1,-1,-1,-1,-1,-1,-1,-1,-1,-1,-1,-1,-1],"loss_changes":[5.3921494E1,2.3266754E1,4.9185863E1,1.2212128E1,5.310414E0,5.763234E1,4.1768673E1,5.4450455E0,6.807604E0,0E0,1.597892E-1,9.65071E1,4.6545555E1,3.7778313E1,3.0876156E1,4.0883408E0,0E0,2.2787418E0,2.2183094E0,0E0,0E0,5.1130886E1,3.860994E1,3.877971E1,5.180713E1,3.733332E1,2.8147598E1,2.4160614E1,1.702618E1,0E0,2.1299362E0,5.835229E-1,5.5856323E-1,7.3198354E-1,6.918521E-1,4.9507824E1,6.3583168E1,5.3316696E1,4.9595207E1,5.369491E1,6.2231422E1,3.454418E1,7.754329E1,9.820213E0,2.6290508E1,2.1616898E0,8.997162E-1,3.1772556E1,1.5919031E1,1.1302692E1,1.4734728E0,0E0,0E0,0E0,0E0,0E0,0E0,0E0,0E0,0E0,0E0,0E0,0E0,0E0,0E0,0E0,0E0,0E0,0E0,0E0,0E0,0E0,0E0,0E0,0E0,0E0,0E0,0E0,0E0,0E0,0E0,0E0,0E0,0E0,0E0,0E0,0E0,0E0,0E0,0E0,0E0,0E0,0E0],"parents":[2147483647,0,0,1,1,2,2,3,3,4,4,5,5,6,6,7,7,8,8,10,10,11,11,12,12,13,13,14,14,15,15,17,17,18,18,21,21,22,22,23,23,24,24,25,25,26,26,27,27,28,28,30,30,31,31,32,32,33,33,34,34,35,35,36,36,37,37,38,38,39,39,40,40,41,41,42,42,43,43,44,44,45,45,46,46,47,47,48,48,49,49,50,